iteration,mean,std
0,-5806754.181586056,2279.9253653593173
10,-5800266.292004768,295.3480998793958
20,-5799789.486874947,172.81175605743
30,-5799785.604852741,144.22102125462484
40,-5799653.978617251,87.68361207371868
50,-5799629.230013808,117.80553136722608
60,-5799609.839467263,134.4477975802702
70,-5799544.337423306,91.02896896845755
80,-5799574.7609347105,95.70478534054666
90,-5799557.520034742,93.93907691608985
100,-5799572.799311375,101.85099842146101
110,-5799525.161747539,94.87468693527637
120,-5799550.785322244,83.44011801160116
130,-5799524.019927712,84.46140134609793
140,-5799498.489649756,77.80712638604514
150,-5799507.774958253,54.324144775872675
160,-5799493.517786284,91.77009355822332
170,-5799505.186695447,77.30853389692966
180,-5799531.106660123,110.80407574435014
190,-5799489.904864149,76.78332870662214
200,-5799486.8810766805,64.35055452242574
210,-5799493.537766767,90.38609751112337
220,-5799465.773409624,58.04239091994738
230,-5799465.496367192,55.712987359509675
240,-5799539.150817848,90.47909144598746
250,-5799467.290020124,69.51351496650834
260,-5799455.672543233,74.00299767232164
270,-5799521.13668037,130.4222255926828
280,-5799507.426136406,87.85410888850795
290,-5799508.412832327,108.64576901910988
300,-5799478.462405343,76.10785881371687
310,-5799469.18389022,76.38002515646919
320,-5799461.854518406,70.0233863501809
330,-5799485.0301556885,96.25664856331603
340,-5799513.4135938715,114.88041000616185
350,-5799501.133569352,99.180103007128
360,-5799484.698176969,66.8081799015353
370,-5799495.607614378,81.15015660518137
380,-5799479.9343447145,91.198111578008
390,-5799488.792218028,84.85643983870449
400,-5799466.46792397,63.27425879303182
410,-5799505.077225099,88.05757994714718
420,-5799498.821863804,57.502409894838046
430,-5799448.153280002,43.19155242192479
440,-5799535.00544409,84.89040016510319
450,-5799500.771826895,83.11348136004409
460,-5799481.452153005,86.48044189995855
470,-5799471.653943585,78.74891890065085
480,-5799480.148872627,65.41648025622717
490,-5799480.81778661,54.71005563792135
500,-5799472.895403457,58.45945165570557
510,-5799479.912947069,76.64622173486056
520,-5799492.945356538,103.0144350049836
530,-5799471.831706287,81.69832181444134
540,-5799477.54667501,90.85476251409817
550,-5799495.687557087,84.2738752724258
560,-5799479.513747837,90.92065621428874
570,-5799474.999537525,63.02844840368945
580,-5799495.180476264,92.17823632454282
590,-5799456.449535593,56.953274059715746
600,-5799510.281518636,81.7270024903234
610,-5799485.499648927,98.10316881123822
620,-5799471.499016499,70.93161472062913
630,-5799510.435712409,56.610498383331915
640,-5799468.157678703,89.15670216527698
650,-5799469.956744248,63.060932255625204
660,-5799489.168242631,65.08918198181571
670,-5799475.198829121,86.48468937401769
680,-5799451.309434364,86.29388846984389
690,-5799490.65818209,96.83298913468833
700,-5799448.915143395,88.53288897444492
710,-5799471.243246382,87.61363252781292
720,-5799491.7621575445,57.009645999600714
730,-5799458.116221182,68.94615154732348
740,-5799479.311805076,85.5121030573493
750,-5799488.4839310385,79.22051866504532
760,-5799494.421377601,73.39150655420383
770,-5799518.7147193905,104.51312080950093
780,-5799482.015603301,74.38251042738096
790,-5799489.4411877105,92.21675381119009
800,-5799487.373422168,68.42510556633832
810,-5799465.369360926,79.83103395468041
820,-5799475.057587581,58.801371055170264
830,-5799480.094256742,82.79394270012693
840,-5799506.971856312,90.6614608893699
850,-5799513.62713902,106.36619245264217
860,-5799480.57196119,77.65417976513253
870,-5799497.243484108,106.17556694186234
880,-5799467.446443608,76.24901099786123
890,-5799483.758627057,87.9386813100173
900,-5799522.678659079,103.02815632028415
910,-5799500.654315701,78.61117403708957
920,-5799470.187771386,53.76897736767761
930,-5799474.296320433,84.12748307957736
940,-5799484.54236082,71.57751922893877
950,-5799487.392388757,74.59881026654556
960,-5799436.426977691,88.49619239012148
970,-5799500.314847315,74.25976049772548
980,-5799464.908912366,80.89189288527999
990,-5799539.212465698,94.7406649413379
1000,-5799496.89344712,66.47515167263388
1010,-5799514.809122043,69.27195095124223
1020,-5799512.696486451,97.57154614403106
1030,-5799493.284845549,75.18042443239422
1040,-5799465.284403499,62.83300627939057
1050,-5799501.844232393,79.69845250813196
1060,-5799483.669745357,100.17546393979704
1070,-5799485.229320445,60.16815078054752
1080,-5799485.302284041,90.86906753661147
1090,-5799477.11882094,73.9549140812271
1100,-5799472.2178278,85.69546560846668
1110,-5799478.9984327555,67.9723762328675
1120,-5799495.019409544,90.59901041443727
1130,-5799478.707065154,66.47255473743368
1140,-5799470.375335803,61.774341517554106
1150,-5799499.657768573,79.27377389386962
1160,-5799503.159812026,84.51700367341634
1170,-5799483.51094499,98.63892404002334
1180,-5799507.760817408,99.7760121306631
1190,-5799465.991870112,89.17030509185717
1200,-5799462.025918801,54.815500527572716
1210,-5799485.737711811,83.82191163388397
1220,-5799462.608600803,51.36204219170094
1230,-5799471.7173582185,88.42752981901477
1240,-5799488.668529015,69.9596692317538
1250,-5799487.97433912,69.70020860448548
1260,-5799477.003721892,73.2410380868422
1270,-5799488.497826612,97.5411599896876
1280,-5799476.3648633305,73.64229106227225
1290,-5799504.200012935,84.42667912836015
1300,-5799457.093812736,61.18873184436245
1310,-5799470.822825923,74.5775132697778
1320,-5799500.074213738,84.05289724131215
1330,-5799483.982360409,78.07611922978484
1340,-5799483.683055776,68.21970125020454
1350,-5799475.243027713,71.40804273083378
1360,-5799514.431653344,80.63721631898578
1370,-5799458.9405248165,78.71357054558038
1380,-5799476.518767154,72.68641515604182
1390,-5799493.041129406,82.5711519549904
1400,-5799495.700296097,89.47818498898282
1410,-5799486.239218646,66.01166167661972
1420,-5799499.972693162,68.50381460325222
1430,-5799473.690496929,83.644536855425
1440,-5799507.387544585,66.60083091266164
1450,-5799489.107607527,74.09737499365484
1460,-5799503.271137861,66.55417273737895
1470,-5799504.688564053,82.83218720742067
1480,-5799455.805210836,63.15878999880115
1490,-5799488.375171028,72.42792182452378
1500,-5799457.686831371,87.22596491332374
1510,-5799513.045917122,59.75865798624282
1520,-5799459.187702859,74.21184596243943
1530,-5799464.205933414,67.59523330380277
1540,-5799492.030828098,80.80083017833334
1550,-5799462.254051412,63.85534368233014
1560,-5799496.361277452,74.2075769195947
1570,-5799500.558648588,82.09632722999139
1580,-5799526.36092382,100.65999326975691
1590,-5799484.26342005,68.8753452260387
1600,-5799510.583790241,99.04938037714717
1610,-5799494.286244274,88.80499549923904
1620,-5799472.637899012,85.61474417975894
1630,-5799468.795510498,86.71751454881982
1640,-5799487.273271935,60.735152084199036
1650,-5799471.35078945,89.72810937168062
1660,-5799518.977555804,103.94383192282973
1670,-5799486.455497983,89.73024434374248
1680,-5799464.675138171,66.24545203966453
1690,-5799483.896284876,80.16075727996129
1700,-5799463.618892791,51.65504776861272
1710,-5799474.347072644,85.1684009758642
1720,-5799492.035013139,93.76927105858567
1730,-5799455.321874935,68.3798421862857
1740,-5799464.975453135,63.12361772336439
1750,-5799470.037147437,91.04280449717714
1760,-5799510.240243521,62.69997036693295
1770,-5799478.775547299,75.40672071019667
1780,-5799479.807199575,79.81440048957606
1790,-5799474.167569691,79.7460186729034
1800,-5799494.70120232,112.33394521666837
1810,-5799492.437295056,81.63660966225122
1820,-5799498.677845063,74.63668587918838
1830,-5799489.734395443,75.55620707011
1840,-5799507.105373711,92.80741612274524
1850,-5799505.65144008,90.10874851643662
1860,-5799472.948067729,89.81313688121452
1870,-5799462.834615675,72.94135732086157
1880,-5799470.554256733,67.36471620261224
1890,-5799483.603446548,70.13764196083355
1900,-5799523.468378336,101.1377911971749
1910,-5799491.0272929575,112.1605410143769
1920,-5799518.267840388,91.69183125147575
1930,-5799487.847143278,70.67707694050921
1940,-5799467.53771791,79.00068701315872
1950,-5799497.052809776,83.54220788158882
1960,-5799503.326653141,104.03661747049235
1970,-5799480.651205708,74.0206586228983
1980,-5799473.071881517,81.58398947674156
1990,-5799469.410414755,87.64584208452064
2000,-5799468.982924544,80.61993970128587
2010,-5799436.85367584,60.02016149648768
2020,-5799495.335034945,83.33419656013923
2030,-5799475.536024311,55.76525978779716
2040,-5799481.8389993,75.9126099457759
2050,-5799494.633011888,90.93215443416655
2060,-5799453.840751903,48.04779590646387
2070,-5799459.67942388,64.90115611568284
2080,-5799473.489108923,77.867322641423
2090,-5799459.026105991,86.04138385502807
2100,-5799491.152480152,82.82383490729133
2110,-5799475.541428072,70.34746986294665
2120,-5799454.965453219,73.65256783310015
2130,-5799501.215888254,110.85962406211782
2140,-5799495.381650768,102.78933944730844
2150,-5799482.986014589,77.2080717609338
2160,-5799461.957578118,62.72272307270443
2170,-5799473.177339633,61.07187772762954
2180,-5799456.844085414,84.07231294490533
2190,-5799479.626965069,71.23215726333007
2200,-5799476.13575021,75.2324716286911
2210,-5799470.433888626,76.43477258249017
2220,-5799465.254682402,73.95617289987406
2230,-5799475.724251399,48.364476164255834
2240,-5799471.099558754,83.79731927904822
2250,-5799493.671814045,71.11727685447185
2260,-5799476.436214769,64.29588096017191
2270,-5799455.685135188,78.05136785968295
2280,-5799479.012607073,97.10649279623051
2290,-5799489.052189837,81.30195965516387
2300,-5799461.145849876,88.29543147398827
2310,-5799473.383696897,89.47716505095774
2320,-5799455.896746407,87.01277006272485
2330,-5799475.307500234,58.86674811657513
2340,-5799501.291018855,76.54756559656023
2350,-5799439.760998126,71.65037839227244
2360,-5799487.736807993,95.05497474975503
2370,-5799443.996293361,61.13101617175855
2380,-5799484.085145469,88.79815496458819
2390,-5799487.476117818,65.91337798212432
2400,-5799483.4788446585,76.6209320771902
2410,-5799480.77492799,90.16663172804252
2420,-5799468.956750949,87.58147531849743
2430,-5799500.145408639,85.67181512846746
2440,-5799464.9155921405,67.47337390228851
2450,-5799461.171004342,72.15321851832753
2460,-5799455.8975933865,72.06045423604898
2470,-5799464.308281912,88.27064310240834
2480,-5799484.902850566,65.47421798673666
2490,-5799474.264285853,73.02672143805111
2500,-5799489.932103893,61.05711959895065
2510,-5799465.270518178,73.86220101205303
2520,-5799476.020707624,98.37572171635584
2530,-5799467.995891766,72.90436081115608
2540,-5799476.4853299325,74.67257134648399
2550,-5799478.57535754,61.85268663225197
2560,-5799472.140241693,81.45059594854231
2570,-5799467.477782686,71.75394652843806
2580,-5799485.832085175,83.98584191478686
2590,-5799473.541096182,69.64189254929892
2600,-5799476.800253091,72.66831436363933
2610,-5799465.855007618,80.29828534236138
2620,-5799488.119972858,75.82577649952019
2630,-5799472.82251746,88.24152583024818
2640,-5799479.782712696,58.26077133464497
2650,-5799496.331009989,96.2573555210078
2660,-5799485.21189993,95.60009263236432
2670,-5799464.933774625,67.90255665412425
2680,-5799456.5265264865,46.78993523579843
2690,-5799478.97879451,98.33418279667983
2700,-5799509.0111318,78.30958820422299
2710,-5799494.471549638,70.19896621461959
2720,-5799478.395363094,75.81312878807258
2730,-5799473.769952016,72.04349101791185
2740,-5799482.020330177,61.355875028463
2750,-5799481.448278367,83.2779211649215
2760,-5799487.831909573,75.36938274359545
2770,-5799459.39434686,57.325375250993915
2780,-5799528.197930249,101.44013497302139
2790,-5799485.581725335,72.92165534365822
2800,-5799461.000745885,89.78645491598542
2810,-5799491.637160261,86.2612222607824
2820,-5799441.519094629,52.27370110192085
2830,-5799458.857761046,93.80913792583547
2840,-5799478.437261514,80.88843170434679
2850,-5799484.771836764,85.05271162582116
2860,-5799473.143300087,73.3826640652663
2870,-5799477.5939300945,81.60982145759138
2880,-5799461.3750080615,66.95295204122343
2890,-5799467.475560764,66.04876505187174
2900,-5799464.739413535,74.47636389031416
2910,-5799459.7352326,68.68479711688131
2920,-5799488.3322110195,70.7607246908189
2930,-5799496.72682422,107.43770501861529
2940,-5799485.74299551,101.44222051186145
2950,-5799474.339549685,80.11851589673107
2960,-5799490.502008687,104.93594850887683
2970,-5799488.231114381,99.6107432854739
2980,-5799471.950781738,42.29523371879524
2990,-5799476.389334503,102.12247055434666
3000,-5799492.230219361,69.51638474129709
