iteration,mean,std
0,-5807873.6697104275,3273.0586469267114
10,-5800061.416958255,1777.200965804066
20,-5796761.298759682,7833.258380247095
30,-5793988.852250317,14095.269939991918
40,-5791244.048633379,20362.34096560619
50,-5788721.899653086,26414.961902027273
60,-5786138.546013218,32449.35691510135
70,-5783584.154058745,38325.98122422323
80,-5781058.205351398,44175.22004386377
90,-5778597.785785155,50001.943999189345
100,-5776106.608887087,55920.8129486011
110,-5773610.074855069,61789.427297066984
120,-5771152.18151114,67610.28377373877
130,-5768727.978738614,73473.76971548756
140,-5766234.483317455,79333.25966730528
150,-5763793.506598373,85167.25163181545
160,-5761349.3457339015,91084.95043586346
170,-5758867.3106734725,96904.76759750472
180,-5756333.572944262,102794.15293699615
190,-5753878.141849911,108659.64291489935
200,-5751437.771024508,114552.56271326939
210,-5748981.327980844,120377.61981766648
220,-5746504.180144583,126271.93132858798
230,-5744094.255690477,132051.81085741517
240,-5741634.884769118,137984.10509114404
250,-5739158.408171149,143822.8631619373
260,-5736720.768004668,149652.22635540096
270,-5734280.5926917475,155432.26706211996
280,-5731798.929484948,161266.10560137554
290,-5729355.084011859,167089.39752028446
300,-5726933.102438813,172814.46309180732
310,-5724561.71877395,178553.50029483534
320,-5722149.827183416,184275.60112325728
330,-5719726.962782885,189973.68866442013
340,-5717390.685477684,195650.02689042673
350,-5714995.751338533,201288.81904585203
360,-5712644.793656635,206891.87227538018
370,-5710291.611961043,212487.1718780152
380,-5707930.019519952,218012.84573948072
390,-5705686.49208186,223507.29957041267
400,-5703365.569360709,228954.37025282552
410,-5701096.86938011,234375.1999123375
420,-5698876.77125907,239721.8926806317
430,-5696600.240065656,245067.06777672382
440,-5694374.849816116,250295.9418271135
450,-5692219.234187467,255524.77334951755
460,-5690018.147393181,260728.54455839284
470,-5687846.576068425,265849.45304017275
480,-5685744.417005963,270876.1226270302
490,-5683667.9432535125,275977.54697022826
500,-5681539.0696466435,280963.8763715428
510,-5679401.545725894,285929.16383325146
520,-5677370.017808123,290901.38948782044
530,-5675212.42071125,295878.44134838146
540,-5673176.205226118,300829.2965082568
550,-5671079.978096139,305799.9185795583
560,-5669018.788854069,310755.821945378
570,-5666948.90753801,315766.7708952778
580,-5664833.162433917,320666.70967374434
590,-5662830.514194688,325516.4747727285
600,-5660816.763422689,330317.6949513621
610,-5658819.005619258,335025.9340440066
620,-5656793.134322228,339672.04257115565
630,-5654891.546086413,344284.68530329084
640,-5652992.743257219,348786.215318955
650,-5651121.46071029,353184.94405769143
660,-5649310.457810659,357565.3076775453
670,-5647549.829402479,361840.1008931754
680,-5645804.452935257,366039.37377336365
690,-5644039.187630382,370119.28214810963
700,-5642354.666117018,374176.61961211753
710,-5640693.7637576945,378115.0429698865
720,-5639061.47649735,382028.21609294356
730,-5637434.871615859,385824.24924348
740,-5635908.935806006,389508.9565122807
750,-5634397.412948414,393128.0607230633
760,-5632885.383458735,396653.644409969
770,-5631455.153465876,400118.77567416447
780,-5630031.813373765,403531.7055508315
790,-5628641.517709338,406761.58034510084
800,-5627302.170865132,410019.1558927186
810,-5625992.777223879,413115.9955306406
820,-5624747.934608681,416198.9873834639
830,-5623422.714103713,419143.3694600599
840,-5622234.275140176,422039.8292146287
850,-5621069.951678178,424826.7520116219
860,-5619916.637575014,427581.08166242286
870,-5618813.129687151,430228.0201768544
880,-5617762.652025456,432770.0132566477
890,-5616713.266837412,435269.6127972156
900,-5615682.839103831,437659.353695246
910,-5614704.753471748,440004.84022505896
920,-5613759.6164507065,442213.3563055071
930,-5612872.5222872645,444426.5218337103
940,-5611966.390503243,446503.51825152285
950,-5611157.806724595,448470.405814987
960,-5610286.854844181,450458.56623505894
970,-5609583.1511600325,452311.27635275654
980,-5608757.122610343,454099.62327652395
990,-5608046.119423673,455773.33103807806
1000,-5607375.319447528,457422.11468087905
1010,-5606690.332208992,459012.63551256736
1020,-5606068.024784382,460514.8878098539
1030,-5605537.373262663,461923.62613609567
1040,-5604930.106296698,463279.0597436375
1050,-5604383.173569186,464564.035158313
1060,-5603868.942545859,465852.81098446454
1070,-5603361.817782327,466976.2378099923
1080,-5602961.415027626,468067.7659403686
1090,-5602453.510499495,469102.29774331715
1100,-5602140.941949557,470078.84705506347
1110,-5601712.64376569,471020.75771816197
1120,-5601345.738902902,471837.89313838375
1130,-5600970.654894667,472631.6554110234
1140,-5600677.132575802,473405.8944159189
1150,-5600398.758589777,474114.8104346696
1160,-5600129.866752453,474704.5369950489
1170,-5599874.4305047,475347.535871902
1180,-5599657.415881647,475793.0365510375
1190,-5599468.7084147055,476335.22718348575
1200,-5599302.35131371,476761.713577986
1210,-5599085.589687261,477226.6384617147
1220,-5598917.450233996,477620.8514684424
1230,-5598810.219696794,477929.72837654373
1240,-5598652.833378899,478172.3116359555
1250,-5598562.972587485,478480.8885725432
1260,-5598402.759378958,478752.9140807029
1270,-5598374.229052078,478951.8044720724
1280,-5598316.344033493,479117.9079202356
1290,-5598186.173442286,479308.4523685955
1300,-5598159.380188486,479413.09830581746
1310,-5598111.809901251,479525.2109950944
1320,-5598091.390913631,479585.5039519224
1330,-5598089.230995014,479638.0793710545
1340,-5598025.616765778,479681.45502805983
1350,-5597987.206592699,479789.44779414876
1360,-5597988.589939102,479792.0167464559
1370,-5597969.37758165,479800.6429338911
1380,-5597949.501863183,479907.16798412334
1390,-5597959.501898627,479881.5840149588
1400,-5597941.653687306,479936.29980834405
1410,-5597977.853695045,479875.68952830695
1420,-5597945.713624351,479897.5484982843
1430,-5597958.231721562,479863.6767025382
1440,-5597910.059736129,479993.80332736555
1450,-5597945.91003001,480060.0377777357
1460,-5597911.610008597,480010.2377296
1470,-5597914.289562625,479926.35157061537
1480,-5597956.473482808,479840.3756934487
1490,-5598001.085303539,479776.00083388353
1500,-5597942.0368396845,479897.0902474877
1510,-5597947.643318368,479953.40573637397
1520,-5597913.974069741,480002.92705077806
1530,-5597895.09010002,479971.87502055435
1540,-5597946.57872669,479991.6894877762
1550,-5597964.867416178,479883.24278751307
1560,-5597920.211825607,479935.4534971327
1570,-5597948.154208229,479914.55803123344
1580,-5597928.4843604,479940.63876883977
1590,-5597899.36354395,479985.4885956949
1600,-5597929.782389689,479948.299628454
1610,-5597927.179722557,479865.78515055473
1620,-5597980.095430056,479883.19816452893
1630,-5597850.340428955,480059.1484817165
1640,-5597882.517465595,480005.19519419136
1650,-5597957.132467399,479893.13256354944
1660,-5597937.928071545,479917.97538365313
1670,-5597879.451186778,479996.2315970086
1680,-5597881.45000221,479992.23919751216
1690,-5597892.148221796,480033.3640378035
1700,-5597868.982940754,479967.7303329793
1710,-5597910.390332615,480045.96505766746
1720,-5597831.211271858,480093.8672043081
1730,-5597989.922412936,479815.56922102894
1740,-5597926.720958764,479981.7692575574
1750,-5597930.229146719,479974.4699731764
1760,-5597902.599311451,479968.9365271817
1770,-5597945.570935168,479963.6307207285
1780,-5597911.918707821,480004.86417925963
1790,-5598033.71662608,479709.582941481
1800,-5597985.027709305,479853.2413434902
1810,-5597939.092755451,479860.3399877102
1820,-5597936.11765944,479967.19564549025
1830,-5597860.078459835,480125.65436303423
1840,-5597920.396995039,480015.61704544886
1850,-5597936.993565241,479936.6063014931
1860,-5597932.739668069,479970.3524507283
1870,-5597890.403868074,480047.9798211679
1880,-5597946.298961883,479901.83754534833
1890,-5597879.445826668,479984.0413368666
1900,-5598038.710965109,479777.51049051003
1910,-5597938.916037016,480034.81815342396
1920,-5597976.107915917,479934.1160074455
1930,-5598013.729394164,479827.4181802934
1940,-5597955.477095278,479856.1379458254
1950,-5597826.990192286,480140.7887923041
1960,-5597918.5425609145,479894.26445286017
1970,-5597941.875782693,479861.3220240443
1980,-5597931.935558253,479915.75461808656
1990,-5597816.936865768,480086.48772929027
2000,-5597953.792019206,479842.6760964308
2010,-5597957.947656569,479883.70319067466
2020,-5597828.14540597,480221.0656221905
2030,-5597877.34467602,480080.1615166853
2040,-5597902.03050579,480007.6877057719
2050,-5597888.688211995,479922.63422210206
2060,-5597980.844633145,479749.15168936155
2070,-5597945.835748192,479898.19649746665
2080,-5597874.020304674,480012.49715424364
2090,-5597863.670995044,480037.5762662768
2100,-5597903.712750472,479941.90094800445
2110,-5597965.87463137,479784.78171872575
2120,-5597891.5350692095,479963.13157478406
2130,-5597931.7082875045,479926.6069549152
2140,-5597952.037790409,479881.3917895243
2150,-5597923.64011821,479948.2607259579
2160,-5597915.928729659,479912.67544684664
2170,-5597822.491944873,480202.65500453877
2180,-5597891.2824429395,480059.1040072784
2190,-5597990.080743379,479814.3910923209
2200,-5597955.47718727,479825.2488832232
2210,-5597856.73162693,480092.10160074173
2220,-5597904.892277934,479958.01264702104
2230,-5597954.079803409,479848.62293651694
2240,-5597898.638854974,480025.8901702603
2250,-5597856.565391278,480074.31171497214
2260,-5597894.827112454,479993.5639226632
2270,-5597783.977469852,480254.86381051526
2280,-5597928.911538584,479983.9071204442
2290,-5598024.819737555,479802.7053737819
2300,-5597828.91485139,480111.99012086575
2310,-5597875.386782805,480002.797216068
2320,-5598066.601691059,479750.20738601167
2330,-5597958.146648136,479799.31652167614
2340,-5597949.076231085,479894.8179382574
2350,-5597989.760164949,479840.9963703486
2360,-5598003.350049512,479772.18165029463
2370,-5597986.028138582,479816.62824661535
2380,-5597932.403642306,479862.4761996428
2390,-5597922.074093551,479927.9714751606
2400,-5597946.896835361,479969.72435588855
2410,-5597875.121071382,480029.1857467214
2420,-5597991.178584587,479839.4492128946
2430,-5598028.7486730665,479731.24529509275
2440,-5597894.238915025,479937.5862435778
2450,-5597999.179608153,479763.38724432
2460,-5597897.874624162,480080.4176191895
2470,-5597978.7008225825,479878.68087433325
2480,-5597939.385691023,479886.3465063712
2490,-5598023.496172274,479693.8091980603
2500,-5597946.89415928,479953.7251545477
2510,-5597964.202269818,479847.699720234
2520,-5598038.311689487,479616.9313308739
2530,-5597791.068891147,480174.3968710852
2540,-5597980.145427134,479831.21581336553
2550,-5597853.233254251,480015.67911702173
2560,-5597987.345580613,479813.76653302764
2570,-5597889.33025676,480089.3729730875
2580,-5597911.920221227,479906.09642803145
2590,-5597787.14381332,480260.39530054695
2600,-5597886.033392856,480052.6839282229
2610,-5597911.903087169,479919.28633793554
2620,-5597905.737247948,479916.68124879966
2630,-5597884.305923806,479972.0191131537
2640,-5597904.612793065,479974.2026465787
2650,-5597971.206388444,479861.05398933915
2660,-5597985.501786277,479825.9492734479
2670,-5597943.342629841,479949.24169371254
2680,-5597869.127047745,480074.051667819
2690,-5597873.038193861,480014.38499189983
2700,-5598009.105182436,479853.97709764115
2710,-5597999.479599689,479815.60145499796
2720,-5597824.562294688,480170.3886831658
2730,-5597940.561062481,479894.6103873461
2740,-5597959.8030495485,479825.4556203723
2750,-5597931.047296645,479952.0860045067
2760,-5597894.578033848,479982.53590768174
2770,-5597928.92272211,479909.4893842372
2780,-5597972.973092559,479849.65747201344
2790,-5598009.100573242,479793.3470497216
2800,-5597956.60879376,479812.79442468844
2810,-5597953.796408039,479859.06639693823
2820,-5597953.930675408,479912.7408895842
2830,-5597955.499673857,479948.2254089903
2840,-5598004.7861998025,479803.73151439306
2850,-5597946.92138937,479858.61841767334
2860,-5597913.738374861,479925.53414154676
2870,-5597981.696174585,479785.41181401216
2880,-5597904.560901493,479929.1445613115
2890,-5597899.403267069,479977.4116271822
2900,-5597953.518273628,479852.58543991536
2910,-5597858.572974264,480089.29345137905
2920,-5597866.774930627,480039.43612923287
2930,-5597874.235659024,480022.38848604576
2940,-5597920.904980777,479908.2708295014
2950,-5597969.758693966,479797.4720340912
2960,-5597913.587231209,479911.52034635085
2970,-5597997.192070289,479731.6586005964
2980,-5597835.213739628,480003.57751997665
2990,-5597914.994314578,479867.5460751072
3000,-5597905.495474592,480015.69110091333
