iteration,mean,std
0,-5806929.548042563,2611.489799735609
10,-5799579.819040051,2000.5664118381026
20,-5796877.148454064,7363.216069921139
30,-5794611.969854007,12920.70503217108
40,-5792171.844090469,18062.627328981805
50,-5790011.485813965,23297.214153513585
60,-5787798.094368847,28346.2433253412
70,-5785838.435025314,33378.957030606834
80,-5783637.923033813,38386.89437235624
90,-5781572.543982783,43390.60291204725
100,-5779514.93975002,48412.56196110369
110,-5777393.271219784,53356.894724357386
120,-5775308.765497947,58324.50520584698
130,-5773255.890317416,63282.9301641573
140,-5771144.192237526,68278.22567386198
150,-5769102.890653898,73242.46529240385
160,-5766988.665049249,78210.22705611328
170,-5764962.215716066,83152.65821382673
180,-5762877.846011802,88134.60849258606
190,-5760857.57595107,93041.26011554568
200,-5758752.157452287,98029.94202044151
210,-5756742.23249124,102982.53544593425
220,-5754682.759904586,107946.09345679847
230,-5752578.155705179,112805.07572396225
240,-5750574.266866649,117744.42406808717
250,-5748530.31860398,122644.32873680249
260,-5746518.66431273,127535.29642951673
270,-5744460.36394026,132373.39973284947
280,-5742516.498453537,137213.8925821586
290,-5740486.264418446,142097.5266785751
300,-5738466.803151695,146927.42961096083
310,-5736534.764541937,151655.08090998366
320,-5734566.998290485,156381.40822553384
330,-5732576.330722739,161159.6813456966
340,-5730667.027109617,165818.7376580889
350,-5728736.787942647,170482.05152049795
360,-5726818.5335833235,175103.58180482133
370,-5724943.145230248,179658.77706136543
380,-5723061.866559568,184203.87068255374
390,-5721199.7165516075,188694.60383607273
400,-5719361.031633404,193191.155744928
410,-5717555.982633887,197576.9775991201
420,-5715729.471934976,201960.97504319058
430,-5713968.775457231,206201.36456208627
440,-5712173.7425469905,210549.09765099274
450,-5710426.863258677,214763.95400486427
460,-5708683.750046129,218966.11493054457
470,-5706995.158177556,223135.37413069213
480,-5705304.404204259,227300.73875545574
490,-5703540.505162604,231447.33740506714
500,-5701830.751898438,235548.6805375931
510,-5700126.572678691,239699.04370463017
520,-5698405.238477822,243789.19908936927
530,-5696729.49948423,247875.08631245312
540,-5695080.639189854,251928.23002907584
550,-5693348.305096192,256068.83707541626
560,-5691680.146750177,259999.2109150346
570,-5690057.470785172,264054.1904696446
580,-5688489.838996124,267903.1534514502
590,-5686872.648148868,271775.8977327413
600,-5685250.768020937,275593.58579815127
610,-5683757.821887012,279351.10624347656
620,-5682273.631744281,283050.73557365354
630,-5680794.219815261,286632.6640919265
640,-5679309.640540624,290165.17423684394
650,-5677968.395237536,293597.4413269916
660,-5676518.011941654,297006.0114792448
670,-5675229.689206609,300308.5987126274
680,-5673840.227951105,303580.1734099058
690,-5672573.822729441,306816.8218603511
700,-5671288.324760042,309856.6821914187
710,-5670013.0136462925,312904.15930404165
720,-5668848.961503845,315903.049217661
730,-5667707.768067803,318750.48598549736
740,-5666494.278767787,321540.2057954411
750,-5665449.248722754,324277.5440186429
760,-5664329.78382235,326999.148327247
770,-5663269.219119362,329617.2009704092
780,-5662230.000241218,332153.0054419081
790,-5661222.779525198,334636.94702047843
800,-5660255.850328373,336934.95699035714
810,-5659304.666607744,339282.08650884643
820,-5658363.79670912,341553.8567532952
830,-5657548.6542961765,343680.74619813147
840,-5656693.037089825,345796.0499683289
850,-5655899.467436513,347873.3969477871
860,-5655062.267668694,349829.5599476552
870,-5654313.429987442,351728.8031097009
880,-5653605.679614094,353543.3190572771
890,-5652839.544204966,355338.545939155
900,-5652224.11940693,357062.4568244079
910,-5651585.044077361,358607.62012475746
920,-5650937.6631311625,360245.6908337013
930,-5650343.354518676,361787.6417286554
940,-5649728.358609525,363211.796833664
950,-5649180.303532956,364590.19984176964
960,-5648656.50285062,365909.11327982217
970,-5648179.918351797,367189.04507420596
980,-5647728.0426012,368342.96152101323
990,-5647249.5558150215,369512.14938535285
1000,-5646882.381275631,370602.0199766705
1010,-5646455.012974504,371622.5451694211
1020,-5646041.211963206,372592.3336154444
1030,-5645728.294414106,373507.99806993257
1040,-5645392.302841049,374369.302619817
1050,-5645067.580972879,375220.65334772033
1060,-5644766.981958473,375949.0095847228
1070,-5644483.950285034,376684.34465151967
1080,-5644162.419973528,377378.09093022655
1090,-5643972.5755598005,377983.385676441
1100,-5643736.97304631,378625.66343647055
1110,-5643601.400295314,379133.486666007
1120,-5643362.219399126,379594.56566870713
1130,-5643220.300738895,380110.3926222597
1140,-5643024.609240597,380533.34075240605
1150,-5642892.60753745,380924.0718397239
1160,-5642811.279253548,381279.55972434266
1170,-5642658.252929507,381533.3758783991
1180,-5642499.302544644,381854.0034305708
1190,-5642439.417797772,382157.8903093206
1200,-5642364.931846773,382387.50992111536
1210,-5642242.129303039,382568.30748362635
1220,-5642261.125208371,382748.34402819054
1230,-5642167.874203086,382939.4647091422
1240,-5642104.305398482,383143.832841188
1250,-5642049.093571227,383268.43110016634
1260,-5642002.102657927,383369.8066395036
1270,-5642004.631053067,383446.67456237675
1280,-5641925.630070899,383544.44966810144
1290,-5641908.669131577,383676.3263256361
1300,-5641897.678117129,383702.40014164255
1310,-5641851.876628058,383688.6062220446
1320,-5641960.07301885,383732.9463264954
1330,-5641864.4146268545,383746.3724695558
1340,-5641831.769577,383839.53968788945
1350,-5641855.144260809,383848.4066143621
1360,-5641864.409043219,383892.7005681953
1370,-5641838.96315242,383946.4890891707
1380,-5641825.171599265,383966.35711194127
1390,-5641810.5381178465,383927.85945936583
1400,-5641802.2641082425,383931.38944060175
1410,-5641855.024756843,383893.8560013295
1420,-5641812.515585156,383896.42170457117
1430,-5641774.330279952,383923.25818142196
1440,-5641791.026249267,383989.51218420645
1450,-5641852.146862851,384008.268454223
1460,-5641791.037018658,383966.29484098696
1470,-5641774.695104481,383941.38263784756
1480,-5641823.031823312,383882.96706597676
1490,-5641855.200343149,383842.0956619099
1500,-5641917.922465017,383782.45513000834
1510,-5641803.652434966,383905.203841669
1520,-5641772.364138851,383961.1832295395
1530,-5641806.413321562,383926.54676255153
1540,-5641830.102503544,383888.2404224222
1550,-5641794.98098823,383966.14621659816
1560,-5641839.024995367,383946.7290167211
1570,-5641801.144198949,383947.93628055794
1580,-5641828.643030479,383904.16769419756
1590,-5641831.7273930935,383846.6272376934
1600,-5641856.855761506,383842.0013474928
1610,-5641812.138317371,383951.3030591484
1620,-5641825.596285361,383958.37423024175
1630,-5641824.841779696,383876.26089362614
1640,-5641878.295329795,383869.71668737044
1650,-5641864.897487363,383872.3024996325
1660,-5641832.592241623,383985.17130380985
1670,-5641785.997068963,384023.54692073644
1680,-5641866.019246329,383815.49003440817
1690,-5641864.2768812645,383908.6841338466
1700,-5641807.226277098,384010.73149321094
1710,-5641754.812540242,383992.31580956036
1720,-5641818.217555745,383943.79300809774
1730,-5641795.052713433,383903.91976231796
1740,-5641877.889803328,383854.3956380161
1750,-5641835.828968194,383801.00540351006
1760,-5641837.140536295,383884.829300548
1770,-5641883.050496436,383759.8439826771
1780,-5641855.268075579,383717.5149330828
1790,-5641831.912506635,383850.2515595668
1800,-5641712.4823260475,384048.9349197202
1810,-5641773.497299695,384070.3547572749
1820,-5641875.136751497,383954.332745124
1830,-5641825.757934174,383847.12770714983
1840,-5641852.683135149,383874.9949656589
1850,-5641745.389319162,384126.8862656285
1860,-5641768.63702168,383940.3348552271
1870,-5641775.021555589,384015.0893446884
1880,-5641783.923733168,383910.7626098948
1890,-5641831.551976394,383874.31148036296
1900,-5641877.056936635,383820.33415570704
1910,-5641780.946313675,383994.9269077892
1920,-5641871.6614982905,383824.83669089875
1930,-5641801.677646318,384065.5968376388
1940,-5641840.0464724265,383841.7787593753
1950,-5641776.25885781,383958.9777285238
1960,-5641910.292621946,383816.29674891644
1970,-5641882.919701801,383820.240104909
1980,-5641848.93896277,383744.66659639333
1990,-5641845.144791515,383892.0796232137
2000,-5641819.902381812,383919.5881767253
2010,-5641805.994807112,383874.11534980906
2020,-5641894.811162387,383707.6717186485
2030,-5641770.72204025,384047.55958752707
2040,-5641756.2069666665,383972.8907006911
2050,-5641872.699015339,383780.96941643144
2060,-5641785.592785722,383966.8182469365
2070,-5641829.0514187245,383924.81911667256
2080,-5641800.848724242,383953.081279131
2090,-5641748.468912341,384013.9938528932
2100,-5641827.314282639,383976.55448744027
2110,-5641783.140733773,383824.26045063086
2120,-5641805.850685508,383926.46546108514
2130,-5641849.5070175845,383922.38500803453
2140,-5641796.048150301,384036.2062794932
2150,-5641793.495681303,383938.7559265861
2160,-5641850.247101335,383837.88578601234
2170,-5641798.82768338,383879.797246145
2180,-5641724.623537672,384108.09034797404
2190,-5641813.025715492,383967.0816054584
2200,-5641763.8996426,384062.14864902856
2210,-5641751.684225364,384129.20429309
2220,-5641882.363161681,383827.2396549592
2230,-5641833.367828416,384074.3354396501
2240,-5641888.315376802,383887.9437706132
2250,-5641808.623852515,383902.6459340775
2260,-5641809.265480235,383853.81256327836
2270,-5641749.571660971,384055.3762448444
2280,-5641795.557279246,384002.3880993909
2290,-5641730.28352551,383957.1362882977
2300,-5641836.41981631,383839.3126576693
2310,-5641677.155072557,384244.74972597207
2320,-5641808.58288453,383984.36018535885
2330,-5641886.620974264,383689.8458380764
2340,-5641725.783899636,384025.57829500554
2350,-5641849.899462952,383772.07308156544
2360,-5641768.675057262,383947.4841913819
2370,-5641839.168743754,383833.2666873039
2380,-5641821.83494995,383817.53578966635
2390,-5641790.096120894,383899.32072606985
2400,-5641856.357204678,383784.14192661585
2410,-5641832.093202351,383784.8207591061
2420,-5641731.864474019,384065.2104225548
2430,-5641853.296045503,383905.37633570837
2440,-5641846.261883215,383911.21345308394
2450,-5641793.006938116,383888.0801304849
2460,-5641727.315483437,384132.66647727974
2470,-5641844.158806872,383870.95327078656
2480,-5641764.543355092,383928.2028286631
2490,-5641790.25066087,383993.73787167866
2500,-5641726.064174078,384003.6174510506
2510,-5641856.734793989,383837.6679108267
2520,-5641778.153211834,384083.67346560286
2530,-5641777.03209684,383910.6564909195
2540,-5641808.114745895,384001.7747378898
2550,-5641802.380341313,384011.6941147896
2560,-5641793.22226798,383906.7280358796
2570,-5641844.326970834,383826.7093389434
2580,-5641735.500992593,384049.56953911687
2590,-5641756.604173908,383965.41621078836
2600,-5641758.111405042,384042.4747357798
2610,-5641880.061042873,383727.9702555357
2620,-5641797.310527979,383948.41734185576
2630,-5641760.204074523,383991.0024694433
2640,-5641810.186355174,384063.4559098619
2650,-5641841.765563237,384012.54881891375
2660,-5641886.850517067,383791.35244169587
2670,-5641795.638355913,383924.57431249955
2680,-5641806.128347298,383985.5198651533
2690,-5641788.144425023,384005.1758624246
2700,-5641797.05307525,383986.6041355667
2710,-5641767.667841564,383941.0030348198
2720,-5641813.847670397,383974.552045149
2730,-5641781.132994777,383973.0894002528
2740,-5641810.787397721,383953.7355500727
2750,-5641816.4618248325,383860.83866272616
2760,-5641904.060293499,383740.5888030991
2770,-5641853.0591691155,383874.21998934547
2780,-5641785.4823178,384026.3555432671
2790,-5641824.176894047,383925.53409595566
2800,-5641830.985668436,383838.99684859585
2810,-5641899.724657847,383711.2802386405
2820,-5641819.287665779,383952.94140697946
2830,-5641800.863400901,383984.00829724397
2840,-5641744.316594223,383950.6197837293
2850,-5641757.624581998,384004.884078693
2860,-5641828.692500324,383855.524628242
2870,-5641720.214967079,384049.2506439932
2880,-5641823.61536446,383879.58004730433
2890,-5641812.923234003,383925.9638424473
2900,-5641725.924572995,384111.25320990046
2910,-5641805.660568787,383915.4895904793
2920,-5641748.8954476,384026.7789419183
2930,-5641830.3522705585,383913.7804706674
2940,-5641783.666485397,383998.6215729524
2950,-5641905.606700423,383721.6473753073
2960,-5641836.644502094,383818.461909075
2970,-5641827.551274499,383937.227932868
2980,-5641799.341909346,383918.2660654507
2990,-5641785.849743343,383913.9210111817
3000,-5641934.5829985775,383741.11490372365
