iteration,mean,std
0,-165256.32468867136,618.6608517800936
10,-163895.99102925515,78.089520219662
20,-163606.0218383603,46.64260018458492
30,-163432.77953915912,35.183430846551786
40,-163300.90734837513,28.67634545080681
50,-163206.1544496216,22.19660966523826
60,-163130.23938333476,23.54941375066343
70,-163072.75585639352,21.710495492869416
80,-163026.78411929726,18.504640670906063
90,-162991.02334123387,13.237556360160124
100,-162974.55022824195,17.172449811331962
110,-162966.2876282556,29.715898760471035
120,-162948.0707897951,13.611735742216394
130,-162942.48272052512,10.883742609658366
140,-162954.25830131903,17.359967007719558
150,-162966.68093430583,15.584347988573985
160,-162988.8354723036,14.751942819078064
170,-163009.79808953276,13.964558548547132
180,-163039.2026516178,16.902340421580444
190,-163076.72915561826,19.20802997099649
200,-163122.01320386323,22.228330206704683
210,-163169.2342423876,21.022086649714797
220,-163223.09900908955,21.44426852115608
230,-163281.0841053196,19.810231822469305
240,-163344.88648587774,21.289698365124917
250,-163407.72904729078,19.37790385310988
260,-163482.75736419242,21.360192548225715
270,-163561.122078389,20.547439250758384
280,-163640.26534409254,25.359000849195844
290,-163727.64045209234,26.354688293148616
300,-163813.66853516447,29.51844216161864
310,-163900.20350180316,29.10205649895176
320,-164001.89712538238,33.40153103609554
330,-164100.5675143413,31.5057327554136
340,-164202.299570897,35.80373762322086
350,-164314.3903377883,37.927227358941636
360,-164441.03132639028,31.985989743400904
370,-164553.10708777976,37.43497489170707
380,-164681.37183648668,35.914591401415336
390,-164813.72390599636,36.75271705909156
400,-164936.2948038431,38.005382824113866
410,-164978.70983783668,261.56192715226814
420,-164926.90942915803,794.4766750490343
430,-165145.190347152,795.177443413727
440,-164906.8360967237,1351.3156185866715
450,-164930.28231611283,1663.4202040540913
460,-164633.19236498463,2041.3340209732967
470,-164185.1442235258,2657.786743388963
480,-164504.577068554,2579.1530748482414
490,-163975.2332540556,3141.1683880255223
500,-163289.83626486902,3789.0756543519587
510,-163093.24645916908,4165.871406023738
520,-163621.9161317257,3745.410504986767
530,-162967.72105983688,4238.237411226663
540,-162500.4601138167,4909.9357679868635
550,-162423.10036359594,5022.191508399505
560,-162208.9083608386,5251.819434530627
570,-161401.05102387376,5678.0838798005725
580,-161246.85357726924,5955.394583787236
590,-160969.42714036573,5970.038035355795
600,-160736.11471294757,6130.556471829405
610,-160192.4384949615,6361.175012246178
620,-160098.32533701035,6463.0090133020985
630,-159935.2979959847,6633.180172360169
640,-159787.23989758414,6805.498814968184
650,-159684.32370498253,6922.389818279672
660,-159322.7361768297,7223.894088011526
670,-159304.81417388623,7319.40592939278
680,-159161.43102487584,7462.043502840086
690,-158938.9301979669,7629.828729311253
700,-158812.01163998788,7759.369433014244
710,-158675.62542804575,7889.935588799096
720,-158556.1443495505,8003.136612631007
730,-158409.26703886222,8140.823712608524
740,-157838.39755368727,7983.702864825928
750,-157881.25788100038,8115.039253147127
760,-157513.86309021426,8179.726010449001
770,-157326.8097427002,8349.720296590112
780,-157263.70098322775,8401.381167328005
790,-157078.92470390315,8546.052888517132
800,-156852.03776497886,8615.936530831486
810,-156201.38171030063,8209.947491730587
820,-155599.40938719857,7888.710536874349
830,-155604.95386645757,8307.154353994341
840,-155825.08343033076,8548.68271661676
850,-154820.9298465005,8503.385896921232
860,-154225.56328755233,8759.754405480293
870,-153724.7546710888,8251.435813506898
880,-153583.38355910452,8452.646335124755
890,-153408.4860794904,8492.910826354735
900,-152650.95780682476,8124.624840818679
910,-152067.75213876623,8058.999620364045
920,-151868.08778140653,8119.484236858682
930,-150976.5761429504,7613.178946214296
940,-150854.88286852292,7627.160588099395
950,-150298.99228648358,7518.343951161707
960,-150217.7572349778,7651.986240261475
970,-150175.17822643783,7770.798988588347
980,-149599.29034175107,7717.826377901651
990,-149628.68087806422,7707.60171395692
1000,-149276.9418918439,7828.992921634621
1010,-149044.37220108515,7900.38662659367
1020,-148767.20887808796,7967.65645150042
1030,-148810.00966323982,8017.194992814573
1040,-148520.61294932337,8091.637749184843
1050,-148235.27311460586,8195.277420967632
1060,-148011.05198174904,8269.00390396333
1070,-147840.89101994905,8359.75761277089
1080,-147618.59603272198,8427.134309853223
1090,-147534.74120167855,8447.653845731686
1100,-147347.38989868612,8524.013994859553
1110,-147205.0523170136,8562.858040084391
1120,-147024.08699412225,8623.561319703758
1130,-146916.4964867059,8676.49127736837
1140,-146817.92963455294,8724.571872560664
1150,-146654.6520761099,8782.061286588983
1160,-146549.7939760544,8807.147233001426
1170,-146489.3637837831,8827.776510840715
1180,-146225.53076751472,8961.530612344357
1190,-146161.31654758335,8954.433932613554
1200,-145943.09919949638,9053.757702322495
1210,-145830.4097280552,9107.159807421582
1220,-145830.43613710423,9086.71731203089
1230,-145405.25555566786,9265.747189326124
1240,-145378.56263405774,9298.172771796402
1250,-145209.44782446616,9312.815994466599
1260,-145170.12149048518,9363.730374337434
1270,-145126.40301900386,9393.736286139607
1280,-144927.55404017997,9465.11458734731
1290,-144689.95357810607,9559.646597454695
1300,-144666.71830443738,9595.983376671635
1310,-144623.0673437634,9627.837781797562
1320,-144606.50980881177,9602.560399531692
1330,-144196.74462571094,9785.9528884292
1340,-144032.4444756043,9848.02254866226
1350,-144018.1316262802,9883.40781634356
1360,-143985.19737138716,9898.094779909094
1370,-143794.91792787254,9942.826167942168
1380,-143287.31891295442,9130.45390566848
1390,-143191.66911548385,9032.567772641283
1400,-143014.21870909806,9020.000249095921
1410,-142668.62012375484,9144.23737034554
1420,-142635.06891090766,9118.821270831617
1430,-142646.8082942444,9101.65016790972
1440,-142553.86792075654,9121.769169797055
1450,-142672.89867034342,9089.189496433073
1460,-142435.91265896434,9122.561717836163
1470,-142126.7518195971,8933.707581241453
1480,-141779.04311677307,8989.570636733892
1490,-141808.8583931502,9030.574482873379
1500,-141632.50607464695,8975.582506300594
1510,-141747.63708400918,8941.384283186444
1520,-141408.77275065426,9086.974231199
1530,-141384.09177162158,9057.182477619242
1540,-141123.61106621235,9145.245845365334
1550,-141039.59876464307,9167.574916274427
1560,-140991.16138180258,9142.671024925883
1570,-141040.24414395116,9145.202919454781
1580,-140854.5419775362,9030.432731497423
1590,-140895.74465919094,9104.874586816099
1600,-140808.94293219788,9093.893300732225
1610,-140730.1254639193,9130.70638422002
1620,-140415.1679307296,9146.109966233254
1630,-140424.80583573476,9151.354960561195
1640,-140461.58623151245,9117.27479926775
1650,-140476.0564683441,9111.396442976173
1660,-140325.9169264561,9158.357414427901
1670,-140390.28518142863,9150.09701425284
1680,-140215.90525629662,9267.37354235636
1690,-139988.12117842401,9248.941709805546
1700,-139878.83770459247,9266.970861537982
1710,-140050.41689828644,9229.738727282434
1720,-139920.94869969654,9251.211295655561
1730,-139820.31223985838,9286.36767069514
1740,-139846.44750762967,9289.660812196527
1750,-139589.33411976995,9353.937535949377
1760,-139457.04603239262,9423.980262244691
1770,-139632.90552876625,9355.051440439393
1780,-139554.00900384586,9384.719497749102
1790,-139421.90165794484,9402.320803419198
1800,-139227.4229945477,9471.345273825618
1810,-139269.65812063048,9452.614998708972
1820,-139323.2944989112,9441.888150822044
1830,-139314.0945232574,9439.262471457494
1840,-139140.68525895863,9480.739997797285
1850,-139129.65556158905,9484.444849741736
1860,-139129.1942150369,9482.966419611153
1870,-138945.21169008157,9553.098495320268
1880,-138938.70746838782,9560.539414017612
1890,-138840.19537229947,9575.191295313092
1900,-138774.9936718732,9587.17425891858
1910,-138597.54656765642,9660.177594824348
1920,-138614.01212013094,9616.880271963697
1930,-138670.93084165535,9636.271062029802
1940,-138646.01228929567,9613.741609761617
1950,-138664.6548396783,9609.798435682693
1960,-138626.6568399694,9602.619572880252
1970,-138678.75968170637,9593.830108011418
1980,-138565.37606254942,9655.939486400506
1990,-138792.90544121945,9735.131263444386
2000,-138439.3872638931,9680.182833190584
2010,-138480.44182341447,9678.2935630903
2020,-138501.100667534,9636.138249156029
2030,-138577.02015987333,9636.111572602265
2040,-138437.80853996694,9642.118138642247
2050,-138353.89272916137,9676.004013702965
2060,-138527.3759433198,9638.829655548197
2070,-138349.82553593875,9693.295532155982
2080,-138440.70963766516,9650.44919554175
2090,-138401.6014829471,9655.797599960031
2100,-138237.3158890455,9722.866794262824
2110,-138390.8586670234,9661.916382191606
2120,-138118.17314561174,9755.910107614927
2130,-138266.817061343,9687.81634609081
2140,-138095.9592709859,9765.232673120077
2150,-138119.35917806876,9743.518927716204
2160,-138156.6603338886,9735.008696917204
2170,-138109.3297790641,9747.363164832914
2180,-137964.4356194111,9805.012444302292
2190,-138030.6059160214,9765.095233551485
2200,-137838.15897933338,9845.990730942234
2210,-137826.03640025502,9840.168926919087
2220,-137805.1500540229,9845.759341207307
2230,-137764.145631354,9876.57603041479
2240,-137866.49483672637,9857.41605250664
2250,-137836.71314166705,9871.45266271917
2260,-137914.3247588572,9821.103101140767
2270,-137747.74176214827,9883.003234087404
2280,-137843.93907481385,9847.332137316154
2290,-137842.12776691973,9843.927374210349
2300,-137769.05584091708,9864.542981756927
2310,-137775.66022899447,9872.5258433928
2320,-137711.9480459962,9905.45877515088
2330,-137723.36259447664,9876.894691433154
2340,-137708.7315310486,9894.73571017568
2350,-137635.8076537739,9892.372785238042
2360,-137652.92729145597,9896.659386393496
2370,-137648.0764163192,9913.232541371784
2380,-137725.63391874026,9881.602681604554
2390,-137689.0564037709,9885.863759587925
2400,-137618.00252063264,9908.374394989592
2410,-137676.38282101022,9908.800926122474
2420,-137607.18441522852,9917.258133780224
2430,-137625.79982017624,9910.478122029406
2440,-137670.15153677738,9905.021041587528
2450,-137598.21908413112,9928.44459453634
2460,-137479.60470920373,9975.291550660788
2470,-137561.97488097387,9941.684133874267
2480,-137524.3665444918,9948.741161484208
2490,-137618.61967613845,9922.994927176258
2500,-137617.29949111224,9923.881480628837
2510,-137523.5362272049,9952.902608607767
2520,-137623.7408083748,9925.852015138413
2530,-137464.41772195575,9967.982410107676
2540,-137548.95656329833,9928.7742057806
2550,-137663.41583648193,9920.892918288073
2560,-137509.3865284203,9943.51118601585
2570,-137544.3633373342,9928.547043356382
2580,-137635.6541845855,9910.34688183237
2590,-137472.22722409503,9983.912169766325
2600,-137375.85796068632,9973.393784964024
2610,-137464.08490834877,9972.460277487055
2620,-137435.2961229516,9979.425252254267
2630,-137546.30191884033,9935.56311284094
2640,-137497.98240990675,9965.300192159004
2650,-137562.50804780744,9946.86828229832
2660,-137515.37839941046,9976.123238271886
2670,-137531.49477565696,9953.292218614368
2680,-137539.6881110498,9944.763730762324
2690,-137416.40832210548,9982.148134508281
2700,-137501.57244355622,9941.098873108138
2710,-137366.02671141247,10004.989810499177
2720,-137395.32731097826,9991.138576933969
2730,-137357.52177958627,9982.914712991453
2740,-137467.87856028872,9950.590625933479
2750,-137475.15311051838,9961.0741231683
2760,-137382.24139631103,10035.233638602893
2770,-137446.6224820216,9980.021953733536
2780,-137484.27304960962,9966.354254829304
2790,-137459.92448738773,9964.499599559771
2800,-137440.41236610047,9962.338935803034
2810,-137486.7474446586,9952.88188951315
2820,-137505.61104149083,9952.685760129716
2830,-137464.1030028634,9952.566184163063
2840,-137536.6207411568,9957.585360479605
2850,-137535.92971167498,9950.977090521974
2860,-137536.659106187,9956.34043855156
2870,-137517.98269910956,9940.09274951186
2880,-137543.10279657034,9940.664857393956
2890,-137548.01272197053,9928.153709737862
2900,-137571.18434497243,9916.883187099505
2910,-137591.51818782697,9915.300704472987
2920,-137667.51041218275,9899.335746628989
2930,-137701.6028045582,9890.667804766046
2940,-137584.39266249823,9937.370881230187
2950,-137660.84044865036,9896.77307376955
2960,-137603.38359942505,9914.638044575857
2970,-137573.18738926045,9919.146213713468
2980,-137645.7011761497,9912.643069390384
2990,-137605.80162747565,9925.950241897466
3000,-137568.9808367431,9929.721194604655
