iteration,mean,std
0,-165747.68839067925,793.4427258158609
10,-163902.38478125865,210.810099512903
20,-163680.47190261554,302.13614935821505
30,-163539.4996400366,360.76534954751526
40,-163436.33766953804,403.840492863067
50,-163357.43764249102,436.8279269522973
60,-163296.0461354206,462.5115541614721
70,-163248.20481442907,482.53290021717834
80,-163211.45103461092,497.916818537935
90,-163184.10655492172,509.36144948603186
100,-163164.94745659883,517.3751181847653
110,-163153.08181321813,522.3298073849892
120,-163147.86468462527,524.5030372521711
130,-163148.81099407692,524.0877761189196
140,-163155.55210341304,521.2438744381129
150,-163167.79661219177,516.0924875553229
160,-163185.31266148257,508.72978803616826
170,-163207.91210688394,499.23555557418723
180,-163235.43424246067,487.6786112241188
190,-163267.73501799494,474.1173645436796
200,-163304.68363122363,458.61949653489995
210,-163346.140945732,441.22708969188056
220,-163391.96934788986,421.9928531674276
230,-163442.02699988062,400.98505257681757
240,-163496.15751895908,378.2709594278937
250,-163554.1888881152,353.9237005344421
260,-163615.93120025098,328.0241713648655
270,-163681.16629693104,300.64494026852634
280,-163749.69490592307,271.9158773656897
290,-163821.50513982069,241.82696087807815
300,-163896.77016976016,210.31720436520632
310,-163975.66197581575,177.33584379269732
320,-164058.29996536596,142.8710289121723
330,-164144.8262277589,106.98310483207611
340,-164235.55028301882,69.87919196497171
350,-164330.5059821427,33.61129718784654
360,-164460.9870570961,152.01275837825258
370,-164533.7208294963,61.370604002944155
380,-164713.86894921015,266.96530002125405
390,-164758.16686857512,154.40298680767356
400,-164740.80908691726,586.5661141485886
410,-164489.8608125995,1960.6547096680667
420,-164634.76182715478,1178.062668505174
430,-165055.6749741481,720.0861401468024
440,-164409.06412863266,1640.7353833088473
450,-164644.29989593924,2027.8923111724496
460,-164600.55533700966,2169.403521822152
470,-164184.3786288873,2461.021408311425
480,-163955.7200283675,2703.8201325001205
490,-163275.78112764822,3129.529670385296
500,-162575.02290184126,3501.554556777946
510,-162625.86373880788,3861.2924504588223
520,-161980.85963636587,4196.196364380538
530,-161830.098749929,4307.6687610497
540,-161762.91455152453,4448.940255704351
550,-160734.50678455824,4887.546063850847
560,-160609.98425830918,5064.652996306606
570,-159975.78778391512,5126.989236768936
580,-159666.77618568123,5371.064904488815
590,-159591.37030483654,5488.362888096788
600,-159271.7123498042,5690.36358381284
610,-159033.60252776806,5882.3719466710045
620,-158919.6065928327,6011.289655670145
630,-158718.5379788117,6169.188336439786
640,-158497.59376432473,6345.85401119007
650,-158340.59076781134,6482.5725976956255
660,-158176.7922531028,6621.17481707208
670,-158015.928900521,6755.9270034302845
680,-157856.09643491625,6888.317226047115
690,-157700.19848861446,7017.126574307443
700,-157543.8342277679,7146.1605358844345
710,-157059.85777985613,6909.060018029708
720,-156638.5943264007,7012.831253647891
730,-156506.04765099444,7121.504507616203
740,-156358.5709455341,7217.415191109755
750,-156069.54867300674,7419.964599894431
760,-155643.186036391,7225.762891028581
770,-155290.19412912795,7354.995388176078
780,-154957.33113514117,7286.145961296362
790,-154736.05763413227,7438.953107457673
800,-154590.25006548205,7585.398474980052
810,-154189.7373862129,7692.887519224889
820,-154172.53442062618,7772.112987247466
830,-153996.8403748403,7823.816753110259
840,-153766.52418120287,7922.980028000169
850,-153550.929017793,8064.363597676164
860,-153518.45052969185,8072.569918907372
870,-153264.58847207332,8221.460318993288
880,-153098.19595778448,8323.69484219877
890,-152828.22377349896,8476.0984746196
900,-152911.45968407538,8491.554793823909
910,-152666.87704523414,8621.32874969327
920,-151577.74933778177,8050.655598050966
930,-151745.29515281855,8194.317350021296
940,-151517.79146452443,8278.924794611403
950,-151335.39846346085,8363.173860310293
960,-151055.00696820254,8501.161143323194
970,-150919.31423145815,8557.589944751331
980,-150747.0575285722,8639.104037381008
990,-150538.17244831863,8754.55000371342
1000,-150418.760610219,8809.18018019026
1010,-150233.8320593966,8913.520480707517
1020,-150185.00489086186,8931.826134161955
1030,-150036.39591770794,9085.92467932326
1040,-149785.77150332395,9162.944293878556
1050,-149741.91941952004,9181.029179026562
1060,-149696.02031474645,9204.7276437178
1070,-149432.69095075992,9363.474508814992
1080,-149220.82441948622,9491.785212802903
1090,-149101.4953711676,9565.359162727387
1100,-149065.35695833122,9581.435499213301
1110,-148928.0955566975,9666.71263819141
1120,-148822.4393515868,9738.162579140879
1130,-148679.3194985872,9830.218247289898
1140,-148625.98073641575,9855.460417919083
1150,-148568.9151169628,9909.598221864353
1160,-148509.9267317077,9953.165275858342
1170,-148288.04528601497,10084.118101242095
1180,-148213.58533069096,10133.773693603463
1190,-148029.1422733331,10257.763865372543
1200,-148010.02913646284,10280.136138852657
1210,-147923.16655034162,10342.149117471565
1220,-147732.5632288537,10461.315728197867
1230,-147763.66637227914,10463.960469329739
1240,-147256.47444070535,10060.16734462249
1250,-147724.4496564311,10377.779631421401
1260,-146997.72460443166,10039.756739758033
1270,-146642.1938332145,9939.588931434215
1280,-146360.4119641081,10036.038448674246
1290,-146355.7923519689,9977.717904761239
1300,-146087.61086735872,10123.00819517789
1310,-146016.3679888413,10147.158020869056
1320,-145855.61211405921,10226.521565814059
1330,-145691.86214369393,10297.899197063773
1340,-145693.19752110713,10312.608683554836
1350,-145582.73618676118,10338.685450336283
1360,-145646.38154200843,10327.854421104928
1370,-145564.57430644805,10347.33114208806
1380,-145304.35357435525,10487.344437323944
1390,-144971.3154786254,10434.517858939493
1400,-144452.92294966482,9545.085520953402
1410,-144137.75905227664,9461.564718931462
1420,-144189.7183060973,9601.159295087371
1430,-144006.17249717997,9625.214529599847
1440,-143934.30077287066,9620.544802557446
1450,-143786.93162300234,9648.30862026419
1460,-143679.66382834973,9666.195520350018
1470,-143102.96627312974,8813.063006404836
1480,-143241.9688998672,9089.261631263958
1490,-143029.98498909577,8674.339774337941
1500,-143205.18845152814,9290.903184195064
1510,-142604.56834682397,8681.592618572526
1520,-142332.21738355694,8578.620194188175
1530,-142273.83000171135,8505.924611910563
1540,-142278.59165926883,8439.866168473187
1550,-142048.2777852669,8505.3775403235
1560,-141908.73553396383,8522.00467869425
1570,-141824.0772375981,8524.604702582488
1580,-141717.29717059887,8542.331376821243
1590,-141727.5736249227,8492.472525317386
1600,-141533.2480677844,8546.208671796292
1610,-141538.5678354755,8512.136645061568
1620,-141455.62141526322,8521.792246711926
1630,-141392.8409533607,8557.77715338837
1640,-141171.53127548264,8491.88045919262
1650,-141183.18078513126,8429.364287248429
1660,-140800.59222127078,8528.661847411846
1670,-140728.68841609108,8521.102490668298
1680,-140681.44929507002,8512.906512736432
1690,-140550.73097738475,8543.020199131319
1700,-140514.45128312873,8524.976854922488
1710,-140623.0104926108,8546.96339483383
1720,-140307.6450506205,8612.227112199123
1730,-140303.85274735768,8575.74173613687
1740,-140378.18299754203,8555.009776046247
1750,-140245.79322773672,8565.568008935672
1760,-140094.70155599568,8590.738086456651
1770,-140019.6520759833,8598.97734291992
1780,-139990.5245668436,8588.427887889551
1790,-139871.85284558104,8619.758116386594
1800,-139806.6440831568,8624.617141733968
1810,-139779.93532202073,8628.616230200616
1820,-139735.95529313682,8623.06506651051
1830,-139566.02188617535,8682.421675563188
1840,-139514.48661097037,8693.658604266868
1850,-139636.5413674161,8606.722775779246
1860,-139575.90010288547,8643.331740150392
1870,-139501.76996710585,8641.945492547107
1880,-139493.74604300695,8623.73431975155
1890,-139335.02596638378,8696.616393736753
1900,-139368.2033336,8664.148390205739
1910,-139310.1042777776,8673.48222086789
1920,-139291.92894237553,8660.82840876274
1930,-139185.5530208337,8673.03714738625
1940,-139105.6770496957,8688.18368821508
1950,-138921.97532559442,8769.723712110776
1960,-138856.21970947852,8755.188262897702
1970,-138918.9818149247,8737.357442337372
1980,-138775.9576883355,8758.236005257495
1990,-138843.264372959,8744.37995200497
2000,-138837.0924660014,8738.289983806324
2010,-138746.1327439647,8765.142317163545
2020,-138641.7486247502,8781.207625723539
2030,-138686.2852414534,8844.307684578785
2040,-138696.9159049834,8752.408558930822
2050,-138571.12043047854,8797.46555942858
2060,-138575.77067033638,8755.221059443767
2070,-138535.66758892086,8751.476555725383
2080,-138582.55589526793,8824.640847348723
2090,-138413.09879885026,8769.516713944744
2100,-138334.89446359608,8781.890227399357
2110,-138312.08013521772,8789.060467731633
2120,-138291.21918096044,8800.021170074266
2130,-138298.52732112425,8803.60753134015
2140,-138350.27672877454,8781.813765618743
2150,-138123.37167186933,8836.847297394988
2160,-138035.21061201423,8865.071442657882
2170,-138012.19217664268,8853.021127426664
2180,-137997.0960318832,8891.380437851089
2190,-138030.61319806782,8941.506622745925
2200,-137968.23904203373,8946.764972775492
2210,-137950.83530333397,8937.030393093124
2220,-137978.3429380265,8913.109472378048
2230,-137939.6044316729,8957.852746262364
2240,-137885.18287683302,8901.184950380584
2250,-137822.12385864844,8934.175797702897
2260,-137858.00823240262,8943.353396508895
2270,-137847.7877803737,8952.62422672262
2280,-137832.01315926746,8953.624639236503
2290,-137789.56004230815,8968.21565147229
2300,-137831.22880025418,8972.830547680855
2310,-137675.04716729067,8976.077173876762
2320,-137851.35334884337,8990.20388970144
2330,-137695.93965479877,8987.94055381896
2340,-137606.34286403694,8983.760839112387
2350,-137695.94347293518,8975.077147664648
2360,-137662.93750356842,9060.745514796146
2370,-137540.86767925962,8973.320436762371
2380,-137875.95524218486,9014.349859246364
2390,-137634.36791071037,8973.070514452433
2400,-137728.33188664628,8971.974921661118
2410,-137685.23897669476,9051.479078968592
2420,-137499.45194212935,9077.137531072427
2430,-137584.5502408984,8980.972981211477
2440,-137605.67618595337,8992.038474346706
2450,-137434.37628896945,9012.468316373737
2460,-137477.27523889614,9021.008067394821
2470,-137457.32022635988,9016.397476692087
2480,-137450.63435714916,9008.48207832492
2490,-137383.8929063182,9021.538567308417
2500,-137543.54712116314,9015.774222317681
2510,-137380.09440200604,9036.454465030602
2520,-137433.07546397526,9033.230110639668
2530,-137295.48297853692,9068.583600102871
2540,-137380.22714333603,9045.376399385503
2550,-137277.39603559807,9071.784288392479
2560,-137373.2736318687,9041.160712130699
2570,-137345.61354886304,9047.754257902388
2580,-137448.1279553133,9014.855869614197
2590,-137447.9067849883,9047.69973761392
2600,-137333.21034203525,9049.639233103857
2610,-137159.28492144455,9092.410059001033
2620,-137234.20349620015,9075.496270511772
2630,-137213.18220998396,9082.279716907275
2640,-137248.70092286196,9066.76802980321
2650,-137323.81040978344,9063.715186529396
2660,-137288.39210803705,9057.14161746687
2670,-137299.71681894507,9058.943602216346
2680,-137374.62965558592,9033.661315427531
2690,-137373.0313054908,9032.537707410129
2700,-137395.56876546826,9034.240940370624
2710,-137276.83449631184,9068.040098717387
2720,-137208.81296932377,9090.04609319725
2730,-137199.25894343207,9087.665229349239
2740,-137169.335604009,9092.854180193606
2750,-137179.20736169151,9089.153306069908
2760,-137210.59038204947,9082.47006558447
2770,-137152.86165585514,9104.602596627537
2780,-137153.16400095905,9107.278980120414
2790,-137168.25767259445,9098.035958002612
2800,-137242.53469309726,9073.753384426725
2810,-137238.62299311327,9073.629076428097
2820,-137234.91921072538,9073.797033890027
2830,-137232.40141503324,9082.151196216493
2840,-137290.40056515412,9061.14792186977
2850,-137221.1981210651,9083.283771282167
2860,-137196.18041988643,9095.285553469012
2870,-137161.21717184992,9101.540288767232
2880,-137242.55160232793,9076.036372206274
2890,-137291.90113345694,9067.562131796452
2900,-137486.90552198124,9115.464943004561
2910,-137174.87461388455,9098.263692264558
2920,-137216.70214229432,9088.956969402998
2930,-137298.99630993593,9063.6391685136
2940,-137184.25230899904,9097.486276187405
2950,-137267.20427446376,9071.244061639976
2960,-137171.29294220553,9100.438340302262
2970,-137155.1806602578,9102.982757075304
2980,-137115.6126070094,9118.243156707204
2990,-137091.34908464825,9126.612209435545
3000,-137197.7837170925,9091.83100660397
