iteration,mean,std
0,-165221.12287116869,641.2181476835481
10,-163902.6557190125,80.91146203188018
20,-163628.63012176036,54.18569037464557
30,-163469.70492973382,63.143847949603156
40,-163328.51824242336,55.32799562183482
50,-163237.6662386246,53.96593661708493
60,-163146.36785000795,30.98494408785972
70,-163084.14445192248,23.826801216797797
80,-163042.5948638051,30.627177674886717
90,-163008.94095846836,33.90532475024692
100,-162998.0154524346,41.59134849931943
110,-162984.35880479854,34.83417024797101
120,-162983.02088960836,69.01952828066946
130,-162963.12853744545,26.252469262600943
140,-162963.7846164378,25.806608458133105
150,-162995.89627744924,27.46038911634708
160,-163006.53973208828,30.622033529094566
170,-163036.16065179644,31.364306082592254
180,-163063.92862649722,26.8200910840026
190,-163116.46599341487,33.11553980219927
200,-163151.08754863671,27.367163960561676
210,-163207.13163627547,42.10513346433761
220,-163243.89268405776,25.913486916704517
230,-163303.79959739905,31.179841137620862
240,-163369.08779145492,29.02552620365422
250,-163430.59520795709,33.53548126582869
260,-163509.2148628097,39.889189264073416
270,-163587.63482214147,30.36546047757064
280,-163667.77542747013,46.398007264872014
290,-163758.86831248022,38.2118573481881
300,-163844.6687082594,42.20081672922947
310,-163939.67625984448,46.94426788002503
320,-164044.7531489389,48.56872282007963
330,-164132.13853956177,33.67921900340578
340,-164243.6509022225,36.96217298496721
350,-164353.45167036666,37.79845211321498
360,-164476.58006560415,44.34496588111652
370,-164597.80481486436,49.31391927628147
380,-164712.42574090618,40.4740644820388
390,-164839.03634764516,44.28604785283918
400,-164990.84994030284,46.349302325768654
410,-165059.08885189221,212.34991382732832
420,-165243.6069408904,48.54082137695147
430,-165299.56769608875,309.2423859891817
440,-164860.66126588202,1399.2338087093174
450,-164711.11445316605,1801.902683322472
460,-164461.26432824184,2268.6176995032592
470,-164080.63335988362,2981.1398567406777
480,-163966.91197111743,3273.7788577464253
490,-163538.66194181563,3617.317825075206
500,-163138.64182863676,3976.475238618063
510,-163219.0887830209,4149.531371708243
520,-162666.85078407434,4443.604549296198
530,-162442.70179556197,4824.443322756793
540,-162252.5014951346,5101.219890888498
550,-161875.76783153586,5154.743958977524
560,-161348.4458872045,5347.522717860884
570,-160917.98688332897,5443.052920809098
580,-159618.2215711221,5191.549964684958
590,-160094.48776800622,5488.422986581265
600,-159291.52445750937,5337.644395200756
610,-158790.69615253684,5517.7676108619535
620,-157886.56836135354,5682.557833158336
630,-157669.99842161345,5358.757645577901
640,-157206.70382710773,5498.4120724605455
650,-157053.7305260323,5578.484388435653
660,-156634.77799552778,5704.749367146181
670,-156038.22596677835,5501.32497031954
680,-155745.2248347506,6217.648675239144
690,-155044.52459936854,5614.195595720849
700,-154346.04719863881,5585.783204769247
710,-154241.13227881058,5644.129294328988
720,-153825.63343646502,5710.636098539172
730,-153596.15499400313,5430.4533172475585
740,-152888.7044709111,5123.650504244021
750,-152979.2432862539,5082.491505077476
760,-152583.41842193253,5229.473877358813
770,-152233.76122681686,5400.732403112307
780,-151775.8674643381,5508.700158227405
790,-151701.3218874756,5511.146758689523
800,-151378.91702057509,5617.454069130612
810,-151094.20504745192,5728.804615545524
820,-150917.73999255645,5782.235919070061
830,-150797.15719361842,5865.493707219999
840,-150201.58897658018,5803.082069195866
850,-150600.82998328138,6224.37616832228
860,-149956.38648740042,5902.2219009099945
870,-149571.03159049776,6026.244865885638
880,-149558.66393173582,6018.907056685345
890,-149461.32693586888,6039.141092242464
900,-149070.04885332444,6154.634656786103
910,-148761.4925499921,6260.447463157364
920,-148538.28060903412,6336.304971436013
930,-148305.0630349385,6393.075043243585
940,-148389.2254166928,6433.249869963749
950,-147921.81268696766,6562.395864879412
960,-147785.36516192768,6590.774674351647
970,-147407.8333719557,6731.2978768579615
980,-147288.27634040988,6755.4280573591595
990,-147389.4396646169,6730.891507296521
1000,-146881.85072158536,6861.760505041901
1010,-146688.61078661078,6919.481059248986
1020,-146527.07014893676,6967.878748466759
1030,-146418.8643106974,7036.497388204922
1040,-146431.2293623712,7014.548852991524
1050,-146031.92131425478,7161.65879047828
1060,-146022.2051515814,7152.374513601722
1070,-145727.90915535766,7259.00289854215
1080,-145663.95784005435,7254.985786250101
1090,-145548.0527170414,7312.832811995073
1100,-145249.75034252493,7404.55694732047
1110,-145069.30994442137,7238.028279182073
1120,-144476.32023778133,6290.186615034478
1130,-144235.64835049363,5931.543894674141
1140,-144009.1250116137,5840.988508717322
1150,-143840.72364442862,5935.004280630745
1160,-144012.18022905145,5993.287750737572
1170,-143407.24939634517,5786.779848974829
1180,-143476.86189110676,5933.568534645679
1190,-143536.56613230132,5821.175948445005
1200,-143050.2340582753,5823.880730015223
1210,-142960.11706497383,5865.6868913591825
1220,-142667.93262121917,5870.215512148196
1230,-142471.24504806125,5942.191352080273
1240,-142302.06611140742,5983.478282736309
1250,-142271.84734876236,5985.375310688553
1260,-142221.11011750376,6008.5688037498885
1270,-142019.71295456766,6035.5877664814425
1280,-141591.10477315178,6138.627893302133
1290,-141755.59668280656,6092.3188162658125
1300,-141533.8537633066,6148.146454385782
1310,-141665.94038935803,6141.681752687991
1320,-141537.21819049507,6070.1393262164065
1330,-141600.12390695364,6090.5659815076015
1340,-141013.80930157076,6257.64931646985
1350,-141000.70801922286,6257.591386154598
1360,-141059.88244260877,6242.5869748047235
1370,-140831.14352550663,6282.550303512976
1380,-140751.74802134553,6321.795620189555
1390,-140631.90635405618,6366.501314131912
1400,-140063.07047859402,6414.935584733947
1410,-140222.67024980343,6416.195827064309
1420,-140020.6606117093,6422.603374974269
1430,-139987.3869817698,6466.598963920598
1440,-139767.02848981257,6447.726276657831
1450,-139946.39041793335,6480.283489691236
1460,-139602.18501465206,6585.4110750706195
1470,-139541.64931984027,6544.37502216852
1480,-139387.19501725063,6534.139210715479
1490,-139360.3121693761,6600.881108621969
1500,-139697.12516052029,6493.539088686247
1510,-139129.92318860715,6573.913356093136
1520,-139135.90994240702,6614.621352341646
1530,-138938.56792613424,6675.18643884113
1540,-138642.1810466526,6708.083078147743
1550,-138581.3791396901,6701.518312020872
1560,-138573.1542991367,6760.892772915448
1570,-138847.6250744374,6747.085088899302
1580,-138521.64981566282,6787.6329893120255
1590,-138231.15543370033,6829.399687366152
1600,-138409.3986475046,6781.600421879674
1610,-137512.4936042137,3465.21790874763
1620,-137812.3045924849,5298.445744553415
1630,-138226.3474773198,7585.985018839968
1640,-137585.30472209622,4375.171512014023
1650,-137196.493272607,3952.3290147524385
1660,-137404.20822538593,3769.663734772016
1670,-137260.4719221959,3783.8322392877353
1680,-137154.3218213311,3607.0566303753344
1690,-137020.97752390685,3609.4781950839265
1700,-136610.87317266158,3393.8890084868203
1710,-136739.33186903328,3440.3242682354075
1720,-136886.64712777015,3271.918078528965
1730,-137057.25517749361,3637.925659567033
1740,-136995.61824976362,3264.3011243011915
1750,-137216.62281043123,3240.279470746689
1760,-136914.0391977162,2926.540141911099
1770,-137078.69510055232,2836.459974602669
1780,-136626.49329572605,2859.8818504612636
1790,-136741.00968092342,2565.3975099791073
1800,-136332.97922715908,2757.7822478523894
1810,-136363.99632083526,2739.776125105306
1820,-136184.66909833087,2607.9275420129793
1830,-136446.54019493292,2404.262020925567
1840,-136306.4521704568,2230.3259049946837
1850,-136212.2230061639,2433.5349246484134
1860,-136099.22317786075,2461.55305800646
1870,-135789.65879203976,2337.8209765378874
1880,-135517.63724265934,2438.646005701842
1890,-135611.02735162465,2241.4044318827964
1900,-135624.62688724132,2270.1973604856407
1910,-135454.1524578476,2286.200720870984
1920,-135721.57386490674,2414.88370252845
1930,-135587.80266730167,2101.179628370082
1940,-135509.35707453862,2110.4569682706224
1950,-135486.38690569228,2135.5729093205027
1960,-135624.31555450056,1902.2863600993353
1970,-135382.23270220848,1914.6768254379213
1980,-134997.3383712115,1934.0698493966202
1990,-135109.94891169283,1671.537313595327
2000,-135345.40535919907,1730.918630337807
2010,-134930.05319543876,1610.5323497899167
2020,-135313.1235595948,1651.8690140948622
2030,-135056.12463481692,1759.6786174219137
2040,-135206.83572576317,1656.1021282595925
2050,-135091.1544137232,1676.8392279891964
2060,-134986.3328000049,1649.9884074837535
2070,-134835.83598992164,1691.715166302232
2080,-134922.29693944825,1580.5475513912554
2090,-134863.08833765626,1401.3152434816861
2100,-134939.2674376727,1351.7153825152245
2110,-134581.52173607078,1455.5299199704873
2120,-134897.3000018042,1325.694503120027
2130,-134845.46489025356,1507.7277822221117
2140,-134726.67294819065,1451.9250208126039
2150,-134692.59665510274,1334.1829853621202
2160,-134684.83547989558,1369.7000140473995
2170,-134660.33387883316,1432.6646104979814
2180,-134642.76503002513,1585.9629427303066
2190,-134526.51712343635,1290.5515578851837
2200,-134529.77145303873,1109.7582799753359
2210,-134270.66356744774,1193.0339475382477
2220,-134490.02970330452,1328.3953150652987
2230,-134440.01564992074,1228.6964356072447
2240,-134599.766185257,1480.6081468898396
2250,-134536.46607234722,1289.8358985154641
2260,-134738.064251167,1655.343168303884
2270,-134586.14643620825,1509.6995146702384
2280,-134399.43879318173,1323.581943897415
2290,-134413.99182086956,899.0898896068518
2300,-134531.88163861108,950.3723202938592
2310,-134268.19484494577,1118.0101780574096
2320,-134299.9617089635,971.7507379421068
2330,-134294.22359819498,797.5727780400649
2340,-134586.44956007585,877.0372900952535
2350,-134280.36574340277,512.9291638972867
2360,-134339.92551064113,878.0304702328301
2370,-134358.3781743439,878.2644688372651
2380,-134241.16253239475,850.0450872549748
2390,-134279.69516672246,902.3452587604893
2400,-134229.4388980802,790.1028643521948
2410,-134300.65650005563,1050.6432355610734
2420,-134163.70013595902,823.3658956235939
2430,-134321.31195108735,1080.823819300454
2440,-134305.97261613893,1005.9059823285135
2450,-134357.7140420241,739.6626572742231
2460,-134289.45187288665,555.1059452936508
2470,-134963.55213151357,3235.0918554835034
2480,-134326.29918360797,878.2097654152963
2490,-134382.95714156955,1027.8862589446917
2500,-134138.28807738173,824.8929832062918
2510,-134253.90202579292,893.7608085681904
2520,-134218.09396298922,871.4603589210293
2530,-134179.29246428533,669.4819542668281
2540,-134129.4342366334,512.3659995288406
2550,-134168.07442185617,580.3446787305168
2560,-134111.88423304632,491.9285951819449
2570,-133998.90299625497,520.9645674574275
2580,-133922.72899924926,459.0265818009105
2590,-134192.20278444194,1252.165265415579
2600,-133996.30567455798,553.9281482448017
2610,-133973.35639363612,657.452556783234
2620,-134045.77145206276,573.9046262658509
2630,-133879.51439310884,597.2007533643565
2640,-133988.3522346357,600.6536653047126
2650,-134027.03842509823,866.7310942619627
2660,-133849.23661493012,625.3661614389096
2670,-133898.64355835933,549.385295334264
2680,-133931.36531110827,799.2418498422551
2690,-133924.85626702552,682.1813905654174
2700,-133791.0516737401,349.63876384600997
2710,-133991.04530134727,501.93862135233735
2720,-133900.25259452316,541.2100632056527
2730,-134045.09690122743,699.8715829551224
2740,-133970.59601657718,589.9352859878074
2750,-134027.78613020555,704.7720728397171
2760,-133863.17336026818,467.019515495802
2770,-134075.4443903133,694.2791535812862
2780,-133979.07822240418,532.0614501349376
2790,-134058.75251409554,569.3948771285593
2800,-134081.76199097326,736.0493826616589
2810,-134065.3901148971,729.415401618438
2820,-134015.01617040177,531.245015896964
2830,-134179.73461155457,679.7255342179745
2840,-134152.6067979383,647.3108939554942
2850,-134188.55798068823,725.7605162720143
2860,-134080.45295515895,704.4473631486416
2870,-134138.13453278923,603.7025344964102
2880,-134176.9710412132,691.6189647559304
2890,-134024.6022978194,594.5626154664943
2900,-134079.41000173672,601.5137331269293
2910,-133960.11121631114,567.1367842028457
2920,-134036.72296248717,656.9376757502231
2930,-133963.8996620695,437.18951912171724
2940,-134093.68439147278,738.8869272590237
2950,-133935.64100654767,476.14382379903844
2960,-134105.2118659758,596.1564736850924
2970,-134226.28949592347,714.7576199136965
2980,-134049.7080988049,786.5752714123811
2990,-134166.04441815108,679.5258025914665
3000,-134091.99628982585,622.1858403268851
