iteration,mean,std
0,-3810201.4915879183,9195.035155439398
10,-2512919.69096455,207992.64492070145
20,-2474883.721906281,230302.7635517434
30,-2464610.215396699,231753.77143943007
40,-2447702.848711967,217791.78963611092
50,-2421490.045497399,224363.20631885878
60,-2427968.0070620165,239580.67764548043
70,-2415639.3244307335,240498.2634389396
80,-2403825.6677623023,242337.40759894383
90,-2397432.4885549536,254587.03934356236
100,-2389895.213346067,241867.76821360528
110,-2388541.318733714,247473.9282397389
120,-2391016.3009131225,237624.7599954301
130,-2391155.8568515508,236627.54734886388
140,-2387697.394609484,243587.10191959693
150,-2385802.307989817,242194.94216622104
160,-2387073.4150041663,243110.63659317812
170,-2390973.0982341613,240231.09773228137
180,-2391666.8159177685,245400.7828599762
190,-2384044.8110771985,239606.1734087937
200,-2386891.8411349216,244140.9682126695
210,-2392456.277031336,239084.7043983341
220,-2391236.204898924,238000.86226095047
230,-2389296.243164614,238296.35187650027
240,-2390394.993637082,239282.00594251178
250,-2386488.8114896296,242289.4826791664
260,-2382026.1737162895,243721.58234408664
270,-2385481.667107083,243057.66440465304
280,-2394283.530642409,249222.84041012014
290,-2391129.6730676647,239783.84972994577
300,-2392629.1478036786,242495.42135866464
310,-2386198.610288445,239966.29222533447
320,-2386591.1391755613,242746.93382022143
330,-2385414.4020685973,241804.96840435354
340,-2385603.858108428,245527.83506810683
350,-2383943.319983559,244580.93246197113
360,-2380066.1540994784,238629.84275328607
370,-2382006.376118093,240460.77592244835
380,-2388009.3469750434,245239.34561431315
390,-2386331.795516378,250846.60573346497
400,-2394970.504249702,239878.3391647362
410,-2388665.3333131457,236655.42054395273
420,-2388825.0659524426,236624.55198655784
430,-2387104.7651391407,248840.81426301974
440,-2389603.7223176826,237308.88863388464
450,-2389267.143034946,237305.28727791394
460,-2383065.385166208,239352.67070899007
470,-2387344.548372687,243655.79066810437
480,-2382230.9450783124,245678.23987111726
490,-2388158.0058813104,242760.21494594446
500,-2386265.6169381225,243968.5477326642
510,-2383117.542002346,242588.31730556666
520,-2380410.827953222,240244.53530651136
530,-2383435.7534028124,235217.32024286373
540,-2383873.48989123,235630.32630782266
550,-2387744.5940041277,242795.51434538877
560,-2389204.435483079,245693.40383231427
570,-2387911.3080584016,239303.39379308783
580,-2383824.8426210694,237890.0905606257
590,-2385835.1519143637,242583.5245197942
600,-2384101.446452954,243271.8518037729
610,-2388257.0388335534,243334.95614523365
620,-2383524.888225468,245373.78467550487
630,-2384097.4172076588,241730.94915467597
640,-2380700.1191713503,236229.50640995678
650,-2382267.512479986,237766.6373505836
660,-2391023.3592135636,239914.7936980889
670,-2387536.810545028,241844.2378741614
680,-2381372.7888487773,243730.9243567076
690,-2383931.022231414,244858.51100162207
700,-2383601.8348351475,235083.80823933397
710,-2386929.5373799438,242149.8350258715
720,-2386267.759104151,242519.00309770653
730,-2386991.118231735,243119.41018550325
740,-2381757.712056206,242868.05636674628
750,-2388325.05955756,235043.0797957255
760,-2384635.292269611,243791.78900668153
770,-2383662.4181582043,242967.0642133692
780,-2388581.550833387,237648.36953882457
790,-2386889.072347903,243051.82406804047
800,-2386296.3568127896,244206.44331660288
810,-2388355.9702663813,243093.8524245753
820,-2386895.3560712906,239552.38759699362
830,-2384324.895718633,240145.69376645357
840,-2382013.561284204,242034.50567065526
850,-2383221.651331853,239143.41485618084
860,-2380781.8615153446,244624.34052807715
870,-2384745.0258386387,240257.48632155143
880,-2385969.31034545,242952.16959060167
890,-2383242.0661238683,239343.9665755861
900,-2381683.2003313825,238078.7604182724
910,-2381625.1476679794,240043.1989089991
920,-2385525.0420843363,245389.9657373731
930,-2385807.08656842,243983.54810446655
940,-2387767.7540977187,244146.25191983668
950,-2387781.6006605765,241783.08000019647
960,-2388415.5134804426,240988.29193085324
970,-2386170.8910396574,237731.27285180613
980,-2390324.9970590333,244879.51272965982
990,-2392886.0643822677,233060.84679370926
1000,-2383459.5483512897,241931.1948782745
1010,-2385018.7097427384,242009.6982279044
1020,-2388863.4033126063,236813.25658214436
1030,-2383017.114466222,241970.8726078143
1040,-2381993.6508199684,242630.6894762639
1050,-2381985.2954836064,245935.59129464673
1060,-2389560.6438437523,241498.93357137023
1070,-2390275.6118325023,239174.69241803014
1080,-2383252.6476555537,240904.8088324659
1090,-2384257.3888496077,245568.39870836033
1100,-2387642.777246221,236473.7604400385
1110,-2385074.2520233,235760.543637671
1120,-2380416.549272702,242039.7682367551
1130,-2384404.3665293725,243507.33480997232
1140,-2391047.8762514098,243899.69907424232
1150,-2383049.2267759875,239999.23610506128
1160,-2384453.5935172937,244395.9828500557
1170,-2384428.6008434705,238503.70661533438
1180,-2379836.387987948,240864.48713484604
1190,-2385986.5609962055,238556.0838137072
1200,-2386618.3201184263,242396.45671367613
1210,-2382379.0988093666,241389.63772891968
1220,-2385119.2506369315,245403.46339213068
1230,-2384761.887995508,242228.37621097374
1240,-2385763.110302155,241117.27315623677
1250,-2386216.6144280257,242032.78318841077
1260,-2386605.484912536,242427.97633203887
1270,-2389730.850585903,237895.16761338714
1280,-2388739.422799905,240988.2890292798
1290,-2389940.4804656953,240901.24952620314
1300,-2384677.445201899,238481.27089468355
1310,-2384534.422330008,241493.19609132025
1320,-2387812.361606306,241674.76177983245
1330,-2385397.083989576,243854.10082004382
1340,-2387020.602924563,239199.08129054168
1350,-2387878.067378948,240903.58330467955
1360,-2386964.0313341133,233119.7676299664
1370,-2383510.9539713357,235716.89275892611
1380,-2384827.034718711,241186.06430684112
1390,-2386587.9502414903,238391.68023220982
1400,-2386632.252874895,244910.82595074916
1410,-2387927.2228840063,236679.97156339654
1420,-2394111.052030165,230393.84651984324
1430,-2386192.528465563,239920.95604030165
1440,-2384146.37304612,240044.03480623552
1450,-2389093.9066313393,240314.21666704802
1460,-2386869.252104967,246770.31720134462
1470,-2391419.576826125,245397.82274059748
1480,-2389222.704175215,243691.69566249632
1490,-2391184.005712453,244815.16646025528
1500,-2385990.6177158146,242348.25756729196
1510,-2384089.2080275603,245528.76303111922
1520,-2383529.0556942183,243617.79020290505
1530,-2392036.003131932,243313.33717467636
1540,-2383877.1162911477,235669.35466681936
1550,-2386742.341357368,239785.56672435452
1560,-2385868.559104326,243369.93561542823
1570,-2391375.53473934,243159.02867051738
1580,-2388487.921057417,238479.19802387833
1590,-2385800.9971384387,241305.2536813314
1600,-2398884.9010412116,240975.4816963542
1610,-2388339.9923827006,241337.5562844119
1620,-2390607.3574833767,241123.68825943788
1630,-2385794.1766585233,242613.51098634352
1640,-2390305.1242678156,243468.5598407232
1650,-2382039.240557477,240549.5860765066
1660,-2381511.506440133,238088.03456265197
1670,-2385844.204057292,241715.59457236453
1680,-2380544.775025296,243837.2368751245
1690,-2383115.8376501296,239778.0384738635
1700,-2385048.5534007116,243452.29841825782
1710,-2385664.3498996506,243310.11492116307
1720,-2389787.760436993,243407.08762742384
1730,-2386334.0535310083,243043.21851909108
1740,-2388296.7338509387,241215.753761659
1750,-2388502.936947248,243511.0807938481
1760,-2382348.139856844,241588.8833311242
1770,-2391359.8136427407,247581.39421823598
1780,-2385300.0756025733,239387.0818605091
1790,-2387090.66339354,240304.10879118872
1800,-2385688.85452878,237897.19480050603
1810,-2385825.855548997,243753.0190847114
1820,-2387607.3857438196,244703.72384985464
1830,-2388630.4182341583,245410.8253123529
1840,-2388267.3221382666,237910.6339391715
1850,-2382324.708143515,239894.95657069125
1860,-2386670.0770395603,244967.65127476156
1870,-2383437.478784901,243291.7473049442
1880,-2385628.4710686575,243442.05601069194
1890,-2382724.218716581,241682.75209859462
1900,-2383131.0532754855,242157.74875635313
1910,-2387527.2044347753,243808.41228569686
1920,-2393118.331542033,241534.19689149436
1930,-2386847.5586637394,239124.3699167612
1940,-2386499.6803736934,241085.7864290472
1950,-2385021.3522252194,240714.1023701079
1960,-2386727.2626307616,243273.91408115881
1970,-2378826.5520448172,244638.29481607187
1980,-2383099.004707449,239283.28190865077
1990,-2390140.098064771,240335.48590831456
2000,-2387189.0471914927,239875.05142753306
2010,-2389323.8696730956,240126.77431753348
2020,-2388814.3836939465,244194.7011476368
2030,-2383410.149658679,240382.61039024254
2040,-2386450.0729911122,244031.6462983812
2050,-2393627.4031440984,240583.17133130736
2060,-2387550.5408092313,243870.10715035402
2070,-2383924.0115826214,242877.1767616074
2080,-2379927.654153873,247543.44956512837
2090,-2378388.1216556393,241379.80907546406
2100,-2384683.991086407,241532.7746100344
2110,-2387640.953957622,239113.6843706917
2120,-2386183.428876893,249670.29453074135
2130,-2386497.7842442985,243113.4267522551
2140,-2384801.2670652783,239280.118281105
2150,-2378545.3675246215,243099.28153188623
2160,-2379806.2468280797,242243.28443865536
2170,-2376000.8381425766,246414.75796146292
2180,-2381016.611992479,245239.4549769849
2190,-2377757.2563712266,243885.71459833428
2200,-2380904.958667655,243124.35238179806
2210,-2381530.3882815973,243564.7473692587
2220,-2382013.4344345694,249107.1713118912
2230,-2386450.4428959554,244439.72794639066
2240,-2384480.6912652715,237336.39968851637
2250,-2388065.0715417755,239942.9923325209
2260,-2383071.0398324197,242211.17682882064
2270,-2381011.377624143,242981.63939999358
2280,-2378833.1685758736,244556.32341023328
2290,-2376920.2971180426,243530.80925764245
2300,-2378609.9322915915,247069.26830513572
2310,-2378689.991947362,247940.7953000626
2320,-2380000.463039412,245377.9935299644
2330,-2375221.1106643463,246760.38230210604
2340,-2386337.192357787,246346.40552109721
2350,-2381170.5060627637,239428.04975513398
2360,-2383402.0133314617,244903.15929011066
2370,-2383768.058817845,242693.20629314196
2380,-2386190.6903044907,246781.41785441636
2390,-2380550.798880312,246434.18047188772
2400,-2385449.0757834977,252009.7272940951
2410,-2383694.9049070007,243841.40377982668
2420,-2378501.3707484268,243604.73767718647
2430,-2384962.8894679984,246414.04121052328
2440,-2381415.788114419,241908.37468089486
2450,-2378733.3283100543,240314.72593486003
2460,-2380371.9792615906,241440.2842760823
2470,-2376799.8050520634,247261.32085535472
2480,-2375796.917547138,244938.38442262544
2490,-2377792.2288474063,246689.63160455797
2500,-2383439.111651135,244341.1949344087
2510,-2378016.4287776155,246115.48386214857
2520,-2380801.384046418,251523.28868798504
2530,-2378510.798903815,249487.16717403027
2540,-2378873.5005204054,247911.86612193036
2550,-2383262.2406324646,243361.93257634336
2560,-2382705.7054110477,246189.54030440442
2570,-2385881.936058433,244369.24161339056
2580,-2386339.448787763,246744.9953199212
2590,-2386572.173768024,242199.28663525134
2600,-2384436.4742424632,242615.9032871503
2610,-2381916.865518461,243881.11942381223
2620,-2384489.051252861,244510.97596905864
2630,-2384736.608833375,244448.90383558627
2640,-2389618.9286966324,250064.7704325625
2650,-2386123.9894590173,248198.85595890545
2660,-2382924.9056620467,242916.33882030903
2670,-2382968.937305999,239581.09880158
2680,-2377428.934263509,245414.92886352725
2690,-2380305.826173353,243907.04756747244
2700,-2384851.2054061964,241310.00898354859
2710,-2386202.295413995,245103.08787717586
2720,-2385457.091889872,247365.35793847707
2730,-2387621.040358291,245897.20552712033
2740,-2381227.1873579687,246347.38341073986
2750,-2378039.104178031,245551.95455487928
2760,-2379424.3404907053,247090.91647412398
2770,-2380156.2948616743,238184.79447999294
2780,-2390448.800272622,244528.02745073198
2790,-2384271.851612697,246376.81157929852
2800,-2379073.2680101627,242758.4219910623
2810,-2376135.9293718254,239972.41569758585
2820,-2379416.4076418155,244427.68524452206
2830,-2375436.5306926453,240847.81120567585
2840,-2375504.8422152447,240859.09272119912
2850,-2383655.208994181,244429.60918734584
2860,-2382556.135736159,246025.56717319204
2870,-2387556.9374836474,244981.3802159867
2880,-2378680.5620453446,244499.75669089935
2890,-2382646.196403579,245575.5835233364
2900,-2380883.053738137,242397.0219457593
2910,-2383146.195035805,246840.4540816434
2920,-2384795.975963409,248644.35596981045
2930,-2375817.541213303,244422.10177651222
2940,-2379709.3622745154,249140.2558045581
2950,-2383001.567272613,241960.40428918647
2960,-2380202.354468241,244881.61803718246
2970,-2381811.063134784,245763.49664720809
2980,-2381635.385895987,245848.22675013437
2990,-2383720.726387271,245564.034496515
3000,-2386508.8063001735,247951.83680334932
