iteration,mean,std
1,-3763396.75,12596.85807850513
2,-3654430.4,21147.91127251105
3,-3544330.9,50688.32254341231
4,-3264342.8,61827.09552764872
5,-3051072.75,74443.73266047989
6,-2794835.25,135143.75762128268
7,-2534946.65,98999.02252113401
8,-2316954.95,174374.3092448254
9,-2075707.75,175476.4509814636
10,-1973234.85,188511.55913388974
11,-1921612.575,187543.34029591002
12,-1947094.575,167779.72862799902
13,-1982122.05,158209.5005320003
14,-1881684.175,230735.4147932703
15,-1898357.1,263094.10347045265
16,-1850726.075,211104.03705465345
17,-1882562.375,230107.76617729844
18,-1872115.225,261536.65022858648
19,-1845765.35,270428.14347329864
20,-1851267.15,238237.947618623
21,-1867158.75,257133.83855225812
22,-1817982.35,234080.37264609296
23,-1792211.7,247822.21816275877
24,-1863323.6,204330.25295553092
25,-1832836.325,213412.43809844472
26,-1813280.925,231900.50140035275
27,-1826607.025,240668.1790808067
28,-1768299.8,197357.10042975715
29,-1820578.1,217001.9025914491
30,-1762070.3,245142.99562165752
31,-1808005.475,242962.8209328847
32,-1805430.775,238312.960809683
33,-1783586.75,257097.8222424905
34,-1790198.8,204237.57314230895
35,-1772102.2,221964.2447694082
36,-1754212.375,230131.05134846535
37,-1800593.825,234570.29333628868
38,-1770184.825,238158.56997084946
39,-1781212.95,253011.84067388033
40,-1810423.5,240446.8478156867
41,-1744442.275,216878.62711525138
42,-1716692.1,210204.6433319564
43,-1811344.325,198542.89833573435
44,-1727233.075,199685.6882202096
45,-1776029.7,222874.5744874878
46,-1765867.625,220254.37564665996
47,-1745301.925,222696.28601002757
48,-1757394.4,204678.89822856372
49,-1728226.875,196770.1899335555
50,-1727891.575,216940.64821163644
51,-1750364.925,208393.27514644034
52,-1715443.625,198826.88143602465
53,-1677823.975,192496.08505544014
54,-1729795.35,205455.4494492267
55,-1674086.875,206252.69901773406
56,-1716897.0,232773.99939057036
57,-1680094.125,215241.24377654714
58,-1698826.2,182036.46990236943
59,-1677392.1,212052.82783428047
60,-1689381.075,207293.37858946435
61,-1753324.825,243031.84707562762
62,-1704359.225,249184.47778453716
63,-1673954.925,179111.7497641591
64,-1721214.7,190390.17178127592
65,-1701220.55,181761.9526646838
66,-1667064.25,177170.46613888204
67,-1649631.35,216629.95670385708
68,-1689556.625,207492.05842576842
69,-1641787.875,241032.3248913411
70,-1648778.55,201385.34526317017
71,-1687745.975,198312.81619001582
72,-1688051.775,167421.54565231068
73,-1644554.55,192181.65433284728
74,-1622411.775,225770.86827847167
75,-1691583.525,199090.6518315432
76,-1673905.25,202104.08997715448
77,-1689336.1,188638.7064493824
78,-1630054.475,191247.78341971053
79,-1632777.55,197418.348451116
80,-1621718.8,142142.86049602088
81,-1661633.725,168335.10608826147
82,-1567622.9,179935.7719412228
83,-1589906.9,170575.09355188333
84,-1592630.175,173332.37603700874
85,-1581133.6,163590.62632638446
86,-1620097.475,170597.53681071644
87,-1542037.375,178803.98009106578
88,-1618429.0,186376.26334635535
89,-1594252.625,135082.2824754416
90,-1518705.85,148329.32049337885
91,-1474499.8,143267.6705055654
92,-1555220.025,131582.0438146957
93,-1606752.075,114853.75918683506
94,-1523704.75,130033.92855705487
95,-1482801.975,122135.35508582271
96,-1454968.925,161778.73882149192
97,-1466188.675,155469.380122916
98,-1492351.0,156073.16595556634
99,-1495343.95,137318.64791559175
100,-1503151.15,149179.41530868126
101,-1483184.675,160843.91873656586
102,-1506129.575,143969.17198109636
103,-1444107.325,149594.11110611525
104,-1461076.075,181269.33552902707
105,-1452394.925,133755.13344014596
106,-1501272.975,146596.10359411844
107,-1510784.975,127266.34099628916
108,-1523429.925,150046.25128890676
109,-1485008.825,156523.89496616402
110,-1549997.775,184932.23896968318
111,-1441579.6,154071.44461092152
112,-1478870.55,161545.51576855592
113,-1488057.85,135648.0555641464
114,-1437936.85,136746.54469609552
115,-1488004.375,121677.50090849787
116,-1441683.725,140422.8729834994
117,-1440127.5,172669.63173650065
118,-1470217.325,176409.29451442955
119,-1408679.75,181862.7562904923
120,-1412004.025,190433.41338359585
121,-1432996.325,163723.8233533761
122,-1396322.975,181846.67139540936
123,-1392119.725,172627.16904432728
124,-1427575.475,192021.02094037452
125,-1431361.85,139802.46237028964
126,-1443574.325,190177.89180880424
127,-1386362.325,186316.90133262533
128,-1371564.2,173758.09286270666
129,-1374765.925,173053.2926274736
130,-1389068.075,178215.29746499035
131,-1385830.375,176001.97460266604
132,-1404448.8,185072.14278289897
133,-1383683.625,200885.64257238182
134,-1376853.35,211430.35124986194
135,-1349074.025,217033.82640875937
136,-1430053.425,176520.42698483937
137,-1393184.275,164087.98739194774
138,-1348658.075,169920.95412078008
139,-1374318.825,193459.00862079606
140,-1372618.225,197547.12320015888
141,-1392254.725,176691.75566308264
142,-1422300.3,166346.42529651412
143,-1426922.45,205763.95217992814
144,-1407893.4,188268.90305669507
145,-1372176.075,180345.5176192286
146,-1447532.3,200546.30869783854
147,-1357278.1,185797.61796309106
148,-1382532.725,198754.95023467968
149,-1455609.375,199806.46171584705
150,-1354297.35,202300.64530673463
151,-1394678.55,193083.67192014513
152,-1351016.95,190132.79191662336
153,-1381109.275,177492.67724453803
154,-1354131.05,170512.59669765973
155,-1354465.65,211430.93959533217
156,-1398554.225,191900.58837175957
157,-1355805.2,181853.4344758266
158,-1347762.575,195754.1114920642
159,-1379008.5,180082.45875362208
160,-1368478.825,188938.0511728249
161,-1377205.975,208197.99978968938
162,-1376152.7,188418.7580775631
163,-1348692.25,176587.30801589336
164,-1409658.875,168930.52902373063
165,-1407270.2,203782.1601459908
166,-1366883.675,189541.2442337848
167,-1343292.675,200306.73692994576
168,-1356720.225,226101.94740714307
169,-1357076.125,190806.2929571015
170,-1400742.475,216412.42788815583
171,-1381453.475,199139.86101359766
172,-1372874.475,185958.58486383132
173,-1387514.525,178072.61801873482
174,-1398771.25,209446.539029116
175,-1372424.55,191721.9062855527
176,-1372940.925,212503.07474907275
177,-1375435.8,174560.40878902425
178,-1403120.95,183160.79421852264
179,-1364183.85,186229.47640569686
180,-1403396.275,166054.54821995617
181,-1357652.825,175517.45774513783
182,-1347321.575,184215.0040457074
183,-1387734.525,186905.43492660264
184,-1334908.65,183336.0116454791
185,-1369931.525,154281.83797932114
186,-1377122.425,186875.35473199777
187,-1388446.575,208694.96872411657
188,-1415193.25,174795.66917266214
189,-1386414.625,231931.51121610773
190,-1365920.05,202224.6201756014
191,-1316007.975,193978.95442691393
192,-1387792.575,168703.4457013549
193,-1440977.675,180772.8275299139
194,-1384062.825,188997.94834390067
195,-1371559.825,218145.75396094978
196,-1398734.5,173205.23835633553
197,-1376645.9,213341.78091504367
198,-1379513.6,192471.43046026662
199,-1409601.2,177870.07597247424
200,-1337764.725,169037.27099022054
