iteration,mean,std
0,-3810201.4915879183,9195.035155439398
10,-1966301.7700149964,106656.52105738905
20,-1786936.8784694362,121289.22887533178
30,-1715230.6001700666,109089.61511377833
40,-1673186.6892766547,95754.12809404155
50,-1659461.109312564,85043.4893595494
60,-1632990.0930896848,60122.817021140916
70,-1628828.155558403,52513.275528621394
80,-1607732.9917448645,40588.16665669887
90,-1580907.2677075178,51853.90321514555
100,-1576914.84418067,48337.11054283262
110,-1556167.2394604664,61921.55622577629
120,-1526145.3508615906,52641.463834563365
130,-1493607.6314590022,64904.533073936465
140,-1477782.3369795475,66824.42940925724
150,-1465682.7082137784,55236.46085154888
160,-1483622.5249445818,57116.668156253916
170,-1466696.4144606588,54006.208724545235
180,-1480284.0738388519,48419.86962266645
190,-1491462.9585113525,53390.2727542102
200,-1460882.0522535508,49911.43841260132
210,-1470023.4596218695,48433.574285430324
220,-1444579.1821883644,48906.09691261999
230,-1463743.4358129147,44957.97790609877
240,-1451217.0967014101,42998.86679828675
250,-1456878.6322358744,32507.934606821425
260,-1454018.6547620292,40806.82230552785
270,-1465503.5487515586,44198.40507064551
280,-1464554.9488196557,41393.07528618649
290,-1449835.5796736605,54846.00740818806
300,-1455739.4800629106,45225.23283224496
310,-1455974.9422489519,44843.509616237956
320,-1458330.292501275,48993.121016733734
330,-1463878.8109999278,44687.13711283071
340,-1459158.7668186706,50346.031500798555
350,-1457503.0639923667,51371.11954301743
360,-1457625.7956177178,43379.058546032174
370,-1453175.1471556644,42987.6375170615
380,-1457402.9398331894,40882.90110388756
390,-1459262.1542839853,40816.738318588876
400,-1458647.4459109262,40801.560161379086
410,-1452651.50819157,43853.62641958188
420,-1460103.8720572267,37480.87854823285
430,-1461159.907929579,38928.08817723179
440,-1459149.2980561128,40459.532680992
450,-1446455.9740300234,41200.39731644977
460,-1452268.227023658,41493.060855010954
470,-1456770.997366138,47277.491931242614
480,-1480469.3874086358,88258.38864998486
490,-1443761.4488030567,49663.611073779204
500,-1451859.6812951516,47759.77959713714
510,-1454159.3215911775,45391.19374765784
520,-1448539.7144007657,36002.689319010504
530,-1442056.45868843,39251.70326361478
540,-1455574.4917816308,41431.21381116767
550,-1463492.4178089476,37074.87393761381
560,-1468220.4227629318,33720.834458130004
570,-1449807.6244536245,38361.18511490614
580,-1434321.210911442,50318.931448882184
590,-1423905.3479220185,66989.93786277181
600,-1419890.7731421562,58489.78914288962
610,-1421957.379322478,67529.58005798783
620,-1435755.2650925948,64027.850682960845
630,-1422469.4216590996,66581.9612790159
640,-1427764.2955943362,67391.14817190765
650,-1423328.6503642271,78193.1399419312
660,-1431208.6497296523,79778.63966742429
670,-1420307.7684624621,60482.54276783342
680,-1427998.0396669502,70174.94843338587
690,-1442609.3957377423,71823.64753701637
700,-1432201.3827527636,71889.0625077248
710,-1426127.387605133,83215.26623973259
720,-1433670.6130582038,84621.46355559891
730,-1429306.275546512,82824.10448484059
740,-1412675.9520386276,77541.42662245565
750,-1409626.1277093547,69673.45780148938
760,-1412583.151633566,76655.82006691983
770,-1413969.2823466775,63760.16329301617
780,-1404724.6463387278,71100.68524295486
790,-1405154.0498385509,74838.59652795098
800,-1404374.065415637,67814.67487276946
810,-1391350.373143737,80148.00811316153
820,-1391112.5059943325,93932.53924194456
830,-1384518.8494662386,92411.01208609999
840,-1382759.5450720275,93639.04934247278
850,-1390882.1163438787,81202.67752936487
860,-1392947.1310293865,93937.28037834798
870,-1382256.2977187198,82035.14817603007
880,-1384078.8859832666,80356.15015817311
890,-1387106.8498720801,93593.22458451435
900,-1375837.485251246,82153.25364749522
910,-1364753.449457317,88680.83059462991
920,-1376435.0915612143,86402.37455112085
930,-1386055.5877241162,92990.83955519737
940,-1374869.4188661543,92251.27333332744
950,-1371959.7558007776,88675.73681527637
960,-1370025.4062557314,86640.2228589773
970,-1388681.850132516,81700.89108724994
980,-1372253.1527602205,80114.39923704325
990,-1381476.5997157,82228.9033921588
1000,-1382415.9122974097,76704.58846544869
1010,-1381442.2502125984,85830.42031741493
1020,-1385404.3540561097,80955.22783982172
1030,-1366211.952748089,70391.18710390828
1040,-1369073.0659715454,89644.49024631962
1050,-1355147.2644583327,84684.40819490419
1060,-1350767.696707545,79989.54385840402
1070,-1351916.5502256313,87294.90951457134
1080,-1357532.8349665534,107230.57005858867
1090,-1347315.305765951,109803.08198251425
1100,-1351799.6183763298,107345.41515134428
1110,-1333130.4356454997,94386.39945893736
1120,-1328641.9886731938,93431.6697455214
1130,-1351571.229397115,95798.5064222635
1140,-1335619.6247492703,98158.08235529895
1150,-1346868.1798175152,112907.02589202985
1160,-1352879.9216172078,106328.81743976157
1170,-1352784.0381271692,98715.56494039878
1180,-1350324.6186742524,92323.74624650796
1190,-1335584.3055418239,90795.55814008514
1200,-1331575.80583057,90661.09041113804
1210,-1335698.1676444272,99248.91108267495
1220,-1346492.940380068,102912.32153125796
1230,-1346458.6139038561,111464.73436601613
1240,-1332965.2802687683,128747.23895808283
1250,-1333696.4892033418,130546.33653793676
1260,-1337830.4736107555,134344.55985097092
1270,-1332735.0843510055,133075.77000589945
1280,-1320832.0493878953,125167.92649993156
1290,-1328296.46834298,119256.33649259331
1300,-1316850.3395068508,121582.73061376465
1310,-1308291.8794539894,118090.1893396647
1320,-1321796.59063418,118535.74832344342
1330,-1322086.5965594193,116358.08736931179
1340,-1329687.0797132477,120771.51321650606
1350,-1330068.8244747561,121692.74171390523
1360,-1320976.219096773,113548.48197441336
1370,-1317426.5421115025,115368.28555705465
1380,-1328729.7419889069,121522.27899053192
1390,-1326346.3858832202,116306.40952443462
1400,-1333756.5780290742,111487.26879091038
1410,-1310806.7736777836,110761.60218164233
1420,-1314068.0706146709,110706.844639687
1430,-1305763.7695258535,113192.16122511662
1440,-1302486.274328425,103736.68667367115
1450,-1313231.976822567,107659.7012043464
1460,-1323539.0066343942,116614.13767544326
1470,-1312812.1661383738,110268.80083796546
1480,-1320928.093754779,118430.77803582356
1490,-1315031.5478338173,114542.6967794504
1500,-1321379.5532502336,110625.39874573471
1510,-1321461.623823036,117747.0245074648
1520,-1325797.2850311764,114575.51400631756
1530,-1320658.3740982064,106238.1917169607
1540,-1306948.6016779284,116939.73505452611
1550,-1300307.6746151098,124174.4682577572
1560,-1305086.2107529459,112456.0076708648
1570,-1318860.0118361686,105400.62226169798
1580,-1309586.9379809655,114265.5275449202
1590,-1304380.0073194653,106706.6470896672
1600,-1310958.4938456924,99822.5796393963
1610,-1310358.813670645,114626.30466180992
1620,-1309803.3531104026,111901.14397572247
1630,-1307496.997003066,112046.8092155744
1640,-1312053.906796658,114595.77547804276
1650,-1319939.5380557799,115547.13516366707
1660,-1308420.3559907465,107526.99344239141
1670,-1317900.8703254093,105087.81709519039
1680,-1319134.3489624737,105305.76267642673
1690,-1327159.8268451383,110914.44522025449
1700,-1327228.5728310295,102155.56314069725
1710,-1312027.5095161363,112386.12097513612
1720,-1306025.3404701664,114801.03333802483
1730,-1301260.2940969102,118249.29128488222
1740,-1290752.2914255066,114816.41143556757
1750,-1300452.3736544796,112338.30579267802
1760,-1278948.6586237915,108912.03856718368
1770,-1272549.775871683,103269.2533728341
1780,-1276575.831860488,115667.45584099286
1790,-1275328.9335292885,115265.42637615807
1800,-1281072.9125739245,128164.0280967837
1810,-1277046.479283678,125008.15379379956
1820,-1264993.1866044346,108470.88565807638
1830,-1267640.9149953357,115946.0288843195
1840,-1258550.3085446309,112200.14976789904
1850,-1254132.7976463123,109435.64942836204
1860,-1258397.0312777637,106405.16945354245
1870,-1252855.011657479,109180.16599204947
1880,-1252110.2268188298,118396.86481484995
1890,-1248989.717241191,110554.89587916007
1900,-1247469.0398113695,114070.14702033382
1910,-1249952.9113828116,108256.84838863478
1920,-1241287.611213681,110101.1459663071
1930,-1229438.2887534467,104077.96198089769
1940,-1229796.6449082918,111261.28957863123
1950,-1229966.8641122042,119310.44695151487
1960,-1225033.7048000614,127696.88110690808
1970,-1207156.1061508881,117909.77695799804
1980,-1210126.7415755303,132365.27321536184
1990,-1210276.6117553923,131249.37272402376
2000,-1210690.565468319,131250.58191443718
2010,-1203861.6601537946,137076.87870566285
2020,-1191404.3949520595,130478.3550984849
2030,-1194240.3584039605,131297.8246818004
2040,-1196945.387285595,128730.66817400706
2050,-1197701.3947085813,136568.11969576142
2060,-1212535.3247399605,144449.35254015055
2070,-1206244.5490259044,149722.08277901585
2080,-1215021.5133618016,139916.6226892977
2090,-1215914.467022052,125958.20361930129
2100,-1207880.3298184332,116275.19563495801
2110,-1202383.936910138,121594.85846737806
2120,-1196510.8376763822,118333.2854453821
2130,-1195468.8042882076,125739.7314413209
2140,-1191165.6283383635,133719.98012770532
2150,-1195899.1860213098,130652.3337682134
2160,-1197390.1927663046,131239.52316087164
2170,-1196702.7459386592,131295.2931085342
2180,-1193329.3030869458,125935.82897467268
2190,-1183851.9794397496,129756.28050483143
2200,-1186025.3727365597,136089.76610564353
2210,-1197790.477162425,130294.04835367756
2220,-1193984.5181172288,126851.34036532728
2230,-1192532.872436876,113766.53915589984
2240,-1193419.5186470163,115273.23784463035
2250,-1178135.0281542186,102084.07607340298
2260,-1189507.948146707,129037.37894348026
2270,-1180310.7307824644,124682.68152098462
2280,-1173434.3017682512,114676.74503857142
2290,-1185791.780684463,109051.07810716746
2300,-1186311.1339583413,122682.64716292828
2310,-1170704.1331658412,125044.84757605354
2320,-1177404.9534605148,125988.95232451691
2330,-1173644.9732856767,134895.32224501504
2340,-1196273.3128851447,141944.0119990059
2350,-1186271.9076646662,129663.06791782769
2360,-1192145.275899741,124004.2773084351
2370,-1191230.8901723975,124883.04231600993
2380,-1171644.5781929991,128315.30331378808
2390,-1173964.8722561842,117355.35384604681
2400,-1166863.5401407394,118845.06236455709
2410,-1168122.470971029,122434.73916746539
2420,-1168074.3981203628,134906.9498672176
2430,-1174926.1802833509,128689.51062991965
2440,-1172173.9837796104,131792.751408454
2450,-1156630.4043498556,133358.55754351348
2460,-1164219.7168146034,125199.23106489953
2470,-1173381.800671042,126288.97274819776
2480,-1158414.280269316,118619.98458443896
2490,-1160594.6610849346,126641.52650553151
2500,-1161645.9493911495,130894.9591156215
2510,-1133509.4051114481,123705.05433326695
2520,-1128040.5743378997,125663.43552236064
2530,-1140678.8161634563,128890.20027289852
2540,-1151404.4052661203,125421.5025683814
2550,-1131931.0565455516,125975.80935871913
2560,-1125000.3462625372,128061.35342422166
2570,-1116771.533493521,118751.27163958717
2580,-1110817.608278703,119323.51337555712
2590,-1116625.4715146518,124691.43037844155
2600,-1118419.5033891012,121807.42727965588
2610,-1103169.1517065293,122878.28968194441
2620,-1095185.7169611691,132209.0764500581
2630,-1108497.2596103065,138014.44850829744
2640,-1093477.9481162915,131146.19275086556
2650,-1083528.0531645042,132153.6220580572
2660,-1078021.9678379695,136308.86346463356
2670,-1088951.2706817177,139871.6651048713
2680,-1096903.5072959359,142814.9145922124
2690,-1095103.3562824754,141151.69300043082
2700,-1093241.5373283513,136454.7917677632
2710,-1055999.3906566468,119316.58402840576
2720,-1055001.0036767728,126114.23156751454
2730,-1061496.5749109606,134086.01070075654
2740,-1066608.4168654436,121452.54063435333
2750,-1077787.0567784335,134542.17283316804
2760,-1068352.4701659945,132142.69953939595
2770,-1070322.359794836,121250.23440626237
2780,-1059899.8624442872,131014.01249515856
2790,-1068581.5861608128,130689.53406628875
2800,-1063821.7790443534,124785.65427835869
2810,-1066306.5067919125,126974.40364659879
2820,-1047955.2749640498,123936.4425742587
2830,-1045632.3292797308,131821.45889156312
2840,-1039715.4643574785,130429.41902485625
2850,-1045940.635714336,129721.73547894799
2860,-1035103.2559156899,132750.04078500994
2870,-1030314.4845459176,122063.78952585862
2880,-1021177.2759572115,119269.72009959683
2890,-1032041.4136781084,109072.85272529724
2900,-1020709.0265061429,119155.42847668142
2910,-1036382.445831741,116890.67506372531
2920,-1014587.3004381114,123753.89663607469
2930,-1025858.1340077065,124827.05800104498
2940,-1016320.4835793372,130928.2692318253
2950,-1002369.5735103933,121852.44241985529
2960,-1005098.4782386267,110712.44792827709
2970,-1012267.4194867734,117048.27665665696
2980,-1021622.1091025674,113307.0590112063
2990,-1027697.6960846331,127250.3944224133
3000,-1027854.9786832025,111765.88750895529
