iteration,mean,std
0,-3808387.4539943575,11927.364345960123
10,-2001305.2503447994,133246.01825512413
20,-1818941.2508219841,177766.80485735685
30,-1735487.0825989335,170748.4445754299
40,-1700155.2909857295,127907.27319812839
50,-1621840.6546418166,106432.13285336444
60,-1623208.0907186768,97505.72839978623
70,-1603216.0167633095,96796.27248147328
80,-1574678.7135143406,66910.65322366789
90,-1541892.011927471,76179.82040450031
100,-1520014.8874806368,77965.27083867977
110,-1472658.4646432144,71536.77347404278
120,-1462894.4523632308,68440.62530033603
130,-1473961.1429218478,76121.49407660154
140,-1463868.2868236105,81525.14548486656
150,-1438112.094171626,69665.42297170572
160,-1445944.0162480245,67176.70157137974
170,-1433573.6685484317,63151.57082453665
180,-1449644.7006119378,72042.30887486768
190,-1449473.0898980028,68865.92021706476
200,-1437996.2344000493,72063.41633515901
210,-1441565.746197212,68947.73484896912
220,-1431655.2283163532,68209.82739960265
230,-1441029.1709314915,67232.67989348201
240,-1433489.1739308718,64711.579130018756
250,-1435275.730284531,74994.90772688884
260,-1435651.0910739587,71805.61411660443
270,-1438530.4472533057,73798.2432635369
280,-1440818.6521551465,71118.4208039584
290,-1437967.4225063655,77421.98505855017
300,-1438298.1600752426,72879.18727838337
310,-1437496.7767943135,68190.63709667233
320,-1435360.880755953,71734.07094616663
330,-1437605.9206080548,73050.16261255184
340,-1440491.508600413,70741.84422947423
350,-1437938.9125521998,61866.16074836467
360,-1443351.0759933076,61536.154813318884
370,-1438653.46812085,65310.83355669546
380,-1429844.7673049746,71366.58867760432
390,-1428990.2933029283,67083.86530137017
400,-1420754.6352226578,78646.09569156423
410,-1408610.7999531575,89969.86072936431
420,-1410206.4727357794,83724.61183319836
430,-1414869.7975334316,87463.99548618752
440,-1410753.2665868837,88795.13231324573
450,-1408372.177711319,90395.68084079066
460,-1409815.9712800689,84960.29435459492
470,-1406164.074046268,90949.42401245299
480,-1411821.6579785268,92704.3788213599
490,-1405372.9985004063,96785.62940551851
500,-1406735.272858658,91402.35641450336
510,-1408076.246587323,91209.95012751225
520,-1411221.837706444,93083.55742565687
530,-1411086.416688163,94207.81546378926
540,-1414015.6281058348,91015.5521998127
550,-1417469.2815498733,93557.00555566205
560,-1421434.984494452,90046.64037067317
570,-1413933.5574915537,91757.80437974418
580,-1397613.4239412756,100253.71394453352
590,-1401732.72900625,102494.33493954722
600,-1393675.1398248225,96689.71598708593
610,-1391632.8751173273,98945.56631162
620,-1386493.349689309,101561.95460620533
630,-1377449.5626918133,100604.33598649017
640,-1386265.6516310885,103206.09282374485
650,-1380054.8668216378,105545.86213374023
660,-1373821.226967613,96107.06596991124
670,-1375698.227612586,105461.11935780242
680,-1376181.45454153,99380.06784962188
690,-1388923.8172354014,99669.27745054467
700,-1387868.8878942917,103980.95517036335
710,-1376006.624710471,94710.72806318005
720,-1377090.3255341975,98819.95464048472
730,-1367964.322516482,103421.7338163888
740,-1356923.5295899292,102794.93910840726
750,-1358986.731731077,125583.3003472507
760,-1335263.791460231,111465.85957515654
770,-1336303.6401969842,116290.00423210184
780,-1331968.6537049627,110641.724375109
790,-1327145.426550764,112348.16362683651
800,-1342371.5495401463,111211.35679600282
810,-1337086.6218061377,109553.58460125673
820,-1328098.0565871866,103853.67825793687
830,-1331184.2870808314,106106.50068166338
840,-1326025.0774032217,109600.06931855403
850,-1317832.8184591176,99448.05418041277
860,-1308610.7789154574,90555.04184106257
870,-1309082.7755527126,97482.06346056022
880,-1300138.520936409,100003.25843649864
890,-1304333.3723728438,99839.86026126318
900,-1295770.8359337472,95545.18147820822
910,-1293905.6874959066,88251.33986576654
920,-1276291.077464763,91341.38675230836
930,-1278568.8199965183,91765.73334264827
940,-1276569.9744226146,92163.17465595776
950,-1283414.074103108,102611.92715939916
960,-1274694.7156001374,90458.86605192212
970,-1272694.5824498823,97935.45501559187
980,-1274064.7942181383,94026.31259227624
990,-1292117.6719333571,91943.9580918719
1000,-1291688.435139548,89809.66373524013
1010,-1285829.7546552496,105643.56494039069
1020,-1287592.2141465223,96092.92241870913
1030,-1289390.5596546172,86398.31454740325
1040,-1281682.9453332084,84672.85865254854
1050,-1281985.3796609486,100082.64254923655
1060,-1284150.0453151963,89500.83986789615
1070,-1279283.0664183802,81639.11624074446
1080,-1283306.2512178642,94864.92075028595
1090,-1285242.1535289977,99774.38264004479
1100,-1281099.5995260533,90603.33016066701
1110,-1272536.7000994463,103983.33079356459
1120,-1276716.193570198,95621.03593596011
1130,-1277828.408070233,96312.8098042495
1140,-1280155.5938765444,100085.28423307362
1150,-1275134.8003514786,96905.8082326278
1160,-1280809.045656889,102650.75614879052
1170,-1281081.5187719534,100302.69125344665
1180,-1289833.1847398838,96204.3490031306
1190,-1278068.1157265466,91317.57721218179
1200,-1284783.4826818623,81891.83404962409
1210,-1270096.0063181205,83726.2502863258
1220,-1271125.3400098511,77932.84101843921
1230,-1280158.5418088697,78393.15992383762
1240,-1286500.7048998026,77527.65569342235
1250,-1287146.4433450615,75305.93111330118
1260,-1264478.4372951025,90439.04806687614
1270,-1270256.984991956,96590.43820810903
1280,-1266204.1568793494,95224.49088770259
1290,-1268946.71845177,91987.5960917963
1300,-1270811.5700291663,87558.33950531246
1310,-1273696.1206465063,90456.03492844985
1320,-1273978.7851330223,98040.68677284836
1330,-1270522.8559474458,90067.0251685831
1340,-1276481.5854131957,98377.06814401015
1350,-1271566.4776638248,98542.18786629172
1360,-1267467.6984735935,99869.0978161799
1370,-1253372.4348585033,107728.33605883521
1380,-1263862.871114299,120562.27319499318
1390,-1256284.4465787623,110569.96585981415
1400,-1260390.3954094637,110568.10798500812
1410,-1255005.778590395,119634.87553439886
1420,-1247426.8617488896,111910.84503097217
1430,-1243679.3623438412,107041.57034806706
1440,-1244603.3604310476,114444.89623421525
1450,-1237653.6786397125,103790.5188044588
1460,-1248648.0141972727,103949.13033183638
1470,-1252995.9819265343,100268.45373450768
1480,-1260635.354912111,100683.01392463592
1490,-1241598.078915827,116207.42145726172
1500,-1239507.341764811,105750.42580471626
1510,-1241345.5364211847,98597.46201925872
1520,-1236485.2955700916,100989.58217367876
1530,-1235066.1582258742,104600.8276510157
1540,-1232824.8409076785,107687.89646160897
1550,-1224280.1450460295,113231.7299056707
1560,-1231506.7741181373,103529.38567025606
1570,-1224268.8752855782,100624.15488778208
1580,-1220061.5961104461,101048.49215168178
1590,-1232906.8628763175,107462.58263982793
1600,-1226908.9704352517,106589.66627885829
1610,-1229493.0669038433,107524.09747320754
1620,-1217033.0191920549,106771.75933974925
1630,-1227103.1605839836,107502.00556606377
1640,-1225315.9079810644,110721.40472268856
1650,-1221504.5083403753,110288.83442510826
1660,-1220910.9430605527,112601.34506436445
1670,-1224363.323184851,114620.50175588382
1680,-1212710.4586999319,118118.25803118362
1690,-1210975.9012828965,118967.74418108059
1700,-1209353.5737250552,112477.59339675467
1710,-1210071.9790197678,115575.50809928711
1720,-1205117.1148787953,116313.27298389218
1730,-1191898.0213199942,111822.94214723619
1740,-1193670.228098976,109346.9716362982
1750,-1197343.155624187,103958.89209218026
1760,-1192789.2422332023,110682.43942625636
1770,-1185134.7744907432,104179.79738522824
1780,-1192701.3198388321,108784.50356859114
1790,-1196420.86864114,118398.63905043661
1800,-1200926.0789516098,112772.76916663219
1810,-1198013.7597011714,112299.82021141691
1820,-1192191.3617016578,112272.46765106155
1830,-1194360.4567659583,107575.942035303
1840,-1187325.9764829045,104659.03175570107
1850,-1187065.6722466322,110984.69451229164
1860,-1195863.4044525821,111598.27499655783
1870,-1191211.765108014,109079.35148418129
1880,-1189706.452343225,113420.76816845899
1890,-1187668.4504738576,123516.2486116681
1900,-1181494.85691717,111245.73835720654
1910,-1181738.6102921884,118698.03688512095
1920,-1172732.606549922,109210.83994688957
1930,-1180109.3054321376,104994.99805970489
1940,-1182862.2054128456,112253.7665438326
1950,-1188867.2144633266,103261.52640011164
1960,-1179004.0019820337,110644.86454145117
1970,-1168296.433938695,108122.99315980627
1980,-1165790.7634292082,113863.54919238325
1990,-1169400.8588002748,101390.17594538139
2000,-1182768.4983634627,116596.68825204614
