iteration,mean,std
0,-3810201.4915879183,9195.035155439398
10,-2008737.4306277558,95331.72066195309
20,-1811717.00007554,71486.64013963753
30,-1743908.66773384,61051.6849071028
40,-1766901.5623166494,66343.18171813204
50,-1719279.7016789939,75261.81485985276
60,-1720266.534090431,62184.0368468116
70,-1706279.6243651924,59287.18038524604
80,-1683402.18637682,42498.91588368484
90,-1681611.7808651037,51286.95863288856
100,-1623699.6790758404,59489.70917381486
110,-1578577.7331661996,78516.70616645429
120,-1555695.6420346254,50945.396075544035
130,-1546111.5271358187,48600.03968745721
140,-1542459.1515281082,45958.07168421279
150,-1523223.9308663749,51820.06548487113
160,-1526601.8262643,47160.491239057184
170,-1511592.9058823178,47714.49945845818
180,-1541669.9414297247,55526.90083003386
190,-1551513.9793518942,50872.49412349858
200,-1528259.628957151,47043.94584815047
210,-1541097.8924685563,48694.306451781034
220,-1540925.6624788297,57551.91087761773
230,-1541746.3404935994,45922.107386231226
240,-1517241.6677443632,44602.46813535783
250,-1518749.8925434486,57813.21658455152
260,-1530551.4975265288,52601.85983475966
270,-1524486.3799674355,64626.67756117356
280,-1533553.3607056495,63910.49469426221
290,-1521997.089311476,49948.69708220103
300,-1525959.8777328634,54075.643625594545
310,-1535637.5940829436,43547.18236433547
320,-1532694.5285793766,51825.676529979006
330,-1549408.58325611,58927.85527477622
340,-1545106.6374305573,47239.52518009197
350,-1538127.2160499147,48145.04229862973
360,-1541402.001475352,49917.14130454981
370,-1544537.569515871,46746.19885830821
380,-1546032.1478784354,53908.862670460556
390,-1540129.9236818873,59247.10938671335
400,-1551988.6682354654,62666.98150308424
410,-1541153.8201336968,54721.00995171989
420,-1531037.1275561128,59197.77193198366
430,-1540008.1256175695,49493.84614650015
440,-1525724.5126144458,56417.54125063628
450,-1518438.435067139,45832.92307448165
460,-1531173.7683187448,56660.80742704791
470,-1530661.792015743,49979.23261682541
480,-1538869.7090084949,44478.44758413303
490,-1518139.8627143065,46433.76664046793
500,-1535226.1304314504,54132.660172786746
510,-1536998.8399869592,49404.3817018237
520,-1537443.6623225994,58266.13972695447
530,-1522881.1621937905,55433.1296930963
540,-1538136.6385388533,63891.86673723902
550,-1537913.334319218,59274.95375775235
560,-1537625.3884173783,54129.54130316252
570,-1524929.9081063946,39121.66182112663
580,-1519379.3134828485,47802.682396531374
590,-1518668.847169082,43575.34887792527
600,-1526886.3790227599,50489.88449940505
610,-1529003.5094543558,68283.48581248798
620,-1535604.8711847945,60767.91022557955
630,-1510681.118388961,49476.60009834912
640,-1513947.8713365973,52283.06400788883
650,-1511915.8072211395,57272.85804675019
660,-1508575.0510003963,65041.00461509546
670,-1514880.680908849,71525.30108525541
680,-1516608.0443536744,75540.37728915559
690,-1521188.6857888948,78873.91313712926
700,-1508143.1432947519,62688.18163781081
710,-1496808.8019194403,53788.132513318655
720,-1502373.665116323,63408.760952694145
730,-1489447.9128847835,62337.28017870648
740,-1486202.398871111,65351.50387112715
750,-1477660.4872650253,76424.42070456587
760,-1461424.3695037789,73447.30257198827
770,-1455120.613245063,77122.79545504504
780,-1454635.5669875676,76050.29390503181
790,-1453073.857152077,66586.99340531428
800,-1465645.8092881914,58431.86168809968
810,-1466989.2124796784,73852.88891366453
820,-1467727.3267930215,80992.20914538682
830,-1456768.4433624768,83563.46174715972
840,-1442873.2103984817,86802.93674662334
850,-1441798.3338821174,74789.03636512716
860,-1444906.2387944423,64763.9760862245
870,-1444976.4251412689,71877.64489404754
880,-1437840.153868137,80095.87936996615
890,-1438683.3197387145,75242.20294125515
900,-1453819.5730864124,74512.39759152236
910,-1445256.9260993176,74222.54284978122
920,-1451524.7116988092,81767.74706889768
930,-1448614.0025739383,81989.82520763739
940,-1451216.5805115872,77508.75180895271
950,-1438088.7676448827,87897.6489537742
960,-1423576.8525892242,79996.13250380864
970,-1436769.1761743268,84406.35231330285
980,-1424489.8370304427,84712.96895596733
990,-1454695.166171393,73803.72815370618
1000,-1449566.3375840667,82503.84817468874
1010,-1449282.471818916,74280.8363318966
1020,-1438786.2624342232,75948.64085081963
1030,-1431488.1575929928,71981.76938944664
1040,-1437148.5944750325,82529.42515700121
1050,-1432332.4999590507,77432.66100543816
1060,-1431475.1120037423,75633.0521090155
1070,-1428002.871200658,63329.053326368376
1080,-1418875.8077210092,69832.61690203307
1090,-1401333.7311392636,69125.57262209836
1100,-1416245.3870841875,80421.79178472786
1110,-1397153.1525085769,82681.89658392691
1120,-1382912.248772171,77195.9723064959
1130,-1401342.5073208925,79321.84075700578
1140,-1383854.0090393391,77046.28289937174
1150,-1405888.6756876847,77849.26158544804
1160,-1423826.2577324866,78741.85597033823
1170,-1427885.1039073963,78415.58746781491
1180,-1410925.679081411,76218.33526970785
1190,-1416349.1113946638,73387.55992667712
1200,-1414588.6001146585,66185.96510374591
1210,-1406044.4304265638,71745.20938350761
1220,-1400748.6564632684,73037.82462268026
1230,-1411127.3058494215,78471.19357035005
1240,-1409206.9773258239,77918.46975196562
1250,-1396868.74008547,90251.29071382768
1260,-1399501.0337677894,73445.06077466687
1270,-1410253.2501197997,72195.27326451661
1280,-1404770.8446469982,70347.80348798362
1290,-1400086.3736856547,69028.66159133968
1300,-1378565.416713308,70603.99801128912
1310,-1380015.6696332635,68711.12086374123
1320,-1385222.08538192,71528.2855279852
1330,-1377425.5435185195,81336.14699308481
1340,-1394790.7242701869,80042.12580183655
1350,-1396149.5482516217,82840.14124849481
1360,-1376656.3227387075,86565.84246216548
1370,-1370166.2910758904,95870.52554817872
1380,-1394643.9221691778,99060.13600810702
1390,-1389467.1497943639,92791.46781869698
1400,-1374117.8213286938,75600.02756941887
1410,-1373345.124775864,76256.99032277985
1420,-1373296.7851221575,74567.1562799811
1430,-1368674.376394495,87679.83198068744
1440,-1367044.3073297634,88615.18535384328
1450,-1378442.5653317557,93928.43759993682
1460,-1384583.310094697,81096.77541944578
1470,-1374432.6368033143,82011.38474653439
1480,-1359843.3118431747,88288.41134372927
1490,-1350995.2801596182,80410.33701249096
1500,-1340337.459135128,85851.98025704875
1510,-1337614.777146365,82264.84070511018
1520,-1344776.2984310202,80483.17918925137
1530,-1343107.5890146415,94364.97069761672
1540,-1336671.1722151346,93506.47702502616
1550,-1324891.6990413864,85173.5830563495
1560,-1330287.8163696947,86403.52186229575
1570,-1338838.8499744232,95172.78644983377
1580,-1337733.7502548785,93647.476534402
1590,-1322042.048090706,88050.82205959572
1600,-1323565.226235268,74119.23375965534
1610,-1326845.919674097,69960.98303968993
1620,-1313227.1566245933,87291.60373170741
1630,-1317225.2108074836,89268.17233881248
1640,-1320637.7793046474,94465.57838337116
1650,-1304803.710949475,95263.90119173923
1660,-1303419.9305448828,97028.28461129164
1670,-1303092.8918212529,108830.33047918635
1680,-1306269.0584378452,102324.21887037027
1690,-1285215.514592596,85775.22187115338
1700,-1273028.381363762,107057.81645815365
1710,-1274288.363596318,106464.70991110905
1720,-1273464.7207854306,106356.01937225583
1730,-1252186.7754498057,108684.81881521926
1740,-1238561.6196622201,109083.08816155247
1750,-1255365.8008969924,92441.34928248044
1760,-1241875.8955195623,94846.97679935131
1770,-1254985.2010301878,103539.60138143688
1780,-1245616.681205246,108451.64113658707
1790,-1245291.511688155,106989.77300930045
1800,-1234215.448406724,122299.83943258681
1810,-1227895.4330159267,114382.69340683108
1820,-1217352.4967928703,112699.45671985652
1830,-1232998.3979519373,123390.31100841702
1840,-1228516.7115098382,134777.13689941526
1850,-1229961.0866955996,135318.2074908277
1860,-1248077.2769758122,133351.48554923208
1870,-1227983.2802477689,139500.23079298608
1880,-1222694.3562575947,127098.08576031245
1890,-1225481.936092569,140428.42224615303
1900,-1227509.655821553,157658.33790737894
1910,-1222931.6516897155,155369.1426187802
1920,-1206924.0838266697,142569.8423362324
1930,-1195096.5942450017,143835.71813331245
1940,-1181925.4886309535,152298.36062914482
1950,-1185767.652760889,146420.17839804845
1960,-1180072.2971872846,139548.98194112183
1970,-1181286.205410129,148088.20321237016
1980,-1167258.348603056,154501.20250971592
1990,-1164228.611739562,152565.98394280145
2000,-1165715.1659851528,141516.3366448879
2010,-1167999.6024483512,154086.35074585184
2020,-1164171.6823522034,165036.60617284983
2030,-1170757.499499571,157357.965480547
2040,-1161065.134113111,154301.53464124585
2050,-1147476.1621340702,151744.08999138445
2060,-1148507.1156552117,153521.46050948216
2070,-1150710.6048474484,150258.55773839424
2080,-1152317.7940430292,158063.40772972238
2090,-1191221.2951133049,150456.79115968297
2100,-1177857.6906386656,166362.7138512423
2110,-1155999.8285820072,159890.96534079628
2120,-1144894.4308696897,178805.9289602095
2130,-1153564.0875521423,172196.59323704237
2140,-1147335.022890856,173814.40962584288
2150,-1151089.6961618515,175459.62889763011
2160,-1151070.8460418496,170820.94743366336
2170,-1161711.5246549668,157761.4906473931
2180,-1128195.541802699,155505.06899542562
2190,-1136403.4179953143,165690.63965613232
2200,-1147255.8057926556,164192.7249711215
2210,-1153891.8802396317,153853.78083341915
2220,-1144805.806802583,162758.04728921008
2230,-1157138.6569108334,166208.67817584667
2240,-1150527.5620791905,162690.44987493686
2250,-1143208.021997109,155909.99527079077
2260,-1137987.850559554,158330.43789901884
2270,-1139754.2754612654,169613.04553015204
2280,-1132440.6747387848,150996.92931585747
2290,-1123164.3050357283,146626.10002489388
2300,-1146152.1054478185,158621.51839942296
2310,-1123730.0338421268,161628.51083687737
2320,-1142618.657925975,161939.06802540165
2330,-1125331.6978783011,158153.3446595777
2340,-1123675.4992533638,151876.52672779182
2350,-1130152.378415554,145229.0576654337
2360,-1124429.6766740575,144433.5145666093
2370,-1103201.6809939547,156275.6840765773
2380,-1096340.7161092018,161298.6348164804
2390,-1103863.6104887729,162651.5903561516
2400,-1115059.1862068465,155466.74006428395
2410,-1109313.0333586866,147865.74693272225
2420,-1115743.6830488495,144020.58652245547
2430,-1123847.405219343,145335.57576685245
2440,-1111881.0132171581,152894.72582298145
2450,-1115220.6793596994,157142.9236625822
2460,-1104718.126568617,148031.11265946977
2470,-1104401.9759919832,146567.1678272937
2480,-1110381.1268313501,151611.2662490531
2490,-1101753.226292805,151858.84744520322
2500,-1094721.0852805483,136120.3807850905
2510,-1081193.1763417441,138228.44500447693
2520,-1073547.1215697592,146132.99555142893
2530,-1074422.2868998034,140874.1198541493
2540,-1092637.44527391,149384.57200896638
2550,-1084119.2873427563,146076.51818986452
2560,-1087413.8865756853,144695.60075861792
2570,-1089146.8062715326,150246.05557640392
2580,-1070350.3956470094,144107.40819029667
2590,-1072738.1877627443,143713.47227622426
2600,-1079147.8653354305,137997.89126639478
2610,-1059101.9537236427,137299.00759548592
2620,-1058956.0518296864,142031.7620992177
2630,-1055114.5664972335,125861.20628670801
2640,-1043992.1122773986,127664.91880071815
2650,-1063123.7564014145,145750.96577591394
2660,-1082396.2222329532,128181.86451747085
2670,-1080773.6445244553,131863.45521170413
2680,-1078208.4497170546,145226.19607898095
2690,-1053931.7982849467,137420.5635541734
2700,-1044459.1232320943,147011.7565619953
2710,-1045943.5201637952,143892.18372432358
2720,-1049716.5487095164,136349.49033597688
2730,-1072398.1499093955,142448.6039426977
2740,-1071381.8789878683,135384.04851965216
2750,-1049951.147091284,138088.86242454042
2760,-1053520.3173033479,134608.22753815018
2770,-1034455.8948676024,119233.84903822406
2780,-1016405.5482329736,109251.65372546604
2790,-1025326.0975859907,109447.1810454467
2800,-1018802.1544913051,110361.81972753795
2810,-1027540.9206736231,116427.90609267098
2820,-1039146.6759789584,125504.31838182158
2830,-1037035.3347805456,125885.2358661867
2840,-1029879.455969283,125137.4875268191
2850,-1028992.9433561245,125279.6199419203
2860,-1029124.4797965648,133893.1145476439
2870,-1028231.9753354259,126232.74114018519
2880,-1033540.2073262746,121459.29257909504
2890,-1034317.7198978376,129467.08942784283
2900,-1009640.913262191,123096.21323375775
2910,-1031396.9531036159,112045.34964256127
2920,-1015436.6904272636,112879.39629303348
2930,-1036194.3976231754,124124.17007914875
2940,-1023354.4685509264,119532.78166710747
2950,-1017529.6042524151,120208.99054781807
2960,-1009507.6046361314,119165.6268164671
2970,-1024311.936658153,110066.44295033821
2980,-1028450.891405128,111183.4231932935
2990,-1030221.7719773303,110739.09254739636
3000,-1032750.6513958505,109905.59889411803
