iteration,mean,std
0,-119566.00615197278,620.5477171724621
10,-76812.93815453621,27972.76056236322
20,-68131.35159324619,26111.635609228157
30,-63356.76593751363,25627.519373493757
40,-62957.90622750526,26244.63667004593
50,-62567.494520558605,26638.195096904372
60,-62295.191005225795,27023.516747753372
70,-62134.28211858183,27220.86874056201
80,-61875.02015095243,27574.993170526603
90,-61780.85097087365,27466.457842573487
100,-61600.04133642779,27971.786376213466
110,-61444.54451276809,28143.551969297834
120,-61396.556715556086,28253.249030345927
130,-61314.2643907082,28415.638943888604
140,-61192.82897660766,28264.105935770473
150,-61117.75353049308,28599.77882299089
160,-60967.64326302387,28577.284072788494
170,-61042.59010350208,28979.687683043867
180,-60241.11159835731,28362.388348627584
190,-60170.750380382975,28601.492900821264
200,-60158.70318277822,28722.42047830424
210,-60340.732492563875,28300.33938938377
220,-60129.11239174115,28493.181502405456
230,-60200.68006900665,28582.14961547399
240,-59988.655599534555,28442.62818911081
250,-59903.577537581165,28560.10426485175
260,-59891.458296497076,28653.78845501568
270,-59881.16529624593,28692.262142565152
280,-57339.180565332106,26211.809038304884
290,-56170.13708911118,26576.297115592657
300,-55767.371651335445,27192.94192105416
310,-55546.41673533969,27335.67340486393
320,-55436.08650746086,27329.6334104605
330,-55230.776626963925,27532.143995375973
340,-55088.70396203305,27882.456026918226
350,-54062.53116032978,27212.380256180062
360,-53710.20702485037,26950.89057545043
370,-53561.48916255023,26989.36584000064
380,-53488.03699345076,26972.379852095746
390,-53525.55941610219,26997.20033132937
400,-53480.45587240586,26987.21016060528
410,-52492.59767182204,25876.32465732394
420,-52202.81596382583,26296.48367353095
430,-52658.06633788768,26781.356071204533
440,-52024.58430741192,26305.760858126956
450,-51280.183049694475,25823.43454728106
460,-51080.96593103295,25750.73648908387
470,-51050.130839358004,25728.392479345304
480,-51009.364398002755,25752.17393931475
490,-51011.702293482966,25798.69043833862
500,-50403.71689146994,25742.857080729038
510,-50172.1643455669,25928.470766979004
520,-50379.677934450956,25576.557014083523
530,-50135.68665920365,25818.16351567275
540,-50165.65450443193,25833.27545425737
550,-50112.990432394305,25884.494608668265
560,-50022.89982578166,25960.18533044356
570,-50036.2481601927,25998.9537700055
580,-50047.08804384674,26035.4742410836
590,-50053.10579320423,26044.385079522737
600,-50048.40954181242,26047.304765360586
610,-50047.77207926237,26039.317813198053
620,-50050.98571973881,26045.212750207484
630,-50052.73239902288,26044.18133574047
640,-50042.12643214963,26035.43431503652
650,-50038.945569882075,26008.422988793944
660,-49995.66440441055,26009.754643621724
670,-50019.52528513306,26025.49242837416
680,-50009.795518882675,26031.52878204833
690,-50006.18309979511,26034.21448090677
700,-50021.44227355198,26025.29932775023
710,-50045.87662051641,26049.46505446849
720,-50040.67022622588,26062.768171434756
730,-50048.69235299608,26067.922460948153
740,-50089.16333128422,26031.831936168954
750,-50118.576431220645,26008.72981979748
760,-50331.867683260374,25805.35791999323
770,-50152.82564802793,26076.487286807118
780,-50098.58421474329,26113.402505827766
790,-49708.16112860613,26444.169960323437
800,-49754.40030981861,26391.24303525158
810,-49792.12586158822,26345.07418552943
820,-49954.41443375115,26220.917015313484
830,-48544.87606006571,27393.06048086631
840,-49069.39494672794,26900.73459518345
850,-48771.273154007686,27177.889891947867
860,-48665.20432374226,27315.19573671396
870,-48664.49614609361,27328.99712581264
880,-48654.51021624942,27349.46749425884
890,-48637.11817166396,27355.66840231339
900,-48481.49422953035,27066.450640192514
910,-48423.63161741415,27130.411519968362
920,-48289.23300248292,27283.21240610637
930,-48398.6306317178,27154.095045280035
940,-49360.721459298984,26677.468070572966
950,-49261.05441881697,26745.03880775846
960,-48840.05443393978,27344.175809391323
970,-48767.54586826241,27377.471289993086
980,-50197.14674036857,25692.926774035248
990,-48546.72274711341,27124.454783181212
1000,-48877.16084889197,27249.07604053129
1010,-48973.81238619841,26779.680495978057
1020,-47970.949151649846,27598.954922327142
1030,-47633.576430312794,28176.19110813042
1040,-47926.30677807485,27837.871734021286
1050,-47955.131656355,27841.068141788146
1060,-48171.73185371372,27538.083209161414
1070,-48027.621901675586,27585.701234331365
1080,-47811.13773470226,27556.004255887645
1090,-48180.26751134066,27041.87907387197
1100,-47608.28676269394,27931.51415163434
1110,-47491.795537250015,28146.63779733954
1120,-47475.66889072275,28160.130177137864
1130,-47778.84123985965,27678.10389552809
1140,-47695.22205989422,27748.00771958259
1150,-47674.87423755318,27806.88809206677
1160,-47682.56120381632,27758.186437429962
1170,-47769.50697933332,27646.68408009641
1180,-47580.08395806098,28070.150697151363
1190,-47580.2293481151,28075.936528024475
1200,-47614.03021620569,28051.599775070586
1210,-47684.3483126921,27913.095029442473
1220,-47926.254145857434,27584.354400483127
1230,-47421.740039580865,28476.560106103545
1240,-47401.31283109831,28532.457569694812
1250,-47609.38955567524,28175.72027088876
1260,-47792.879576808555,27956.072911380757
1270,-47337.7358415915,28460.059821402647
1280,-48416.88177140882,28064.187771175864
1290,-48230.43006237655,28148.50694684293
1300,-49670.66866744506,27165.194937968572
1310,-47916.25198140806,27941.012930244036
1320,-47725.00229329852,28107.988265915505
1330,-47172.89157125093,28359.131422230443
1340,-46941.321767511785,28714.802167917886
1350,-46746.3180210702,28860.06365719757
1360,-46498.12385983865,29031.415486005168
1370,-46480.632245827626,29140.649947539776
1380,-45002.295294361415,26646.445031545718
1390,-44169.93127023427,25670.06278360684
1400,-44230.459853653534,25745.847620703695
1410,-44259.25465282063,25806.56842386919
1420,-44286.07573785737,25856.201357327882
1430,-44116.0096679602,26212.475633458336
1440,-44166.92913658354,26206.25467740261
1450,-44258.38632872302,26160.713867362614
1460,-44370.989438548,26070.91119708057
1470,-44503.78278568918,25972.563247965118
1480,-44410.349900309935,26118.45270564159
1490,-44083.291548841116,25825.255346120528
1500,-44366.11513643129,26184.035908368816
1510,-44287.22670409382,26091.952849591613
1520,-44279.61804280988,26162.704508620896
1530,-44383.861368844,26031.36030214121
1540,-44400.792017621265,26042.092417073145
1550,-44372.114791671214,26156.650828509257
1560,-44280.06659176541,26259.37226120703
1570,-44282.73795659432,26264.52500055448
1580,-44277.546417272584,26311.41835756444
1590,-44193.18681235767,26403.869947593856
1600,-44012.68399090792,26271.32597086627
1610,-44014.871299417064,26346.313263884913
1620,-43979.79470507782,26304.993295033615
1630,-43880.10919939115,26260.371281160813
1640,-43865.3537918652,26303.592667046738
1650,-43803.847068854055,26285.392666272477
1660,-43837.28766496181,26050.68004124589
1670,-43853.939357616364,26167.78364845299
1680,-43881.948325032245,26202.56009976427
1690,-43892.64762934017,26270.871291247946
1700,-43851.2586266719,26339.599109785166
1710,-43888.59168277862,26493.367866741883
1720,-43889.33265983237,26433.004945908786
1730,-43979.76773595896,26087.921445295222
1740,-44640.605832633744,25099.478729104158
1750,-44019.68180845848,25531.958703019307
1760,-44064.24832405386,25359.000240735993
1770,-44079.37312246771,25466.28352198085
1780,-43693.41205634735,26192.652956717673
1790,-43625.26705150926,26313.329005528118
1800,-43533.43523486667,26395.37761103659
1810,-42285.23400387318,26007.286586485174
1820,-42331.59901437752,26013.517156043374
1830,-42327.32312175968,26036.78220425881
1840,-42308.91929298454,26062.68847051738
1850,-42304.9718499343,26083.718866133964
1860,-42004.1329675957,26030.213699333246
1870,-42202.801404876125,25760.18366428809
1880,-42011.33600831369,26046.910006116865
1890,-41997.075870871704,26082.87020807564
1900,-42206.46098805305,25880.445334802633
1910,-42173.61819245382,26073.113561704886
1920,-42222.61571234437,26080.227412393684
1930,-42084.3821567527,26010.69300230015
1940,-42216.61541908873,25815.638383118898
1950,-42299.22613348004,25707.249953685445
1960,-42310.78883563622,25663.914414904415
1970,-42543.87043275489,25395.08030517278
1980,-42539.901342302706,25403.101152272324
1990,-42490.98064966405,25476.282676684208
2000,-42529.95588615226,25439.877408180666
2010,-42510.489006520496,25404.62195545283
2020,-42455.52054068576,25476.564437712554
2030,-42356.812580982456,25615.375949391455
2040,-42335.59649198716,25511.07808670091
2050,-42321.79607109747,25520.417461233406
2060,-42239.645207898124,25641.19853927129
2070,-42279.609578706186,25592.41092786275
2080,-42308.45651218337,25571.13704716038
2090,-41984.89163043426,26020.395958207737
2100,-42123.545356428105,25819.494736750654
2110,-42160.789844262035,25788.490487477124
2120,-41981.42842975098,26080.893637220073
2130,-41971.81618123107,26096.842480652427
2140,-42044.132542759944,26006.230049494094
2150,-42039.46951145594,26018.977912564445
2160,-42171.59258245644,25845.808329965657
2170,-42446.92237530358,25497.559799091654
2180,-41883.02636274917,26272.986652736363
2190,-41825.56333600775,26306.07288868574
2200,-41986.755487529146,26089.313935210608
2210,-42048.03467095386,26041.57307389424
2220,-41934.23253839962,26201.256270793765
2230,-42065.30240103169,26031.174357936983
2240,-42018.93766809309,26051.228749453956
2250,-41881.685023293234,26251.485016039358
2260,-41973.53228969922,26115.713190392173
2270,-42120.56295126943,25917.410092144688
2280,-42280.880147181444,25686.194276311322
2290,-42605.238751624696,25319.709392309134
2300,-41996.38801376701,26099.89064264329
2310,-42083.683597455485,25982.015615670898
2320,-42283.54530134993,25720.883830323593
2330,-42443.67473359505,25530.155516070943
2340,-42774.47004560758,25129.129103710107
2350,-42812.17741390057,25369.306439478078
2360,-42761.80793959952,25998.806804509462
2370,-42989.915642642336,25094.31715890231
2380,-42210.02484061219,25919.96377338432
2390,-42258.3208031237,25876.512979893603
2400,-43195.82595865188,24796.509506415234
2410,-42214.75174537067,25931.841585928716
2420,-41981.96315653328,26251.08915222548
2430,-41962.267243295224,26319.187490633667
2440,-41971.94786796346,26183.67750761751
2450,-42024.43789723887,26109.066245100294
2460,-41914.27224310468,26283.515054498854
2470,-41953.248501282214,26298.38654904024
2480,-41965.610324553025,26344.188296758035
2490,-42002.632785831796,26318.210231359033
2500,-41969.867753210674,26249.857764918772
2510,-41973.57118662079,26274.48592342521
2520,-42001.662312993816,26312.629531941908
2530,-42132.83620883371,26087.37716647778
2540,-41920.062636012044,26300.418413501087
2550,-42089.2917016215,26065.954691806102
2560,-42225.26530797811,25873.326451758432
2570,-42281.564599097,25782.59530108212
2580,-42415.661318438695,25626.084051325615
2590,-41948.12675582054,26182.324288406293
2600,-42027.26094460764,26239.65546888537
2610,-42005.55409026483,26278.43699321865
2620,-41802.596010478446,25972.849154013955
2630,-41659.077298847384,25890.185241370975
2640,-41735.03628530384,25983.003875922
2650,-42278.271412048976,25532.49963619737
2660,-42960.08205213152,25227.558756669165
2670,-42242.198531399634,25265.977624821993
2680,-42143.8559735891,25243.456178471497
2690,-42260.70373244791,25431.070867371716
2700,-42324.887016954955,25698.265361460984
2710,-40768.44891303204,24576.870904424082
2720,-40974.25624580571,24560.851198906115
2730,-40272.510635239436,24471.694375935644
2740,-40332.206663961726,24624.901919465363
2750,-40120.485127763845,25069.254479005678
2760,-39188.08984308571,25168.899668433794
2770,-38873.04392485755,25262.577018461863
2780,-38909.49619134721,25219.05781536584
2790,-38703.767548248645,25401.232074348078
2800,-38758.619721186,25374.42287549547
2810,-38688.25357995361,25468.86568267139
2820,-38681.66025826023,25497.993912856415
2830,-38744.92423423311,25485.832146818782
2840,-38754.059783693054,25323.549860878033
2850,-38650.011084719576,25439.534030997394
2860,-38604.3613447295,25474.71022608843
2870,-38638.304113670296,25425.630672985415
2880,-38413.597361011576,25738.384449926954
2890,-38287.91498617912,25872.550890104456
2900,-38273.41776312473,25918.62850665998
2910,-38446.43523869202,25724.4405653679
2920,-38194.65796996029,25942.94667112302
2930,-38148.00790462461,25961.313070722554
2940,-37957.30662129754,26212.488483813013
2950,-38248.2244899327,25854.36301060801
2960,-38871.412059750975,25252.192450873485
2970,-38517.103321596886,25610.3347173224
2980,-38729.551736383175,25443.825002204594
2990,-38201.59451451723,25952.788171910765
3000,-38507.41165895442,25654.329144578303
