iteration,mean,std
1,-113103.302734375,4415.067982485792
2,-80547.01875,9813.656729298978
3,-70658.4041015625,3393.6677333791336
4,-79704.534375,7398.448502372858
5,-96086.11171875,10807.394504274711
6,-73160.2701171875,8360.989920751377
7,-76596.023046875,5460.6369033039155
8,-68154.816015625,7102.928455554863
9,-53632.8626953125,1473.79900104018
10,-64567.6255859375,3036.0568606278416
11,-58193.5951171875,3585.5495031029445
12,-73113.6265625,4239.917011572799
13,-57579.0611328125,5481.085227612595
14,-59323.2185546875,5374.2072600790725
15,-53932.3626953125,4894.001015865356
16,-56612.817578125,5307.113200375846
17,-57377.8826171875,2639.4030182889255
18,-52255.9419921875,6665.958858568963
19,-63287.9861328125,8936.85042728372
20,-58396.5123046875,8805.647816895109
21,-61239.091796875,10440.955065353071
22,-50253.77109375,4199.904254279829
23,-55744.7564453125,5961.297625361757
24,-60890.98515625,5128.482071189132
25,-53455.302734375,3583.595201980699
26,-67729.441015625,11957.05256656284
27,-55308.807421875,3746.47937815089
28,-52962.7134765625,2838.72266875071
29,-54656.06171875,9339.221578362572
30,-64259.34453125,9521.343130844729
31,-54988.7248046875,3161.358929432311
32,-63579.674609375,11759.86139131008
33,-69498.3541015625,5904.511221230619
34,-65849.4564453125,9563.477250072036
35,-58770.6109375,6678.274292421128
36,-49341.239453125,2765.0094415301633
37,-67062.134765625,8446.576298543123
38,-73575.976171875,9838.073203334045
39,-56440.866015625,7004.309825014572
40,-55017.8359375,10477.255020258219
41,-55627.9404296875,3364.450377978993
42,-55174.2609375,8868.017126161352
43,-55445.43828125,5326.514239050295
44,-56022.189453125,5187.9237789463
45,-70001.156640625,10146.647820659386
46,-54326.33125,3696.541664889244
47,-56416.78515625,5845.490934648109
48,-57430.5783203125,4846.712827851052
49,-53379.664453125,7764.186645993573
50,-58313.8416015625,11677.536965093626
51,-58564.787109375,5838.432866762836
52,-54264.5703125,3532.105869776521
53,-53600.2654296875,7752.126359054951
54,-55179.8703125,3859.943400885464
55,-56860.9103515625,8275.878117171465
56,-58406.4625,6219.948087875304
57,-51389.910546875,7082.562711252797
58,-64531.9572265625,4455.454697137207
59,-54153.2923828125,4281.86015031393
60,-59601.4287109375,6224.433902246417
61,-60096.7841796875,16639.428449256156
62,-50491.9521484375,5296.105124637421
63,-51289.0890625,5375.031343586591
64,-53767.683984375,5927.404409947656
65,-78346.255078125,7512.312806446485
66,-54777.4392578125,4234.982618565201
67,-52073.63515625,6138.794677724587
68,-51497.0169921875,8538.282013878901
69,-64628.1998046875,5638.569812522401
70,-50586.7564453125,4277.33643561505
71,-55428.798046875,6373.998700485013
72,-52991.5880859375,7761.882329335918
73,-57632.24033203125,13108.16350758532
74,-52789.3896484375,3123.4041488063162
75,-54639.483984375,7235.505855648446
76,-55652.84140625,8973.458246114098
77,-51797.067578125,3383.8731356019634
78,-61358.15390625,2651.623262920239
79,-53948.1890625,3039.846835724458
80,-51986.3365234375,3556.313607765929
81,-52766.2943359375,3931.013899944144
82,-53900.9259765625,3126.122402343373
83,-52002.9736328125,6814.9353936228445
84,-56898.6908203125,3585.1480598148923
85,-51623.92119140625,14180.002224080637
86,-53379.46689453125,12692.894447430153
87,-68989.2849609375,6027.800295540505
88,-52569.3123046875,3154.4434998645484
89,-50475.5154296875,3689.25974435498
90,-53088.6818359375,10735.02405951726
91,-49518.5462890625,5938.05995922046
92,-60413.530078125,5635.899022253254
93,-62068.5009765625,8586.086595914208
94,-50158.11669921875,10068.932177203664
95,-49052.230859375,6375.253724988655
96,-53547.9185546875,2705.97271011003
97,-53056.2375,2609.2313674729617
98,-56368.114453125,2463.4523254123715
99,-53599.5265625,2620.603005754677
100,-52238.020703125,7464.299556256675
101,-55421.740234375,2481.430499663242
102,-60192.349609375,4108.288067100805
103,-58192.7716796875,4226.221108722197
104,-45474.1021484375,7357.6147218651995
105,-57151.8625,7422.673998677684
106,-51905.9693359375,3745.124613735156
107,-61592.30703125,4034.1042245964873
108,-46056.48447265625,10856.981428595791
109,-55072.1796875,2724.5594647878806
110,-46568.5208984375,7965.879688101653
111,-64355.447265625,7764.452298033104
112,-47402.024609375,10745.53164520058
113,-53275.33984375,2871.734052737173
114,-48223.1728515625,5682.408763648139
115,-62755.526953125,4118.32903834812
116,-51020.7048828125,4856.880819291182
117,-51346.2625,7635.926590561196
118,-51269.5349609375,7623.005452892007
119,-47646.863671875,6224.017624207613
120,-52812.337109375,4948.103217260014
121,-51688.2712890625,3728.1022199859262
122,-50715.262890625,4890.9842382661955
123,-44231.710546875,6816.89424047434
124,-56829.0978515625,2264.8272537725607
125,-45810.80703125,7627.737346796824
126,-49118.3009765625,3390.5006953737234
127,-48237.250390625,8070.589625120473
128,-51521.74296875,2524.92695091912
129,-54073.3330078125,2718.5988139808874
130,-50196.4732421875,3413.3413541488108
131,-49136.7849609375,4934.968350633586
132,-44686.77587890625,10703.126617331169
133,-47966.1982421875,4016.921134500062
134,-46475.75234375,7738.017377039727
135,-59178.026953125,6247.964138478911
136,-46681.0849609375,4354.956376885458
137,-52680.9849609375,2877.752528832731
138,-50397.6546875,3139.7209691054286
139,-54129.4408203125,6793.362194460099
140,-50981.6736328125,2865.0202041423468
141,-51042.7841796875,3049.357818237831
142,-48002.4880859375,4405.621016843812
143,-52506.7232421875,2921.8523981326475
144,-49161.7626953125,3541.9008685082636
145,-51600.5927734375,4436.687191628454
146,-50725.2591796875,2970.038255631716
147,-51092.0111328125,3334.8466053304614
148,-48254.1423828125,4076.006154415189
149,-52797.7013671875,3052.1834639207295
150,-47004.53125,5343.031805545443
151,-52673.50625,5799.62898810396
152,-50136.2103515625,7022.8682118999795
153,-44219.977734375,7418.944510648598
154,-51235.2701171875,3054.1736979277657
155,-48574.88505859375,8208.120338105262
156,-45414.55634765625,7878.11868113236
157,-47743.85703125,4223.540053465774
158,-46252.347265625,4243.628568222054
159,-40856.4982421875,8125.66593246672
160,-43497.116015625,9376.685488556677
161,-49036.93203125,5711.472254448921
162,-50475.958203125,4083.072436108508
163,-45772.483984375,4217.887686739653
164,-54697.2015625,5731.295243055427
165,-49797.680859375,3146.1805793731955
166,-48241.7232421875,3464.2595421916217
167,-49497.52109375,3307.332195034922
168,-43763.1814453125,8702.531212075095
169,-43816.46875,7008.701326348196
170,-53357.544140625,3041.626659299981
171,-54591.3669921875,2996.4951817801366
172,-56387.0259765625,3137.6079896375495
173,-54663.8568359375,2418.909255084344
174,-51034.0234375,2568.2562152007176
175,-50075.2943359375,3207.2031065127417
176,-54735.89765625,2532.770948919373
177,-53637.80703125,2479.1830896838533
178,-50575.4025390625,3931.223132986855
179,-49859.3552734375,3096.5536145416786
180,-46654.8251953125,5567.985293703537
181,-42966.03740234375,9608.509728854653
182,-55544.6935546875,2813.2221230925284
183,-47020.7822265625,7077.166817703282
184,-50183.383203125,5183.1647738547945
185,-50285.1630859375,5549.929406956024
186,-46389.070703125,6385.019810913575
187,-52917.741796875,1994.8599578567198
188,-50241.25546875,2542.692634718217
189,-49456.0140625,3567.1761628810787
190,-46411.167578125,3323.572500578009
191,-50888.8724609375,3816.073633185776
192,-51892.6580078125,5502.204840797961
193,-55969.57109375,2445.780315146828
194,-55260.325390625,2235.6976836705644
195,-44763.831640625,4093.941720382951
196,-43181.0037109375,5923.297887022891
197,-47739.1642578125,3347.1302207742174
198,-50846.89609375,2927.37712004307
199,-46980.64609375,6018.380583397007
200,-69133.7173828125,6200.0527280075585
201,-53918.4927734375,2685.623187592248
202,-53721.906640625,2766.582869318328
203,-51584.822265625,2933.649442483928
204,-47033.0865234375,3901.4874924352844
205,-51363.3923828125,2761.8624483562267
206,-42057.9328125,5121.627996443887
207,-53507.228515625,2732.3932944279873
208,-48556.11171875,4000.9600948296156
209,-46848.445703125,3717.4862565989624
210,-46289.4072265625,3435.1663287353913
211,-44438.016015625,4237.385604096734
212,-53379.1287109375,2647.9648495396796
213,-50601.8580078125,2502.5005863512247
214,-44734.7130859375,6216.925064300737
215,-43145.544921875,6206.838437446702
216,-49635.6826171875,3493.4749500933945
217,-47437.4373046875,3450.436410388123
218,-63782.4048828125,4391.250880666898
219,-44657.26796875,6068.672564711687
220,-53525.457421875,2707.1882682351356
221,-52138.3658203125,3197.615613523676
222,-43638.8341796875,8270.95568228978
223,-60131.9041015625,9085.17694396122
224,-42403.55283203125,8676.166074441519
225,-41990.5015625,5986.370907889459
226,-61349.8619140625,7225.763502737613
227,-51966.8302734375,3072.201282132639
228,-54947.3404296875,2892.5787292673435
229,-43317.54765625,6681.118377029261
230,-44235.5271484375,6680.1576812518015
231,-46559.2060546875,3704.7397168588564
232,-42970.80888671875,9887.323704258306
233,-50885.033984375,3074.880423628999
234,-46632.5224609375,4080.055657232275
235,-49072.9642578125,2996.0791172648997
236,-53210.026171875,3256.363780590632
237,-55729.6822265625,3340.1605981315993
238,-49746.5109375,2916.1399030730754
239,-56351.864453125,3170.920974148551
240,-51850.3130859375,4836.242076624588
241,-45610.4359375,4449.747831202586
242,-55138.9546875,6136.5222260979435
243,-48783.854296875,3292.762390744124
244,-46926.2642578125,5186.28270952198
245,-49291.67734375,3520.4070841511325
246,-46287.875,4030.546789391825
247,-52315.230859375,3133.5687261056305
248,-54159.446484375,3386.978933290819
249,-48225.3654296875,3309.2693415848325
250,-41674.5408203125,5586.220718022761
251,-51013.301171875,3642.0977541889183
252,-42056.2830078125,4619.265342444786
253,-59652.4943359375,3748.2028033872366
254,-54244.8435546875,3439.8980102500204
255,-46993.1751953125,3453.735502136545
256,-39709.53984375,7026.765588118035
257,-54444.2787109375,3672.7725307206942
258,-51157.6556640625,3617.285038537167
259,-48428.475390625,3519.9699878031115
260,-36142.2638671875,9426.874728180575
261,-47694.8611328125,3866.0764959130192
262,-41435.5943359375,6296.013558035831
263,-44775.528515625,4207.397373781392
264,-46976.591796875,3847.3760515181643
265,-54289.3484375,3347.8384420875896
266,-53010.1076171875,4931.242585804669
267,-39742.8095703125,5562.916726351894
268,-46208.5919921875,4384.519494610359
269,-51856.3501953125,3029.1138465833806
270,-51462.3765625,3015.615201298999
271,-43905.5328125,6839.866345462393
272,-53654.5548828125,3392.8089260014203
273,-51135.9255859375,4389.468390101262
274,-43933.458984375,6242.8727785138035
275,-46829.8681640625,3348.4533079911125
276,-42671.78515625,5243.065336223326
277,-43659.3064453125,6437.708303974283
278,-51905.454296875,3607.094118005398
279,-54943.7546875,3815.5837769824225
280,-44355.109765625,4847.523626634707
281,-52848.2482421875,3566.4930760186785
282,-46052.6173828125,3585.8110533284143
283,-38171.91748046875,8789.05236178445
284,-41941.1455078125,7033.67673790501
285,-54595.662109375,2978.7972199829014
286,-48299.2515625,3340.0095818301975
287,-45813.224609375,3406.024069039784
288,-50053.49765625,3198.916479055214
289,-46727.730859375,5213.701649175307
290,-46348.6470703125,4156.682558302624
291,-44494.7296875,3952.728900638256
292,-49383.9955078125,4556.5641058921965
293,-59184.3109375,3335.6873313691826
294,-49955.1859375,3246.3950594574912
295,-53343.6228515625,3492.591755321281
296,-54351.9830078125,3810.0587726572016
297,-51539.9580078125,3527.086588893081
298,-43108.33515625,4456.285670834528
299,-56692.816796875,3104.168509408291
300,-52856.730078125,3415.430099360147
301,-53772.815234375,3450.48674382782
302,-52967.647265625,3435.894346330555
303,-48550.6279296875,3817.6576652509307
304,-45780.7142578125,4056.0385711292356
305,-46554.5728515625,4442.788328289163
306,-54086.2751953125,3729.2529992473205
307,-50024.885546875,3302.1821223428824
308,-52996.4546875,3378.400485899807
309,-47537.384375,2979.96624129187
310,-55242.8158203125,3719.8697863780317
311,-44022.804296875,4002.0676019919056
312,-53019.812890625,4811.528434515256
313,-50344.0421875,3404.52513061127
314,-47092.8033203125,3358.39561118581
315,-42522.2966796875,4547.313054697264
316,-50083.1333984375,3574.1618927304603
317,-49255.112109375,3971.6983491111514
318,-38557.14306640625,9010.797850510087
319,-46738.71640625,3899.3168059875215
320,-55261.6091796875,3523.8641667866464
321,-47513.891015625,5453.862020247177
322,-42924.9640625,5338.408634073938
323,-46011.6103515625,5163.426734581377
324,-49249.6857421875,3655.346498425442
325,-51869.0673828125,3326.227931796484
326,-57022.6712890625,3578.5250094506346
327,-42058.19921875,4750.928222692317
328,-45042.2669921875,4577.525360426562
329,-43217.8462890625,4803.468765577388
330,-45855.0072265625,3644.347439447907
331,-46407.2447265625,3815.953501894157
332,-53284.859765625,3203.1324562929844
333,-49330.133203125,3289.6543124571594
334,-45217.2814453125,4462.41399010005
335,-54122.2701171875,3730.1341708256637
336,-39846.223828125,6085.76725299865
337,-51594.5623046875,3613.5385315603266
338,-50498.7384765625,3559.022452072292
339,-53724.6833984375,3471.8333650459253
340,-46303.2375,3035.694142580971
341,-44403.3578125,3825.145087445394
342,-40251.1759765625,5584.070170496056
343,-51745.349609375,3254.896768694413
344,-50754.532421875,3303.203987868556
345,-39794.9966796875,5622.701308232777
346,-48391.6404296875,2983.5879058994433
347,-55923.5541015625,3678.8447666405254
348,-34929.65849609375,6588.703434706844
349,-43999.443359375,3441.690099280353
350,-42241.21171875,4272.802491478193
351,-45646.55703125,5016.221601028933
352,-36169.04970703125,5439.9748942135075
353,-47347.3509765625,5474.224137655767
354,-37425.319140625,5237.635356245753
355,-50082.587890625,3075.9033860602717
356,-32972.0935546875,9013.16265492916
357,-56403.1998046875,3568.437182136819
358,-46328.9748046875,3373.672909641945
359,-39503.778125,7532.693836984709
360,-59410.9529296875,3981.237710223186
361,-48089.5712890625,2964.378086919012
362,-39243.8458984375,8395.075006558523
363,-55803.004296875,3435.1704076095784
364,-54270.1087890625,3433.186475645073
365,-48309.2462890625,3612.8936513279036
366,-52926.215625,5703.296987112229
367,-39517.33310546875,9325.088158232662
368,-52203.2251953125,3485.24016226846
369,-46799.3291015625,3497.00718357719
370,-53281.866796875,3485.752941533221
371,-51313.3333984375,3406.4489071727103
372,-43611.0103515625,4638.979502761741
373,-50199.9962890625,3780.054720505428
374,-52989.5474609375,3230.5453366481943
375,-47912.49140625,3851.229444855579
376,-53548.330078125,3778.1215930056424
377,-48366.2888671875,4123.357592580618
378,-36050.63359375,12833.789890555707
379,-50924.9873046875,3486.5373306111564
380,-54181.927734375,3754.695824032031
381,-47333.8130859375,6563.106259270543
382,-41635.8228515625,9389.18399188985
383,-36817.24248046875,12694.395396963413
384,-44336.0611328125,6395.700403792809
385,-51816.9173828125,4009.0004573589163
386,-44321.5078125,5243.489584449804
387,-37252.9541015625,10236.617429078293
388,-52551.4578125,3387.7282242344527
389,-44901.521875,4508.841970380843
390,-51352.743359375,3735.1509877767203
391,-48374.2310546875,4434.607461932397
392,-51252.31328125,3582.7313892898437
393,-47640.00078125,3340.8319379957948
394,-54130.4876953125,3975.421127269313
395,-55557.63515625,3657.7345387350633
396,-48443.35,3563.438630155827
397,-48556.869921875,3395.3208851044833
398,-52190.974609375,6058.055038360121
399,-53129.8240234375,3697.7053937881938
400,-45914.9369140625,3741.872850591615
401,-54083.1271484375,3905.160581849281
402,-56059.3951171875,3080.0384453718066
403,-48075.6556640625,2928.7128682977223
404,-52513.4484375,6122.007149302743
405,-51556.116796875,3782.2802254790076
406,-42332.0908203125,3443.267958672865
407,-56202.476171875,3799.764114659044
408,-52877.566015625,4430.419648643776
409,-50684.2123046875,3666.5846484690833
410,-30513.934375,7556.7197669139205
411,-34501.21357421875,6042.1294473717135
412,-52431.6634765625,3777.3764923393246
413,-48333.9927734375,3266.599566083862
414,-41089.6234375,3636.443147068474
415,-33250.5689453125,7699.13219524415
416,-45658.866015625,3840.2173666627164
417,-53597.5166015625,3796.12132852383
418,-46156.5279296875,3579.0328970374935
419,-35040.31337890625,5715.2413294370845
420,-47318.7357421875,3388.8300065324697
421,-49938.833203125,3303.907266098947
422,-47202.7021484375,3659.833728973046
423,-44062.405078125,3483.416634652081
424,-37321.32666015625,5004.6779060624
425,-46091.6064453125,3238.2334549614543
426,-43263.613671875,3657.6027929762818
427,-52400.6732421875,3845.3516699805564
428,-45604.765234375,3170.007992495476
429,-56514.012890625,4959.1688165985015
430,-36204.06142578125,3859.0993335007865
431,-48990.3537109375,3301.791477525079
432,-47847.637109375,2821.2306356799772
433,-51599.3455078125,3743.5081178674154
434,-34615.857421875,5988.088699210086
435,-47710.04921875,4126.98528165943
436,-46210.4876953125,3270.028508613572
437,-49446.4513671875,3033.5605884675047
438,-50492.159375,3280.0310995571203
439,-43277.1056640625,3443.9834013886657
440,-46912.464453125,3152.5619035990426
441,-46967.6736328125,3470.3333123504167
442,-38095.51669921875,4254.966776968736
443,-35332.47177734375,5295.381734218996
444,-54671.8724609375,3481.832752445296
445,-52352.839453125,3242.131858602675
446,-40339.1771484375,3427.395493138829
447,-49962.8138671875,3351.7393810883955
448,-50447.9578125,3106.8276561381817
449,-36951.9078125,3732.595965793639
450,-53876.796484375,3810.711328845913
451,-42341.7341796875,4052.3583914550845
452,-50255.2490234375,3706.3333977696584
453,-54044.4814453125,3683.8777393311593
454,-49666.0943359375,3713.88614145819
455,-39261.11904296875,3449.148060303124
456,-52478.8109375,5534.735911802505
457,-51632.0677734375,3623.9255605372946
458,-57245.2087890625,3327.055572482827
459,-37992.438671875,3824.54906664812
460,-35480.9951171875,5003.010543825189
461,-51136.54609375,4037.3848096600227
462,-48657.050390625,3592.65956059587
463,-43863.985546875,3077.6507502156887
464,-41842.094921875,3241.364332605463
465,-49099.06640625,3316.7062491096945
466,-43295.3548828125,3087.3150404918583
467,-47282.9712890625,3024.6173203556095
468,-53254.1064453125,3912.144639135807
469,-46936.8123046875,2885.0006669968902
470,-38138.394921875,3554.2783472219926
471,-51221.7595703125,3872.6207233359855
472,-50022.7099609375,3724.619991236852
473,-52590.8748046875,4080.4427121992276
474,-53739.9775390625,3919.169388307779
475,-40816.9158203125,3667.861032394893
476,-51102.226171875,4129.278960419717
477,-45644.4177734375,3595.5687329257767
478,-41920.21025390625,3329.077640701266
479,-54288.831640625,4003.055997801692
480,-37399.56015625,3136.8280459012917
481,-45170.85625,2789.423455448373
482,-47483.028125,3524.7856566541627
483,-35909.11259765625,3630.1216782172814
484,-54281.1099609375,3875.003807715193
485,-52311.371875,3209.145282578674
486,-52577.0109375,3809.721995812009
487,-51544.2232421875,3866.277609235903
488,-53135.77421875,3296.4789901018976
489,-48731.2794921875,3123.0846877119097
490,-45991.037890625,3300.413068595624
491,-42026.75947265625,3176.881938758207
492,-47167.0908203125,4335.445093892845
493,-52960.9650390625,3393.3706085151875
494,-38143.5837890625,3283.8019183193815
495,-42726.459765625,3297.0542763923686
496,-45231.440234375,3192.86920271084
497,-45147.8546875,3379.091873850338
498,-47450.2076171875,3501.9840341116414
499,-52624.976953125,4006.427107900079
500,-51096.8392578125,4203.165369940429
501,-38469.965625,3237.0467014118876
502,-51214.087109375,4250.4040739058055
503,-50739.84765625,3831.3017915885553
504,-48788.4021484375,3960.775349605572
505,-38769.74609375,3320.2446487798393
506,-30051.60078125,4729.465907787253
507,-50673.47890625,3092.666355767168
508,-44984.50078125,3870.3773834365275
509,-50842.4369140625,3813.7306352840574
510,-34495.22607421875,4625.448164632792
511,-44146.8810546875,3416.748547274431
512,-39556.3263671875,3964.8672233580996
513,-44503.2484375,3300.0356966708337
514,-42568.1681640625,2846.7672330637993
515,-51095.9482421875,3926.694560646627
516,-46718.630078125,4085.128681321082
517,-37100.9763671875,3560.7097638495
518,-37809.7005859375,3897.9136785901464
519,-37294.0912109375,3820.88720625104
520,-50517.8099609375,4043.0370287292412
521,-38968.479296875,3922.0255736212384
522,-34378.692578125,6127.02241425949
523,-38842.5236328125,4393.086934356818
524,-42189.9806640625,2759.1293928375485
525,-46102.7833984375,3903.0577664827215
526,-33693.0849609375,4969.777283807195
527,-45274.40078125,3290.9250411644307
528,-52501.9181640625,4213.2862616398015
529,-34764.90869140625,4022.2142150137233
530,-48089.232421875,3799.114901506104
531,-40939.2666015625,3109.4414776837443
532,-49295.1552734375,3656.1562493699917
533,-46409.23671875,2776.769223628365
534,-38775.10595703125,3209.9107396924865
535,-40317.3283203125,3428.665161327167
536,-51385.9248046875,4077.785612956884
537,-39900.4345703125,3028.074119609826
538,-42706.962109375,3241.0727582472555
539,-37099.48505859375,3587.526629103944
540,-46989.9482421875,3368.1708657759814
541,-33104.784765625,6468.229954049991
542,-32488.23349609375,6215.132941693469
543,-45817.95234375,3618.9553889833705
544,-39325.16083984375,3355.3488044231103
545,-50077.301171875,4288.774079823933
546,-47648.85703125,3762.410153649029
547,-52447.1203125,3208.065034550684
548,-50958.995703125,4006.9343391914304
549,-53112.50859375,4407.510851536402
550,-47613.1283203125,3928.626739391899
551,-48955.6177734375,3158.6903883561495
552,-34964.35908203125,4812.935718941162
553,-35541.7861328125,4148.263651398536
554,-34366.3439453125,5057.516962071368
555,-49235.7462890625,4095.82533258559
556,-39751.15390625,3775.4734811463845
557,-48837.169140625,3508.0329422333975
558,-46420.39453125,3963.446776683803
559,-39410.3236328125,3138.423211274156
560,-40838.125390625,3462.9349299348023
561,-37503.5033203125,5190.9527126777175
562,-44445.5150390625,3074.2327973095407
563,-44323.1546875,3089.0585505357944
564,-48964.47265625,3782.662913210686
565,-49839.388671875,3427.521110410113
566,-50402.442578125,4115.300853616813
567,-46854.2634765625,3507.284263861997
568,-50625.25,4195.755662786007
569,-49607.616015625,4142.252235061602
570,-34072.69609375,5469.694004867562
571,-45944.6984375,3484.8919201702142
572,-32589.85869140625,9171.225347804124
573,-42954.65859375,3207.971941591308
574,-48138.4751953125,4008.574242568701
575,-50496.359375,4163.934468859265
576,-43322.62578125,3931.97109415825
577,-50691.9345703125,4222.033979160414
578,-44346.3529296875,3524.4522013326077
579,-52277.543359375,4379.138805386463
580,-43510.7703125,3365.0780226704505
581,-42910.6103515625,3237.822268866699
582,-37622.8953125,5211.552431537771
583,-49502.1748046875,3499.249998032039
584,-41487.938671875,3729.8562302799555
585,-40137.362890625,4737.408551153612
586,-47394.21875,3218.5716352385907
587,-47637.896484375,3651.4289683009906
588,-46831.1482421875,3319.163589554093
589,-50839.3966796875,4148.909427340384
590,-41962.9841796875,2953.493182013214
591,-44684.2603515625,2884.2433546230013
592,-49062.736328125,3263.733604281738
593,-38509.6921875,3840.6488719312833
594,-44046.0029296875,3112.744423281719
595,-47957.7390625,4312.252714002367
596,-39984.57001953125,4109.780083723562
597,-42954.3724609375,3304.5333405831125
598,-41938.7513671875,3620.926246346693
599,-43000.7603515625,3771.3080608930604
600,-46254.16796875,3746.140538078063
601,-33909.88134765625,6307.6275951208745
602,-38072.03154296875,5049.379261266047
603,-53028.118359375,5270.781989088535
604,-52087.7998046875,4410.250159024392
605,-41549.39765625,3970.5837827346027
606,-51458.9275390625,4309.263056129306
607,-44317.872265625,3080.6224233452795
608,-51029.9201171875,3773.240362787745
609,-33652.8423828125,5942.387979525412
610,-36895.3611328125,4886.821884857863
611,-37689.955078125,2910.7185943166073
612,-38353.144140625,4444.43464508961
613,-50388.7044921875,4360.4831499082375
614,-45682.6541015625,3665.5061238193057
615,-46873.9818359375,3602.0733068624913
616,-34018.78740234375,7248.613404439384
617,-44766.4203125,3413.009537731383
618,-41763.7181640625,3508.1534421072943
619,-51704.3884765625,4107.361768560316
620,-35379.9025390625,9721.728593104635
621,-41877.87578125,2551.2862837747234
622,-39228.5638671875,3397.0953039425335
623,-40280.1955078125,2823.156343601644
624,-52562.49140625,4316.82135393907
625,-51644.986328125,3985.1635761449434
626,-46709.0513671875,3286.795517385479
627,-32364.30966796875,7536.593659225342
628,-49720.2296875,4262.780292721547
629,-40089.8728515625,3819.7970725967357
630,-51289.4267578125,4386.841055536332
631,-46511.314453125,3621.021319703678
632,-35420.1318359375,3687.4101346284674
633,-43780.757421875,5851.262605774246
634,-45255.3015625,2938.718176829494
635,-48900.7806640625,4472.857504646381
636,-50194.0162109375,4209.6426807927055
637,-44707.5625,2215.881567259804
638,-34003.91845703125,4136.972327165021
639,-49264.1041015625,4169.696857408425
640,-40631.668359375,2330.403308731668
641,-48389.421875,4294.85355328645
642,-44970.2798828125,3919.1746635524564
643,-44180.26328125,2629.972238830545
644,-50951.5337890625,4494.488023114587
645,-46361.5845703125,2925.3275200933977
646,-49745.4958984375,3305.9870071177684
647,-44240.07109375,2721.547061932667
648,-39885.795703125,2690.288872642945
649,-46796.9568359375,3446.956382195837
650,-48330.26796875,4137.018985452516
651,-48489.8265625,4615.874798801397
652,-49432.2294921875,4453.895754438243
653,-41732.8931640625,3179.03584305062
654,-44848.1306640625,3977.559699895531
655,-39420.187890625,2922.1078263711215
656,-39604.727734375,3273.787894934978
657,-43384.0474609375,3165.6692214333048
658,-40820.677734375,3514.9920210615082
659,-46548.4826171875,3889.3632560556302
660,-43467.3529296875,2995.4911600450864
661,-37823.467578125,3681.8959169053996
662,-41491.9203125,3302.3520703416166
663,-51938.7720703125,4560.684191936036
664,-36274.70400390625,4162.629633261362
665,-55804.669140625,3646.9042923670327
666,-38898.3326171875,2598.9993864898356
667,-47562.676171875,3626.4268344614875
668,-49422.75859375,4394.855625296191
669,-51957.8484375,3900.7425200230623
670,-45087.5375,3177.355449281829
671,-28204.29560546875,6229.191791443766
672,-37550.97490234375,2602.9163548017304
673,-50934.1341796875,3762.9789754553976
674,-49896.106640625,4177.556213954586
675,-42128.1033203125,2689.863442615487
676,-38212.78125,2903.219813491694
677,-45744.2009765625,3667.947508505095
678,-40612.2126953125,2427.779878473674
679,-49978.5357421875,5305.106093986228
680,-37665.080078125,2730.4416790879354
681,-38967.62060546875,2867.300200890726
682,-42071.7302734375,2488.6817185151635
683,-44186.445703125,4136.010514663763
684,-44968.590625,3639.3011958129437
685,-51103.3982421875,4574.139079699121
686,-39162.566015625,2929.00412801115
687,-35780.4228515625,3149.9095832255966
688,-46152.1166015625,4093.8512511578338
689,-50497.037109375,4448.0873872007105
690,-55024.4994140625,4936.76314510022
691,-47922.9359375,4457.866033803888
692,-28810.12626953125,6392.944162980338
693,-41472.8115234375,3190.6014664785885
694,-43141.0458984375,2816.799772081438
695,-55318.5810546875,5380.969140121916
696,-48494.83359375,4278.255515983939
697,-45017.6701171875,3483.0614982236725
698,-48297.4708984375,4150.403656311063
699,-48047.12734375,4453.479556487955
700,-42896.807421875,2942.9571674593876
701,-42397.3892578125,3556.818182409429
702,-45266.8390625,4131.736423937271
703,-36325.75693359375,4110.113032242072
704,-45457.173828125,6770.557396987598
705,-40235.3,2957.7350704998944
706,-39304.991015625,2996.6963946675014
707,-30182.51728515625,5942.3247743151105
708,-39028.5947265625,3318.0703867697935
709,-44497.6955078125,3670.278571581962
710,-41750.7619140625,4183.795497674291
711,-46116.215234375,3950.857450626824
712,-43839.3361328125,3452.2472565228854
713,-50726.1345703125,4457.96977417857
714,-39120.27265625,4722.179273835411
715,-35759.25546875,3224.8863439379916
716,-52738.733984375,4668.720917239857
717,-44855.2982421875,3796.7713248766477
718,-42528.6609375,3507.2471157214873
719,-54487.43671875,3750.315651730579
720,-39879.8814453125,3562.403868757271
721,-57126.2392578125,4308.271910907119
722,-40949.68427734375,3907.9044479413565
723,-43376.4224609375,3391.546295814484
724,-46651.1216796875,4165.718074286334
725,-35321.14248046875,3664.4644869579856
726,-29429.81923828125,5795.229280823326
727,-55323.05625,3756.1702774615833
728,-49342.480859375,4322.98885401307
729,-45289.745703125,3440.5920136891277
730,-47818.491015625,4409.278559491715
731,-40930.6337890625,3139.331764278555
732,-53257.48515625,3462.484660034485
733,-39646.078515625,3200.400152443018
734,-48162.215625,3793.8645886166846
735,-38798.54169921875,3024.895446965268
736,-46033.6376953125,4168.390709966958
737,-46336.947265625,3506.890449207019
738,-29027.475390625,7442.6242427644265
739,-51109.969140625,3592.612837117878
740,-43190.66015625,3462.047775818198
741,-45429.3498046875,3962.1810018965525
742,-33856.7546875,4321.831417909226
743,-43342.705859375,3768.965041209454
744,-46708.374609375,4647.569844847394
745,-37538.5677734375,3224.667642724401
746,-57901.018359375,4324.844379635459
747,-35205.99140625,4937.126715228038
748,-41289.4853515625,4576.020613697717
749,-46250.940625,4535.525992127583
750,-40671.6640625,3642.1712869499097
751,-40943.15546875,3457.2627572572787
752,-43882.1994140625,3334.5774294628854
753,-43477.5865234375,3826.7715865114724
754,-46506.083203125,3991.5555117046624
755,-42109.3630859375,3261.507186533063
756,-56928.7216796875,4188.884993055938
757,-42953.93583984375,4912.278093119171
758,-54044.134375,3938.0713868110925
759,-50525.030859375,4810.748389652631
760,-34369.6708984375,3878.4563482153685
761,-36255.0109375,3269.7835316332835
762,-48533.75234375,4838.429440576874
763,-41902.8955078125,3399.047747876076
764,-32934.99677734375,3196.4398961343554
765,-43126.4408203125,3855.973521612452
766,-41933.8361328125,3398.764528229927
767,-49526.723046875,4816.061808642553
768,-44894.783984375,4328.7479948725295
769,-41958.666015625,3547.376329087433
770,-31158.761328125,5163.821722430269
771,-46014.3638671875,3736.4658429317024
772,-47462.6111328125,4637.3708485135385
773,-51108.4798828125,4655.963514089559
774,-47501.1431640625,4043.3511676353605
775,-40763.3478515625,3663.5419749937782
776,-49454.979296875,4680.916176224531
777,-31390.10234375,4359.135705215882
778,-42630.2052734375,2891.798544597009
779,-41378.8255859375,2925.301730151991
780,-51594.7689453125,4524.585968327138
781,-30389.33994140625,5214.91197301192
782,-36302.98212890625,2856.017425484168
783,-46918.1078125,4609.631375803683
784,-37494.213671875,2804.0604623477034
785,-50122.5896484375,4484.418233711398
786,-44104.3587890625,3496.5452716995073
787,-26267.735546875,6740.0601303573785
788,-42080.35,3350.119635220542
789,-36620.5693359375,3153.720761142412
790,-45020.2384765625,4767.350543676267
791,-51298.7650390625,4623.644186956377
792,-41922.5193359375,2876.296451020098
793,-43156.11875,3338.9722205205544
794,-45693.90859375,3854.948192152996
795,-43096.623046875,4046.395575668609
796,-42021.052734375,4030.7695587413345
797,-32152.09208984375,4236.362534357912
798,-54172.20625,3369.281294357206
799,-44191.76015625,2971.135435767604
800,-39440.7287109375,2818.7565317806443
801,-47771.0986328125,4387.378222449154
802,-40836.847265625,4415.094890113035
803,-47184.0720703125,4551.450501734361
804,-47141.192578125,4220.572738102385
805,-42223.2330078125,4502.388915504788
806,-44366.3267578125,3989.657025168883
807,-46699.47734375,4656.71708698297
808,-52373.780859375,4677.658387712324
809,-31083.0052734375,3631.897136626368
810,-35692.0654296875,2989.7719566882834
811,-47290.83671875,3808.006649368275
812,-47533.820703125,4081.2309132229907
813,-42899.45517578125,3826.3187534558256
814,-35614.00810546875,3018.765125859453
815,-28854.456640625,5343.648562448604
816,-57042.55234375,4976.571362660653
817,-49596.6537109375,4754.486314595808
818,-46357.816796875,5063.192465121886
819,-41440.22421875,3227.148210049147
820,-44393.8859375,3244.235459526585
821,-33027.7333984375,4178.789291597479
822,-43949.571875,4220.083243527723
823,-43297.674609375,4499.337005418543
824,-38870.18505859375,3229.375153617752
825,-49133.89140625,4490.806767591523
826,-43915.3248046875,3684.649917299378
827,-35771.93623046875,4125.782710603381
828,-44907.205859375,3778.455036235946
829,-45849.501953125,4069.79871856279
830,-47784.5775390625,4844.194608100129
831,-43625.87236328125,8440.658008635764
832,-41923.39912109375,4489.178761786723
833,-33020.7998046875,5162.835583475873
834,-44024.66796875,3659.8518728125546
835,-49411.0609375,4877.2353672025165
836,-30796.43642578125,6385.82809424649
837,-48709.139453125,4447.695700212149
838,-43342.4798828125,4065.8696765103136
839,-53863.6681640625,3117.67111175122
840,-38678.92275390625,3124.379986051611
841,-52109.090625,4917.55436386174
842,-50463.9021484375,3529.6547053893028
843,-42430.7423828125,5310.899544670676
844,-37988.8849609375,3405.6725482772654
845,-46549.0609375,4185.508997327807
846,-44074.34140625,3667.2797532804193
847,-42388.40546875,3972.0051465927163
848,-42769.362890625,3803.6365099112554
849,-48498.417578125,4299.665127001364
850,-43727.6787109375,4190.378737838035
851,-41701.0421875,3644.306585682301
852,-45120.9078125,4031.722073813365
853,-37031.62529296875,3661.429786628724
854,-43343.123046875,3594.4662264085327
855,-39604.44697265625,3709.703597184237
856,-45914.53046875,4539.035943243297
857,-42058.25537109375,4192.375144962401
858,-46685.37265625,3785.875234691907
859,-42225.8626953125,3449.052196813865
860,-47424.2123046875,4625.7562515264
861,-48258.6828125,4506.251524301995
862,-46051.98671875,3809.621911463915
863,-40096.840234375,3727.185095102284
864,-31045.21396484375,6652.745269874355
865,-43042.764453125,4122.636864295159
866,-48996.9318359375,3727.2450424482686
867,-30469.33671875,9076.389417470413
868,-44968.777734375,4080.371683171212
869,-38628.24248046875,4558.19326830101
870,-47794.237890625,4124.651397889535
871,-51479.04609375,4931.104979674565
872,-44668.908984375,3800.441173265329
873,-45998.353125,4113.307433609349
874,-47315.9876953125,4129.303706832387
875,-34803.0203125,4896.253987668581
876,-42463.2404296875,3560.582180063469
877,-47235.7265625,3814.9081371537472
878,-35475.7724609375,4577.852557109482
879,-32844.10390625,5470.9406167347215
880,-40281.00322265625,4493.44405522216
881,-42613.5541015625,3788.1314609220153
882,-31548.6537109375,5520.014075342459
883,-36769.91083984375,3544.683733396806
884,-44702.3587890625,4312.144504839817
885,-49819.8701171875,4381.994665837818
886,-41257.2060546875,3776.4968712743866
887,-44061.3998046875,4122.720145345828
888,-50444.4234375,4006.5854649032326
889,-34394.55595703125,5203.108271634404
890,-31254.72080078125,5379.406447933599
891,-44637.6146484375,7981.199640809419
892,-32150.915625,5512.830127156325
893,-37897.20126953125,4224.179963512323
894,-47199.26875,4224.042023958081
895,-35491.15654296875,4151.923895621952
896,-43434.9767578125,3422.511528672607
897,-43455.646875,4722.292251516707
898,-47777.7056640625,7349.394932210324
899,-46460.6548828125,4605.765221504449
900,-51278.8560546875,4599.794954867428
901,-40397.5212890625,6980.511066727245
902,-37069.6736328125,10654.637357314105
903,-44213.1119140625,6575.392040158047
904,-43110.0427734375,6558.799575346392
905,-46535.1802734375,4391.995069777613
906,-47202.6958984375,4462.2215628978465
907,-45558.23857421875,8234.668370125464
908,-41311.158203125,4781.991953451661
909,-42412.8095703125,4495.606955484521
910,-36221.933203125,10803.183947590867
911,-45210.2556640625,4597.951986690966
912,-46228.158203125,4593.464453523024
913,-40624.17900390625,4899.486662934154
914,-48136.049609375,4915.229290263922
915,-37397.89931640625,6546.568358894867
916,-48200.0048828125,4629.399014421887
917,-47520.6173828125,3933.037155040942
918,-46451.270703125,4488.016459217948
919,-47813.9728515625,4786.65886898196
920,-33917.45234375,4797.750168610546
921,-43527.873828125,4419.399992343761
922,-55350.19609375,6534.631403942548
923,-41369.030859375,3739.2680377712395
924,-44121.572265625,4341.083939388629
925,-47206.052734375,4055.6366064199574
926,-42067.6177734375,3871.7691282353962
927,-37222.30224609375,4087.776977443458
928,-50407.134375,4838.744212031157
929,-39709.74326171875,3644.38088414499
930,-44895.134765625,4596.2683325486205
931,-41741.2431640625,3744.587459187569
932,-43254.423828125,3850.4972949158328
933,-44929.046484375,3758.676365356344
934,-46300.0994140625,4261.000150204615
935,-37661.2263671875,4634.874062533959
936,-36481.133984375,4068.533720921869
937,-42553.5349609375,4494.068714838413
938,-36643.58779296875,3629.5066571174457
939,-39595.21064453125,3631.483825885096
940,-34259.41806640625,4293.314322907297
941,-39233.39189453125,3106.5475041724926
942,-36243.64794921875,4160.249785868132
943,-40180.676171875,3446.3803701320994
944,-48542.31015625,4193.63045327097
945,-46183.450390625,5398.928929370903
946,-38043.49775390625,5452.371420903618
947,-32437.01845703125,5282.043275283319
948,-46732.2076171875,4795.895448281667
949,-47293.8244140625,4289.598303746162
950,-50137.14609375,5332.534852785996
951,-48216.58046875,5194.641862903187
952,-32805.36279296875,11959.561027077714
953,-49034.608203125,5869.635080220567
954,-48977.7181640625,5405.619877831044
955,-36518.9912109375,7701.558913180785
956,-49862.86875,5292.054484587793
957,-44935.73359375,5257.968326284225
958,-42546.374609375,4677.114402638631
959,-38047.2455078125,5044.042998170643
960,-32731.8330078125,8339.436727245316
961,-34677.5853515625,7441.791197697791
962,-43985.326171875,5318.604408509221
963,-42787.6044921875,5518.6008737304355
964,-44519.549609375,4557.140749246488
965,-43905.7578125,5121.164633268406
966,-45862.4439453125,4207.843108069586
967,-51502.943359375,6607.892846972118
968,-34579.41728515625,8002.315231610303
969,-34663.3125,7014.843699275931
970,-45473.22890625,5876.500595186143
971,-47357.4904296875,4341.287351117658
972,-44244.0125,5045.649513623183
973,-35639.66962890625,7425.827956945499
974,-35137.5072265625,8113.707826694591
975,-45226.6716796875,6150.215039171844
976,-40949.498046875,3865.9230959268257
977,-46559.15,5858.168196209534
978,-45254.43984375,3754.5096683075235
979,-44156.8330078125,4027.5395194300445
980,-50116.9787109375,4447.228357355358
981,-40856.712109375,4735.324082645618
982,-45450.4498046875,4192.061717017373
983,-36278.3779296875,7808.004125089868
984,-37160.45927734375,5690.035599960534
985,-41640.7740234375,5293.8677597962005
986,-42808.2939453125,3962.4486627934057
987,-43748.5869140625,3915.4669193887344
988,-43596.842578125,4668.140547569551
989,-39987.2421875,3936.2305085317353
990,-42394.60078125,4946.9540392781755
991,-34758.89873046875,9681.807625643845
992,-36926.383203125,7231.072708253892
993,-27751.52080078125,9788.93207819912
994,-46576.3576171875,3534.3755776484304
995,-43297.0048828125,5563.367402091233
996,-39555.923046875,3246.2106301618546
997,-41005.3625,2834.9283612071895
998,-35292.290234375,5425.403592255717
999,-35728.02666015625,3882.4589564209214
1000,-46913.7611328125,4533.23999269787
1001,-41166.15849609375,4782.483763050538
1002,-48069.8701171875,4386.315196021867
1003,-38989.62138671875,4640.314897816782
1004,-41735.0046875,5937.198665887443
1005,-43174.021484375,4286.931787138582
1006,-38926.79228515625,4033.4769789980764
1007,-39640.57919921875,4044.322682213343
1008,-30200.39609375,6850.332374549217
1009,-46146.626953125,4694.22474137346
1010,-42033.60986328125,4689.583443989803
1011,-45369.90859375,4725.898260508349
1012,-45553.6400390625,4741.1110355892
1013,-40562.241015625,4397.1693957549105
1014,-50381.3001953125,4932.637922033619
1015,-34899.67822265625,5399.815825594587
1016,-35825.84189453125,6009.672702657395
1017,-46456.970703125,4614.116923918134
1018,-47193.75078125,4682.660305403445
1019,-41533.078125,4137.428906178564
1020,-47764.8986328125,4778.045730204074
1021,-40095.180078125,4342.507198571528
1022,-38459.6134765625,5023.378330067495
1023,-32213.6119140625,5573.53418135113
1024,-45149.8001953125,4735.146296653513
1025,-39288.8826171875,4429.001729550066
1026,-50414.9111328125,4848.186338770488
1027,-36595.733203125,6549.026517758884
1028,-44139.70361328125,4574.516269020802
1029,-39909.794140625,4380.165975768428
1030,-36202.35,4278.815147774022
1031,-42333.818359375,4727.431042842646
1032,-42140.64716796875,4345.701317494809
1033,-41470.2234375,4251.9204545288985
1034,-34600.47919921875,4583.739325519646
1035,-45107.994921875,4193.868943362901
1036,-38168.7806640625,3723.901676988323
1037,-47914.2716796875,4816.010593275681
1038,-31592.16943359375,7638.668470546328
1039,-39173.0259765625,4023.272554625524
1040,-49254.88046875,3900.943698802288
1041,-43550.546484375,3717.9334795087325
1042,-41418.07861328125,3833.432233727858
1043,-44562.62421875,3938.572869300563
1044,-46438.7345703125,4145.075967378028
1045,-42720.6029296875,3739.0769323800387
1046,-39108.64970703125,3694.401838399561
1047,-42242.1794921875,4241.39331481429
1048,-47141.5318359375,4165.29223413328
1049,-41922.3099609375,3577.662956878902
1050,-43269.915234375,3271.3949651819207
1051,-49156.3197265625,4287.20979384337
1052,-43043.49609375,3835.1434048136766
1053,-42891.6931640625,3992.9914025767
1054,-31019.52138671875,8703.65566300624
1055,-50066.4888671875,4465.807876930477
1056,-46448.4466796875,4368.574823503856
1057,-45627.3611328125,3792.170307023434
1058,-40405.2494140625,3203.445712591986
1059,-41682.6931640625,3488.238336185647
1060,-38769.2794921875,3558.020814845997
1061,-46335.905859375,4258.853956998285
1062,-38593.0130859375,4272.943057813331
1063,-37724.86767578125,3946.4343371032437
1064,-28597.84755859375,7065.280475878068
1065,-31764.42802734375,5158.669173274391
1066,-30060.36201171875,6804.628701124649
1067,-38090.455078125,3442.074970854242
1068,-43233.2537109375,3765.257455826701
1069,-49709.5166015625,5807.396046308739
1070,-42285.8912109375,3061.6956141687238
1071,-45787.03671875,4173.793596914316
1072,-41816.5546875,3469.896469679622
1073,-32925.10498046875,5310.885171666978
1074,-49945.8740234375,4522.597930325306
1075,-45566.5486328125,3832.291826701745
1076,-43272.3013671875,3476.1766609962456
1077,-45406.8185546875,3663.2833457567735
1078,-47710.1564453125,4047.5174681151634
1079,-43654.326953125,4301.031999446376
1080,-38131.2109375,4942.989004768268
1081,-30701.855078125,5791.860433134545
1082,-27866.85947265625,7494.183074310522
1083,-48373.552734375,4219.314634755426
1084,-41974.469921875,3329.7619274272847
1085,-39638.61318359375,3606.7756185827625
1086,-38123.78271484375,3129.417214823273
1087,-41142.644140625,3902.449388135687
1088,-33119.905859375,4142.111194145766
1089,-46235.6279296875,3975.9420179377826
1090,-37299.08310546875,3886.5275121532663
1091,-50589.0544921875,4345.43689264515
1092,-35629.5615234375,3669.887456148861
1093,-39005.82822265625,8523.132038210246
1094,-49184.96796875,7739.088780996242
1095,-39956.4576171875,3926.140905447202
1096,-31986.91025390625,4706.20995020515
1097,-37740.263671875,3997.4004473421583
1098,-30967.015234375,6373.997759537909
1099,-35885.76884765625,4558.099703048345
1100,-36629.52734375,3911.4918073304816
1101,-39632.393359375,4262.173454029354
1102,-44787.1240234375,6592.0115503964425
1103,-41361.1744140625,3662.0677628767653
1104,-39697.118359375,4119.89746302128
1105,-40957.97392578125,4168.267198906287
1106,-49593.3767578125,4641.550961299514
1107,-54476.384765625,5273.224510233121
1108,-46960.1341796875,4113.4819692444935
1109,-31767.30771484375,4607.1395578731035
1110,-45995.0880859375,4184.58887956745
1111,-47761.8611328125,4242.01855632917
1112,-42164.6138671875,3913.3863471354207
1113,-42940.6150390625,3879.5456256312787
1114,-44321.959765625,4103.302622787783
1115,-38782.13837890625,3340.9577226770552
1116,-45850.3580078125,4811.849003702886
1117,-33843.2130859375,4751.268604394924
1118,-38077.8556640625,4317.015142210643
1119,-37142.12138671875,3892.5528134478877
1120,-37514.1986328125,3966.6724348762255
1121,-47229.1205078125,5310.058237893419
1122,-45539.2431640625,4254.110498806037
1123,-36822.06220703125,4266.093164561519
1124,-46437.5990234375,4449.637893020546
1125,-40795.45126953125,5539.637216852013
1126,-43697.73125,3988.427819550904
1127,-50840.5927734375,4914.8779505086195
1128,-43941.2423828125,5017.257316479245
1129,-41106.1505859375,4841.312403570185
1130,-33934.66123046875,3764.7958169157337
1131,-43995.3392578125,4020.8070186988775
1132,-39544.6916015625,5323.094571874704
1133,-42239.4599609375,4084.8045898913533
1134,-37418.037890625,3811.9145642654753
1135,-44923.3888671875,4086.2501205377057
1136,-44974.599609375,4108.278656866492
1137,-53473.7048828125,6212.927974528604
1138,-41626.383984375,4239.738568510846
1139,-43584.3953125,4211.001907624968
1140,-45014.6744140625,4250.349609319314
1141,-44572.447265625,5230.289465536506
1142,-30573.9984375,6971.407414019678
1143,-39644.3400390625,3681.8940756038583
1144,-30541.72705078125,7677.557790747949
1145,-48423.155859375,6190.416609899137
1146,-33919.15419921875,4293.292499347898
1147,-36295.56328125,5115.413547105111
1148,-46496.652734375,4780.5785325277775
1149,-45739.1751953125,4931.368669832937
1150,-29948.91708984375,8146.778820760514
1151,-35068.21240234375,3919.8179284603752
1152,-38267.3173828125,5237.680559162598
1153,-40213.63193359375,3700.182867812484
1154,-34624.4853515625,4229.007435704498
1155,-49411.5419921875,5043.541720614206
1156,-48163.54296875,5175.562859539357
1157,-44889.8501953125,3644.5331347607994
1158,-56343.31337890625,6816.789370221352
1159,-45426.733203125,4902.307558294429
1160,-40583.711328125,3750.7940814881504
1161,-45751.69296875,4966.091586217556
1162,-39550.65322265625,3721.5655645830293
1163,-36300.43203125,3221.431474637891
1164,-44860.2185546875,5033.403830713213
1165,-34219.42626953125,4113.851146551294
1166,-45939.9076171875,5345.938855907976
1167,-46661.5333984375,4411.448719754756
1168,-31403.240625,5447.982014129396
1169,-42751.51875,3932.622256733603
1170,-46963.3509765625,4777.3129124452325
1171,-46047.3328125,4680.204260460202
1172,-37823.908984375,3727.9612419962127
1173,-50077.43828125,4365.861344037861
1174,-30889.93681640625,6687.413746384168
1175,-34172.89521484375,5022.159326286398
1176,-42814.45322265625,3970.8866238438713
1177,-45991.1458984375,3871.753975178487
1178,-48346.6119140625,4279.132793711889
1179,-37909.523828125,3380.506163903959
1180,-38564.22685546875,3680.74961597577
1181,-45290.226953125,4695.375857357397
1182,-39720.3275390625,2785.75963969511
1183,-46889.46328125,4758.281963087532
1184,-40288.932421875,3122.0818502545985
1185,-32127.05888671875,4331.673557237062
1186,-37616.84501953125,3567.3323319305246
1187,-48046.2080078125,5036.359668833861
1188,-42077.103515625,3788.7920738307057
1189,-45050.21875,4988.699162445527
1190,-46168.0986328125,4086.791378035345
1191,-41709.8078125,3690.693883824811
1192,-45072.7998046875,4694.359824996412
1193,-42042.7625,3737.3220720790464
1194,-49280.8228515625,5163.139107613388
1195,-42077.7568359375,3542.7596535340717
1196,-32743.62734375,4401.358907855095
1197,-38308.9267578125,6041.14126646924
1198,-42724.3419921875,4061.743032551153
1199,-37617.847265625,3169.0907634319315
1200,-45598.90703125,4571.9572806809065
1201,-48121.0982421875,4610.062730878607
1202,-47393.7818359375,4457.904483446067
1203,-39479.3416015625,2919.5932477098886
1204,-39223.195703125,5085.296165912144
1205,-33191.93583984375,6619.550827842983
1206,-34778.27431640625,3690.7947528205896
1207,-43357.708203125,3977.195741253982
1208,-49268.9017578125,3478.284014948295
1209,-43928.5728515625,3436.1889117322
1210,-37191.32744140625,4439.9459927471735
1211,-46136.37109375,3570.833684791954
1212,-39908.59130859375,3946.0710810813575
1213,-39234.47294921875,4820.374925044666
1214,-38426.24912109375,3682.00442664449
1215,-49756.622265625,4531.127553728824
1216,-45902.803125,4396.160076226606
1217,-40043.45712890625,3382.7004484672066
1218,-46978.9142578125,4096.476652541053
1219,-35737.0818359375,3875.7510431847886
1220,-29054.8716796875,5191.433451035808
1221,-34477.15009765625,4009.355116771049
1222,-42268.0544921875,4583.663105929157
1223,-38550.3783203125,3380.8104986360136
1224,-46862.6392578125,3461.753919696337
1225,-41804.720703125,3754.7781931305763
1226,-40143.11650390625,3738.291555025108
1227,-38834.142578125,3753.5865797303554
1228,-48664.2490234375,6165.07546937869
1229,-52347.263671875,5992.746003847467
1230,-42404.08701171875,4314.155986647813
1231,-48719.551171875,4314.588132339058
1232,-49057.257421875,4249.463402966293
1233,-44306.3361328125,3592.2840242160178
1234,-39025.8560546875,3616.6238305776246
1235,-27096.80693359375,7157.330647300017
1236,-40905.90703125,3635.8296059957406
1237,-47359.2228515625,4262.7804744733385
1238,-51256.133984375,4452.758086724752
1239,-41486.1890625,4154.3875843169635
1240,-34957.7552734375,3343.285213842856
1241,-45027.805859375,3964.573172862703
1242,-41913.2240234375,3313.4439959904157
1243,-48390.0626953125,4281.805516150626
1244,-46848.6416015625,3302.6403390439464
1245,-50564.3091796875,5735.964049037795
1246,-43144.0703125,3794.296803468259
1247,-31576.77177734375,3425.026490210748
1248,-44706.5984375,3663.81500640862
1249,-45773.577734375,4345.39382728403
1250,-46843.226953125,4832.295174579853
1251,-49519.4162109375,8177.129119253837
1252,-42606.7021484375,3805.8897735961223
1253,-43906.327734375,2949.005211791293
1254,-43019.4626953125,3668.0811545396414
1255,-45507.1373046875,4194.687005282138
1256,-33517.093359375,3152.4156548287783
1257,-30204.76416015625,7658.773652511363
1258,-37887.0232421875,3346.763592819356
1259,-34205.865234375,3763.941897903335
1260,-45115.597265625,3896.0624507347775
1261,-51415.65234375,4223.97909662392
1262,-47261.7517578125,3941.3071957498237
1263,-51794.6771484375,3463.528964823848
1264,-49448.8591796875,4383.015386967123
1265,-47862.2302734375,6087.42595023177
1266,-37762.473046875,3493.965786739347
1267,-42819.11640625,3582.270273851833
1268,-45885.644140625,8733.278977270144
1269,-40637.37265625,3254.2740872733625
1270,-37666.82001953125,3607.028816980869
1271,-42656.242578125,3323.97004643609
1272,-38689.84501953125,3591.5263047920744
1273,-44404.6263671875,3458.7546040897096
1274,-32901.04892578125,2868.287446904621
1275,-32341.9478515625,4655.84352796795
1276,-37490.48193359375,3119.283216537407
1277,-42462.3373046875,3506.48165923098
1278,-41044.77548828125,5660.391144715447
1279,-44943.7455078125,3785.6243423195365
1280,-53589.584375,6526.064571852555
1281,-46603.25,3765.0405927577767
1282,-48730.683984375,4316.703830030619
1283,-30843.96728515625,6056.465467106923
1284,-35513.7876953125,2956.5122507310925
1285,-29481.89658203125,4324.796972159586
1286,-38834.01943359375,2985.421502759122
1287,-48533.6537109375,4350.497182007164
1288,-41442.24921875,3028.6110885927496
1289,-43137.7826171875,3253.2308639948005
1290,-45028.6728515625,3654.772545461058
1291,-43204.3640625,3993.176846761412
1292,-46440.0078125,4361.033038591036
1293,-49825.191015625,4474.687803664261
1294,-28875.2603515625,9689.293105233353
1295,-46691.11875,4306.332456375468
1296,-45199.201953125,3607.746213438225
1297,-33524.37177734375,3594.4851441938126
1298,-48745.45234375,4415.470356809015
1299,-44311.28515625,4339.227735991893
1300,-40642.26044921875,3612.731371049815
1301,-29960.60283203125,4725.120105277905
1302,-29782.63759765625,4557.342317274637
1303,-44269.9763671875,4500.80117255023
1304,-33174.080078125,3949.993938813883
1305,-46194.0447265625,4716.026946700293
1306,-49372.659375,5131.504055967938
1307,-29611.6287109375,3765.4794902872527
1308,-34111.622265625,3948.6165974450714
1309,-45521.2869140625,5057.831779162004
1310,-29294.81962890625,4059.5241657945126
1311,-45462.7779296875,4675.827583544857
1312,-36631.916796875,4226.636088483134
1313,-47803.2271484375,5349.240512322615
1314,-43895.9841796875,4731.474101133469
1315,-40007.99072265625,4500.142259012059
1316,-41707.049609375,4803.503576944417
1317,-43251.4984375,4401.866832608286
1318,-46898.81875,5293.892409377625
1319,-42202.708203125,3715.180588270353
1320,-44629.9794921875,5437.928090230977
1321,-46833.3947265625,5361.259858466571
1322,-28961.63603515625,4073.6369248769774
1323,-43496.71435546875,3970.257851119326
1324,-36152.964453125,4066.9728663246183
1325,-48755.3220703125,5438.465936335978
1326,-35583.90615234375,3793.458881163393
1327,-39791.3255859375,3671.4054217075136
1328,-37586.68017578125,4318.779857763923
1329,-36280.71904296875,4180.388127443913
1330,-46112.6046875,4936.409631867513
1331,-36017.84296875,4078.1500597704967
1332,-48959.2294921875,5148.280321071976
1333,-41304.0544921875,4380.123520667919
1334,-40552.705078125,4226.709513093574
1335,-46004.3177734375,6472.963625322157
1336,-45022.9365234375,4563.507073029539
1337,-32822.9228515625,3555.1044204325776
1338,-39405.9271484375,3903.200640462643
1339,-48908.2404296875,5454.784426830193
1340,-26886.1150390625,4913.141262297549
1341,-39515.3560546875,3101.3406020385305
1342,-43683.917578125,4097.454699152723
1343,-48364.158203125,5050.284863783393
1344,-28699.99638671875,5532.787839986337
1345,-46413.283984375,5167.624541341043
1346,-45680.8220703125,4635.722330499537
1347,-46029.2875,5439.93562497749
1348,-47959.4861328125,3954.1917135894314
1349,-43465.623828125,4720.674302200018
1350,-33522.815625,4985.472272655047
1351,-29561.4150390625,4100.80802537212
1352,-37840.231640625,4019.657290918936
1353,-44455.5609375,4382.706406591674
1354,-40667.6677734375,3931.631805478307
1355,-33975.23427734375,3823.7996985959503
1356,-45655.6173828125,4675.776725964009
1357,-42932.0943359375,4315.325201108573
1358,-28708.87236328125,3925.8772944920265
1359,-50427.2568359375,4873.834809115741
1360,-38572.3802734375,3745.6488183321785
1361,-32216.6646484375,3729.7208653653843
1362,-36655.50791015625,3956.323249783246
1363,-50586.282421875,5049.313698825866
1364,-33393.28203125,3455.214875543464
1365,-39082.06904296875,3525.98960612417
1366,-42902.09736328125,3599.251425385146
1367,-49198.8548828125,4886.707092390184
1368,-44639.23671875,3563.596290512586
1369,-42157.15546875,3607.8659380143217
1370,-42771.5767578125,3725.827437268856
1371,-42497.672265625,4340.193195504204
1372,-47508.2375,4946.41890160745
1373,-36188.75126953125,3366.7379110744723
1374,-45411.749609375,5338.127194898502
1375,-46886.3486328125,4919.585869262639
1376,-44784.7650390625,3819.591131777465
1377,-45468.163671875,4339.129615347583
1378,-34584.28916015625,2784.144455405483
1379,-40505.35693359375,3511.49068226659
1380,-44827.9228515625,4595.927151644627
1381,-29928.101953125,3958.493677918114
1382,-38177.84169921875,3047.0464919864426
1383,-32875.11474609375,3602.3949699069854
1384,-32235.4283203125,2983.432042805382
1385,-37176.042578125,2826.1391398417586
1386,-35914.65361328125,3266.903235890048
1387,-35899.136328125,3410.399594921116
1388,-46415.7890625,4755.149805295389
1389,-46944.4330078125,4186.177576471785
1390,-47539.589453125,4525.5829317056105
1391,-39133.8380859375,3190.641368907933
1392,-44082.715625,3904.6215389322174
1393,-44679.720703125,4430.74928738591
1394,-44855.7296875,4407.052508455537
1395,-29084.81376953125,6121.032331858426
1396,-36761.04599609375,3306.1886780602536
1397,-47926.76015625,4693.375400484273
1398,-49168.30078125,4705.513590933852
1399,-43034.4521484375,3799.816508847198
1400,-40289.29833984375,4019.4242792262858
1401,-40649.8287109375,3771.0295265982577
1402,-35048.1685546875,4073.673578281744
1403,-32873.65673828125,5527.102269120742
1404,-48331.165625,4677.394666225455
1405,-49003.6671875,7785.997356812728
1406,-49238.5703125,4642.116404235312
1407,-35155.290234375,4316.707000546425
1408,-45745.6015625,3583.7020760372507
1409,-42650.3470703125,3787.8189086467637
1410,-39344.69033203125,4338.742388343629
1411,-40844.4986328125,4247.83428531424
1412,-46939.4064453125,4469.445924297398
1413,-37718.66484375,4470.482614301029
1414,-44875.680078125,4595.623792449681
1415,-44506.68203125,4291.383449993124
1416,-39761.77978515625,4305.841733785636
1417,-26382.0509765625,10760.929833290447
1418,-40914.7833984375,3849.5882535931373
1419,-47368.22490234375,7100.447221635642
1420,-44359.76171875,4237.545659708245
1421,-40958.2767578125,4243.978928348869
1422,-44063.572265625,4152.221905731311
1423,-31538.23037109375,6609.536838776147
1424,-41694.95703125,4242.066311193584
1425,-42092.00546875,4092.811581129931
1426,-45415.129296875,4092.8167980592216
1427,-46817.8455078125,4566.94857126016
1428,-40455.71728515625,3964.751187241703
1429,-27774.9984375,7838.304893319846
1430,-35582.0896484375,4399.027186705675
1431,-35344.24853515625,6563.0902487679305
1432,-38983.212109375,3815.344294648478
1433,-43022.2029296875,4337.153327235328
1434,-53360.6861328125,8682.694806679148
1435,-46514.5291015625,4567.06245010666
1436,-43976.64296875,4155.435925548867
1437,-42669.309765625,4714.542848630827
1438,-38045.22490234375,3968.6442035883774
1439,-44945.1806640625,4812.711776309244
1440,-31017.52353515625,6033.509613707904
1441,-34921.99541015625,4379.9320066919345
1442,-45943.79921875,6198.740422031986
1443,-46708.036328125,4395.786117551142
1444,-40819.8982421875,3946.893088120278
1445,-41255.47578125,3360.364893991827
1446,-36857.2609375,4168.801652527745
1447,-46779.7609375,8177.200984662463
1448,-45546.495703125,4413.982542703103
1449,-41393.163671875,3919.5066380851817
1450,-45103.165625,3961.6640058336343
1451,-51153.31875,5614.794862551185
1452,-36312.45078125,4221.211667741172
1453,-41362.690625,3658.1325762033225
1454,-40642.58203125,3791.7906761620998
1455,-31810.354296875,6964.0141075337415
1456,-46101.944921875,4438.062371668428
1457,-41245.2966796875,3704.5851440632414
1458,-45526.95712890625,7472.763229267349
1459,-45601.646484375,4395.196161661791
1460,-34494.97578125,5275.740186293109
1461,-41309.5361328125,3351.6698123205747
1462,-45641.3216796875,4015.749724978585
1463,-37931.376953125,3589.9885296729735
1464,-36447.2865234375,3831.5487002089767
1465,-44270.0060546875,3881.3018832782404
1466,-34708.29326171875,3780.3734560033836
1467,-42871.823828125,3794.748706022681
1468,-45860.7255859375,4540.734840180984
1469,-46149.214453125,4326.442950264332
1470,-46596.7470703125,4528.464878765271
1471,-31027.831640625,4989.269402520616
1472,-44177.0556640625,4455.213186281731
1473,-43049.7798828125,3744.400282797926
1474,-45640.3205078125,4533.2423754516885
1475,-44724.5828125,4596.802942623433
1476,-27899.40732421875,5674.772017890289
1477,-30554.2875,6183.564905222282
1478,-43189.309375,3989.1591657868303
1479,-48723.7390625,9466.317478710836
1480,-44204.6107421875,4534.491966673738
1481,-32230.60068359375,3915.071669971872
1482,-42471.887890625,4155.256701739231
1483,-43313.8796875,3836.646318621737
1484,-43376.8224609375,4510.793868519305
1485,-48090.55927734375,9936.459266045613
1486,-35408.57861328125,4722.201039384092
1487,-33553.48193359375,6081.260762567227
1488,-41906.6349609375,4025.247821184491
1489,-41849.74892578125,3729.4848596254287
1490,-40888.7662109375,3994.539659257028
1491,-44405.1326171875,8742.90436837714
1492,-39092.8708984375,4649.566866237477
1493,-48764.9779296875,4128.833958882258
1494,-39580.06767578125,4516.666216989447
1495,-39400.74794921875,3984.945499528864
1496,-40531.119921875,7701.2832411400595
1497,-46656.16015625,4771.973248967143
1498,-46638.5138671875,4199.047887449835
1499,-33601.62646484375,6100.482821752831
1500,-29697.45263671875,8575.944647139442
1501,-42101.336328125,3891.840292799271
1502,-36047.389453125,4897.691636350528
1503,-35881.98779296875,4151.663928853039
1504,-41398.5283203125,4425.867191175161
1505,-44198.5013671875,4587.355637113591
1506,-42180.093359375,4283.199568464042
1507,-38255.0060546875,4849.353153344366
1508,-46041.8580078125,5038.866023881949
1509,-38661.9263671875,4171.206696822405
1510,-37078.41513671875,4263.856995578838
1511,-40140.330859375,3948.134627928132
1512,-37027.73486328125,3876.4797586696573
1513,-48164.4390625,6356.246695875348
1514,-39309.57783203125,3772.527113690594
1515,-43389.0353515625,4213.689487100212
1516,-39814.0619140625,3896.070909881589
1517,-31157.9091796875,5591.949778012779
1518,-43105.658984375,4281.738943089436
1519,-38772.95263671875,3953.905336933247
1520,-45377.52109375,4579.94268841436
1521,-40617.562890625,4073.8955030104416
1522,-47133.6498046875,8041.024246672957
1523,-39737.8591796875,3783.0858549169516
1524,-34169.8205078125,3839.025137915783
1525,-45908.6767578125,5018.837385940624
1526,-37104.8705078125,3677.4559423311903
1527,-39632.5857421875,4164.099447117738
1528,-47594.037109375,4378.028247727048
1529,-35551.043359375,3352.6055353326974
1530,-45642.2201171875,5136.142246683758
1531,-38377.68173828125,3728.847608313055
1532,-33933.395703125,3161.3490656069403
1533,-27614.39052734375,7690.640153055997
1534,-28125.5015625,3843.9251786702966
1535,-49260.45234375,6039.566265650324
1536,-46567.078125,4679.624594386912
1537,-38833.7166015625,4502.508199103604
1538,-48075.79140625,3777.0200334720907
1539,-45437.6599609375,4643.536067754545
1540,-46981.10703125,4647.056957231957
1541,-43648.00859375,3686.2379826562374
1542,-38174.4517578125,3326.990758920367
1543,-40162.999609375,3243.078042598383
1544,-43948.178515625,3946.9030569824226
1545,-41116.7708984375,3399.565682835703
1546,-43224.947265625,3957.52035159567
1547,-44529.3669921875,3971.0339805060744
1548,-41173.61171875,3682.3408933939195
1549,-42386.826171875,3016.4187071091023
1550,-37252.41357421875,3815.406846614163
1551,-39815.4140625,4556.818989461405
1552,-40682.195703125,3987.749374106234
1553,-35746.10244140625,3208.811635484197
1554,-33768.952734375,3283.2672706232024
1555,-44655.9220703125,4503.811139480749
1556,-35575.1888671875,5225.086829888738
1557,-41091.3978515625,4235.194513409723
1558,-42827.94921875,2680.623485028156
1559,-30836.93125,3957.776429966001
1560,-44900.5306640625,4795.322356531165
1561,-36507.4978515625,3856.1938408614287
1562,-42935.9703125,3411.5430747540627
1563,-38495.16435546875,3905.381464260628
1564,-40664.4359375,3586.9771817654632
1565,-38814.0849609375,4052.64383238239
1566,-39683.44267578125,6138.340142992953
1567,-35954.99892578125,3896.3636969694226
1568,-35759.07119140625,4026.938449276718
1569,-44792.9703125,3610.70226510265
1570,-43530.8982421875,4649.416814559131
1571,-34221.1142578125,4118.362410871482
1572,-31748.43681640625,5051.762783857231
1573,-47465.84375,5004.583834955939
1574,-32595.1603515625,5190.827702997486
1575,-38037.35546875,4220.175492925125
1576,-41953.1376953125,4674.403582850416
1577,-40722.44326171875,3891.85897931226
1578,-39027.25224609375,3515.5063393814294
1579,-43086.4181640625,4083.178845013119
1580,-40308.23994140625,4216.038604035215
1581,-43323.88359375,4546.533351587434
1582,-42934.06953125,4309.7160512831215
1583,-31773.102734375,4268.907379835606
1584,-38662.01533203125,3446.4424147355007
1585,-42108.5267578125,4213.77844018388
1586,-42897.5515625,4358.440605016298
1587,-35897.19482421875,3486.638299430361
1588,-35256.22841796875,4256.556306879959
1589,-40740.096484375,3533.5748697055515
1590,-38928.1306640625,3708.883924047532
1591,-34686.099609375,4085.317708676733
1592,-41959.9201171875,4851.169368886378
1593,-45322.291796875,5264.65478628801
1594,-36298.50068359375,3881.655922964274
1595,-33854.481640625,5621.019497580218
1596,-47199.934375,4572.283538323183
1597,-47779.6958984375,6494.094868431763
1598,-38349.71103515625,3710.334892628401
1599,-42335.6888671875,5479.27427294396
1600,-42912.598828125,3501.436641122846
1601,-38683.87138671875,3267.3412154631346
1602,-44937.3439453125,4492.514466373964
1603,-40395.9013671875,4803.761319513993
1604,-44504.0458984375,4776.999209180031
1605,-40988.8416015625,4247.908118646303
1606,-40397.667578125,5185.223783890547
1607,-45443.4869140625,5594.783108494856
1608,-41784.55625,3462.8952457508035
1609,-36254.57451171875,3839.7877508625984
1610,-42182.5376953125,5132.435952113194
1611,-36550.33349609375,3786.218130088058
1612,-40712.42041015625,4667.181099071541
1613,-36940.25859375,3685.7391014725304
1614,-36369.82978515625,3106.784341821598
1615,-40270.4984375,3150.3149957675146
1616,-40837.40546875,3977.6325659136505
1617,-38160.67490234375,4304.498976110783
1618,-47434.0642578125,5025.80636537678
1619,-35416.2556640625,3283.4790446911416
1620,-41798.9697265625,4054.9772410595574
1621,-37555.1212890625,3638.4781420449635
1622,-37289.92099609375,2647.88375430012
1623,-46262.0029296875,4555.829655578143
1624,-32148.8583984375,5593.606757586662
1625,-43066.03359375,3586.1287063894665
1626,-42899.695703125,4076.457090257929
1627,-29321.15390625,7338.091063170728
1628,-35351.50693359375,4789.607126373539
1629,-43898.549609375,4558.294859731358
1630,-41170.1609375,3277.5789177105066
1631,-36518.4767578125,2947.0489371253443
1632,-33059.88232421875,4578.3917373470385
1633,-43424.6765625,3601.426736015052
1634,-35104.58681640625,5354.646232131644
1635,-36187.81904296875,3097.1501649839975
1636,-41184.762890625,5319.07245225914
1637,-34518.29091796875,3981.6660639529177
1638,-40659.3630859375,7319.447349354049
1639,-30134.64521484375,4817.154361218823
1640,-40676.3470703125,3369.5423781617983
1641,-43841.5525390625,4008.8369500636786
1642,-42634.05546875,4394.149722807888
1643,-40028.03828125,8626.336951879348
1644,-43209.86630859375,11664.060777955816
1645,-41452.314453125,5717.28306866695
1646,-39637.376953125,3853.2164279914446
1647,-35497.07138671875,4070.839984845583
1648,-37602.89150390625,4081.049346421734
1649,-47393.076171875,4842.308944335115
1650,-44989.5236328125,4457.960183137793
1651,-36503.8357421875,4647.454616051911
1652,-32699.329296875,7575.17952260123
1653,-39230.34482421875,4786.6641139239055
1654,-31202.901953125,5750.663048750683
1655,-43072.71181640625,4791.314086979741
1656,-41649.37607421875,4727.256747126011
1657,-33024.6017578125,4695.041835842914
1658,-43592.6078125,4450.155495526182
1659,-44611.3916015625,4597.295191409566
1660,-40555.445703125,5105.340456914429
1661,-45122.0453125,4558.552532774012
1662,-33558.30810546875,5029.948111454217
1663,-36109.59580078125,3652.9928374980464
1664,-42563.515234375,5115.877238146162
1665,-34009.43203125,3403.022246913657
1666,-37629.11640625,3076.8559536517796
1667,-29785.11796875,5920.521613800252
1668,-34310.5029296875,4251.732411523999
1669,-47334.478125,4568.31169175718
1670,-43527.610546875,4777.593779540483
1671,-48106.51484375,8010.392642116586
1672,-44832.859765625,4246.165393851887
1673,-40287.7044921875,5045.452063957904
1674,-42256.583984375,4661.873945997686
1675,-41197.5076171875,3908.0287095131976
1676,-43928.7158203125,7615.304322988605
1677,-47567.0140625,10046.726004528098
1678,-40930.518359375,4053.029125198973
1679,-41615.2376953125,3225.1218597807906
1680,-30942.412109375,3991.6908985916252
1681,-42799.9587890625,3992.7791794556947
1682,-39380.31171875,2882.6477870033664
1683,-40227.2658203125,3763.589143071488
1684,-36331.15439453125,2832.2520717972875
1685,-41700.9513671875,3223.1374873411596
1686,-46399.30703125,4872.91386906261
1687,-30860.6060546875,5875.762531497439
1688,-46616.10234375,4666.473045122755
1689,-40091.698828125,3200.103791320072
1690,-31430.99990234375,4451.184987782159
1691,-37111.9482421875,4364.726246581251
1692,-43388.876953125,4577.0594000100045
1693,-48768.76015625,4510.036101442368
1694,-47001.284765625,4943.669965139116
1695,-36945.386328125,3348.583692370374
1696,-35420.4673828125,3720.4679700426555
1697,-47896.0314453125,7092.076241475476
1698,-44787.81875,4071.1032847231254
1699,-38221.87431640625,3327.6194253974063
1700,-41944.4701171875,3976.1100397919136
1701,-47431.821875,5072.973270580514
1702,-30735.26181640625,4636.213642111525
1703,-38235.512109375,3509.8711533483884
1704,-38094.9716796875,3309.224952817922
1705,-40552.7501953125,3251.540766235272
1706,-34056.01279296875,3312.7669010458967
1707,-35850.79765625,3719.843093879237
1708,-46202.0466796875,5038.95102267157
1709,-37920.422265625,3647.304804784589
1710,-41464.915234375,3974.1514469562644
1711,-31399.458203125,4371.4178566872215
1712,-42767.12646484375,6310.743050669752
1713,-36685.79853515625,3847.840658564861
1714,-39606.63544921875,3346.5062522650974
1715,-40117.9255859375,4371.609400185268
1716,-38474.96494140625,4338.137137685881
1717,-42429.8408203125,4078.610267100503
1718,-33963.49404296875,3698.7086871965125
1719,-41490.91328125,4291.100015160113
1720,-47354.1517578125,5020.432438235811
1721,-29075.855078125,3157.1184769338925
1722,-33756.30703125,3052.6535398882534
1723,-38267.287109375,3087.242666872672
1724,-38591.695703125,3231.3349302378065
1725,-31372.45654296875,3332.2939394375244
1726,-40133.51796875,3471.328141685146
1727,-35006.6244140625,2972.7962888527095
1728,-50233.949609375,8853.94205801655
1729,-38884.2916015625,3337.3855905459804
1730,-41394.14296875,3583.851642412148
1731,-27511.8244140625,9709.727105407563
1732,-36772.865234375,3308.493602839721
1733,-47667.98994140625,9717.78028548066
1734,-44600.2814453125,4881.838070691403
1735,-48122.1197265625,5326.651133769841
1736,-32899.26298828125,6189.363505198573
1737,-43773.0533203125,6280.787383782285
1738,-43110.8017578125,5552.311050490648
1739,-40712.96171875,4652.047801143902
1740,-44129.2771484375,4544.725335829976
1741,-37908.11416015625,3100.482313648112
1742,-50877.7306640625,5881.050199700468
1743,-34632.3900390625,4231.608889624366
1744,-42888.25234375,4375.982901578377
1745,-31854.175390625,4643.548855544675
1746,-46168.0314453125,3441.173984017729
1747,-36665.717578125,4772.500920242548
1748,-43007.3208984375,4071.333891176739
1749,-40841.5669921875,3605.813418877961
1750,-38715.31416015625,3430.9878023260017
1751,-45856.790625,4780.688619814995
1752,-43028.4021484375,4064.2324400821876
1753,-42135.9193359375,3875.754998657821
1754,-39879.0408203125,3927.577642237703
1755,-43207.1998046875,4351.063208828596
1756,-44785.7373046875,4558.222962062273
1757,-33884.51767578125,3992.5497437468816
1758,-40216.4837890625,4917.793853442339
1759,-33402.54140625,5224.501438232985
1760,-39308.8595703125,3721.2699170527717
1761,-35011.4390625,4943.718464250164
1762,-34424.41650390625,3861.227121882751
1763,-41989.1498046875,5794.21207029328
1764,-38202.8154296875,3512.082415798733
1765,-34048.0396484375,4720.779473941591
1766,-35259.0232421875,4448.3512873535465
1767,-36480.02548828125,3867.815043478932
1768,-40305.9759765625,3827.9479864081136
1769,-37298.013671875,3728.060621731078
1770,-40284.61875,3107.1469963367
1771,-37221.52412109375,3666.569162899835
1772,-40686.1166015625,3052.0494636037783
1773,-43789.209765625,4952.445607220032
1774,-38019.8064453125,3584.726029952178
1775,-38426.91328125,5064.130060903214
1776,-45863.5095703125,4632.871060083141
1777,-34203.3869140625,3870.0246055235752
1778,-36161.8154296875,4536.867067374822
1779,-40728.894921875,3104.9139354885383
1780,-37899.2244140625,3629.5021591141162
1781,-42331.51484375,4218.674424007407
1782,-37250.380078125,4832.873233626161
1783,-36887.22841796875,3803.8917853162525
1784,-45017.520703125,3753.570469754066
1785,-46204.7765625,7514.594063129694
1786,-36209.92060546875,3334.1843880441174
1787,-46259.4322265625,4948.3240126494675
1788,-42404.044921875,4737.247854322833
1789,-44618.34609375,5079.847982043077
1790,-32149.94306640625,4363.419384276923
1791,-33818.351953125,4002.809336033294
1792,-30550.75478515625,5441.742777566344
1793,-35584.87041015625,4627.063119141377
1794,-44012.492578125,4840.789578964388
1795,-39958.8251953125,4909.4230910870165
1796,-35120.33388671875,3839.2328963449254
1797,-44459.68671875,4523.159502022698
1798,-42073.155078125,4640.945547242363
1799,-34727.3859375,5374.628880475146
1800,-39724.6005859375,3822.6220615222114
1801,-43827.83671875,5388.910570590862
1802,-39476.680078125,3265.089817622648
1803,-40747.24013671875,3533.5999081287478
1804,-31451.9044921875,5318.990537396405
1805,-38469.6689453125,3904.5297241699627
1806,-34681.75673828125,3709.849159442931
1807,-45462.6744140625,4720.68772592442
1808,-42813.727734375,4793.042648165179
1809,-33424.493359375,4683.117927105063
1810,-36734.2404296875,4729.054867516491
1811,-32879.46767578125,4733.883260130347
1812,-41549.9578125,3466.2945105986805
1813,-42870.3873046875,3923.893221312525
1814,-40748.6349609375,4756.542788116385
1815,-42794.389453125,5004.301238015918
1816,-38943.1611328125,4091.6832936217656
1817,-33440.706640625,5986.642611645192
1818,-46169.2607421875,5347.126007509439
1819,-33531.0380859375,4823.109816002934
1820,-47073.7859375,5248.717337250159
1821,-41398.74453125,4721.651548108594
1822,-36733.34775390625,3622.701315474156
1823,-31060.73369140625,4600.937992215003
1824,-38749.76650390625,4012.5956231578502
1825,-38697.6953125,3814.037415116198
1826,-38904.58798828125,3873.062202306009
1827,-40271.429296875,4744.951161357044
1828,-43305.45,4847.52397450879
1829,-39159.1142578125,3763.3413509112493
1830,-37821.19267578125,3666.1926924606755
1831,-32149.65029296875,5416.689115379587
1832,-41302.37490234375,6016.403827425298
1833,-42847.05234375,4274.207913484067
1834,-45382.89453125,5092.478379368082
1835,-38829.7591796875,3747.8912482181995
1836,-39291.2166015625,3906.5659099761965
1837,-41445.49765625,4481.639154653519
1838,-39464.96005859375,4950.585438371337
1839,-33802.5728515625,3482.248188840428
1840,-44812.9130859375,4902.89467295063
1841,-38346.81328125,3833.3578811800335
1842,-44278.9767578125,4667.667230356141
1843,-36785.86484375,3971.055764045893
1844,-34589.84501953125,4676.088304790376
1845,-42512.9515625,4338.662334627049
1846,-33133.49404296875,4101.549015096902
1847,-39305.22021484375,5103.9091964116415
1848,-37032.6455078125,4490.818779635265
1849,-45012.1498046875,4171.037211407827
1850,-37126.26953125,3674.7069650432195
1851,-35432.716015625,4045.38681116281
1852,-41511.2103515625,3848.246186401023
1853,-46182.1826171875,4664.95998066178
1854,-47725.38154296875,5679.8917036832145
1855,-47043.766015625,5639.740741727839
1856,-35578.0265625,4771.5965131157545
1857,-31973.047265625,5236.224284866204
1858,-32842.68134765625,5520.0367886813965
1859,-37214.964453125,6128.475090696181
1860,-46854.6416015625,4763.51379140227
1861,-40107.4693359375,3852.339543587974
1862,-31853.84990234375,2938.875450561242
1863,-41045.0634765625,3757.2777249561814
1864,-30748.27763671875,4573.0670906200685
1865,-47377.3123046875,4726.449147088041
1866,-38090.65234375,3656.837503560626
1867,-45647.48583984375,8846.546718195425
1868,-43686.8365234375,4580.557716832193
1869,-38134.89736328125,3655.1886330870043
1870,-41548.05078125,3526.0644358526133
1871,-40258.3064453125,4106.894235248905
1872,-35403.68291015625,3343.610101573599
1873,-31661.01328125,5243.499896256952
1874,-37696.32587890625,3416.69262011298
1875,-39781.0892578125,3825.523315471571
1876,-43691.3232421875,3734.4845752978995
1877,-44042.3443359375,4398.5337676492
1878,-43052.0376953125,4488.468858644502
1879,-40926.387109375,3570.9257597705755
1880,-44802.576953125,4446.138021003497
1881,-36551.365234375,3605.962983800044
1882,-32917.32734375,5971.897432784523
1883,-30754.5923828125,6453.095379086164
1884,-39146.75673828125,4151.219285419029
1885,-42666.653515625,4060.412467729531
1886,-38610.16279296875,3973.7375588846
1887,-36464.98779296875,3585.777611445593
1888,-42863.069140625,4807.80783210755
1889,-34705.60615234375,4269.838003614514
1890,-33532.40009765625,4435.41354164989
1891,-40434.5484375,3780.4698558000423
1892,-36260.25234375,4003.3267053787345
1893,-38729.032421875,4047.741984888801
1894,-41973.5927734375,4143.158163283214
1895,-35707.30390625,4797.9097410733275
1896,-37958.55009765625,3866.0832348162858
1897,-41544.3447265625,3885.3180976332637
1898,-45594.2208984375,9217.762736775068
1899,-30475.94140625,6577.562903640507
1900,-34727.79384765625,3905.8588308694493
1901,-35637.824609375,3413.8265142021937
1902,-44791.775,4691.50246668943
1903,-33337.38486328125,5429.520510525318
1904,-35309.27880859375,3208.1063038046696
1905,-44348.215234375,4301.119418230657
1906,-34349.29443359375,3660.1074456312094
1907,-47300.3189453125,4797.4247824692175
1908,-45592.0912109375,4794.531912017398
1909,-32023.0671875,5025.516386974278
1910,-30139.49521484375,5205.777526647107
1911,-40871.3546875,4530.716088844616
1912,-41831.9451171875,3798.793194584039
1913,-41286.0892578125,3212.4108596492506
1914,-42836.906640625,3701.328287997918
1915,-35184.892578125,3690.967241383703
1916,-33412.47734375,3527.459861714388
1917,-31677.59814453125,4499.637424411206
1918,-44939.9591796875,4324.908598505705
1919,-37488.97197265625,3938.155805701528
1920,-36658.3142578125,6774.051189074106
1921,-40041.71796875,3334.4988470450126
1922,-30158.12470703125,5291.749037211387
1923,-44682.2091796875,4155.789614477862
1924,-39863.717578125,3259.9268843997456
1925,-44128.3552734375,3959.7402220650456
1926,-36999.3625,5145.154625619426
1927,-42513.3939453125,3852.6633064303655
1928,-44361.1197265625,3780.329037131747
1929,-38769.706640625,4467.265921837289
1930,-32307.37470703125,7247.451248617416
1931,-41887.9349609375,3278.2813178351075
1932,-46386.6767578125,4442.715222452044
1933,-37542.361328125,3357.465492572372
1934,-36057.174609375,7277.585582463597
1935,-40458.1205078125,3418.8103394041655
1936,-42697.2109375,4228.131073739459
1937,-39226.341796875,3728.280025771108
1938,-36929.4482421875,3314.673555840291
1939,-43335.440234375,6484.308345031346
1940,-36004.1158203125,3594.10881210406
1941,-36544.52255859375,4965.049168457194
1942,-33622.209765625,4939.342665522804
1943,-39450.72431640625,3774.317703105032
1944,-46042.5994140625,5834.501649308334
1945,-41973.603125,3609.059283389157
1946,-34917.6849609375,6946.971701645783
1947,-46966.07001953125,9996.560028229045
1948,-42194.1908203125,3832.3511204313095
1949,-41771.7345703125,3851.0647317566663
1950,-32958.83095703125,5325.662863712522
1951,-43200.30634765625,4748.283941804451
1952,-43252.120703125,3387.384176567996
1953,-39224.2525390625,3338.670538094302
1954,-42626.727734375,4584.901619042049
1955,-38351.412890625,4188.701596147772
1956,-35424.25517578125,6429.165532677207
1957,-42885.73583984375,11663.234386301909
1958,-41749.77421875,4335.453887545634
1959,-40896.017578125,3641.4289014766064
1960,-37005.2859375,2980.624596416322
1961,-40299.8072265625,3610.2679718266104
1962,-39850.43779296875,4285.347339799755
1963,-42061.03828125,3786.8391621523865
1964,-40370.43671875,3755.7078080512456
1965,-44817.1271484375,4335.98908543805
1966,-47033.4193359375,4623.755623604813
1967,-34729.31728515625,5064.29742343539
1968,-49836.845703125,7301.5266124644995
1969,-48210.4529296875,5479.653476385375
1970,-44368.43125,4544.4633401843885
1971,-42882.631640625,4061.2140904963353
1972,-39094.1845703125,5719.584818739742
1973,-44434.4337890625,4567.339357877972
1974,-49182.6591796875,5398.646583305907
1975,-41715.0671875,3739.9617563123415
1976,-37700.631640625,4464.3581773849
1977,-33015.3984375,7523.75643626944
1978,-36931.75029296875,7446.377339568976
1979,-37480.61982421875,3571.3952936207097
1980,-35174.644921875,3640.2712769954114
1981,-30023.725,7704.106945374806
1982,-44634.408984375,4802.0274207524435
1983,-37382.98857421875,3076.7466885009185
1984,-35323.10380859375,3829.959437415228
1985,-39665.48662109375,3737.2448186015527
1986,-44306.6361328125,4595.638039574329
1987,-44297.4716796875,4299.454820158685
1988,-43170.8966796875,4097.151781343804
1989,-42760.196875,6257.133185305744
1990,-41168.6478515625,4067.138618259982
1991,-43248.96171875,4157.47368745417
1992,-43790.561328125,4986.817842527408
1993,-40341.9087890625,4154.238366132571
1994,-36991.60458984375,3567.0442113626896
1995,-43678.7689453125,4315.71063246451
1996,-38319.03125,3772.8118660547298
1997,-39974.21689453125,4095.7814538903162
1998,-40437.103125,3425.9889681152235
1999,-36243.96279296875,4062.0302088870944
2000,-44236.6451171875,4695.050014668086
