iteration,mean,std
1,-117762.563671875,2668.7497213072015
2,-99924.5578125,8751.102699842582
3,-83188.062109375,4785.716529288896
4,-64267.8775390625,4608.962579818894
5,-72807.062890625,4282.11650733468
6,-61838.523046875,4699.039507126794
7,-61273.35859375,6464.372842610231
8,-73253.3546875,10069.01353123399
9,-55524.1060546875,4632.462267775102
10,-77925.7517578125,11915.975611492813
11,-72341.486328125,3998.680578165499
12,-66789.9478515625,14628.659901708066
13,-59891.0740234375,6273.665340987502
14,-72072.9912109375,6657.484396197089
15,-57723.041015625,7460.576182564122
16,-62154.5095703125,11613.38900050642
17,-71002.4580078125,7875.147822235915
18,-52951.0921875,3470.772765599946
19,-55449.5720703125,6429.735055014333
20,-55513.85234375,5417.884535032426
21,-54983.83125,4291.075583430098
22,-54895.745703125,4343.645671304808
23,-62735.208984375,6347.762269470092
24,-59767.441796875,8859.014886819405
25,-56015.036328125,7964.801854173765
26,-47862.5259765625,6922.877537552689
27,-64942.3876953125,8300.084131705516
28,-52527.7869140625,7061.677386547205
29,-53749.1013671875,3980.212679050193
30,-50969.519140625,6451.640084693091
31,-51680.5439453125,7305.7140298941285
32,-50318.816015625,7096.204279627001
33,-65960.5943359375,11819.466623815535
34,-53022.45,2619.102970137541
35,-62509.785546875,8872.834335929454
36,-48829.287890625,4361.859817570743
37,-63915.90439453125,16851.153946449616
38,-59699.61328125,7872.935973742526
39,-55053.6720703125,12774.368211010165
40,-54198.30234375,3579.8982404423596
41,-49257.3806640625,3226.0665606575035
42,-49672.15732421875,12187.266359475701
43,-51555.551953125,4065.3540832015397
44,-46807.7048828125,2539.356901420969
45,-55026.8142578125,5391.803934600071
46,-48597.4931640625,7408.480318613383
47,-50085.470703125,3743.295157678083
48,-56912.4279296875,9313.151839366905
49,-53508.4751953125,5405.493137088332
50,-49896.590234375,6041.518054516349
51,-54102.1341796875,3683.681273576056
52,-59798.1669921875,16162.475692317938
53,-54579.3912109375,4562.968658583622
54,-51478.3779296875,4036.6440759037678
55,-50313.481640625,8986.467969409892
56,-53072.9833984375,4186.690183573901
57,-56954.5328125,6579.348077990974
58,-51353.9642578125,7910.474776380601
59,-54899.9978515625,8261.744216850846
60,-53630.596875,11548.053477619766
61,-48461.8619140625,11998.13792156276
62,-55165.3849609375,6798.802553556913
63,-49091.12109375,11536.364603649738
64,-47685.9416015625,15548.819563825686
65,-51824.0873046875,8378.430241817665
66,-63875.4251953125,8608.768877315306
67,-50754.5591796875,8094.137276472986
68,-48608.42666015625,14473.71264278998
69,-47526.312890625,5188.632373559058
70,-54446.3818359375,9284.970282231156
71,-48712.9099609375,15942.048412768367
72,-50060.8099609375,5505.547981466954
73,-47045.8673828125,8978.101142710133
74,-60062.6193359375,10790.258697727677
75,-53590.1275390625,6457.919529468645
76,-64216.8744140625,11165.972845731954
77,-46673.91943359375,14385.779720183227
78,-51622.555859375,8239.760235868891
79,-52230.93359375,5510.050531034191
80,-43867.744921875,10593.529789832375
81,-57001.9142578125,8917.473224117073
82,-54265.924609375,2623.4604674760467
83,-45956.21875,5405.80444804408
84,-51847.9087890625,6177.244574072796
85,-44661.86982421875,13493.158637690722
86,-53504.232421875,3362.839819243004
87,-48543.6265625,6083.316902870943
88,-49531.618359375,5536.813251449396
89,-43530.65078125,7762.286895552257
90,-61781.38203125,8948.586748412587
91,-52015.1494140625,2319.733693565935
92,-50887.5380859375,3451.37760986965
93,-56579.37890625,9115.782840784872
94,-50322.7001953125,4678.445494981702
95,-44456.7720703125,6774.616398588627
96,-53355.9201171875,4900.645023381847
97,-53567.8021484375,2793.65485494294
98,-47977.36484375,4942.753065387728
99,-54581.0705078125,5275.9446625870205
100,-44929.0146484375,12404.972348684278
101,-53351.4048828125,7053.69973602782
102,-55258.8517578125,1934.1468692799172
103,-45171.139453125,7281.945906419494
104,-49033.9009765625,4464.193895386067
105,-55294.503515625,1897.2366731632387
106,-47631.26796875,5938.105849756365
107,-47155.501171875,4057.0011578561
108,-52774.20859375,2160.402352284996
109,-45190.8615234375,9762.513291504509
110,-49289.5853515625,6441.402014237976
111,-56656.8466796875,9227.764614736283
112,-53500.11484375,4683.626126498063
113,-52259.3794921875,2155.734738235138
114,-46380.7802734375,4465.949599323044
115,-42289.070703125,8239.97313798525
116,-60072.179296875,4041.4895484014055
117,-51137.1927734375,3059.5481492761924
118,-50797.4666015625,2112.031383922598
119,-49652.3125,3228.3617622117376
120,-53893.4939453125,4373.183926918005
121,-43484.0822265625,8868.502844915336
122,-41175.6408203125,15431.598471472693
123,-51657.1416015625,2285.860468971984
124,-46795.0861328125,3334.806337891126
125,-45716.46484375,3961.2375721383505
126,-49360.2876953125,2588.5974941086433
127,-49042.694921875,2718.2424938492686
128,-49566.610546875,4292.673936128607
129,-55166.0279296875,4541.9800179990225
130,-69246.3314453125,8161.945273400846
131,-42638.80517578125,10134.779458127663
132,-49350.733984375,3596.6329134539387
133,-63137.430078125,7585.705290354764
134,-47554.165234375,5270.708965675886
135,-47336.8740234375,4985.470673513099
136,-42834.6791015625,6631.803509998428
137,-55217.5423828125,9365.466840411114
138,-58696.8361328125,5220.170863364896
139,-52771.8173828125,2326.069998248248
140,-48326.4810546875,2365.2760285285967
141,-47319.0662109375,4548.319322223812
142,-47154.5326171875,6405.798507591482
143,-52951.573046875,2436.4030971641128
144,-43717.9587890625,5752.676110677443
145,-43474.0814453125,7104.947220950754
146,-41283.3548828125,13222.64038303222
147,-46817.35234375,4168.084827822281
148,-49809.9494140625,2959.723779275969
149,-56761.53828125,3417.495791558555
150,-44885.9154296875,6209.645331024131
151,-54626.7001953125,5394.313756521841
152,-44122.37265625,7559.49698825621
153,-41429.4140625,9048.854920106665
154,-49311.0703125,3019.486430546451
155,-53080.5306640625,2557.5205111361893
156,-57135.1962890625,3540.2177570605786
157,-48977.8994140625,4544.441148335506
158,-50742.9837890625,2766.2658527371377
159,-38936.0345703125,9577.73778204647
160,-49932.2044921875,3227.7882711119955
161,-46954.634375,3693.173353315722
162,-47541.3720703125,3908.889460448172
163,-52339.0044921875,2559.803772841863
164,-51245.1580078125,2809.7307925061486
165,-46377.3607421875,4248.014719123317
166,-43220.659765625,5942.107838821229
167,-44907.7541015625,6531.433633787058
168,-52243.553515625,3330.481461534068
169,-49296.940234375,4609.472436126232
170,-38267.65546875,10502.28060051637
171,-49348.54453125,2720.447676598846
172,-40554.1888671875,8519.861506383042
173,-45773.29140625,5560.574142175034
174,-62018.40703125,4740.35302597188
175,-54798.8822265625,4549.423721687465
176,-48381.3806640625,3733.847821523743
177,-49325.4474609375,3762.5888545405132
178,-47231.4330078125,3374.356599256386
179,-49714.9021484375,3211.131253740383
180,-41090.2693359375,7739.263506204971
181,-35904.65595703125,10644.327636591841
182,-41992.8466796875,4271.689281066495
183,-43238.9078125,4889.536116274612
184,-54074.2822265625,4191.326511219259
185,-44219.3337890625,5547.698916952637
186,-52415.7427734375,4863.540245521082
187,-50583.8943359375,2893.286774368094
188,-38823.3521484375,6988.74820343243
189,-50551.109375,2677.0494241021574
190,-41146.734765625,5230.395841454565
191,-50493.8884765625,2937.216248859384
192,-51173.9857421875,2603.184145218162
193,-42124.4150390625,5199.694543944807
194,-51049.683203125,2464.1003853877455
195,-46010.830859375,3577.374782825843
196,-53842.748046875,3082.6141955668368
197,-51194.9052734375,3157.1622769821265
198,-51123.883984375,2820.208886059571
199,-52686.1763671875,2758.365890467081
200,-42331.37265625,6121.80402328532
201,-47506.2193359375,4644.014718493429
202,-53158.40546875,2639.247422838441
203,-41146.3556640625,5651.462648215065
204,-54540.298046875,3768.5169317943623
205,-44039.647265625,4360.539029368043
206,-52552.055078125,3949.666829705799
207,-41280.1724609375,6887.320724954684
208,-38256.692578125,6172.117428662419
209,-44582.9796875,5547.573000754965
210,-49270.033203125,5287.959709900793
211,-54413.345703125,2391.5042265808224
212,-47076.496484375,3290.0504814493
213,-51959.690234375,2588.4917932511366
214,-55520.213671875,3486.743695774912
215,-48069.8849609375,3607.348709408246
216,-35888.184375,8730.355194118103
217,-50197.43046875,2483.7770081852086
218,-52590.9279296875,2659.563800104729
219,-53499.4291015625,5631.817050140683
220,-39849.005859375,6525.384828459911
221,-41043.687109375,4893.459704677431
222,-52277.4435546875,6102.881357082363
223,-53840.11171875,3214.500661499506
224,-33984.2509765625,6370.552510111411
225,-43733.8390625,4257.308140669118
226,-51765.329296875,2734.8653678559763
227,-37763.3521484375,6052.939645281347
228,-42629.821484375,4548.688548036233
229,-52113.5197265625,2600.936181235631
230,-56104.3400390625,3688.9301545660683
231,-50459.6771484375,2723.144679543006
232,-45235.181640625,3924.5436299979488
233,-49505.5384765625,2877.1107096918395
234,-43327.9416015625,4939.579845654876
235,-40707.9619140625,4693.155145676638
236,-41257.9416015625,4959.701029287171
237,-43219.19453125,4726.377625669933
238,-41020.146484375,3825.5864375770475
239,-41378.9912109375,4466.650761094367
240,-47562.875,3426.4292132556216
241,-49460.948828125,3186.0133213648105
242,-47540.6646484375,2693.407505463398
243,-41823.67890625,3649.8096068420605
244,-44423.5970703125,3330.0562921877026
245,-48524.1203125,2582.4924226918465
246,-39093.92734375,4753.305157125383
247,-33928.1015625,6996.6666256059725
248,-54408.8763671875,2539.0023884159245
249,-38424.35439453125,6255.439862906821
250,-37509.13515625,4702.778983562583
251,-49231.184375,3238.2645114150564
252,-46211.01953125,2819.7378931402013
253,-45399.3322265625,3433.296665763436
254,-40685.2392578125,6288.24772041814
255,-42809.2458984375,4332.586526270533
256,-49073.956640625,2756.9561131821933
257,-50782.6333984375,2936.081316028002
258,-51989.64375,2756.568734261393
259,-44337.9798828125,3403.2922643630527
260,-47646.5515625,3131.8445854665056
261,-43311.65234375,3350.7586203918704
262,-44311.50546875,4084.829942825439
263,-51983.8361328125,3118.5946371389373
264,-36712.6833984375,7524.411615426118
265,-55406.8583984375,3584.678164653273
266,-44912.3517578125,3568.8272526257533
267,-50261.4423828125,2883.8135718639396
268,-39044.655859375,5192.161683053172
269,-49185.6724609375,2942.823321988461
270,-50663.5099609375,4094.8028166335184
271,-48668.003515625,3505.8815271934413
272,-43281.5037109375,2888.862156989969
273,-40811.94296875,3194.65830233491
274,-49552.416796875,2748.3081204330797
275,-49630.369140625,3283.864149753334
276,-47007.024609375,2801.5754407911604
277,-51404.4181640625,2443.4851343349346
278,-46207.2056640625,4336.079578559608
279,-37829.89853515625,6195.457200415354
280,-48245.00625,2376.0505241665273
281,-51942.6396484375,2901.6904580153064
282,-48439.3740234375,2387.2985611143813
283,-45984.719140625,3310.367146533059
284,-44419.80546875,3015.6936569030786
285,-48965.957421875,2631.203237021628
286,-49677.9517578125,2562.8372744451517
287,-44015.254296875,3317.039147584319
288,-46296.5115234375,2474.2629170671316
289,-42922.9900390625,3350.9641009561296
290,-47313.8142578125,2317.1489145816495
291,-41525.0228515625,5382.780070636659
292,-48283.901171875,2711.521606127689
293,-39528.183203125,5399.914360402764
294,-49441.1619140625,2715.1202426816494
295,-35842.43349609375,8053.524937874604
296,-46259.6720703125,2689.0599304609614
297,-43813.030078125,3173.1964469644777
298,-50718.6083984375,2905.2883627806946
299,-44783.00625,2939.7643427980984
300,-42987.033203125,3419.343356531144
301,-39256.0580078125,4811.510685248329
302,-43834.0892578125,3980.759724160787
303,-48494.182421875,2943.177630792741
304,-42084.8775390625,3973.286748535648
305,-39730.8771484375,2603.661267909577
306,-37556.1939453125,3626.4666003238294
307,-52353.5451171875,2755.8643680172354
308,-49108.0841796875,2646.906856083687
309,-47461.009375,2505.5759771204516
310,-39630.9609375,4010.2560398362384
311,-51898.5564453125,2793.6782139707566
312,-37891.8029296875,3773.5598071984405
313,-37768.8748046875,5163.967868509833
314,-44204.245703125,2351.0370131953255
315,-55303.3947265625,2696.197177020415
316,-42984.34921875,2519.2737544859647
317,-36653.18564453125,5524.040997315399
318,-34571.8373046875,4646.668575032451
319,-48904.4169921875,2526.9736170171186
320,-34967.969140625,4985.620113818516
321,-41202.2732421875,3578.4566755109277
322,-42553.2798828125,3384.241092068923
323,-45668.7732421875,3648.3601189359633
324,-46277.8416015625,2438.214173117781
325,-51849.7599609375,2591.408792306395
326,-41638.22578125,2711.1610338352116
327,-50201.4921875,3133.023238074762
328,-45957.9642578125,3408.9896290282636
329,-49614.1720703125,2589.6670222381726
330,-46552.305859375,2448.6154558306384
331,-40307.9966796875,2989.0116805059974
332,-45121.9875,2505.796956384957
333,-46274.3685546875,2648.878146066011
334,-47269.3283203125,2443.094789694103
335,-40259.296875,4081.7604560978407
336,-36589.3357421875,4742.728762433381
337,-53735.06484375,2602.7246029896965
338,-37733.49794921875,3949.842370862391
339,-41636.2064453125,2545.026226616129
340,-50959.6419921875,2479.6984190308895
341,-40983.2650390625,4733.666398482857
342,-52119.7927734375,2465.2594349851406
343,-36675.5775390625,4648.746105160667
344,-54108.2255859375,2714.803416990436
345,-47201.1044921875,2355.238378172661
346,-52041.5552734375,2348.343920945954
347,-43820.57578125,3046.705605529643
348,-47867.0056640625,2253.5842570455015
349,-49858.81015625,2369.0408767314875
350,-46193.106640625,2134.5561878604058
351,-49360.186328125,1999.2779154134237
352,-52360.651171875,2356.402946440118
353,-52813.3375,3187.0581469706885
354,-51480.298828125,2275.439808580394
355,-43829.8248046875,2353.6576399247338
356,-45506.6517578125,2713.445144009223
357,-48644.6611328125,2172.515287686894
358,-45735.8099609375,2286.834227564421
359,-51678.08046875,2129.419715143729
360,-40619.9580078125,5151.344406281213
361,-37502.832421875,5045.789621967519
362,-34783.24169921875,8546.840677698106
363,-49352.6255859375,2038.5995445658418
364,-53521.8248046875,2240.407798850867
365,-55689.8994140625,4383.80019815149
366,-40401.4130859375,6054.626920975028
367,-46591.390234375,2009.8188520006495
368,-44955.9078125,4174.3534025336285
369,-36632.36787109375,6245.697752215744
370,-43983.6171875,4740.642313917938
371,-51158.373046875,2342.231160680433
372,-39870.080078125,5131.621922009885
373,-50351.4626953125,2440.789084209699
374,-49973.6564453125,1931.3265051398432
375,-44548.16015625,3840.68433473641
376,-47130.965234375,2323.6997508364116
377,-51114.0037109375,2036.1069077865307
378,-44715.2466796875,2417.1349715824676
379,-37338.88486328125,7117.404498437694
380,-43437.202734375,2309.464974034388
381,-45205.0025390625,2195.0641119702873
382,-46099.0181640625,2840.7688867042752
383,-46697.1609375,2876.542241696471
384,-44226.8470703125,3367.547929585945
385,-44539.371875,3797.020660719641
386,-53178.906640625,2308.2725890067145
387,-40889.7767578125,2569.404509695006
388,-52437.1205078125,2405.0033331102127
389,-48149.396875,2414.7164075169126
390,-41604.2904296875,2935.813668249086
391,-48363.621875,2634.770959808176
392,-38358.180859375,4062.4481855856807
393,-38586.99052734375,6324.846593579547
394,-44234.8169921875,2601.7342890321875
395,-32890.01025390625,8059.833785287713
396,-47583.430078125,2213.3294853329853
397,-39181.9423828125,5147.443313087872
398,-41061.4333984375,5030.300537517013
399,-51103.1419921875,4464.503948465879
400,-60185.2197265625,5368.139973105582
401,-38241.8990234375,5127.462985493212
402,-51150.446875,2312.631721027312
403,-48498.268359375,2266.8227521127455
404,-50496.946484375,2340.366753136407
405,-46579.046484375,3104.7057530182888
406,-47876.96796875,2560.207181494479
407,-52422.3697265625,2638.711017110935
408,-41897.5060546875,3233.0064311567917
409,-41314.5580078125,2191.845060052819
410,-47636.8818359375,2648.7319044527835
411,-40888.23828125,3252.7357477435426
412,-37151.79326171875,3410.8715783387415
413,-51983.398828125,2367.2929404931174
414,-50657.994921875,2248.242708377083
415,-44457.6287109375,2385.813445787302
416,-44119.6150390625,3570.122202823892
417,-48776.2107421875,3926.9611166752966
418,-42798.9564453125,2775.3844577018135
419,-34103.41142578125,9156.330980542623
420,-42758.89375,2316.514535337412
421,-45078.774609375,2150.763027302416
422,-40697.44453125,2974.9237646660713
423,-43861.4234375,2623.790307194581
424,-50365.7771484375,2308.0350161338947
425,-35761.61611328125,8359.395098226183
426,-47158.4904296875,1936.3880608881766
427,-43218.0412109375,3097.8554682585423
428,-39410.2765625,6118.321422747832
429,-42240.024609375,2717.063692753049
430,-36793.30146484375,6078.968569314739
431,-34936.43310546875,9031.768812945242
432,-45569.587109375,3114.6122514265885
433,-38624.0572265625,5173.492979251381
434,-43713.930078125,2146.8695860258777
435,-52599.9171875,4393.182917084902
436,-56174.4712890625,4584.1875009729865
437,-49672.1521484375,2540.2481651283683
438,-39672.4869140625,5613.000361635773
439,-39544.3837890625,3983.2839670301337
440,-51402.2259765625,2552.1521847422996
441,-42510.9771484375,2691.4129343956915
442,-50476.3505859375,2426.0600582692
443,-52588.9380859375,2489.151964070988
444,-36588.69453125,5528.5811485397135
445,-40745.878125,3277.6740037749755
446,-44035.102734375,7178.053196942543
447,-49552.496875,3487.8605907883607
448,-34330.20029296875,6035.201518040131
449,-46188.667578125,2884.770644336701
450,-37412.52900390625,5116.846570990075
451,-45580.355078125,2659.2093083808327
452,-48634.21328125,5492.152745740746
453,-48245.8666015625,1997.407474321592
454,-50269.78359375,2352.7754574645837
455,-44536.3818359375,2570.0983475568823
456,-53076.540234375,2497.273030642389
457,-43251.9900390625,3376.4669194431604
458,-37316.66171875,4854.975838290341
459,-38818.2099609375,5129.676799329618
460,-38316.9107421875,4983.0059774113415
461,-50094.2986328125,5258.57577217899
462,-44665.325390625,1719.369479360633
463,-47392.97890625,2708.052384998871
464,-34850.63271484375,7891.961879908829
465,-50488.9962890625,2342.5464577514244
466,-47229.564453125,2498.0582593742556
467,-33679.63251953125,6891.034049629907
468,-42756.7412109375,3626.377057366361
469,-50986.72109375,2485.6983660748624
470,-45918.1890625,2197.4061585250884
471,-47582.2896484375,2091.5464215290713
472,-51071.168359375,2052.5625831561565
473,-52112.328125,2483.6063546770793
474,-53599.0888671875,2531.1409662301426
475,-45633.79921875,4097.639818627946
476,-46425.68671875,1896.6580715451482
477,-41971.2224609375,4647.59259768337
478,-53590.4576171875,2819.9917155792823
479,-33452.51259765625,7285.03790216996
480,-44102.8,3840.702772020861
481,-44699.8255859375,1813.0307822778389
482,-41097.79453125,4366.90614896721
483,-45483.1169921875,4622.72698798238
484,-45684.20390625,5973.660512314778
485,-36274.26142578125,6613.368474107056
486,-44554.337890625,2631.4532434270386
487,-41571.2498046875,4996.021496576172
488,-42171.2755859375,4768.8359519245905
489,-44755.092578125,2158.21427666134
490,-45832.651171875,2637.7170992508636
491,-41014.5521484375,2879.4872912586065
492,-41671.8384765625,2620.4954868371024
493,-53102.116015625,2801.655584685769
494,-46520.5029296875,2713.235277564705
495,-42105.7859375,3008.131937048155
496,-51078.83125,2440.3686220765717
497,-43512.5646484375,3576.152420571374
498,-44700.3240234375,2286.329321154262
499,-44694.618359375,1985.2880170444464
500,-36271.51181640625,3799.6615343315184
501,-44880.633203125,1950.0718671601276
502,-46322.792578125,2212.2307103541193
503,-47280.06640625,6641.853698258892
504,-36681.3501953125,3044.471026791791
505,-38118.8076171875,2116.2048724488664
506,-51334.3212890625,4585.886448895148
507,-43585.499609375,1792.5784071360556
508,-51401.4248046875,2098.4885778243515
509,-35856.13076171875,2826.1887553157194
510,-42674.985546875,2125.9812828360045
511,-44734.276171875,4076.1837042997568
512,-33387.82197265625,4468.079829372184
513,-47790.2548828125,1551.4546563827048
514,-51518.3373046875,1845.151763208478
515,-37605.0837890625,3733.6574209514965
516,-47724.260546875,1570.1649855211854
517,-31908.07783203125,5767.132657023584
518,-44448.3728515625,1622.2379563289905
519,-52165.8599609375,1880.6435753247044
520,-29273.29404296875,6237.810109466619
521,-46907.74609375,1630.6611180237333
522,-42817.971484375,1915.27991739903
523,-37253.5294921875,3204.631002033486
524,-35875.6923828125,3945.4283257031407
525,-45652.28359375,2021.4172678208295
526,-40203.55546875,2459.686282108518
527,-51628.3427734375,2232.665344553745
528,-42817.676953125,1762.819958772928
529,-43476.4296875,2045.2118482887777
530,-48985.528125,2534.9627289339683
531,-40926.98359375,2774.4241724072776
532,-43134.88046875,4059.6854318548276
533,-47056.5875,1975.1306893673825
534,-34887.4984375,2689.188380239994
535,-40961.518359375,2116.9281829916736
536,-41375.9654296875,2623.838902763379
537,-44831.5869140625,2016.1304154477
538,-48080.5537109375,2295.9739401637253
539,-44427.5025390625,2171.904058413857
540,-48433.1474609375,2372.8855398866694
541,-41956.051953125,2679.798191604471
542,-39049.8431640625,3839.856030798265
543,-44270.63046875,2736.0831308391025
544,-50490.557421875,2713.680671243374
545,-45264.412890625,2033.1077503218546
546,-44583.3208984375,2923.862484099342
547,-32058.7333984375,8140.4127661248185
548,-38949.4361328125,4043.539919277124
549,-45905.374609375,2018.863120244847
550,-42737.801953125,1875.8422866255987
551,-49401.921484375,2386.8532907899707
552,-37575.94765625,3362.4007155274458
553,-51332.97734375,2958.0255212869547
554,-38109.991796875,4567.492954393603
555,-52339.7013671875,3153.4581838954714
556,-48662.4931640625,2209.3271025902986
557,-36902.61298828125,5516.700020919628
558,-51475.4263671875,2933.2973696055196
559,-53133.25703125,3377.199132277619
560,-39970.4404296875,2811.392581177519
561,-47922.0232421875,2248.17700535766
562,-49698.7623046875,2433.015526691279
563,-48958.3658203125,2292.217732323447
564,-42270.0416015625,2370.3275510361136
565,-48975.9552734375,7756.756639411024
566,-30950.26162109375,5795.12628973535
567,-43251.1783203125,2487.062184922271
568,-36191.67509765625,4537.600675090684
569,-40778.858203125,3290.927709365662
570,-49489.10390625,2476.1934496101617
571,-45208.9640625,2900.532098126
572,-44053.57421875,2535.5066720750237
573,-29036.15595703125,5782.220476268564
574,-41505.8419921875,2050.954722695637
575,-47150.6525390625,2406.2614241480264
576,-46943.5287109375,2300.860651672749
577,-35919.4361328125,5436.469106409806
578,-39824.1771484375,3307.1093159006255
579,-39407.4373046875,2411.5189423187417
580,-41137.8033203125,2918.003979491899
581,-42846.2453125,3548.325471082939
582,-39246.673828125,2579.871046093918
583,-39814.6080078125,2369.6932880711015
584,-42344.96796875,3142.535074525616
585,-49560.4220703125,2955.706412079844
586,-52734.4427734375,3167.2751513161925
587,-42705.833203125,2574.412910766216
588,-46001.0271484375,2681.632003935203
589,-43798.8375,2870.433050892985
590,-50292.4333984375,3050.9764889727953
591,-45119.429296875,2742.632312331584
592,-51576.819921875,3409.0143470940966
593,-50437.571484375,3269.259378699928
594,-48449.023046875,2662.061886717023
595,-31725.20166015625,3492.033860447662
596,-38288.440625,2110.5243316432075
597,-37380.004296875,3933.9611818503404
598,-49890.9232421875,2946.6902785714633
599,-41975.694140625,3739.994516240572
600,-49730.3087890625,3115.450016371338
601,-32746.2533203125,3464.3702965771304
602,-50905.224609375,3265.3322524728096
603,-38730.0861328125,3632.2409648867124
604,-50014.93671875,2996.115940084364
605,-50474.4990234375,3310.9303438745046
606,-45282.9955078125,2561.6779335828674
607,-47996.8763671875,2836.4847959421345
608,-40975.0923828125,2639.2328713153533
609,-43048.4412109375,2471.523658956995
610,-40976.271484375,2811.207297364758
611,-49129.611328125,2894.3619490935625
612,-51385.9859375,3139.681466512553
613,-41386.0625,3079.509786659839
614,-46385.0759765625,2645.409711117273
615,-45442.168359375,6359.298766272989
616,-46926.4361328125,3147.939717433766
617,-51725.15,3653.1721142744495
618,-43505.475390625,2133.371296157737
619,-50328.3087890625,3325.9299000038773
620,-51910.5083984375,3650.0936012965235
621,-39143.4123046875,3676.574902746673
622,-39683.0400390625,2713.3261724040094
623,-50138.6015625,2738.6451354605197
624,-46386.9513671875,3046.2406308918703
625,-45542.276171875,2869.3760196339417
626,-47265.2025390625,2470.65516097134
627,-31565.73134765625,5904.459712359584
628,-42762.9640625,2900.744596796768
629,-38189.17578125,2346.6369730146166
630,-38334.6953125,2369.877966052089
631,-48247.512890625,2729.6539818362794
632,-46374.137109375,2800.760639341577
633,-38530.81328125,2942.941637068425
634,-44869.813671875,2936.804480840605
635,-39917.9408203125,3157.0301127649186
636,-31859.4625,4942.508450937976
637,-34232.2103515625,3515.7014458635244
638,-43654.88359375,3027.8050682274406
639,-51093.024609375,3341.8443470704683
640,-48751.822265625,3161.411065747687
641,-33528.1400390625,4486.302658078213
642,-42157.5115234375,3580.2442998924453
643,-50402.72578125,3293.39551607803
644,-38041.5892578125,3516.9588577626178
645,-33890.825390625,4159.882562045104
646,-38581.7212890625,3503.319623580745
647,-45681.2259765625,4051.9488733084895
648,-46171.945703125,3073.401607406885
649,-35781.10048828125,4064.167683845625
650,-48171.5919921875,3575.926810560272
651,-49965.7265625,3779.631090823269
652,-50796.5361328125,3104.922143963645
653,-32940.43056640625,4450.911772836515
654,-39850.4759765625,4748.2243547312155
655,-40777.1767578125,3053.2717787818037
656,-40644.6658203125,2962.5676784443094
657,-40682.58828125,2719.4738192811856
658,-39540.398828125,3853.589084610676
659,-34605.45771484375,4532.181171008239
660,-42606.837109375,3168.635614735109
661,-32002.76103515625,5351.4650545361
662,-42347.2056640625,3013.3991414761867
663,-36153.9958984375,4581.255472309333
664,-48971.2212890625,3162.196163599476
665,-28955.19833984375,5941.110132287676
666,-45344.6765625,2831.4405774931092
667,-39374.7853515625,4371.464188696801
668,-41158.30390625,3199.824573300649
669,-49674.598828125,3622.23003241873
670,-50537.9931640625,3652.892041299164
671,-48812.17265625,2354.6220489214847
672,-36489.74111328125,5688.955865786942
673,-50801.530078125,3121.149241038622
674,-48986.7490234375,2779.2348775136365
675,-34792.02734375,4076.717057992877
676,-47642.386328125,2646.8519505474637
677,-34583.84521484375,4012.6618238167625
678,-50605.7955078125,2934.4416079953558
679,-52862.881640625,3722.453311325191
680,-43472.109375,2473.629628331448
681,-50397.43125,3244.5496157339076
682,-40589.4181640625,2667.765938963843
683,-42693.0365234375,2520.194881990331
684,-34953.7755859375,3403.5951860008204
685,-39056.9404296875,3976.84130559443
686,-48247.9611328125,2800.0535988259276
687,-42833.950390625,2495.878167529746
688,-47709.63125,2573.991884367093
689,-47437.412890625,5618.631081574235
690,-35603.1966796875,3808.1615283054502
691,-41870.387890625,2651.1508151680823
692,-44711.898046875,2596.609689407088
693,-48353.908203125,3296.345918508496
694,-52397.4494140625,3281.9712680285384
695,-34585.441015625,4196.220214591843
696,-31505.18759765625,5842.212551512931
697,-36881.195703125,3280.685285776177
698,-40875.5244140625,2523.4673713634684
699,-48825.8216796875,2709.458093796826
700,-37319.665234375,3015.0075831541785
701,-47741.8900390625,5518.3844086355275
702,-39034.278515625,3119.3285374984375
703,-42774.0642578125,2477.3625290974232
704,-32801.27939453125,4952.574971450856
705,-47361.6818359375,2760.698874077806
706,-40505.6123046875,5577.413889027788
707,-40555.6267578125,2652.033081292392
708,-33447.8353515625,4358.045129808476
709,-45561.860546875,4124.507602184576
710,-46520.127734375,3044.8719432416538
711,-32871.31787109375,4512.051424568617
712,-27724.53935546875,5627.646001382185
713,-43006.9990234375,2574.5723637687584
714,-52360.6439453125,3889.580008573261
715,-45220.8681640625,3027.4589738873383
716,-43119.8474609375,2754.9703959448393
717,-42509.975390625,2329.3621454146655
718,-33490.82587890625,3003.5741076444797
719,-29626.70625,4246.128589497754
720,-52686.501953125,3590.1151343043566
721,-49903.6775390625,3496.6753502717215
722,-44593.439453125,2904.615971693998
723,-41570.313671875,3138.3311511413826
724,-31929.08427734375,4091.100093738875
725,-50986.7525390625,3267.3593830454233
726,-52607.9189453125,3797.2396666158215
727,-50970.91953125,4063.1653988414737
728,-50798.694140625,3792.6537931050866
729,-40610.5775390625,2333.4457410211594
730,-43719.36328125,2733.6634102494218
731,-40486.92890625,6025.986096314963
732,-45265.48515625,3959.0799950609185
733,-43733.6873046875,2454.7358075749526
734,-31782.17763671875,3074.1118487908993
735,-31798.82353515625,2681.6207098911327
736,-48666.33203125,3152.0704231026934
737,-46649.5052734375,3231.5476467999542
738,-43183.228515625,2287.9092809866947
739,-35287.262109375,3344.601206531363
740,-46659.3447265625,4056.7398129702315
741,-46366.2076171875,2675.68781725456
742,-46984.1931640625,2893.516323739382
743,-37619.1859375,2767.3141469985117
744,-38694.8103515625,3092.342168844808
745,-51576.29140625,4211.761965769854
746,-46407.1052734375,3144.3485901707204
747,-42260.27421875,2833.71307658895
748,-48837.4041015625,2815.75598571555
749,-36586.80693359375,3098.815528302544
750,-43202.659375,3173.9858112303136
751,-50182.8533203125,3744.5742450114412
752,-50110.0998046875,3868.1082146363406
753,-47604.45703125,3620.0277910164764
754,-43675.173046875,3035.1485347628827
755,-43214.7591796875,2479.726965966923
756,-29701.44365234375,5472.14489750846
757,-43237.9423828125,4444.012397896098
758,-44867.60625,3036.6263321511237
759,-45779.42265625,3741.2468485723875
760,-50162.8728515625,4124.770784571616
761,-44090.91875,2416.4534083736644
762,-42056.99296875,2819.319036321602
763,-42777.3890625,2340.5514925568937
764,-35976.04560546875,3839.739837114951
765,-44900.7291015625,4180.01934559051
766,-30498.64091796875,5703.514461540143
767,-46328.6134765625,3079.896086778746
768,-39606.9953125,3386.133156710657
769,-53132.1751953125,6462.357735912732
770,-47609.797265625,3577.9358639454554
771,-33349.65556640625,4551.468775325995
772,-40366.8224609375,2551.586589666187
773,-43940.128515625,2930.627335386615
774,-32758.84345703125,5233.042585200827
775,-50796.028515625,4543.542659672362
776,-48643.135546875,3725.433678516551
777,-48328.5203125,3311.4108191777736
778,-38512.0912109375,2678.1118621828045
779,-46150.9390625,2855.312910956591
780,-47647.1220703125,2951.61347386003
781,-46694.4541015625,5711.32602813109
782,-41215.8853515625,3348.7454497176263
783,-39423.7025390625,2799.5368670650814
784,-47846.826171875,3492.212446081661
785,-40778.4310546875,2741.910803137842
786,-43861.4978515625,2815.1868469188676
787,-35551.93984375,3254.0197715058735
788,-50234.0498046875,4002.4156734170865
789,-52640.7267578125,4244.352433332592
790,-51697.68046875,4061.0155173633143
791,-47578.290625,2921.159960790033
792,-42880.0431640625,2908.5088182817594
793,-32447.75458984375,4755.362987242378
794,-44361.2330078125,3016.5306446982363
795,-42129.250390625,2672.20855100597
796,-43401.27099609375,5730.065062035237
797,-28499.63505859375,4910.217278771213
798,-50006.570703125,3483.2567919349913
799,-40861.0078125,2681.6019568173274
800,-41891.2865234375,2593.942404757835
801,-36074.492578125,3039.863254951474
802,-50225.1974609375,3734.6338905039374
803,-39602.566015625,2173.165907110294
804,-50138.919921875,2859.0016569509703
805,-44428.2572265625,2900.6958767715487
806,-42035.475,3120.523490333105
807,-44907.8576171875,4623.459366828444
808,-40184.3908203125,6492.478142207427
809,-37277.3140625,2543.4497589657744
810,-47885.801171875,3545.867502423948
811,-38056.9033203125,2481.736061024883
812,-38625.2396484375,2746.281515068814
813,-50094.048046875,3878.762754201196
814,-52689.0150390625,4070.2339290823465
815,-48673.655078125,3304.015230972269
816,-44403.1046875,3743.6714582633276
817,-44318.8453125,2627.6684169244736
818,-46305.3787109375,3365.65925384131
819,-27242.9958984375,4819.041127006201
820,-25769.45947265625,5329.482359246829
821,-48717.95,3326.1274634131346
822,-30040.4560546875,4310.4445998156025
823,-37262.1314453125,2352.2522645583326
824,-49337.086328125,3415.2214090711686
825,-40817.476953125,2488.1013483646598
826,-45613.659765625,2848.064950213069
827,-43262.566796875,7710.246102545481
828,-37736.3201171875,2424.9811657878445
829,-33399.197265625,2733.1961673232513
830,-28922.9529296875,5690.701043887931
831,-47498.8904296875,2892.069714562124
832,-41649.2609375,2809.920231874018
833,-41925.00234375,2901.301377192559
834,-50223.6083984375,3501.0986449490733
835,-38224.4572265625,2419.430652949296
836,-42296.4220703125,2890.957035957672
837,-48217.9556640625,3407.4175367392468
838,-31514.79619140625,4190.471722976244
839,-31796.2708984375,4726.409507494464
840,-43881.333203125,2575.0569993647255
841,-47437.0396484375,3597.3113438930395
842,-45189.1189453125,2753.806446068414
843,-45263.117578125,3472.9548109117986
844,-43719.7958984375,2966.3660096518583
845,-35052.690234375,2658.419961413759
846,-40599.37109375,2170.042559303231
847,-38924.00234375,3291.9756384337256
848,-34007.529296875,3446.4909274548127
849,-45776.501171875,2719.0060166006806
850,-42594.544921875,2752.6928174740456
851,-47193.02578125,3350.240667057216
852,-39453.9294921875,2625.01404870057
853,-39158.6638671875,2188.349942437222
854,-48705.6044921875,4058.7409179405195
855,-28270.14267578125,5730.319937501606
856,-41496.501171875,2546.4629203261725
857,-37790.49951171875,2475.331649382177
858,-47544.55546875,6089.1631968375295
859,-44971.4275390625,2532.357151021495
860,-33209.2083984375,3332.505377861205
861,-41579.7251953125,2516.039036105699
862,-45672.028515625,2958.344091361814
863,-36079.00751953125,2358.606807659507
864,-44603.5408203125,2518.0217675588387
865,-37863.83115234375,2273.193063516795
866,-48143.8578125,3443.4314008875076
867,-41091.2943359375,2580.216093835528
868,-31590.16552734375,4727.295426870199
869,-37448.83359375,2355.3421916460948
870,-41261.5205078125,3167.1991245077
871,-44174.8341796875,4671.565057558033
872,-42588.839453125,2579.631488107
873,-45883.6376953125,3249.9480340247756
874,-45599.0904296875,3126.221263485838
875,-37554.5431640625,1990.0613558156185
876,-47167.1990234375,3055.6803760194616
877,-28530.28544921875,4634.762645218342
878,-39734.559765625,2977.1535760017905
879,-48846.3447265625,3186.532781461571
880,-43248.5421875,2913.8068573553096
881,-27896.99326171875,6985.707074221927
882,-42813.28984375,3046.064711095283
883,-41046.8958984375,2602.0585116928337
884,-34352.32421875,2938.168145438475
885,-38542.55732421875,2607.694667195568
886,-31558.59521484375,4122.3649673902855
887,-43027.540625,2662.462179698386
888,-51062.4015625,3320.5118420297335
889,-42531.440625,2453.5719050493253
890,-47913.2501953125,3369.855841965058
891,-42618.554296875,3358.3051285464
892,-36794.51015625,2702.9253836192834
893,-48399.5283203125,2988.8977871889488
894,-45908.4087890625,2921.321849270456
895,-50720.346484375,3559.8684421971107
896,-46299.4294921875,3219.261777575332
897,-42341.0884765625,3387.6297302123603
898,-33702.898046875,4113.123330202045
899,-36451.78203125,2778.9303180749357
900,-49268.2404296875,3733.8878045027263
901,-42935.1380859375,2983.5490768028117
902,-38375.288671875,3917.395790779971
903,-29496.45830078125,5400.962167971932
904,-45772.2904296875,3425.969764005799
905,-44182.085546875,3238.4430965421448
906,-49381.9484375,3766.599783846239
907,-42988.9330078125,6330.591688414768
908,-45397.472265625,3730.638838081513
909,-44254.291796875,4329.742056100627
910,-36911.0267578125,6187.722541423578
911,-49209.91875,3790.6365832428296
912,-43477.86884765625,7888.320997730792
913,-35361.1509765625,8026.367081376543
914,-47006.4939453125,3614.5216280995196
915,-43726.27265625,3080.508879398922
916,-50508.5447265625,4601.614212328717
917,-42294.107421875,2835.8945910981806
918,-34218.61044921875,2861.4292382219346
919,-44022.8099609375,2953.80474571434
920,-31366.64658203125,3935.9492085315223
921,-44106.33046875,2950.2433518254966
922,-46588.7328125,3867.9126372365013
923,-47131.6162109375,3867.422775010626
924,-44518.44375,2857.324709790482
925,-39767.2720703125,2434.847542796552
926,-40187.79765625,2742.533526768213
927,-44809.5828125,2615.0474946183676
928,-37777.245703125,2211.38159204301
929,-31835.7572265625,3249.2648431374855
930,-42958.81953125,3239.4739465476523
931,-34948.06162109375,5222.366240405649
932,-39835.1421875,1867.4226426239702
933,-35329.9376953125,2638.5331650287408
934,-43753.6892578125,2429.730830425109
935,-49634.4060546875,3339.2703256108207
936,-48799.016796875,3386.964860862164
937,-40433.62177734375,3951.8906289433435
938,-43477.7078125,2749.722272392402
939,-39970.5861328125,3110.392564798541
940,-35837.421875,3937.8050854419475
941,-35016.55400390625,2596.3414377218796
942,-47202.261328125,3596.1777797800432
943,-43587.5521484375,2631.0712167820047
944,-46018.2701171875,3195.053646889546
945,-35593.54462890625,3702.7049507121656
946,-48495.2138671875,3431.6543296694445
947,-42103.732421875,2074.54341871217
948,-49681.597265625,3842.3344986067395
949,-48041.6892578125,3466.1004559551525
950,-37917.0333984375,3392.401466793259
951,-44409.2724609375,3687.880210006096
952,-47486.3744140625,3502.3050017595338
953,-36210.76318359375,4183.983107258978
954,-42600.73203125,2296.2929044707166
955,-40351.4634765625,2940.9332539401457
956,-38777.00625,2062.16933321644
957,-45732.81875,3179.8279972193022
958,-50195.3548828125,3787.225932691174
959,-45040.9533203125,2804.5197233514714
960,-35421.97607421875,4638.367442287694
961,-44570.0408203125,4700.135569870561
962,-42025.090625,3218.7138591736657
963,-42893.5478515625,2459.497434591059
964,-44434.7716796875,2376.6164254270675
965,-34675.558984375,3210.310789964543
966,-32879.409765625,3455.2775332349
967,-36884.79609375,3629.0961831606032
968,-50551.7646484375,4020.0531407991425
969,-33710.74228515625,3519.248303571089
970,-46908.8732421875,4405.009378266669
971,-32276.51875,5449.133856160176
972,-48599.791796875,4123.595658931341
973,-43989.912890625,2240.727546385864
974,-46641.5302734375,4169.429436572921
975,-49595.2935546875,3687.8995081307926
976,-47911.1443359375,4624.527150719037
977,-45421.562890625,2584.521999696015
978,-45581.8666015625,3374.280644998751
979,-46080.15859375,3123.206276869671
980,-42871.47265625,1848.2437151580789
981,-48438.1111328125,3808.9491461543057
982,-39616.7263671875,3008.5635929784526
983,-31628.13818359375,7516.0272114588215
984,-40431.46923828125,6082.758991215773
985,-49291.3859375,3608.9746276791434
986,-47198.8466796875,4611.226005638259
987,-45352.823046875,2447.917259023224
988,-36082.62724609375,3746.9647898309963
989,-43253.455859375,2376.2403828199763
990,-40400.89609375,2541.2098776034654
991,-42779.8287109375,5390.772058161429
992,-42086.9244140625,2203.583429698674
993,-49145.45546875,3313.6369575576628
994,-42060.2296875,2498.2812471515454
995,-48887.1849609375,3338.6173883710676
996,-45473.3091796875,4131.105321760984
997,-38038.7470703125,5587.3391197064
998,-49952.0203125,4434.166243552984
999,-39899.552734375,2767.6089987456494
1000,-48367.4990234375,4211.820758859044
1001,-36945.2994140625,5797.395107316687
1002,-36779.04912109375,3236.9804418446893
1003,-38163.737890625,2248.773516127965
1004,-47543.0453125,3468.144032618183
1005,-44755.63291015625,8383.725843469249
1006,-47590.1435546875,3128.8576176995266
1007,-27854.090234375,6080.664043958254
1008,-45364.942578125,2983.637880833744
1009,-49458.238671875,3780.7208452372356
1010,-36115.78125,2294.917700805047
1011,-38373.151171875,1792.2604165237735
1012,-28456.37822265625,6161.632928702258
1013,-47929.7419921875,3776.720335821349
1014,-45342.9146484375,3257.909980711538
1015,-45629.76875,5048.2361538433715
1016,-41958.1359375,2438.4853105390366
1017,-42198.1001953125,1935.4707613035214
1018,-45597.613671875,3024.100173625119
1019,-45922.5240234375,2861.6441409785702
1020,-31796.11162109375,5292.135468189213
1021,-41011.7392578125,2288.063939276146
1022,-41307.73046875,2280.2057218823306
1023,-34900.28701171875,3285.046038734759
1024,-36740.56044921875,3728.8349749627323
1025,-32266.8830078125,5114.57156104417
1026,-41521.095703125,2282.005093432099
1027,-38513.84873046875,5499.039238935655
1028,-39654.5568359375,2934.1056767466134
1029,-43454.525390625,3285.300637309043
1030,-47332.4419921875,3507.865460287646
1031,-48177.1677734375,4011.932237476075
1032,-45008.7845703125,7304.354437392707
1033,-41584.923046875,2925.4048332152265
1034,-35895.22880859375,6475.687651351153
1035,-44016.115625,4011.8258620073384
1036,-35174.268359375,3700.614145894092
1037,-37925.6939453125,2421.930039695674
1038,-34351.7234375,2853.894123039783
1039,-42071.2158203125,2790.0127300972536
1040,-46793.863671875,3625.1179978313585
1041,-33903.423046875,4828.866236672486
1042,-35580.75400390625,4064.4466158313594
1043,-43591.658203125,2810.223124391748
1044,-30921.4794921875,5059.6862522895035
1045,-42780.6353515625,3015.922460969387
1046,-35292.9220703125,3473.6866457970696
1047,-46166.278125,3563.0893562702
1048,-39397.77578125,2232.956091758195
1049,-42327.258203125,3154.9126986102006
1050,-42872.792578125,2877.621895498009
1051,-40585.7029296875,2369.878241212621
1052,-30739.65126953125,4096.215641132864
1053,-33263.538671875,2847.9816076443317
1054,-40397.00078125,3736.541336445437
1055,-43658.489453125,2847.7240800796903
1056,-49251.7458984375,3708.5815520203064
1057,-30392.57294921875,6327.2457827233975
1058,-31862.70986328125,4055.38596250613
1059,-44545.08359375,2878.662123406597
1060,-44883.491015625,3046.3237435606725
1061,-31411.15478515625,5657.058755319294
1062,-37620.18798828125,2378.218696716554
1063,-43252.7705078125,2366.4261412022893
1064,-46036.1603515625,2825.105471736418
1065,-38299.183984375,2264.0107027690165
1066,-43249.859765625,2308.1083642064223
1067,-30152.412109375,3827.036677515362
1068,-36254.54228515625,3139.96976611575
1069,-45826.19375,3164.6609698171414
1070,-37072.47490234375,3257.319874394991
1071,-42963.698046875,2832.2313837636375
1072,-47779.5482421875,3684.3339921450897
1073,-45286.3900390625,3364.2533447363016
1074,-36673.300390625,2496.389162109906
1075,-47619.8884765625,4025.5014039291677
1076,-39246.437890625,2804.5123813452824
1077,-45885.362109375,3286.7566511013265
1078,-34246.01796875,3559.306874255906
1079,-44309.3103515625,2985.8105456221706
1080,-42950.52109375,2559.4852834891835
1081,-42341.501171875,2272.231805236307
1082,-29696.022265625,6586.446154497743
1083,-46688.7517578125,3871.1775101951976
1084,-28751.726953125,5824.451317161383
1085,-46145.5099609375,4009.8682355530086
1086,-42876.7623046875,3618.8201225644457
1087,-43083.348828125,3254.7558699117617
1088,-36686.1056640625,4082.917022086412
1089,-36982.85068359375,3336.5391546186556
1090,-46481.394921875,4402.635298973661
1091,-35819.0634765625,4761.916639708963
1092,-43978.7318359375,3696.5451679089388
1093,-43535.6646484375,3145.025264178392
1094,-47657.3228515625,4177.733190941546
1095,-44579.76015625,3783.4126478101653
1096,-47215.5501953125,3959.2378163493718
1097,-42114.57734375,2915.0123070633003
1098,-48782.230078125,4548.8817902730325
1099,-43088.3580078125,3708.277103281001
1100,-43331.60390625,3735.0375267705926
1101,-36488.28486328125,3228.163407006611
1102,-45053.9494140625,3605.3873202269915
1103,-42399.2490234375,2892.063506032434
1104,-31673.9890625,4370.223444789663
1105,-40825.51484375,3351.3646326361445
1106,-33169.7818359375,5015.730666930712
1107,-32436.35947265625,4252.107831481589
1108,-31591.49814453125,5252.6113471384015
1109,-41202.93046875,2968.296271153044
1110,-45329.934765625,3719.1750593283564
1111,-37124.10263671875,2152.0817978170926
1112,-36114.82216796875,2479.6089637387777
1113,-47228.912890625,3750.8240274338295
1114,-44959.3328125,3375.9300006347567
1115,-44623.9626953125,3349.4974403811125
1116,-43128.022265625,3065.8690726795794
1117,-44422.1146484375,5733.848482256466
1118,-36086.09033203125,3185.1163174486655
1119,-46646.40078125,4057.8927353670515
1120,-37093.13427734375,2922.966108594237
1121,-38765.837109375,3274.9369196177086
1122,-33696.0083984375,4599.397165552771
1123,-44324.505078125,4033.730286654045
1124,-40794.39296875,3157.8117428545743
1125,-44794.11171875,3460.1944918194927
1126,-40499.938671875,2535.517986230984
1127,-39944.0083984375,2617.422712176899
1128,-45698.95703125,3296.0306084202352
1129,-38993.288671875,2333.891915974583
1130,-46416.694140625,3379.029408821021
1131,-49066.2408203125,5057.232761283077
1132,-47218.5814453125,3740.7386228956325
1133,-41240.0173828125,2357.77134855828
1134,-43377.6572265625,2751.797398325184
1135,-48701.8490234375,3870.0449837626234
1136,-47438.56015625,3463.514134091074
1137,-40725.978515625,2214.089172959159
1138,-46550.46484375,3454.7714738621917
1139,-36214.46455078125,3416.706569208889
1140,-31742.21181640625,6159.944063532547
1141,-35520.56015625,3018.4445447101193
1142,-42913.545703125,2597.474568557296
1143,-38827.5548828125,3000.657063762684
1144,-29157.2474609375,8018.129834090419
1145,-44571.9203125,2925.725489608473
1146,-40558.8265625,2824.8411864408176
1147,-43342.712890625,2697.8167794702586
1148,-45460.2857421875,3686.7792177148835
1149,-43669.2625,3652.1608876448136
1150,-47813.9044921875,3662.466596333104
1151,-45390.4904296875,3548.9182145061172
1152,-37056.81357421875,4803.534715110827
1153,-44712.2279296875,3359.599823241003
1154,-47581.148828125,3799.455286078584
1155,-46593.749609375,3489.5369066959597
1156,-41824.4765625,2885.0924536593466
1157,-42808.6703125,2239.6862320968125
1158,-48737.2626953125,4011.4211826244414
1159,-39451.123046875,2852.417555128471
1160,-39797.024609375,2631.448467730767
1161,-45602.0583984375,2818.899283571067
1162,-40212.441796875,2833.0952256571695
1163,-38298.0404296875,2881.328295636233
1164,-35492.21591796875,4311.463766049882
1165,-40641.0142578125,3279.530621153123
1166,-46331.577734375,3382.588906060703
1167,-36745.9,3540.5836877311895
1168,-39091.759375,2782.214757583547
1169,-36665.20400390625,4075.139867571189
1170,-37545.05986328125,3139.2461177650503
1171,-36855.4796875,4132.201554102906
1172,-44244.4236328125,2977.101708533331
1173,-40982.168359375,2732.165102498332
1174,-44460.665234375,3555.686864236595
1175,-41579.69921875,4230.888522726327
1176,-43632.853125,2289.737797564152
1177,-43473.5591796875,3430.100448393256
1178,-47873.8060546875,3779.606271285781
1179,-43456.0560546875,2615.0506322160304
1180,-39400.7236328125,2746.7059251500823
1181,-43058.956640625,3450.148717406207
1182,-40857.73125,2343.3286465481174
1183,-31519.19599609375,5555.881415901092
1184,-43318.984375,3727.004538797737
1185,-38706.8376953125,2562.8847274078366
1186,-36745.15078125,2846.4386936356595
1187,-38960.668359375,3314.893930168226
1188,-41508.740234375,1897.269813365376
1189,-43438.8185546875,4869.632117053501
1190,-44734.1609375,3560.3137046501556
1191,-40358.8291015625,3036.784747133216
1192,-37158.7837890625,3053.5957246507296
1193,-35048.38818359375,5131.861901935234
1194,-40447.3181640625,2484.798208377557
1195,-43170.7947265625,3053.684324201587
1196,-39666.002734375,2735.5821554884305
1197,-45328.673828125,3560.19035422051
1198,-39868.68125,2699.979595940924
1199,-47817.0072265625,4224.292033312882
1200,-42320.19765625,2623.49507463316
1201,-40128.616015625,3299.123245697046
1202,-33178.615234375,5827.895570130489
1203,-37843.7,2380.8953976697676
1204,-35136.6611328125,3843.8115460076415
1205,-31992.85322265625,6396.882073796605
1206,-42933.7525390625,7463.488493966282
1207,-37601.570703125,2289.930689958673
1208,-48334.95234375,4198.301553385764
1209,-46524.8548828125,3888.5968221142944
1210,-38784.38359375,2858.304893950702
1211,-30820.5798828125,5767.363951886823
1212,-47725.0224609375,3965.8280139234107
1213,-48885.3103515625,3849.4730361448937
1214,-40995.31328125,2658.1298167413747
1215,-47210.8154296875,4136.899231356692
1216,-43673.4166015625,4620.756363576103
1217,-41525.1228515625,1952.4339998837584
1218,-30651.40224609375,4941.392816289425
1219,-40896.601953125,2383.6698197823157
1220,-34206.3744140625,4034.484525371421
1221,-35482.6076171875,3743.9898698505117
1222,-35377.7447265625,2922.8513287053224
1223,-37843.4091796875,4619.523415475344
1224,-34996.59375,4129.124292024277
1225,-46297.1451171875,3727.8726743728203
1226,-47359.77890625,3849.0195668018064
1227,-44401.2056640625,3172.7112622718214
1228,-41912.5572265625,2758.481658751294
1229,-38448.66953125,4772.891180273752
1230,-43042.0220703125,2871.171763005085
1231,-46129.06796875,4057.4832453585504
1232,-29941.0576171875,6000.668392005086
1233,-27932.065625,9195.516096531204
1234,-41087.68046875,2254.5133796461037
1235,-32770.68037109375,4563.22044501545
1236,-37940.7734375,2219.106179580724
1237,-44525.5849609375,3368.90215521059
1238,-44138.0958984375,5210.9213442182845
1239,-29769.03837890625,6615.895617841839
1240,-29602.5509765625,7731.383367565395
1241,-33078.8484375,3581.783766914966
1242,-38481.99541015625,2442.117943328947
1243,-39238.536328125,4574.061627437637
1244,-34862.81484375,3244.9383182940596
1245,-34703.4390625,4113.525125892737
1246,-36584.4748046875,2797.6913550468266
1247,-40075.734765625,2812.683958083534
1248,-48580.1873046875,4336.8481034658
1249,-31263.3669921875,5816.212878831187
1250,-47174.8224609375,4111.376950746201
1251,-34747.30927734375,3791.9825732122576
1252,-43047.18671875,2702.739368189118
1253,-40592.34140625,2486.8091783259997
1254,-30462.9814453125,7205.7399503741635
1255,-41701.39140625,2526.120099516589
1256,-44859.394921875,3752.764822024786
1257,-48452.5529296875,7416.894111563286
1258,-38234.81982421875,4096.938946325677
1259,-41160.509375,5247.289066958072
1260,-47473.94453125,4773.23027132023
1261,-47533.235546875,4738.030086073852
1262,-43492.2166015625,3085.6316701430005
1263,-39368.4865234375,2649.3449689489375
1264,-34195.37998046875,5065.96342186802
1265,-40138.6134765625,2581.045506047587
1266,-36241.07744140625,5959.100467492693
1267,-44776.7005859375,3264.3802369557716
1268,-42376.4755859375,3822.0731607879407
1269,-32529.6158203125,6769.6246333079935
1270,-45061.40390625,4089.918258274978
1271,-46625.6498046875,4221.91726577834
1272,-46806.1056640625,3768.9209488273477
1273,-46136.2072265625,3739.2788162539086
1274,-41863.837109375,3005.6153650055307
1275,-47332.20234375,4551.967268104832
1276,-33070.20966796875,5972.434309135045
1277,-35928.918359375,3875.4483113814554
1278,-45580.4076171875,4457.201961530884
1279,-36776.89130859375,5267.899427220444
1280,-39866.8541015625,3669.250739655669
1281,-47408.9587890625,4291.000510059305
1282,-44735.46328125,3456.624493393466
1283,-44298.2658203125,2943.9682768754205
1284,-40880.12333984375,3098.4883799705317
1285,-41319.185546875,3599.934630446546
1286,-41551.5599609375,3210.3743998925047
1287,-45487.487890625,3409.54038072674
1288,-46277.089453125,4244.0811159609875
1289,-37748.39677734375,8745.226199020806
1290,-42365.9205078125,3208.4906417304237
1291,-33129.04248046875,5269.974057177179
1292,-44960.001953125,4465.39872573817
1293,-40267.941015625,3029.3659450622554
1294,-41191.9701171875,3177.9175583939746
1295,-37911.30419921875,3808.8122932062765
1296,-37640.75712890625,4030.165511139603
1297,-47505.534375,7945.600590817732
1298,-43923.075,3770.0622322229215
1299,-40683.4603515625,4176.859806972733
1300,-44672.7712890625,4177.629366679813
1301,-35056.4095703125,4333.972185913367
1302,-44281.98984375,4287.955566847595
1303,-37033.29560546875,2926.6834455869002
1304,-44897.834765625,3780.074775008506
1305,-43006.871875,3325.044353789672
1306,-39318.62490234375,3457.7563193456735
1307,-40863.9533203125,3749.314391218128
1308,-43112.043359375,3868.3075464715703
1309,-47679.6162109375,3582.6851525180773
1310,-37974.2587890625,3225.1909457963466
1311,-44404.9287109375,3361.7347216884696
1312,-37467.5517578125,3655.8754732280668
1313,-48058.966796875,3640.775463591322
1314,-40579.6927734375,2183.84871901968
1315,-42991.33203125,2790.540857795908
1316,-38371.0671875,3480.601541331563
1317,-41502.5955078125,2713.2800964203216
1318,-43048.567578125,3224.026970341872
1319,-41682.3755859375,3150.895916695152
1320,-40596.6123046875,2739.2510467496313
1321,-31659.8044921875,3179.9444070578
1322,-35874.80283203125,3726.382989942458
1323,-40135.5390625,3205.784306874776
1324,-39270.42998046875,3934.4677723639934
1325,-36602.70859375,3222.5687880374435
1326,-48088.6564453125,4234.552837504854
1327,-43277.850390625,3576.938547163122
1328,-35123.13359375,4728.583407839815
1329,-39719.7216796875,2432.4770336939796
1330,-48796.485546875,6416.919853649813
1331,-45358.84921875,3248.5950592138247
1332,-36626.91357421875,3018.4947841587136
1333,-32482.882421875,5100.5952222690885
1334,-44485.0078125,2855.8942605540947
1335,-40565.4802734375,2391.6032630699324
1336,-46338.27421875,4002.3729398734877
1337,-45716.3416015625,4199.518376871494
1338,-48244.291015625,3632.0011400602248
1339,-44193.4595703125,3473.232337207078
1340,-40114.62705078125,4717.879941124557
1341,-31831.5310546875,6335.021776672393
1342,-28602.73271484375,6908.968399316286
1343,-45638.5568359375,3814.0678118242845
1344,-36128.5181640625,3187.5541409225784
1345,-45918.1431640625,4366.138753900053
1346,-46066.453125,4368.199941087388
1347,-37255.0341796875,2604.1754560680733
1348,-47180.078125,3750.752276532528
1349,-35312.01259765625,4625.213128023441
1350,-40609.5314453125,2955.3073324687193
1351,-40001.8849609375,3276.597964900376
1352,-37099.048828125,4322.2836879878705
1353,-42728.4736328125,2791.1937379436804
1354,-43520.468359375,2844.3470871822074
1355,-37541.5033203125,3347.0437175343245
1356,-39292.6431640625,2966.886740986992
1357,-45273.7865234375,3364.219884706443
1358,-44889.48984375,5761.359883782029
1359,-41151.4595703125,3344.9189817012943
1360,-36476.152734375,3676.0885102523202
1361,-45241.140625,3642.47980458334
1362,-37316.4796875,3150.276721576393
1363,-41473.027734375,2662.879287300664
1364,-40246.883984375,2753.9514463384835
1365,-39862.994140625,2857.276981697183
1366,-40450.9439453125,3630.046871669229
1367,-45121.5291015625,3860.449294816187
1368,-42398.2748046875,2866.3802331987276
1369,-37192.2671875,3974.512754755318
1370,-47745.80234375,4142.468627236156
1371,-44247.9892578125,3954.481125768957
1372,-37670.57197265625,3508.8541098005003
1373,-34071.81435546875,5389.649038390019
1374,-34733.56484375,4630.266022247535
1375,-40400.70966796875,3318.1278232831482
1376,-43572.0345703125,2967.4111635841514
1377,-42579.3478515625,2903.9123302237417
1378,-46772.2291015625,4360.621870952252
1379,-45170.411328125,4695.796796351626
1380,-48368.808203125,7193.200596880511
1381,-39604.345703125,2876.9556492763822
1382,-41629.58115234375,5769.742718415793
1383,-40996.4205078125,3464.13342324266
1384,-28106.67958984375,7307.791909711141
1385,-39003.152734375,2778.5671462969112
1386,-38902.22666015625,2912.9312279204664
1387,-41176.187109375,2978.6414677854386
1388,-40987.030078125,2473.88611377017
1389,-41948.336328125,3708.3630767475047
1390,-45934.2779296875,7853.466060216993
1391,-46506.28828125,3650.6853611324736
1392,-45820.9697265625,3357.3554163236054
1393,-42329.84765625,3082.5908219772737
1394,-42507.7978515625,3173.7278263146795
1395,-43489.0427734375,3569.02623603382
1396,-42275.1107421875,4564.160108753047
1397,-37748.1826171875,2678.522990349541
1398,-44639.805078125,4097.864778054669
1399,-42939.762109375,3205.7893033317255
1400,-39993.4990234375,2750.7573204646565
1401,-34613.064453125,2928.832982412155
1402,-38661.0421875,2959.396062742299
1403,-37490.24453125,3100.933445748727
1404,-42339.74921875,3075.1202951307687
1405,-34794.99755859375,3563.9467208802625
1406,-34725.68798828125,4925.571343457544
1407,-39499.43525390625,3972.7982199681064
1408,-38150.1697265625,7798.807396028168
1409,-43264.37890625,3132.937671848169
1410,-37708.57470703125,3116.676194408377
1411,-41052.7623046875,2666.5930883157007
1412,-36710.388671875,2763.1508681977502
1413,-38402.53427734375,2682.702857512372
1414,-29329.26875,7080.4570817245185
1415,-40252.826171875,2449.82341062145
1416,-36126.37275390625,2953.4619157196753
1417,-38134.49794921875,2787.3990572241855
1418,-41112.748046875,3366.0389009476285
1419,-41933.5673828125,5839.357820231919
1420,-36542.84140625,3784.6946383255518
1421,-39122.40947265625,3300.0193010829985
1422,-41950.884765625,3276.311429005677
1423,-36037.4939453125,3454.8781242714444
1424,-40307.687109375,3240.096628034808
1425,-43087.642578125,3111.1245876563494
1426,-45866.3365234375,4721.583574811319
1427,-39372.79560546875,4099.614071501052
1428,-36285.72685546875,4238.000056273548
1429,-32013.1033203125,5837.619937279797
1430,-34058.0978515625,3727.0609666665787
1431,-32737.106640625,5489.67520424531
1432,-43300.844140625,6752.144399370952
1433,-40266.146484375,3517.7028398207963
1434,-42331.7671875,2948.257276512864
1435,-45922.49921875,4392.539990953196
1436,-39827.6197265625,2749.207398859271
1437,-37685.85810546875,4550.127580959503
1438,-45732.1837890625,6669.247356439636
1439,-40267.528125,3989.350093685104
1440,-37570.7767578125,3371.8173142027545
1441,-44552.8943359375,3361.21752944884
1442,-47871.9896484375,6259.93847182329
1443,-29521.2984375,7872.175478264002
1444,-39315.33603515625,2726.860376899708
1445,-46907.8970703125,5100.424128812106
1446,-39624.1650390625,2930.4423763504283
1447,-40960.671484375,3802.9333324439617
1448,-43576.446484375,3805.856857745013
1449,-37522.7509765625,5374.075001440071
1450,-35429.77392578125,4496.944117415891
1451,-35932.00234375,3330.0959277590473
1452,-30661.24267578125,7317.121244880774
1453,-38034.82763671875,2995.6208026875443
1454,-48681.74140625,4774.165959469734
1455,-45852.53203125,5278.349910146348
1456,-46248.9107421875,4891.429391960352
1457,-41794.60859375,3729.6000300847218
1458,-42386.459765625,3222.8541785042416
1459,-47550.4296875,6115.465203837275
1460,-44347.0955078125,4074.5886440805234
1461,-36076.95009765625,3161.92971288341
1462,-38593.290625,2978.917405106669
1463,-44720.2876953125,4081.996865246044
1464,-45817.2806640625,4745.983433866348
1465,-40373.2333984375,2790.368717896052
1466,-37626.82412109375,3234.979521576065
1467,-44613.6802734375,4438.797771325536
1468,-43459.8796875,3647.461039926706
1469,-41984.1103515625,3555.7257933988544
1470,-37438.85009765625,4358.1921715543085
1471,-42982.7666015625,3625.028996376586
1472,-42696.659375,3768.5374995548136
1473,-45160.11640625,3566.7477551394654
1474,-39851.9841796875,4246.080994298535
1475,-39263.80078125,3146.5619279233506
1476,-29694.890625,9429.167574988027
1477,-40423.6921875,3473.8309495533204
1478,-46171.2427734375,3644.0872888859976
1479,-41702.967578125,3259.83557631214
1480,-40525.0447265625,2801.6769684567794
1481,-40064.0943359375,3519.973078951902
1482,-42663.273828125,3270.3081015459884
1483,-36289.56083984375,3463.5611424113786
1484,-33079.32451171875,4528.423022326232
1485,-41281.6017578125,4688.495425711975
1486,-41010.80234375,2980.200376757204
1487,-43634.8888671875,3441.2635580095166
1488,-44246.5244140625,3904.311000878389
1489,-37056.40126953125,4058.26964455052
1490,-36713.083203125,3536.222890377419
1491,-41694.6814453125,2803.336003297744
1492,-46218.314453125,8659.712170079389
1493,-43945.13984375,3557.889819603055
1494,-33845.0328125,4295.682346399728
1495,-37664.2412109375,2669.2111192735683
1496,-39120.6048828125,4222.846918884046
1497,-40676.4392578125,3807.6294669099166
1498,-43071.657421875,3912.809332084895
1499,-45451.862890625,4189.15694147721
1500,-39036.8751953125,3022.2843809719443
1501,-38876.63916015625,3267.769686969431
1502,-38768.133203125,3307.805376316224
1503,-33428.86533203125,3364.201086674254
1504,-41211.60234375,3063.8727743897575
1505,-40237.7052734375,3744.264969663611
1506,-39450.4912109375,2548.4113439339712
1507,-32737.66611328125,5761.018036076815
1508,-41917.085546875,3509.3866850184654
1509,-44880.112109375,3944.7105373631834
1510,-39268.8744140625,3203.059433997939
1511,-33818.5890625,4863.424211439174
1512,-47231.3001953125,7602.429757226363
1513,-42034.59140625,5784.524978199216
1514,-39182.749609375,3104.838311593547
1515,-43983.3341796875,3569.5521232422175
1516,-44611.4705078125,6811.205163284443
1517,-32675.73935546875,3415.2613725028464
1518,-46269.63671875,4587.459521579202
1519,-42404.448828125,3706.2435933436486
1520,-32677.23984375,4323.242958413263
1521,-39707.859765625,3356.6333166928425
1522,-34961.50654296875,4662.3315993362885
1523,-37731.9533203125,3383.558369635584
1524,-44764.3095703125,4138.353832052698
1525,-38242.029296875,2729.237054874882
1526,-39662.9943359375,3113.6799170908334
1527,-30188.18427734375,6842.005858332072
1528,-33058.31865234375,4710.244473084915
1529,-45668.4552734375,4313.695943942645
1530,-38221.709765625,5368.915255611767
1531,-44322.8025390625,3682.8678161137695
1532,-40111.11123046875,3078.6764973654017
1533,-35917.44306640625,2781.1710855547126
1534,-46147.1662109375,4494.278106179797
1535,-43143.525,3762.42960438223
1536,-42276.3931640625,3160.7892563102346
1537,-32857.22734375,5816.936972749946
1538,-39520.4908203125,3020.1055829843876
1539,-38310.6787109375,3114.391171374639
1540,-32679.930859375,6472.970282101443
1541,-42480.448046875,5019.3644337536425
1542,-42871.059765625,3328.5400553059067
1543,-42282.058203125,3680.25628996266
1544,-44322.23671875,4191.379196070219
1545,-43105.9513671875,3858.876737251515
1546,-46942.793359375,4741.557530730973
1547,-35040.57724609375,4512.966425802606
1548,-43978.9484375,3790.7013788582285
1549,-35147.80703125,4552.469563407966
1550,-36281.99443359375,5332.04949182803
1551,-45085.0041015625,5177.85156192866
1552,-45531.6748046875,4282.94073544721
1553,-35320.13056640625,5228.894756279151
1554,-32236.24755859375,5421.074242849742
1555,-36344.35546875,3544.7628845817926
1556,-40138.83125,2991.2520933713754
1557,-36444.795703125,4071.3823422247433
1558,-39322.4392578125,2886.9606124813886
1559,-46276.453125,4644.596350803509
1560,-39070.5580078125,9218.348324858427
1561,-38216.59638671875,2949.2801703076507
1562,-31622.288671875,6928.824056727965
1563,-42408.0673828125,3415.0568001440256
1564,-35692.55673828125,3467.261139605196
1565,-38418.962109375,3287.0375796956246
1566,-43423.7140625,4426.477432614966
1567,-44799.9169921875,4840.383870859083
1568,-36924.38271484375,3438.812937630422
1569,-44935.49296875,4603.293702233591
1570,-45838.058984375,4766.2042191664
1571,-45714.1791015625,4603.188565094434
1572,-41165.340234375,2937.9536323970397
1573,-41962.15078125,3090.372885429561
1574,-29598.4640625,9236.721994171265
1575,-39521.219140625,3806.0985805114638
1576,-38278.915234375,3190.2314595995913
1577,-38057.670703125,3108.9576458769234
1578,-36056.38427734375,3412.41757035437
1579,-38430.11943359375,3680.8890966804415
1580,-42108.1234375,3742.920552924964
1581,-41665.1611328125,3262.8077112060396
1582,-46641.6638671875,4924.840453971332
1583,-44364.4234375,4223.7113428003595
1584,-39527.40625,3255.7854754513123
1585,-40887.651953125,4964.246651840314
1586,-40383.6765625,3253.815669644616
1587,-44896.66015625,4376.430922244208
1588,-42321.88515625,3588.4013799257127
1589,-40608.5296875,3529.7688904350116
1590,-39764.6046875,3499.4271642763993
1591,-33894.05048828125,4622.780759547399
1592,-35825.98046875,4599.227984730841
1593,-30238.99453125,8715.505750299737
1594,-31785.7779296875,6574.699624162594
1595,-38298.93984375,2752.319794298268
1596,-47203.805859375,4700.832434322831
1597,-40644.7544921875,3407.6989109471065
1598,-40398.0552734375,3352.240082597971
1599,-41087.077734375,3526.5375526067382
1600,-37230.78837890625,3528.48889019032
1601,-42651.98671875,4242.074545625227
1602,-44951.5701171875,7134.450578190021
1603,-42002.8912109375,3508.5696469598356
1604,-37956.225,4620.894494039698
1605,-35406.91826171875,5328.859237931398
1606,-43134.7357421875,4170.198480437886
1607,-35896.4984375,4664.601374466936
1608,-43266.6501953125,3844.9519049833307
1609,-39187.8458984375,3953.8576766029123
1610,-40220.896875,4433.868060685048
1611,-39843.36748046875,7680.239079922659
1612,-41239.72265625,3561.4087328464157
1613,-40074.1798828125,4312.0881638648025
1614,-42862.693359375,4346.445538498704
1615,-29064.48212890625,8265.259066993576
1616,-49162.1423828125,7402.994448091071
1617,-44552.8283203125,4834.197879302318
1618,-31493.324609375,5604.187630553461
1619,-44175.8880859375,4740.268254202728
1620,-35085.56484375,5020.422839096029
1621,-46381.8189453125,6972.016257899646
1622,-44624.26640625,5499.062304975048
1623,-45139.05,5622.5249854372505
1624,-45264.4224609375,6056.3711393064195
1625,-45683.7681640625,5850.453478125478
1626,-41286.6671875,5119.581273363683
1627,-42918.3845703125,3567.6045818678112
1628,-34346.29619140625,4652.54941865396
1629,-31715.53876953125,6598.87182440126
1630,-29321.85087890625,7628.202438499721
1631,-38310.3380859375,3054.5071609806464
1632,-44546.82822265625,8638.173479425588
1633,-46485.9390625,4687.491733708597
1634,-46029.387109375,4309.610888828619
1635,-38539.84375,2590.716641194332
1636,-37970.246875,6803.30627176514
1637,-41480.75634765625,5925.691490501804
1638,-39026.9576171875,3326.367587337789
1639,-34549.43544921875,4075.838107855396
1640,-41532.645703125,3373.324067652996
1641,-27317.60947265625,7943.340490890107
1642,-31067.5919921875,4777.066525283784
1643,-43445.6158203125,4288.179342758369
1644,-40675.45859375,3512.2636947253845
1645,-39451.6392578125,3353.7526073397107
1646,-40220.9611328125,3783.7227650952964
1647,-37468.4759765625,3874.8000068811584
1648,-37016.77314453125,3434.1264843628974
1649,-42322.576171875,3675.3084537148256
1650,-45772.5828125,4027.8897387687425
1651,-43498.9841796875,4386.626010764103
1652,-41011.95078125,3441.878395121152
1653,-43471.13046875,4782.549685318872
1654,-33908.94638671875,4470.47520752692
1655,-32125.13046875,7344.84918356749
1656,-41916.4201171875,3550.219694680019
1657,-30645.42138671875,8094.858656001722
1658,-42533.4896484375,3731.880259135412
1659,-40070.343359375,3077.9787175097495
1660,-43670.29921875,4437.804566207642
1661,-45092.770703125,4283.872393109713
1662,-34370.9052734375,7817.260603106602
1663,-42610.2140625,4221.222727090749
1664,-38089.01396484375,3320.811532584607
1665,-41245.6701171875,3556.6511144115884
1666,-32443.8244140625,4597.447357566684
1667,-41993.585546875,3873.6950696977483
1668,-41088.3818359375,3063.972052644128
1669,-39986.4005859375,5442.760917525762
1670,-45430.8111328125,4470.96075800993
1671,-46940.3703125,4800.1313629839515
1672,-32514.49833984375,7236.909752897918
1673,-45057.04296875,4669.111318503842
1674,-44789.6109375,4124.939973976099
1675,-33228.09892578125,6615.285779787384
1676,-40120.8916015625,3053.583772547594
1677,-40597.28203125,3758.0509610127087
1678,-46744.719140625,4756.191608485925
1679,-42365.35859375,3976.4097521812087
1680,-37695.884765625,3310.315748789549
1681,-46030.01640625,4195.417140986998
1682,-48241.6443359375,4803.382171304896
1683,-36687.3984375,3518.394676753916
1684,-44829.8802734375,4261.636179162262
1685,-31062.1623046875,6384.020613971927
1686,-35738.06650390625,5765.061200643932
1687,-36088.8685546875,3017.1043361945776
1688,-36421.10888671875,2954.5854573014426
1689,-35787.041796875,4034.6672880756173
1690,-43544.5865234375,3627.8463782244257
1691,-40498.1232421875,3052.292588839716
1692,-42597.4068359375,3630.263543975445
1693,-39557.90703125,4888.027753335764
1694,-40583.3275390625,3017.765735531984
1695,-42518.109765625,3077.049297903837
1696,-40432.709375,3499.093047035014
1697,-45732.4560546875,3864.182835104857
1698,-45358.3533203125,4017.4713523297173
1699,-41345.8732421875,3221.1516072721056
1700,-41058.096484375,3047.700027610387
1701,-44563.1123046875,3833.6221710346636
1702,-39268.539453125,2844.422302929668
1703,-44215.3376953125,4546.119695502695
1704,-39119.5984375,4207.237056413755
1705,-37881.6349609375,3643.032072574876
1706,-35795.88564453125,4727.177829098573
1707,-45047.4361328125,3690.1774721268284
1708,-41487.86875,2996.806111006405
1709,-45121.1484375,3749.2901763187842
1710,-37884.8662109375,3380.4488106171366
1711,-34849.36875,4607.253515659369
1712,-43115.8626953125,3431.050517328495
1713,-43481.0220703125,3571.537943341575
1714,-39526.5224609375,3219.018135934072
1715,-41738.1333984375,5991.126202138567
1716,-42119.8255859375,3481.382459687564
1717,-40087.1720703125,3665.204633198163
1718,-39993.49453125,2727.520418137304
1719,-34320.8150390625,5775.982598406565
1720,-43878.106640625,4107.88204514613
1721,-33221.2765625,4985.370483266824
1722,-44680.8044921875,4019.1163403737423
1723,-34093.685546875,5774.1066122654365
1724,-43369.4365234375,3368.503585117709
1725,-41481.69765625,3348.5057083674533
1726,-38135.902734375,3416.3810435066084
1727,-39045.7072265625,3588.1751400667813
1728,-30596.423046875,7389.106621157801
1729,-33099.90615234375,5531.218701376861
1730,-40662.05205078125,3559.239537134044
1731,-36856.39462890625,3974.4532485232858
1732,-45610.194921875,3835.9774174420127
1733,-41486.328515625,3223.4033325426844
1734,-29894.3162109375,9254.452579083927
1735,-38514.36484375,2992.0210220119607
1736,-42518.3427734375,3356.7521870734176
1737,-41415.366015625,3330.115751192789
1738,-36307.0439453125,3872.90271506637
1739,-43310.5623046875,3289.07702543892
1740,-44781.6064453125,3900.791096784978
1741,-47173.439453125,4614.682941944772
1742,-40966.85595703125,7057.588449223151
1743,-36827.66494140625,4256.756406723226
1744,-41624.5916015625,3523.4672144831848
1745,-36048.44111328125,2906.0895885317436
1746,-42359.589453125,3934.738190508437
1747,-30989.33662109375,6852.206840892398
1748,-43632.9466796875,4103.24021548462
1749,-33236.909375,4790.529618392375
1750,-34724.23583984375,4587.169525179412
1751,-33166.7513671875,5361.653115112505
1752,-40396.4130859375,2997.4312690201605
1753,-38631.01103515625,9217.897609275456
1754,-44116.7736328125,4076.2668572431385
1755,-44611.337109375,4597.632171374046
1756,-35451.38349609375,4043.275124082909
1757,-35153.75166015625,3556.550506469265
1758,-33125.21484375,5729.993217610977
1759,-38538.0865234375,3154.778030040095
1760,-37399.1353515625,2941.2311450120833
1761,-42983.1634765625,3887.158403402243
1762,-40593.8962890625,2823.809027880181
1763,-33094.67275390625,5857.157124369521
1764,-32616.31396484375,6056.277161987426
1765,-35362.69345703125,3016.8206853141655
1766,-36459.5427734375,2917.6854621165676
1767,-40711.621484375,3062.1940599247255
1768,-42034.631640625,3538.925065931244
1769,-41064.4873046875,3558.9228053317934
1770,-45753.06796875,4847.982885798125
1771,-40049.983984375,4684.460110368439
1772,-38972.8037109375,2726.4342195251916
1773,-43420.4470703125,4510.594659080328
1774,-41162.6076171875,3377.3585553342095
1775,-45421.1650390625,4861.648058999079
1776,-45739.3982421875,3867.416938286786
1777,-34435.78642578125,4265.975852892303
1778,-34335.91435546875,3438.184988108454
1779,-36294.2359375,3599.3853312574106
1780,-32166.443359375,6106.241120055381
1781,-31847.57724609375,5316.91822198155
1782,-35695.36357421875,6820.104912701043
1783,-40302.0935546875,3015.8163743367672
1784,-33163.5919921875,5453.423455356038
1785,-45132.9107421875,3562.8981306667292
1786,-36737.49775390625,2840.227843729414
1787,-44471.30625,3872.496625631183
1788,-44292.566015625,3527.182984820959
1789,-30924.04130859375,8089.16258142774
1790,-35089.09873046875,3839.357424052944
1791,-30638.058203125,8360.662682837072
1792,-41368.4818359375,3102.3983405909185
1793,-40751.26640625,3268.3884502826336
1794,-39222.0673828125,2632.0338827180994
1795,-34457.124609375,5099.938718643003
1796,-43815.41484375,3450.750447034093
1797,-38737.33310546875,2348.968989191467
1798,-43883.5814453125,3125.563549867067
1799,-41041.5248046875,3042.5182498469867
1800,-44426.4857421875,4560.187085343255
1801,-44049.4083984375,4547.113293893888
1802,-37546.15283203125,3243.314979817465
1803,-42595.2443359375,3815.1751440893677
1804,-33058.4115234375,3087.7637911345573
1805,-45151.7046875,3808.4459990548207
1806,-40560.8583984375,2782.7290643321044
1807,-43120.952734375,3870.708012942827
1808,-35671.25029296875,4176.9450258039415
1809,-45292.2833984375,4177.421293871119
1810,-43302.8896484375,3823.694233494962
1811,-34762.79072265625,3061.055946750452
1812,-44318.3845703125,3814.278443392585
1813,-33976.61591796875,4570.838668575753
1814,-36899.2919921875,5659.585741492325
1815,-34061.28447265625,4097.468972556914
1816,-38491.3625,2957.8569286069837
1817,-42021.632421875,3719.278727351813
1818,-39392.4966796875,3358.9880449764887
1819,-39264.11943359375,3261.559025554323
1820,-32968.5798828125,6257.19801224055
1821,-43137.57421875,3564.601872401037
1822,-42630.0484375,3320.5876911817245
1823,-44509.9841796875,3924.0988730882164
1824,-43078.9205078125,3172.659845671816
1825,-45427.0701171875,3679.9460102228845
1826,-38068.6509765625,2525.756254994224
1827,-41956.60546875,3286.4071995823456
1828,-45415.71953125,3885.7488760518663
1829,-35210.96689453125,3056.777577597576
1830,-34495.16181640625,5311.8473788458
1831,-44386.616796875,3997.4483236193905
1832,-45565.5359375,3882.747520318873
1833,-37702.72861328125,4072.653547479349
1834,-42404.7552734375,3720.6524172650434
1835,-40964.11015625,3315.056798867465
1836,-43598.250390625,3869.454398376818
1837,-47282.5091796875,4511.238689288612
1838,-44836.2072265625,3989.848870045536
1839,-44442.2560546875,3827.773404444006
1840,-32259.62314453125,4610.887374843349
1841,-40507.2294921875,3270.337022339807
1842,-38714.8310546875,3537.4409613484795
1843,-42445.244921875,3635.456275472411
1844,-44881.7931640625,5902.564822521176
1845,-43113.0798828125,4316.712014731602
1846,-38406.5689453125,2883.4893540256867
1847,-36515.3224609375,3217.1202683330007
1848,-40126.11484375,3676.575190464105
1849,-44830.3341796875,4631.545040577437
1850,-43811.426171875,4079.6405140326297
1851,-39732.06025390625,3246.4266951805357
1852,-38924.5646484375,3032.785624844818
1853,-36768.065234375,2827.7020918586827
1854,-35299.58408203125,4180.681886193294
1855,-40849.5736328125,3819.720208508066
1856,-46612.5875,4640.717066859245
1857,-40899.2880859375,3204.3053928684453
1858,-37367.8544921875,3087.967887742487
1859,-44003.2259765625,3945.236679593863
1860,-41538.5875,3995.684260031254
1861,-41247.84296875,3447.6444570402027
1862,-38950.97890625,3128.3090854357856
1863,-46197.8861328125,4702.198859989627
1864,-38718.2572265625,3357.9280610295596
1865,-31693.0478515625,6489.570913856762
1866,-41976.4345703125,3070.3190283434083
1867,-42153.4005859375,4817.306561247442
1868,-43010.3755859375,3778.8116492580507
1869,-47840.18876953125,6709.70351064509
1870,-35774.0818359375,3927.8648192028463
1871,-39498.998828125,2610.7130148892684
1872,-34831.77041015625,4056.0582686855973
1873,-44196.876953125,4056.2955259131754
1874,-39192.05625,3778.0257825118906
1875,-40927.75546875,3865.4318762577254
1876,-34838.77509765625,3658.543341081607
1877,-40610.3130859375,4159.199235430824
1878,-37115.31806640625,3785.7049793477427
1879,-38567.5060546875,3067.9349815316446
1880,-32860.09853515625,4880.692921179236
1881,-44424.8373046875,3978.7862857400614
1882,-37096.2724609375,3010.395847110756
1883,-41403.5453125,3502.804907123238
1884,-34450.787109375,3110.683649337791
1885,-35293.1857421875,4756.4509147360095
1886,-37663.0619140625,2582.657147402608
1887,-42900.2333984375,3900.002975165944
1888,-44993.1701171875,3948.1115062767653
1889,-32257.60732421875,4139.97045693644
1890,-42882.6525390625,4039.6898075914246
1891,-38968.2951171875,2863.052645472465
1892,-35410.3734375,2959.32565182703
1893,-38716.055078125,2819.6945967739816
1894,-32551.48916015625,5972.342822483853
1895,-29043.019921875,9768.975321731272
1896,-43432.1703125,3578.569048802314
1897,-33119.37841796875,6301.232371682762
1898,-40742.77744140625,5121.325441068424
1899,-37597.17041015625,3844.7272449540046
1900,-45553.0029296875,4542.321144551839
1901,-33621.89638671875,5586.285293841907
1902,-43700.3884765625,4372.149125658521
1903,-34599.14755859375,3527.2133261929534
1904,-31766.9953125,5871.135067832666
1905,-38942.51875,3001.4534184808267
1906,-44876.4615234375,4110.377920096998
1907,-32484.66435546875,5934.665676142574
1908,-44934.5365234375,4027.753975436673
1909,-36818.6685546875,2901.765353534491
1910,-34324.412890625,3952.381742709731
1911,-37047.67041015625,3811.4321278909433
1912,-45453.8392578125,4559.638796232735
1913,-36673.34326171875,4110.225361036975
1914,-41404.71171875,3655.166195409221
1915,-36125.76181640625,4660.520388797987
1916,-39229.2724609375,2882.270680354104
1917,-33309.2470703125,4326.679266651758
1918,-36155.69736328125,3231.019895900925
1919,-41212.161328125,2996.1005104939463
1920,-32601.184375,5770.425216956519
1921,-42948.227734375,5593.30742703867
1922,-33684.56962890625,3947.6909731662545
1923,-38789.547265625,2586.934548554248
1924,-40429.9939453125,3270.65393071537
1925,-43045.15078125,4545.352759701868
1926,-39729.98271484375,3060.1883032634178
1927,-43303.447265625,3272.7544807188356
1928,-40505.3603515625,3981.4380293052322
1929,-41683.89765625,3557.7015783911875
1930,-38268.20458984375,4161.694407532415
1931,-41662.825390625,3966.717135836546
1932,-42048.84921875,3684.565544882327
1933,-41639.912890625,3350.2353091482037
1934,-43225.0947265625,6165.465403353245
1935,-44322.50390625,3828.2951505138994
1936,-33600.6083984375,4446.121689095825
1937,-45410.7462890625,3925.0021039093554
1938,-32850.48505859375,3042.792655104699
1939,-47326.3619140625,4516.576155338044
1940,-41325.1177734375,3048.36508219126
1941,-39404.58564453125,6230.645746546655
1942,-43395.025390625,4242.643664311827
1943,-44177.209375,3556.5192580139224
1944,-39548.6119140625,3171.317978790555
1945,-34738.83955078125,3608.7677203972785
1946,-34011.83515625,4699.287772447932
1947,-47355.554296875,3942.500876956453
1948,-32307.4689453125,4531.918684213276
1949,-46731.895703125,3878.5918569976902
1950,-41110.5853515625,2903.5367496260396
1951,-42774.7763671875,3362.06709736068
1952,-38350.575390625,3709.579035256664
1953,-30764.14267578125,7136.750946203863
1954,-43094.373828125,3080.1187313125433
1955,-41179.8431640625,5071.583964333226
1956,-41721.419921875,3507.4709703620188
1957,-38456.3232421875,3010.262319345724
1958,-40412.278125,3495.021773605216
1959,-40520.160546875,3077.2153574212593
1960,-46343.16796875,4074.6457174408797
1961,-41828.255859375,3029.165197303202
1962,-37768.3896484375,3303.5813469426516
1963,-40630.8501953125,2883.362185980952
1964,-41274.201171875,3468.804177774816
1965,-43856.8919921875,5919.631717337971
1966,-33611.35419921875,4924.3329622777765
1967,-36420.029296875,3126.021700824504
1968,-34508.60185546875,4337.499169406175
1969,-44012.601953125,4102.76412817371
1970,-37766.78212890625,3528.7961331480174
1971,-42333.4375,3269.7176557418
1972,-39248.776171875,3223.314234943134
1973,-35618.26728515625,4782.756592212954
1974,-40220.3501953125,3140.694721221903
1975,-40084.78935546875,3000.933945407911
1976,-40116.39765625,3125.388846881085
1977,-39932.8361328125,3003.8128872142593
1978,-37233.6580078125,3566.0074512764827
1979,-38180.207421875,2994.911284324865
1980,-37136.4115234375,5096.92388661925
1981,-40203.8,3423.401851255569
1982,-34784.9806640625,6350.274810848239
1983,-36070.4025390625,4220.326391495628
1984,-35700.8291015625,4095.0984465578904
1985,-33057.074609375,3395.9988146629107
1986,-28929.5251953125,7506.11738417252
1987,-38454.0876953125,3427.665611344739
1988,-43289.6650390625,3581.131542413731
1989,-44656.8220703125,3852.329482465459
1990,-36836.13359375,4960.150980508381
1991,-45189.06640625,3899.0283000647887
1992,-37892.52529296875,2860.2769560150255
1993,-42690.9361328125,3373.5957282007125
1994,-38105.344140625,2897.17269464553
1995,-37249.93544921875,2538.8377100191337
1996,-34429.171875,4762.7147496125635
1997,-33119.14150390625,3838.9720852095816
1998,-34145.86201171875,3715.220558895769
1999,-35390.208984375,3934.500782045972
2000,-44055.6091796875,3908.590107832328
