iteration,mean,std
0,-119491.41866737518,794.9093186634799
10,-78770.87923169078,24800.45093701383
20,-70707.14674789016,27177.102793139056
30,-69663.57533133106,26733.44901558207
40,-69254.75466745996,27525.999696254792
50,-69073.98478455114,27777.496200101643
60,-67950.35547534231,27505.59185019701
70,-68113.8951302499,28364.176673547972
80,-68158.75470937695,28774.813091238368
90,-67726.23769507762,28570.667765303402
100,-65997.05988878319,27010.299221271405
110,-65870.60611190648,27030.31848890875
120,-65816.39050935995,27131.688498104475
130,-65710.04914963618,27337.866382989832
140,-65684.21906790078,27375.822062689746
150,-65541.86505875239,27590.859753196175
160,-65460.33970067378,27665.30195553969
170,-65372.2727696213,27800.98996792536
180,-65314.52039568425,27963.81362063749
190,-65303.36295968244,27967.99103690543
200,-64720.39185905598,27130.16863672969
210,-64621.06299112543,27184.867034891642
220,-64427.182730732464,27013.29944104423
230,-64594.53183168768,27536.157247332052
240,-62266.55977401302,26401.418356496775
250,-62127.05748888217,26390.502171271684
260,-61847.17893028137,26388.81267538304
270,-61736.91719034489,26425.995472352628
280,-61650.95247014598,26450.14423027988
290,-61442.792361527994,26471.113114917855
300,-61359.14000991478,26611.31297390693
310,-61319.71737532155,26633.118587099798
320,-61187.33869798881,26676.601924276718
330,-61047.64999798433,26707.816429913495
340,-60201.80298750794,27120.531555470512
350,-60072.66556758754,27179.50590252903
360,-60588.83727459879,26863.616397489943
370,-59778.02830296444,27516.7870396759
380,-59653.28760380405,27643.621781158767
390,-59574.801024638626,27727.691933395115
400,-59486.43909314035,27843.56420930346
410,-59791.67775071353,27572.152951479115
420,-59472.114975897035,27887.051856218106
430,-59451.304513234645,27928.93585426268
440,-59199.71341454387,28175.3123356497
450,-59136.6209879403,28282.245820574866
460,-59077.05355848131,28374.821140393506
470,-59035.14063849441,28402.674385573246
480,-59008.853906546276,28435.22050648564
490,-58941.93571274543,28509.72702581866
500,-59551.3400680702,28016.845709073536
510,-59435.25741146173,28151.985372915933
520,-59222.627664705484,28344.200382219286
530,-59612.0834021668,28136.5869127602
540,-59323.379407507964,28315.94828269256
550,-58599.0842253656,28968.624170454204
560,-58666.96657734689,28896.53977476486
570,-58806.604887884445,28757.89391995426
580,-58586.70968698943,28994.985940501752
590,-58406.560230294395,29250.063791545203
600,-58440.50596759884,29216.427040776525
610,-58375.17521235174,29288.06289124998
620,-58255.69047913365,29426.978967553536
630,-58225.74123197328,29471.541180513956
640,-58141.90071766238,29581.12354436841
650,-58168.6847093168,29550.733172265245
660,-58231.82897201679,29477.7909682136
670,-58114.47298013271,29619.852444187618
680,-58108.84003006915,29627.574738404892
690,-58133.43842605988,29598.052005846286
700,-58121.10392046844,29614.324660968858
710,-58011.87988303928,29755.877362709976
720,-57984.71687712852,29791.953188730637
730,-57971.62574710274,29809.01770770537
740,-57767.28401272885,30088.15738834955
750,-58173.7788040552,29556.695515124055
760,-57442.17460810703,30580.53014776504
770,-57440.979335813645,30582.446897204634
780,-57446.00248950823,30574.39688846379
790,-57448.618994160184,30570.20999152536
800,-57448.95870089232,30569.66655146305
810,-57447.11282812038,30572.62020255318
820,-57450.0440483792,30567.930701233403
830,-57446.875871730226,30572.99949815958
840,-57455.64409526463,30558.984339447452
850,-57505.068284984285,30480.7604203415
860,-57496.356389299,30494.453389023227
870,-57491.546611528975,30502.030511888745
880,-57493.5519378442,30498.869881686664
890,-57625.074972522925,30296.361400255224
900,-57402.80890693944,30644.061583450544
910,-57442.681616983435,30579.718773745706
920,-57552.807681339116,30406.461745558317
930,-57569.92981441076,30380.11672285817
940,-57408.05609649164,30635.54554629369
950,-57425.72452084181,30606.978452000156
960,-57427.01256595804,30604.902419724924
970,-57442.98853370536,30579.226806586517
980,-57426.715571122026,30605.381028173964
990,-57417.12536445792,30620.86108404015
1000,-57393.78585710487,30658.74009987981
1010,-57572.1009728346,30376.787531197897
1020,-57379.69143186624,30681.755462343004
1030,-57401.40680224155,30646.339648263973
1040,-57396.49760890655,30654.324111257607
1050,-57388.146760107215,30667.93571451097
1060,-57390.440608359546,30664.193116325176
1070,-57433.706627290325,30594.12745678039
1080,-57382.311912693825,30677.468367899353
1090,-57370.68923083016,30696.510840906594
1100,-57373.34843476814,30692.147695249394
1110,-57428.066927797256,30603.20369295482
1120,-57429.06789083397,30601.591550661655
1130,-57376.78730394972,30686.51086940869
1140,-57377.86554243355,30684.744768402274
1150,-57428.373142950426,30602.71044848803
1160,-57426.38876700568,30605.907729034614
1170,-57423.622741593805,30610.367945241986
1180,-57421.81581994354,30613.283819828357
1190,-57370.57534612832,30696.69778355249
1200,-57371.238396473076,30695.609477837403
1210,-57366.52763331546,30703.346609276367
1220,-57361.191161736686,30712.125657592296
1230,-57358.59061368457,30716.40930285616
1240,-57359.573068792946,30714.790572821727
1250,-57358.15204801519,30717.132065372538
1260,-57356.16062518299,30720.41524132236
1270,-57374.40040388802,30690.42269168607
1280,-57380.1618896833,30680.98552646477
1290,-57377.48894337739,30685.361548670022
1300,-57381.02193157212,30679.578314417096
1310,-57383.629265129115,30675.31456568178
1320,-57391.29918261728,30662.79300433924
1330,-57386.61878368716,30670.43028648842
1340,-57378.49879571317,30683.707819203453
1350,-57372.130224537,30694.146033372155
1360,-57348.95945799841,30732.305041617794
1370,-57361.27188617701,30711.992744986004
1380,-57332.505397921006,30759.57519636811
1390,-57379.82533706106,30681.536305493286
1400,-57380.98170384929,30679.644126782387
1410,-57391.76825986539,30662.106095565287
1420,-57429.04714076851,30601.701683879106
1430,-57688.071235217234,30202.80706710362
1440,-57772.05806945106,30081.43156521331
1450,-57989.72408134454,29785.51230470876
1460,-57322.76085140845,30775.872723874032
1470,-57473.14945414752,30531.203469190114
1480,-57298.95044877698,30815.71076494953
1490,-57249.11036550052,30900.06228508462
1500,-57428.228855272566,30603.01960166921
1510,-57219.036459939656,30951.587123588728
1520,-57203.52678139702,30978.342766055048
1530,-57326.55522145525,30769.551801164504
1540,-57322.92615221216,30775.597196290706
1550,-57316.13258282823,30786.93275359736
1560,-57305.418468219184,30804.859393037095
1570,-57293.503382150455,30824.86632741047
1580,-57281.04525617807,30845.864734499966
1590,-57319.65192194727,30781.057448833195
1600,-57307.468039932486,30801.425420980868
1610,-57299.53555042648,30814.72823813372
1620,-57289.821904255565,30831.063060722332
1630,-57278.36186446391,30850.39828290615
1640,-57270.229124893805,30864.161427487143
1650,-57265.36053754544,30872.417145352847
1660,-57259.44122626244,30882.471258222704
1670,-57250.51045311972,30897.67500721687
1680,-57243.32051030341,30909.945356089138
1690,-57237.3923783707,30920.082530327938
1700,-57318.990707079836,30782.160805797197
1710,-57327.89609507824,30767.3198971803
1720,-57358.61162699609,30716.45356111328
1730,-57201.59395849229,30981.6857843179
1740,-57304.19611663108,30806.908443321394
1750,-57306.01784099326,30803.854940452296
1760,-57346.89988888193,30735.789876242918
1770,-57441.26911542142,30582.059912958022
1780,-57228.79699812746,30934.813166537406
1790,-57807.65232612451,30031.19018588311
1800,-57280.68906925002,30846.466289817465
1810,-57269.44911345937,30865.48326855115
1820,-57265.137349332486,30872.79590486651
1830,-57264.37311022224,30874.093046857113
1840,-57250.27583502623,30898.07498138765
1850,-57240.689420705916,30914.442294262055
1860,-57230.75679231222,30931.451123457417
1870,-57313.60516584783,30791.156133233526
1880,-57356.64287918639,30719.698922522148
1890,-57417.69149739924,30620.022961199473
1900,-57384.790802485935,30673.494362404155
1910,-57440.51473751955,30583.269941601524
1920,-57411.00392567215,30630.845034424903
1930,-57418.099313358005,30619.363792534517
1940,-57219.03864075565,30951.58337023442
1950,-57370.26269919416,30697.289560447975
1960,-57571.14004086164,30378.3329556147
1970,-57281.486874113325,30845.118989084207
1980,-57321.16188034491,30778.538672908377
1990,-57307.87217051191,30800.748577684648
2000,-57292.56297494093,30826.448562698057
2010,-57280.876885913814,30846.14908260931
2020,-57276.06135752487,30854.287953333598
2030,-57264.53637354651,30873.815914627943
2040,-57252.6106743687,30894.095851933198
2050,-57238.060641896256,30918.938878180972
2060,-57226.518174766796,30938.725013298947
2070,-57217.301789070756,30954.573407863023
2080,-57208.04572035223,30970.534326126715
2090,-57193.21578832372,30996.19900913789
2100,-57254.81091688138,30890.348707559413
2110,-57292.58060991871,30826.41888757717
2120,-57338.752312409124,30749.284506780758
2130,-57561.24612465678,30393.53044869949
2140,-57292.719491745556,30826.18519097037
2150,-57214.50337979502,30959.39423286271
2160,-57198.36322534707,30987.277982446572
2170,-57288.88431486905,30832.642364335476
2180,-57230.212106010105,30932.385337240048
2190,-57219.24731723196,30951.224233153167
2200,-57610.779916458414,30317.983212201525
2210,-57210.646662643725,30966.044851235078
2220,-57326.562843453175,30769.53911155621
2230,-57320.478329751815,30779.678761319097
2240,-57317.5769675422,30784.520659281057
2250,-57311.531171909126,30794.62434254179
2260,-57314.18560000237,30790.18591519985
2270,-57304.6130459686,30806.20944882118
2280,-57298.37210106341,30816.682126923373
2290,-57293.71385126697,30824.512276616697
2300,-57286.421215574475,30836.793477623472
2310,-57280.64574632413,30846.53946136864
2320,-57271.49362678378,30862.019223496634
2330,-57265.68604526921,30871.86479208019
2340,-57257.14282978175,30886.380075103418
2350,-57266.02037842387,30871.297520553886
2360,-57268.15342124618,30867.6797071512
2370,-57263.318117312076,30875.884185864772
2380,-57256.38656077629,30887.6668424434
2390,-57279.957683470624,30847.70171741209
2400,-57272.43112397821,30860.431540590474
2410,-57267.27258416258,30869.1733901409
2420,-57269.27880847163,30865.771917022314
2430,-57300.97260303302,30812.315843125132
2440,-57266.92205948074,30869.76790649122
2450,-57284.231359915415,30840.486757116058
2460,-57341.89787925819,30744.07042183974
2470,-57352.27286194575,30726.90997046898
2480,-57288.557487994476,30833.19298961206
2490,-57274.03963333205,30857.70854658664
2500,-57271.27467017276,30862.3901000307
2510,-57314.87025247406,30789.041720186764
2520,-57353.750884422894,30724.46992542952
2530,-57408.790112635026,30634.432776418296
2540,-57416.653843049615,30621.700563291877
2550,-57411.3048148992,30630.357610605613
2560,-57404.45932468894,30641.45889570733
2570,-57373.569484985004,30691.86359916973
2580,-57383.21158951917,30676.075475081198
2590,-57378.3300405752,30684.062415644756
2600,-58710.36862333245,29006.400071611784
2610,-57323.115430934544,30775.28171939084
2620,-57320.690278167735,30779.325227965815
2630,-57476.127704742445,30526.48045856225
2640,-57279.21804086695,30848.951376849756
2650,-57335.07918881361,30755.379686291388
2660,-57328.31410431251,30766.62430854194
2670,-57310.85677379001,30795.752583624257
2680,-57366.60472464394,30703.298537957467
2690,-57362.98347855084,30709.254177755338
2700,-57290.13977130669,30830.527740555975
2710,-57354.673657495194,30722.947120035846
2720,-57381.221793812714,30679.329546271347
2730,-57426.750962277656,30605.4007824995
2740,-57423.49280117873,30610.65446549794
2750,-57559.376007178485,30396.409053900963
2760,-57548.78479113511,30412.747821041256
2770,-57566.69681448984,30385.151316202737
2780,-57560.76107431003,30394.276885615775
2790,-57568.78819408432,30381.940638726563
2800,-57556.08584609054,30401.478125453006
2810,-57551.712455819754,30408.225264686524
2820,-57553.21707780993,30405.90279799349
2830,-57555.471010196256,30402.426044738233
2840,-57553.91385909908,30404.827696965956
2850,-57563.342268282795,30390.306204321485
2860,-57566.683743849804,30385.17138972956
2870,-57547.80369791996,30414.264427701244
2880,-57573.42544911334,30374.83009191299
2890,-57566.96616990447,30384.737668452362
2900,-57562.08208729913,30392.244300123773
2910,-57598.64932595382,30336.35968151296
2920,-57543.1168702609,30421.51673467185
2930,-57532.10884396384,30438.597469563843
2940,-57548.089097224394,30413.82319370543
2950,-57545.97552861357,30417.091875175625
2960,-57530.129901775545,30441.675122805624
2970,-57528.73855015985,30443.84023150334
2980,-57525.05137417434,30449.583013741158
2990,-57529.54552387097,30442.584355965093
3000,-57528.38691981435,30444.387577041605
