iteration,mean,std
1,-83163.478125,2906.9154310468093
2,-82413.991015625,3360.8119486155056
3,-82389.504296875,2951.7662027754886
4,-65689.8302734375,2386.168042301481
5,-72958.657421875,3399.868869987069
6,-62947.0541015625,3025.0488435572565
7,-62215.05625,3085.932849496199
8,-70276.78046875,5170.814626007896
9,-55273.7689453125,1210.4059361017116
10,-73649.073828125,4323.6543209196425
11,-71263.474609375,4301.130054808353
12,-60011.898828125,5166.6317735956145
13,-57043.7771484375,3618.225352992704
14,-65903.1443359375,3936.4452182584614
15,-54774.5203125,4092.9277661511787
16,-55750.70390625,5311.846578801065
17,-70490.964453125,6614.876838970456
18,-51246.7927734375,2755.1856830741867
19,-54719.996484375,6294.341414162044
20,-55527.4203125,7442.4777268926355
21,-52228.144921875,3989.4585004853575
22,-52671.0076171875,3467.6220499396754
23,-59555.3625,5312.449755073689
24,-58893.7892578125,7297.061848337788
25,-56367.8001953125,8983.254110507422
26,-48197.766796875,6688.776248478008
27,-59650.8560546875,6695.92966902818
28,-49813.7689453125,6837.015444329862
29,-49849.1333984375,3372.914512916535
30,-45923.8142578125,4273.687541394272
31,-50236.3486328125,6353.358175982431
32,-48241.1783203125,5812.444151190402
33,-56174.393359375,6302.519672697033
34,-49852.3146484375,3960.3355353616344
35,-55860.8921875,6574.165320598627
36,-45543.03203125,4287.145022290684
37,-56276.4779296875,12281.552210508637
38,-52349.22890625,4519.590323848784
39,-53722.9544921875,9537.257957354444
40,-49588.687890625,2431.272985364948
41,-45730.0173828125,3211.6818689926436
42,-48291.4748046875,9036.178225329193
43,-48156.0408203125,3931.6768562515886
44,-43289.6740234375,4367.291232048472
45,-48686.258984375,2145.5314408291893
46,-45596.566796875,6197.480833508201
47,-45699.1455078125,3587.856830933253
48,-50852.1,3945.769660022481
49,-47843.921484375,2472.530658000308
50,-44962.0978515625,3592.2167494522064
51,-48986.79765625,2265.980865419814
52,-51277.995703125,6523.986444507119
53,-48998.728125,1852.5834314259594
54,-47140.069921875,3275.3320302886536
55,-48617.6232421875,5521.143892955884
56,-47855.264453125,2203.7938187075683
57,-51995.825,4116.124460098717
58,-45557.4994140625,2748.0528358406045
59,-50932.601171875,4369.191184406542
60,-50549.689453125,5256.197181994239
61,-46102.4775390625,5925.747532263617
62,-49018.290234375,1763.5506632455015
63,-45859.8109375,6167.8251572904655
64,-45471.37421875,7538.740205303272
65,-45678.780859375,2317.5641425438134
66,-56250.4939453125,3602.200159056008
67,-45528.9216796875,3067.8074558467315
68,-46410.18251953125,7843.304331426632
69,-42912.3064453125,3899.08258930553
70,-47689.6572265625,2642.888166282683
71,-46083.6728515625,7311.909385849951
72,-43552.10234375,2325.434531063722
73,-43515.8203125,5030.021706829368
74,-52457.5173828125,5065.748772047159
75,-47610.777734375,1977.4135182729704
76,-56998.67890625,5207.698151458366
77,-43660.6875,8025.3505378519185
78,-45567.8033203125,2645.736879128178
79,-47015.49296875,2131.1705541624196
80,-41447.11337890625,6695.2990782602665
81,-50783.97109375,4074.6780616030173
82,-48920.48984375,1583.0919478351846
83,-42319.291015625,4529.733726231716
84,-45858.160546875,1832.018643001957
85,-42966.04814453125,8555.365948161001
86,-48086.6384765625,1575.0244788865698
87,-44799.466796875,4480.650029460498
88,-45726.173828125,3207.2408308102235
89,-39203.38896484375,5249.551547125009
90,-53946.78984375,4902.210401992996
91,-47051.6759765625,2007.9274182699469
92,-45968.8294921875,2365.59693336155
93,-49873.0060546875,5255.829307795952
94,-45971.4546875,3219.3204008185526
95,-42188.5564453125,5392.141150920307
96,-47411.189453125,2964.6871334363523
97,-48369.94765625,1796.046394586782
98,-43749.9427734375,3340.228011046253
99,-48846.4884765625,2734.7149260113915
100,-42008.28203125,6292.955134801283
101,-46689.6708984375,3915.8769416923114
102,-50692.164453125,1566.305898280236
103,-42035.96328125,4759.381920143094
104,-44725.525,3513.4115242229714
105,-50840.0888671875,1581.2107004286936
106,-42248.5064453125,3025.229240878826
107,-42854.3919921875,3257.2797397198983
108,-48212.5396484375,1707.8082057777967
109,-42159.35869140625,5933.599512430125
110,-44365.946484375,4635.841875433883
111,-48031.6875,6205.3222190065335
112,-47593.84609375,2995.69164457557
113,-47462.5494140625,1574.7963497126707
114,-41043.5353515625,2462.128448088666
115,-38409.214453125,5118.132346439792
116,-53844.25703125,2620.782902130543
117,-46441.1771484375,1871.6352963372797
118,-46310.4080078125,2109.618297351474
119,-44674.2150390625,1688.6327982248586
120,-48382.933203125,3090.186525092232
121,-40208.994140625,4792.697734573612
122,-39898.39287109375,7903.528846112299
123,-46862.534765625,1765.4754486238985
124,-41465.800390625,2077.4497306630196
125,-40041.095703125,2084.3947026184514
126,-44276.7578125,1566.2577964268394
127,-43951.12578125,2057.0298072363676
128,-43672.1423828125,2253.626868157247
129,-49395.84296875,2471.3142541691864
130,-61914.913671875,4972.590840301881
131,-39407.9748046875,5445.443214157581
132,-44994.919140625,2407.606642845808
133,-57410.8759765625,4582.194810238124
134,-42069.8861328125,2534.7246053816316
135,-43604.367578125,3700.318808880718
136,-39294.2671875,4075.142671830887
137,-49424.5345703125,5652.956200268713
138,-52741.3923828125,3028.7175370230816
139,-48028.416015625,1609.7388437312566
140,-43136.1484375,1832.0588004883073
141,-41957.045703125,2442.390836370735
142,-42849.8599609375,4159.860264045757
143,-48215.9572265625,1613.228180941079
144,-39972.291015625,3799.8198245790236
145,-39093.6505859375,4007.0727655189353
146,-39171.733203125,7340.949975488904
147,-42621.6341796875,3006.8555295773067
148,-45245.65625,2010.6906316525958
149,-51115.7666015625,2698.823006697759
150,-41866.2900390625,3469.5289240135708
151,-49326.484375,3236.5141891564485
152,-40918.2271484375,4407.488790541283
153,-39009.33720703125,5120.012250825198
154,-44619.3203125,1667.8277366429666
155,-47996.107421875,1532.6093050413276
156,-51918.6099609375,2321.5277154869855
157,-43679.3939453125,2679.745176505036
158,-45817.6083984375,1819.4248670990078
159,-37702.9865234375,5818.722183291575
160,-45280.3068359375,1591.5061651780861
161,-42565.06875,2638.0340705060803
162,-43700.903125,2046.6314531096675
163,-47783.8814453125,1395.8449313053316
164,-46230.8248046875,1569.3546168401954
165,-42645.9162109375,1976.7258229940478
166,-40774.1845703125,3721.9926492127265
167,-43208.72109375,4267.71834639207
168,-47360.0541015625,3098.116124561525
169,-45483.2787109375,2554.648852923545
170,-35667.6412109375,6560.411937677803
171,-45142.212109375,1569.6560756199885
172,-38778.94599609375,5673.148475348609
173,-42845.9033203125,3245.183895392332
174,-55918.145703125,3606.3289359123733
175,-49787.60625,3789.338180485748
176,-44787.0892578125,2275.2277366281705
177,-44704.6353515625,3033.509653899879
178,-42808.9830078125,1793.871310135536
179,-45539.481640625,1459.2075003791444
180,-39923.70048828125,5807.828775406516
181,-35972.29697265625,6823.380200973404
182,-39190.1044921875,3520.097132484856
183,-39883.3396484375,2645.755481972298
184,-48331.4041015625,2777.1637813972993
185,-41402.0099609375,3594.19781849029
186,-48227.141796875,4000.8168113919182
187,-46376.3771484375,1461.7330282675266
188,-36296.01455078125,4427.184545637684
189,-46050.4962890625,1627.2540058829109
190,-38135.780859375,3158.97449448259
191,-45911.9876953125,1696.0879075162045
192,-46677.9951171875,1582.712895788369
193,-38632.6208984375,3230.1598865157207
194,-46530.240625,1430.0497496456153
195,-41965.54765625,1970.5834930915598
196,-49885.7271484375,1362.5887519559603
197,-47601.2921875,1559.7190548661672
198,-46433.0337890625,1534.8545006937889
199,-48392.9166015625,1489.1792505473393
200,-40335.28984375,4098.145473381281
201,-42589.6279296875,2750.6520515224624
202,-49067.8318359375,1404.9478627655008
203,-39207.647265625,3999.163833261279
204,-50114.5564453125,2589.7539787657342
205,-40467.326953125,2886.4838701877156
206,-47733.726171875,2140.10583800156
207,-39826.7099609375,3809.6562959490952
208,-34663.533984375,3652.9495042821895
209,-40814.9736328125,2913.46908889351
210,-43615.4625,3844.081086173326
211,-50153.2650390625,1490.364268434552
212,-43178.8681640625,2122.5133388632585
213,-48053.7365234375,1627.1779228646742
214,-50961.255859375,2061.231841507803
215,-44379.493359375,2295.031729055609
216,-33430.066796875,5337.364660596516
217,-45607.0166015625,1329.6167437136494
218,-48469.8625,1432.091420060347
219,-48677.99609375,4493.555073216491
220,-35065.70634765625,3342.8465525218626
221,-38896.005078125,3766.9545929313313
222,-48416.351171875,4457.533922361118
223,-49324.13359375,2916.637600602863
224,-33341.45546875,3784.450505262362
225,-41277.8171875,2717.9538872329485
226,-46225.0978515625,1444.9606436597428
227,-36888.386328125,3136.015642927504
228,-37913.08046875,2497.9636465108647
229,-47110.4591796875,1387.2827849973635
230,-52099.35546875,2217.624108954659
231,-45554.993359375,1666.860739822911
232,-41098.462109375,2175.607639630969
233,-44791.05625,1466.2096759890544
234,-40548.7701171875,2886.410690260298
235,-36504.37705078125,2547.0010450527616
236,-40471.63828125,3401.9781929022265
237,-41147.5912109375,3318.2221075041252
238,-38037.14375,2127.822090884034
239,-38307.0318359375,2878.6898738748246
240,-44116.2505859375,2040.6424279284988
241,-45725.1603515625,1876.874538482894
242,-43043.69140625,1399.0856611594454
243,-38129.9458984375,1954.1205870779759
244,-40718.3541015625,1777.793861996827
245,-44620.8193359375,1778.490015376218
246,-35000.92421875,1878.6554306586736
247,-33010.21826171875,3798.0175785012893
248,-49771.22578125,1440.0394582346999
249,-38018.69677734375,4415.2164127201295
250,-35553.24423828125,2578.5185874196136
251,-44261.5625,1493.2452730327227
252,-41560.90546875,1447.8208721330545
253,-43370.909375,2447.832222173918
254,-38514.88046875,3164.9870589134002
255,-38557.0279296875,2828.135764991132
256,-44110.1041015625,1612.6656869588319
257,-46827.9787109375,1469.240399218249
258,-47698.6990234375,1424.2505825746484
259,-40538.25703125,2642.596363997421
260,-42247.573828125,1378.344855735623
261,-38394.887890625,2417.275918783575
262,-40320.440625,2169.530548573972
263,-47463.2013671875,1431.9820620992866
264,-33292.83857421875,3510.9887952058766
265,-50736.165234375,2202.0053650502564
266,-40149.566796875,1491.281860611279
267,-46324.8205078125,1468.5706441258246
268,-35333.0705078125,2428.735988738925
269,-45358.359765625,1435.2642343521388
270,-46680.8923828125,3167.321687425298
271,-45352.7166015625,2679.1529795591496
272,-39212.3814453125,1564.2886548857448
273,-36083.687890625,1851.6599040295123
274,-45877.8419921875,1469.3610876385026
275,-45708.5568359375,2548.4012414507024
276,-42804.7759765625,1677.3608703183154
277,-47141.62734375,1449.2020440171705
278,-42385.408984375,3052.104368617654
279,-34343.66220703125,3249.146376760271
280,-43822.888671875,1669.2197299936188
281,-48205.3060546875,2573.5444623526373
282,-44236.5453125,1641.3165859419337
283,-40940.700390625,1373.62873314708
284,-40039.474609375,2093.8111760202205
285,-44950.616015625,1465.3622244088722
286,-46013.5779296875,1761.7113290536586
287,-40966.7744140625,1874.0793686684615
288,-42041.5083984375,1237.4003195655864
289,-38559.8091796875,1911.6677485399794
290,-42806.5529296875,1583.1941191634294
291,-37644.12578125,3136.2603754895586
292,-44212.7603515625,1565.9610461374284
293,-35594.22802734375,3192.8219622468896
294,-44827.687890625,1444.5820002920498
295,-32326.54375,4089.7352560660947
296,-40979.6359375,1364.7666047355156
297,-39621.5607421875,1873.4946897927664
298,-46616.218359375,1483.27108021264
299,-41411.6107421875,2006.2025747250061
300,-38466.431640625,1694.316839029384
301,-37279.571875,4064.0136232916334
302,-40625.603515625,3227.250080873945
303,-44217.4162109375,1464.5978859909092
304,-40567.23671875,2644.394347898161
305,-36320.73173828125,2662.8596425511873
306,-34706.10458984375,2627.115375810599
307,-48133.9390625,1268.5934385418368
308,-44720.4849609375,1359.2995995950118
309,-43128.6984375,1329.452597751179
310,-38409.5072265625,3520.9246354289057
311,-47498.4140625,1356.6210993755085
312,-34390.165625,3208.0338725687493
313,-35355.73642578125,3571.1639430160767
314,-39948.275,1595.374930728659
315,-50899.8876953125,1524.1063455407268
316,-38460.398046875,1620.900709473429
317,-34844.628125,3426.343462491375
318,-30136.5416015625,2584.499497387284
319,-44764.3798828125,1168.5367973673601
320,-32684.74130859375,3061.722510692562
321,-38538.121875,2707.6801311441445
322,-40358.642578125,2173.053879398603
323,-43916.560546875,3280.163807409871
324,-42668.5474609375,1522.8929953809504
325,-48302.3755859375,1683.9066330645826
326,-37483.3626953125,1527.5397947677545
327,-46587.95625,2701.334200186476
328,-42818.415234375,1922.365646634268
329,-45506.5130859375,1149.3076541424205
330,-42847.981640625,1296.6201181815977
331,-37087.651171875,1994.6517603200734
332,-41312.6810546875,1555.4502219844271
333,-42056.5697265625,1583.9123869369485
334,-43219.351953125,1258.2078059994105
335,-37975.805078125,2972.411407463829
336,-34647.60673828125,3715.7448605902205
337,-50106.925,1381.857059148757
338,-35368.11494140625,2621.5421448181073
339,-37905.4697265625,1474.982874516203
340,-47190.1740234375,1546.9337557518622
341,-39032.7638671875,3051.616822870045
342,-48516.76171875,1431.5296077175321
343,-33636.633984375,2864.5051195395145
344,-50446.9625,1548.4941625312745
345,-43603.653125,1235.772828026415
346,-48100.648046875,1395.3726266587526
347,-40210.1623046875,1986.8613585713554
348,-43780.6830078125,1348.7258456072536
349,-46061.433203125,1439.9935555154386
350,-42391.7302734375,1567.513306744799
351,-45026.2375,1426.2389919903185
352,-48454.33125,1489.0318189028326
353,-49658.503125,1834.154561013306
354,-47498.86640625,1453.9504617711098
355,-40384.126171875,1328.1981596452176
356,-42531.002734375,1622.9084072774137
357,-45519.6845703125,1402.423143295693
358,-42541.783984375,1474.1914397886346
359,-47841.1806640625,1391.6227240177623
360,-37707.3875,2022.0911499633419
361,-33601.29365234375,2071.737637322715
362,-32029.4666015625,3469.0858180689474
363,-45367.3150390625,1392.5590703817102
364,-49567.9923828125,1551.8775510366047
365,-52102.660546875,3149.3589518365916
366,-37943.4552734375,2287.8938055087815
367,-43414.616015625,1376.2554937945486
368,-42423.0783203125,1844.3242858208057
369,-33644.4271484375,2834.245160777118
370,-41221.6072265625,2178.027714718656
371,-47557.415234375,1593.0559293063639
372,-36920.84677734375,2293.325858397078
373,-46421.0123046875,1325.5750472206462
374,-46210.883203125,1178.5254487161646
375,-40390.0849609375,2389.0540784275477
376,-43398.94140625,1364.5924338959444
377,-47427.605078125,1222.3344511671514
378,-41440.3134765625,1153.587548125542
379,-34657.64228515625,3149.162677681452
380,-39540.28125,1235.2937395286601
381,-40802.4310546875,1234.2810525495615
382,-43370.012109375,1580.6987329019548
383,-43700.652734375,1908.3846923561603
384,-40505.7015625,2817.698527312294
385,-41298.9638671875,1984.254256243597
386,-49465.496484375,1496.1124355362076
387,-37103.4822265625,1676.1774061791873
388,-49043.9166015625,1476.0578310304713
389,-44778.94375,1341.0168046149552
390,-37356.849609375,1536.3448325484885
391,-45373.162890625,1611.2505281126876
392,-35070.90390625,2009.2176075985567
393,-36097.1900390625,3161.263713694586
394,-40639.071484375,1225.9369401860413
395,-29413.91298828125,4513.748596494694
396,-43937.2876953125,1290.3631189364323
397,-36577.809375,2638.6854513846242
398,-38192.163671875,2364.683776863475
399,-47560.933203125,3418.410169793318
400,-55551.48359375,3697.250617365375
401,-35427.0865234375,2193.4775919039107
402,-47683.45859375,1458.999962380339
403,-45065.8654296875,1358.595875295111
404,-46998.6142578125,1368.7679575649806
405,-43607.1244140625,1857.1347385324573
406,-44162.238671875,1499.3796422438063
407,-49280.2705078125,1350.2236673172195
408,-38800.21875,2072.0516937991238
409,-37717.303515625,1231.9347193577025
410,-44378.8775390625,1656.5170929520657
411,-37764.1537109375,2182.241799654482
412,-33443.51171875,1603.878327771239
413,-48403.40859375,1397.0596624837628
414,-47039.7880859375,1370.924393363301
415,-40344.86328125,1250.0846719815054
416,-41072.478515625,2026.0570271808153
417,-46698.912890625,3303.387008370465
418,-39285.5703125,1572.7805251870698
419,-32973.59970703125,5207.511901654282
420,-38610.14375,1419.3915469744195
421,-41415.641796875,1080.9157840394025
422,-37079.22421875,1539.2673264031375
423,-39598.6498046875,1142.2628997423492
424,-46750.606640625,1387.1987633735378
425,-31358.43447265625,3665.247102746636
426,-43529.0205078125,1130.438592958262
427,-39665.8037109375,1834.813948286272
428,-35912.49609375,2944.33192954828
429,-38910.643359375,1850.147136115899
430,-33592.8025390625,2486.361874368497
431,-32236.0306640625,4225.456368533565
432,-42436.2546875,1606.1999233038257
433,-34312.446484375,2537.401910147072
434,-39699.74375,1058.9566335740412
435,-49944.0052734375,2863.3521001578847
436,-52834.3669921875,2769.915237790312
437,-46216.6607421875,1247.1311552107236
438,-35344.14541015625,2882.508529209873
439,-35702.05078125,2421.7626103414386
440,-47040.135546875,1225.9624470254264
441,-38178.1609375,1440.9986178345046
442,-45953.6091796875,1231.378261045948
443,-48327.6916015625,1212.648747797726
444,-33551.09697265625,3106.1401008308135
445,-36687.74765625,1839.0647337780813
446,-43707.0244140625,5673.582224521729
447,-46641.7490234375,2554.960600119671
448,-31696.44365234375,3675.7370215717747
449,-43154.3228515625,1740.6360041477242
450,-33005.00712890625,2028.7431520109094
451,-41325.54140625,1054.1153247769846
452,-47161.671875,3681.8312562904152
453,-44140.2634765625,1101.89450766895
454,-46158.67734375,1368.933655024644
455,-40431.2806640625,1368.9611506650376
456,-49339.51328125,1331.9974207188147
457,-39805.749609375,1540.35632281489
458,-33945.71552734375,2128.347476036268
459,-35509.35390625,2170.1433808738816
460,-34387.7556640625,2372.85855734812
461,-48146.1943359375,3252.8278149222115
462,-40206.112109375,1186.0959767766017
463,-43486.3009765625,1502.4154800378628
464,-31292.112109375,3463.124757338453
465,-47039.92265625,1093.0459880962012
466,-44002.940234375,1343.353418942672
467,-30262.1728515625,3104.9900849738124
468,-38140.651953125,1490.0478266445068
469,-47282.88515625,1172.483431199641
470,-41958.6810546875,1653.214111027776
471,-44635.861328125,1381.0586884662096
472,-47106.8630859375,1262.626895854385
473,-48356.6353515625,1282.6415471768098
474,-49970.75234375,1322.1729338042207
475,-44021.5806640625,5168.322659418876
476,-42591.6572265625,1106.5198692505512
477,-37211.1466796875,2539.4946191797108
478,-50135.641796875,1315.1706903250597
479,-28887.723828125,4325.521253653249
480,-41493.5673828125,3063.4127538431294
481,-40894.5943359375,986.5944908083196
482,-37539.9904296875,2018.46748413342
483,-43126.5830078125,3138.045311730331
484,-42068.8294921875,3494.717156102703
485,-32676.78798828125,3107.7179336420177
486,-40967.828515625,1201.904896646585
487,-38524.9603515625,2696.3598957332906
488,-39478.896875,2651.121025381084
489,-41210.253125,976.2424218421485
490,-42244.040234375,1192.4334671072115
491,-37490.485546875,1648.910924616176
492,-38391.523828125,1223.7580979406175
493,-49988.3587890625,1247.2036350334756
494,-43721.8330078125,1708.6746014775752
495,-40004.1751953125,1990.776057134311
496,-47540.2234375,1173.56114888012
497,-40880.4505859375,2621.672438624131
498,-41020.331640625,1259.0143158968485
499,-41295.46015625,1223.136622519716
500,-33569.64619140625,2646.163244015581
501,-41475.1314453125,1355.2036267672718
502,-43501.8068359375,1157.7781234099582
503,-45425.9275390625,2856.7075272641987
504,-33581.32734375,1973.0466744809673
505,-35089.4662109375,1359.8395618798047
506,-47820.7740234375,2027.7090132552646
507,-40084.691796875,1317.8257086119756
508,-48102.73515625,1316.8381408623218
509,-32794.52578125,1740.110215528834
510,-39568.3478515625,1726.0105872453782
511,-41483.262890625,1881.7627562164791
512,-30752.63095703125,2175.039958700143
513,-44241.177734375,1100.682757197011
514,-48095.6087890625,1412.9690016715026
515,-34770.958203125,1679.7095202867552
516,-44285.6037109375,1077.7590282981243
517,-29097.71884765625,2583.5783983215697
518,-40649.58984375,948.301947827236
519,-48764.333984375,1403.752067750816
520,-27706.1189453125,2756.6209514618045
521,-43678.751171875,1253.053012401786
522,-39429.7662109375,988.6010354761291
523,-33937.05126953125,1441.4401527944235
524,-33170.97470703125,2191.0233589155923
525,-42394.6384765625,1118.0305358875737
526,-36695.0359375,1631.9843031271412
527,-48408.0111328125,1300.879598687552
528,-39450.63828125,1273.7253027371662
529,-40243.28671875,1181.3056138001718
530,-45944.7619140625,1017.3504644115854
531,-38067.5845703125,1704.0617957901568
532,-40968.724609375,1409.743549223251
533,-44134.6453125,1356.0507724971164
534,-31063.905078125,1275.9283639145317
535,-37631.51484375,1112.6959248798396
536,-38507.59609375,1446.5809573092702
537,-41673.189453125,1119.1984045358838
538,-45303.0345703125,1135.7343104871638
539,-40972.0748046875,1176.932279665397
540,-45106.753515625,1082.4948496748618
541,-39559.03984375,1429.0321438513552
542,-36184.3962890625,2180.2371555654604
543,-40971.198046875,1006.1339970105066
544,-47822.366796875,1383.7365531326745
545,-42150.6869140625,972.0354862699754
546,-42087.0169921875,2115.779806895389
547,-28294.67802734375,2571.500598172816
548,-35371.4330078125,1299.040445229514
549,-42769.6455078125,1119.5005531373558
550,-39446.44921875,1272.0296899815346
551,-46419.9021484375,1150.4987995043464
552,-34238.56806640625,1698.248191431271
553,-48700.03828125,1368.0290154473014
554,-34445.48173828125,1387.7568745618612
555,-49929.124609375,1341.3752472568592
556,-45596.0876953125,1190.2495275950241
557,-33847.2705078125,1920.0170309624216
558,-48920.91171875,1224.1056862022726
559,-50942.7169921875,1333.5961017288935
560,-36545.9546875,1814.4400610340215
561,-44624.346484375,1198.2005141089514
562,-46739.4736328125,1153.1824821528808
563,-46069.704296875,1483.0532947829195
564,-39192.76171875,1591.0769919371755
565,-45269.0150390625,3826.6115755133033
566,-27805.919921875,2242.329202647984
567,-40126.11796875,1320.013975709623
568,-32825.10947265625,1735.2256808898935
569,-37404.341796875,1214.284905665941
570,-46393.1947265625,1243.1173910151658
571,-42067.5125,1243.770224983269
572,-40961.2416015625,1300.2630833065075
573,-26064.38408203125,2126.2060795963303
574,-38512.5814453125,1264.9585149081338
575,-44004.1615234375,1219.9235405187176
576,-43735.0625,1151.8903493321143
577,-32791.70634765625,1502.9985659107408
578,-37102.545703125,1583.7551036966731
579,-36227.954296875,1634.4581936867146
580,-38616.419921875,1571.7303470677105
581,-39516.6564453125,1921.1645577274624
582,-36239.52109375,1367.8705380413573
583,-36477.42109375,1024.5400688788811
584,-39518.0884765625,1701.7868383679258
585,-46377.4568359375,1177.0314231978614
586,-50094.840625,1001.3861911296237
587,-38959.9134765625,1061.36725743488
588,-43157.9677734375,1303.0116143335513
589,-41208.34140625,1221.1283705269927
590,-47284.0021484375,1204.0790032637303
591,-42468.206640625,916.3110152120668
592,-48865.335546875,1178.415163223915
593,-47692.1048828125,1261.5113570282463
594,-45276.115625,1169.4507400663665
595,-28759.08173828125,1588.955829896423
596,-34359.74375,1168.9022357836725
597,-35084.47685546875,2614.9205870750816
598,-46895.717578125,1160.69409652731
599,-38942.4900390625,1540.2386199453865
600,-46753.0634765625,1110.528569875763
601,-30585.898046875,1669.56236883971
602,-47769.7005859375,1293.518879780911
603,-35713.1248046875,1664.057215789675
604,-46941.9208984375,1274.3524942047602
605,-47443.1625,1174.0199396733474
606,-41223.0849609375,977.073290897375
607,-45109.122265625,1204.3886399334826
608,-37797.5080078125,998.0604087752548
609,-39896.332421875,1329.6763153716888
610,-39005.0740234375,1425.6591004378029
611,-46928.202734375,3408.7778314536354
612,-48142.105859375,1275.1614675864407
613,-37323.176171875,801.1268781444088
614,-43287.33046875,1777.0044896548973
615,-46559.0837890625,9040.054161672506
616,-44892.3654296875,2506.0859425729395
617,-48927.5908203125,1328.4995091796675
618,-40055.197265625,1828.4820637685639
619,-47569.2185546875,1328.5720138094885
620,-49129.8103515625,1436.014690954922
621,-35958.09140625,4054.5905182922843
622,-36014.0564453125,1203.270498304119
623,-46875.6462890625,1219.195125221456
624,-43995.8123046875,3350.7448395734027
625,-41976.53359375,978.1606361580338
626,-43911.94375,1082.4026108179514
627,-28363.01162109375,4137.361766750364
628,-39284.720703125,1398.3254013607375
629,-36058.028125,2650.202178956773
630,-36386.0939453125,2494.561462182374
631,-45646.166796875,2273.733563347528
632,-43997.516015625,1340.018049194792
633,-37264.020703125,3131.2433773959297
634,-42602.4998046875,1512.2194770856677
635,-37404.348046875,2182.646903413798
636,-30239.878515625,3333.3443001312116
637,-32418.86591796875,2494.7534532997515
638,-40236.271875,861.6828315787363
639,-48444.482421875,1283.769451340623
640,-45718.109375,1789.0743723362555
641,-32517.88046875,3454.546092728123
642,-40540.6017578125,1294.1215525911675
643,-47640.79609375,1162.5234790789345
644,-36226.4478515625,2479.2772603968087
645,-33346.20341796875,2837.2058861294336
646,-36819.713671875,1910.3503721046268
647,-42283.704296875,1188.7880242416445
648,-42828.73515625,1109.6470618338733
649,-33731.158984375,2015.789719469474
650,-45462.2607421875,1117.189746345449
651,-47629.5056640625,1276.9662521225328
652,-48577.0869140625,1688.0210976560725
653,-31604.3224609375,2513.497346836577
654,-35165.787890625,1199.914489833905
655,-38214.56484375,1378.325880131809
656,-38859.119140625,2119.4694176119965
657,-37506.7623046875,1234.0362196648916
658,-36318.6796875,1741.6994467983275
659,-33049.5115234375,3629.31557192941
660,-39023.5888671875,1126.4501968785762
661,-29655.0208984375,2489.216648796035
662,-39246.90859375,1286.3863919318853
663,-32090.7365234375,1441.5222295755823
664,-46522.0701171875,1283.649759248271
665,-27259.38369140625,4753.237790405648
666,-42987.196875,1331.0218594472965
667,-34937.632421875,1354.1401685001397
668,-38854.5171875,1601.5085256936873
669,-47027.8724609375,1137.6841981614266
670,-47821.650390625,1415.215832108427
671,-45440.659375,1249.290707786847
672,-31312.45859375,1051.175353406371
673,-47764.84453125,1307.3656786084966
674,-45560.190625,1276.8155920909899
675,-32859.2099609375,2339.9136767503383
676,-44055.6095703125,1084.6874763023045
677,-33433.886328125,3007.4940945897015
678,-47582.302734375,1142.0296273869428
679,-50229.0072265625,1391.251329589798
680,-39578.74296875,1228.7500737256235
681,-47624.7046875,1336.0415308067354
682,-38115.10546875,1918.1793873730749
683,-40141.5580078125,1306.266158082907
684,-34325.77392578125,4299.436090080822
685,-35952.706640625,1694.39456378035
686,-45474.3169921875,1122.886660450431
687,-40612.31328125,2711.4117998405964
688,-44774.8208984375,1088.0355806460107
689,-47704.459765625,5164.136997789497
690,-33462.92900390625,2177.9398667378528
691,-39141.3708984375,1151.7203068566364
692,-42035.7072265625,1398.2684081416862
693,-46572.63359375,3079.531705528938
694,-49637.8990234375,1422.8787475908036
695,-32617.8466796875,2878.2014097522883
696,-29340.48115234375,3045.639137638456
697,-33293.061328125,1442.4138735478198
698,-37542.08203125,1390.0241844729896
699,-45480.9693359375,1015.2635391074855
700,-35218.10439453125,2932.6801462377857
701,-48264.758984375,4389.220960957854
702,-37096.6583984375,1938.454187249043
703,-39032.43046875,1299.4609289301625
704,-29658.78974609375,2806.8027293494433
705,-43737.0560546875,1186.8678065066385
706,-38948.590625,3061.6252764321052
707,-37383.6220703125,1366.252653383783
708,-30804.68828125,2628.471100293036
709,-43440.9138671875,1722.4375973251372
710,-43284.2080078125,1113.651363642386
711,-30245.98046875,3009.5915810318843
712,-27600.46240234375,4023.300266492159
713,-39343.480859375,1012.1432057119516
714,-50030.0986328125,1301.777165921797
715,-42931.83671875,1050.2875044928464
716,-39765.444921875,1147.5030347204033
717,-39563.687890625,1286.3787899377187
718,-32197.55810546875,1370.5941467708853
719,-27899.5427734375,2724.383106183252
720,-51009.81796875,1744.6151685299105
721,-47175.9498046875,1459.6825667951846
722,-41948.8765625,794.5251212481406
723,-40673.4328125,2224.7086494463874
724,-32525.74716796875,3922.9820422883663
725,-48994.264453125,1122.4922973641087
726,-49869.0841796875,1421.3524472725933
727,-48713.7349609375,1451.7187536679037
728,-48279.6701171875,1439.2848582793501
729,-37222.5083984375,1021.0662405738327
730,-41385.7818359375,1105.6843103468314
731,-39181.973828125,3244.959843019571
732,-44065.66015625,2149.053870809387
733,-41379.757421875,1334.7497201276
734,-31945.83408203125,2749.882032213833
735,-29261.6408203125,1671.572394721401
736,-46004.3349609375,1118.015245629756
737,-43991.767578125,1096.9714181523575
738,-39829.961328125,986.0345412766881
739,-33218.63564453125,1509.1214154662418
740,-45354.730859375,1892.648578705041
741,-44435.789453125,1559.7606531360054
742,-44522.1982421875,1098.0935557281844
743,-34628.0390625,1014.0375751779027
744,-35759.3572265625,1415.3262995626903
745,-49043.1130859375,1306.6765544822335
746,-43561.155078125,1096.8688433724926
747,-40559.3828125,1170.8892467952737
748,-46782.0201171875,1713.131206451953
749,-33955.5904296875,1608.3991223241912
750,-41402.7990234375,1644.2237319982348
751,-49271.178125,2628.1036842787457
752,-47519.35625,1259.4414679928752
753,-44952.300390625,1269.7151608446686
754,-40989.3076171875,1292.804065228951
755,-40723.4375,2593.9181143825076
756,-27503.1802734375,2572.0551113354923
757,-42206.604296875,4106.137439119377
758,-42806.3486328125,1871.615017968857
759,-44169.607421875,2187.5382119543715
760,-47792.7572265625,1424.334027986142
761,-40519.394921875,1099.2571941556926
762,-39977.648828125,1320.7579651400654
763,-40097.787109375,987.532392234983
764,-35125.66953125,2473.7512993445007
765,-43842.8869140625,2085.408780408859
766,-28903.87744140625,2299.616235418538
767,-43655.7767578125,1133.1721567325671
768,-37028.0583984375,1312.8559958325861
769,-52321.949609375,2951.999981290383
770,-44910.099609375,1365.7920947938323
771,-30011.70390625,2273.89036587223
772,-37408.2666015625,1048.8073905639874
773,-41492.80078125,2568.956747797942
774,-29694.18564453125,2434.1016820510904
775,-48472.52578125,1319.4767213760058
776,-46372.5681640625,1115.570860780743
777,-45666.6677734375,1333.4582095048127
778,-36597.9794921875,1855.2110573488342
779,-43460.9109375,1023.2673157372794
780,-44590.1150390625,1166.9542156358107
781,-46634.1158203125,2155.3772258144286
782,-40132.945703125,1684.1070068471383
783,-36908.426953125,1010.333492943468
784,-44864.9103515625,1206.6632941800106
785,-39006.9328125,2022.2162670458001
786,-40794.8083984375,1232.092396165571
787,-33784.24248046875,1775.235178833312
788,-47450.2896484375,1301.5173267439393
789,-50087.3734375,1436.1308422560608
790,-49335.8845703125,1209.9842220894857
791,-44549.81328125,1105.999543144449
792,-41276.4859375,1674.5960042703764
793,-31142.0630859375,2430.7401597949624
794,-42444.0052734375,1322.5941048297793
795,-39563.803125,1398.173278901826
796,-42673.029296875,3089.6157974373423
797,-28810.59208984375,4024.149258537583
798,-46919.8990234375,1333.90633954946
799,-38597.034765625,1557.9315325533578
800,-39484.95078125,1343.1880717919673
801,-34335.9044921875,2264.852078577663
802,-47954.7236328125,1338.3478000790956
803,-36785.5705078125,1437.9730766494954
804,-48873.8630859375,1609.1426630081107
805,-42286.8583984375,1157.617596152779
806,-40925.575,1702.4205025912745
807,-45998.5419921875,2097.840914031065
808,-42841.6857421875,3399.395123125403
809,-36823.822265625,1732.6842033302855
810,-45496.1544921875,1255.0266675725138
811,-37517.726171875,3704.961465982244
812,-37078.0283203125,3058.542384330787
813,-47604.3861328125,1586.0365311292774
814,-50302.6919921875,1285.3224586505914
815,-46227.506640625,1437.6750239683477
816,-45005.91875,2959.589994925127
817,-41073.6208984375,1933.976705113598
818,-45018.10703125,1816.271480756998
819,-28428.7880859375,5270.886715113095
820,-26044.37880859375,4254.660007567243
821,-45933.7619140625,1138.9617615578172
822,-29883.53359375,3474.6256348175293
823,-34488.95234375,1098.5355494068212
824,-46692.775,1349.2856669332539
825,-38357.7197265625,967.8012873065165
826,-42431.27109375,1140.603728563026
827,-46408.7029296875,3327.538073402703
828,-34920.13662109375,990.77812057975
829,-30771.49169921875,1706.7219620191381
830,-27911.13154296875,2703.74838399727
831,-44513.914453125,1075.9291995312806
832,-39227.6771484375,1245.4853554569675
833,-40273.262109375,1441.8936528569434
834,-47689.112109375,1199.498807898784
835,-35740.003125,1225.7644279628903
836,-40361.5515625,1447.5934208265328
837,-45749.530078125,1214.601652437729
838,-28821.69658203125,1813.5030261989482
839,-28118.39921875,1449.0580039169392
840,-41460.67421875,1103.6429641804223
841,-46209.267578125,1179.7453150719844
842,-43325.099609375,1223.7275908553488
843,-43170.5572265625,1224.397839285939
844,-41246.6107421875,1121.3022609166198
845,-32594.7263671875,1856.9991155162031
846,-38110.09453125,1071.6917056543753
847,-38209.8642578125,1870.0140799292717
848,-31636.4974609375,2269.769878922171
849,-43623.0283203125,997.792032631911
850,-40578.0677734375,919.7743827839735
851,-44736.1408203125,1153.7929836706387
852,-37511.6931640625,1829.0574837448078
853,-36869.395703125,1551.990925369131
854,-46737.587109375,1255.375023220525
855,-26038.59296875,2438.9043557957248
856,-39669.35859375,1240.1435192099846
857,-34925.46328125,1040.8484785449352
858,-47536.533984375,1791.1473663827392
859,-42571.3998046875,999.2794839565099
860,-30214.60458984375,1219.3016962253862
861,-38854.01953125,1328.5867507187802
862,-43206.876953125,1057.5270213191527
863,-32992.04873046875,996.564548693628
864,-42200.6662109375,909.9063991402315
865,-35431.3595703125,1413.9939013874211
866,-45958.9703125,990.6338491042126
867,-39495.7908203125,2006.2739479001718
868,-30072.2005859375,2764.5171500932033
869,-35058.9578125,1367.664148503278
870,-39938.32421875,974.7467172149145
871,-43952.6974609375,1461.7208144352128
872,-40632.6576171875,846.5814872607143
873,-43649.244921875,1029.4856665727211
874,-43985.2912109375,1553.2253034486416
875,-35211.1583984375,947.3633068324742
876,-44763.688671875,977.0096237927613
877,-25965.34921875,2303.962169210023
878,-38756.6001953125,1509.0013871958342
879,-46641.424609375,1058.0639510573687
880,-41773.496875,844.0324548669763
881,-25223.74150390625,3776.0554063927716
882,-41101.330078125,1018.0498901271952
883,-39256.507421875,893.5328127299409
884,-32193.169140625,1885.002651900027
885,-36684.6146484375,1359.3987323231868
886,-29557.8873046875,2407.3223081748183
887,-41625.29453125,1239.2038308379308
888,-49134.324609375,1184.0697042353831
889,-40488.608203125,862.3824680247527
890,-46502.734765625,844.48706741043
891,-40635.579296875,1610.6238928295115
892,-34264.3853515625,850.7130190024059
893,-46652.6,1354.4214152993734
894,-44139.0765625,1048.1393659667576
895,-49230.1375,1123.7215805982412
896,-44533.4849609375,1203.6806206278427
897,-40719.7513671875,1479.457945352645
898,-30839.0765625,1081.9051489742312
899,-33807.36416015625,1556.1909443249085
900,-48210.244140625,1263.4438378249101
901,-41498.09921875,1056.785078296964
902,-35987.377734375,1470.6119533084152
903,-27413.92763671875,3690.2524588386814
904,-44600.140234375,1125.951990863655
905,-43079.512890625,1043.3983326940831
906,-48399.7115234375,1246.6042108866284
907,-40086.713671875,898.0684974213483
908,-43913.762109375,1199.4650482726624
909,-41974.032421875,974.0165227715223
910,-33203.98916015625,827.6189169491449
911,-48352.0876953125,1201.724897216962
912,-42566.852734375,2334.8987297384674
913,-31538.99658203125,3226.4989702259963
914,-46122.21953125,1129.8357325106538
915,-42765.3990234375,657.1123669460105
916,-49583.583984375,1174.4591881151882
917,-40756.631640625,1177.8276655948212
918,-32117.60556640625,1193.956864168458
919,-42073.3517578125,1372.9923065717244
920,-29689.0349609375,2215.1178101371556
921,-42610.7818359375,1057.7283932274538
922,-45775.3642578125,1098.2680589370818
923,-46080.2974609375,1138.4345020961277
924,-43202.5697265625,953.0605211630718
925,-38106.6341796875,1488.541445260915
926,-38565.9150390625,1576.6132789784645
927,-43520.6775390625,883.7654334949654
928,-36257.21484375,996.1739817963811
929,-29796.44931640625,1981.4879674639508
930,-42167.2822265625,1168.435555804447
931,-31418.57099609375,2673.186477140522
932,-37579.58984375,1059.6524585466939
933,-32385.18564453125,1246.8866688357148
934,-42025.9705078125,946.550333339779
935,-48646.84765625,1217.8603130254887
936,-47799.25546875,1104.176566723825
937,-38246.34765625,2205.741696322922
938,-41492.120703125,725.3460689229631
939,-36938.6677734375,955.4052940288058
940,-33263.2052734375,2082.531018568653
941,-31842.43349609375,1187.7698277162735
942,-45718.959765625,1160.701089361407
943,-41352.4748046875,845.4079929188517
944,-44474.8375,1122.885594339358
945,-32631.4951171875,1712.561276727542
946,-47267.9333984375,1068.010571580689
947,-40309.256640625,1095.2798447023538
948,-48324.8765625,1141.3808775356563
949,-46554.6275390625,1070.1201966324124
950,-35749.9720703125,2234.7874649416212
951,-42550.0681640625,902.571910181915
952,-45838.258984375,1061.1752563022592
953,-34251.22802734375,2546.7251502718195
954,-40392.069140625,1020.7378922013492
955,-37659.7076171875,1385.705406841687
956,-36778.296484375,1078.679874868838
957,-43835.05390625,974.3592163808923
958,-48806.03125,1251.940299583292
959,-43034.56171875,1083.3979242076427
960,-32635.21083984375,2749.8306087847272
961,-43161.248046875,1404.4813262760035
962,-38892.567578125,923.4928373703209
963,-41026.64921875,868.9521934437254
964,-42262.2802734375,882.0505538715314
965,-31573.1658203125,1478.7300534561846
966,-30809.8220703125,2193.4612675536773
967,-34004.69482421875,1612.3451510256332
968,-49097.1583984375,1295.370107650743
969,-31522.09609375,2056.763166081863
970,-45591.1677734375,1451.9374948680525
971,-30112.93310546875,2481.3296502704784
972,-47291.2021484375,1198.7286450430852
973,-42081.319140625,1090.8692611731167
974,-44464.651953125,1125.2098942366729
975,-48122.65859375,1208.8314737668354
976,-46507.5927734375,1092.1968599250745
977,-43044.7685546875,861.4223085481128
978,-43309.2970703125,900.8816674284201
979,-44348.8921875,939.1899427949363
980,-40583.906640625,826.4401891704521
981,-46645.3068359375,1178.9237958303036
982,-36440.531640625,986.4685913529745
983,-27929.06376953125,2181.3884572876473
984,-39439.0939453125,2453.3229978140266
985,-47764.02109375,1224.6218071845767
986,-45731.0220703125,1070.5638941371824
987,-43362.474609375,858.5490819440814
988,-32552.38359375,801.3810954254446
989,-41451.15390625,922.518622835249
990,-38371.453515625,685.3542408296064
991,-41375.893359375,1820.1386302474996
992,-39188.44375,1098.4054613206847
993,-47940.2462890625,1415.6080033242738
994,-39710.7392578125,639.3139912357329
995,-47095.6986328125,1127.3040787116565
996,-42699.4240234375,906.7518444348369
997,-34180.96357421875,1051.8365580673094
998,-47459.7482421875,1278.8025501160616
999,-36152.258984375,1462.0611328369607
1000,-46040.2623046875,1208.4184045813004
1001,-33646.05146484375,1147.5377978356198
1002,-34205.6953125,1877.9626639838184
1003,-35593.570703125,1457.4453427454155
1004,-46143.245703125,949.7568922193115
1005,-43318.3419921875,2477.6664005129805
1006,-45831.8794921875,1117.2985489650207
1007,-25660.84365234375,4423.703126987134
1008,-43784.9779296875,990.0427516023839
1009,-48153.9361328125,1175.772439141922
1010,-34758.7423828125,2322.705395369066
1011,-36314.745703125,769.9890074243999
1012,-27498.67978515625,4237.13130302747
1013,-46829.5462890625,959.5107040533975
1014,-44940.35546875,2161.8629017959256
1015,-45383.8033203125,1592.357800104864
1016,-40405.3892578125,1991.107362675385
1017,-39942.15703125,1066.6404479316727
1018,-44799.1841796875,1418.8759786857163
1019,-44086.1794921875,870.4301551222237
1020,-30515.8505859375,3361.5922450773182
1021,-39480.9197265625,1242.6897796384173
1022,-39360.5958984375,931.1016160412598
1023,-32986.23876953125,2126.3387967536273
1024,-35210.66552734375,2446.7850369987373
1025,-28958.0263671875,3278.5436807758847
1026,-40021.2962890625,1300.4944707852087
1027,-36219.5208984375,1973.6247454225265
1028,-37767.2005859375,2646.925579433813
1029,-41882.2962890625,1187.3504119979477
1030,-46033.1060546875,896.6437407814208
1031,-46996.0306640625,914.5855396051674
1032,-42010.43046875,964.949665096602
1033,-38213.069921875,853.6376974112728
1034,-32555.95986328125,3354.562177321527
1035,-41647.35859375,1283.913737487152
1036,-33298.60107421875,3190.7275113669616
1037,-36367.471875,1227.2426429275308
1038,-31860.473828125,1542.9345318931728
1039,-40427.6462890625,661.986738378077
1040,-45657.553515625,862.1074609097996
1041,-33895.57314453125,3265.170172447922
1042,-34833.85439453125,2801.7241874096994
1043,-42370.2900390625,826.6888787130982
1044,-28347.41474609375,2561.4898562805356
1045,-41243.4439453125,1412.248121006925
1046,-33976.33505859375,1834.532638125602
1047,-44673.5736328125,931.9035008283162
1048,-37836.6658203125,1384.936252258102
1049,-40225.1892578125,1641.8044508525631
1050,-41474.6330078125,878.3268279127531
1051,-38200.54609375,709.1001205790682
1052,-28968.27978515625,2900.620531022464
1053,-32121.2392578125,2235.0675814947094
1054,-39367.0697265625,1388.2810451566718
1055,-41997.93984375,830.2903801920464
1056,-47765.6927734375,987.6105879844317
1057,-29935.56689453125,3906.165100038258
1058,-29826.01142578125,2758.863306141219
1059,-42747.4,1084.000385903997
1060,-43363.441015625,836.0547758326583
1061,-30276.16513671875,3594.159838775683
1062,-36001.081640625,1449.3468701573624
1063,-41426.2056640625,1012.06650852035
1064,-44552.1865234375,1108.8471030557512
1065,-36071.69453125,1095.3338747639941
1066,-41757.396484375,1610.193906108425
1067,-28709.91318359375,3436.9620256843064
1068,-33808.4779296875,1548.9267123356115
1069,-44343.1978515625,1338.3889578370467
1070,-36375.6455078125,2680.9678852216366
1071,-41209.3306640625,855.8640006830609
1072,-46431.846875,1164.4950276535883
1073,-43652.815234375,820.7137248459309
1074,-35556.64755859375,2439.2559390980687
1075,-46422.7126953125,1137.9063156681304
1076,-38538.676953125,2246.314648477603
1077,-44842.3533203125,1257.0422604369137
1078,-32776.46376953125,2701.7680759846057
1079,-42464.7892578125,742.323520561545
1080,-41538.13125,2037.8997148835274
1081,-40109.03046875,1009.7264246324413
1082,-27749.7294921875,4044.5774932611016
1083,-44884.5830078125,987.443136255793
1084,-27641.0884765625,3971.8672524685744
1085,-44651.0544921875,1274.5266998316645
1086,-41038.451171875,1043.9409613607143
1087,-41781.493359375,2132.327626780573
1088,-35894.13857421875,3171.977836229686
1089,-35670.4982421875,3076.325446457425
1090,-45638.216796875,1376.3936358939666
1091,-35164.76474609375,2878.80924717048
1092,-42643.6435546875,755.0828982879016
1093,-42639.51640625,1669.2529665507564
1094,-46494.4208984375,1980.461185104001
1095,-44170.85078125,1353.2217843543099
1096,-46045.748046875,838.4046019062934
1097,-41168.7177734375,1054.205757572845
1098,-48755.7451171875,1360.3644356662048
1099,-42334.8240234375,1209.8446647519627
1100,-42917.6494140625,963.5693276057475
1101,-37868.88671875,4196.263793790462
1102,-45017.3671875,1441.781715187907
1103,-41664.9740234375,3245.05811919098
1104,-31419.483984375,3251.573105197788
1105,-39971.7623046875,2029.1762219145098
1106,-32019.1845703125,2729.220908228444
1107,-32378.3173828125,3334.9004788299253
1108,-31465.2361328125,3826.5988584657043
1109,-40937.1994140625,1738.943573839459
1110,-45264.6853515625,1851.4149902901759
1111,-36006.402734375,1019.4223010707484
1112,-34977.5453125,1718.8609831610258
1113,-46524.0349609375,1712.7663598585023
1114,-44463.8529296875,1418.904276361231
1115,-44013.826171875,1493.9546025909935
1116,-42199.190234375,1960.9597498633048
1117,-44887.8404296875,3837.1712804331487
1118,-34932.29892578125,2435.8053026750895
1119,-46484.793359375,2538.0664172284355
1120,-36584.8875,3253.685498818089
1121,-38312.3216796875,2218.505361967169
1122,-31987.4373046875,2113.3563923620777
1123,-44156.463671875,1069.6127659704912
1124,-39799.002734375,1210.9768938867571
1125,-44315.7603515625,1703.17981754271
1126,-39969.930859375,1893.5700794255406
1127,-39255.1501953125,1354.1097154060028
1128,-45048.8333984375,1826.9882717172775
1129,-38270.8564453125,1437.2987517998715
1130,-45518.2677734375,1558.3293643228926
1131,-49831.9357421875,3304.731050051833
1132,-46416.4087890625,1792.489190537925
1133,-40829.3697265625,1278.5876158232095
1134,-42465.082421875,1669.685386714077
1135,-48041.5787109375,1528.977657407495
1136,-46540.7447265625,1516.3182581622254
1137,-39027.911328125,1705.2491893387094
1138,-45451.68671875,2359.8594592476293
1139,-35671.775390625,2904.3546537800667
1140,-30240.162890625,4727.9605820709585
1141,-34661.0919921875,2580.6793000741786
1142,-41902.25390625,1775.391715430427
1143,-38303.9859375,3162.5553383534475
1144,-30875.70302734375,4929.743983700615
1145,-42547.542578125,1256.1150158677872
1146,-38797.55,1769.0417513937123
1147,-41741.221484375,1193.4191491621903
1148,-44850.159765625,1947.8144153920916
1149,-41979.5490234375,1972.5636888801973
1150,-46711.635546875,1618.630016346811
1151,-44329.4392578125,2075.6063966702427
1152,-38163.753515625,4413.026035448644
1153,-43803.776953125,2630.937671527096
1154,-47084.6181640625,1577.4832431015059
1155,-46155.6296875,1319.847302071424
1156,-41087.507421875,2325.7417997272537
1157,-42300.3681640625,2643.0476408998297
1158,-48538.7775390625,1551.2326838264632
1159,-39825.169140625,3533.626434279913
1160,-40465.616015625,5516.0206362814915
1161,-46565.2521484375,5021.665997595668
1162,-40633.520703125,6303.721782462362
1163,-38648.8033203125,6683.733644983915
1164,-35460.24921875,5961.0018429733755
1165,-39930.89140625,5043.269172732175
1166,-46043.6162109375,2644.9239921491176
1167,-36814.3513671875,4545.429649389612
1168,-39093.2142578125,5635.132358703226
1169,-36063.9701171875,4943.072097267114
1170,-37519.1462890625,4477.864602517525
1171,-35574.8234375,4590.93688651776
1172,-43428.655078125,2393.608404478417
1173,-40459.676171875,3434.0105801707396
1174,-44060.0828125,2239.2051787216005
1175,-42768.7453125,4753.595601002486
1176,-43563.571484375,2926.7457107626174
1177,-43056.4693359375,2769.8313965263146
1178,-47403.4720703125,1753.7222123370175
1179,-43110.634375,2617.5183370910577
1180,-39103.7951171875,4354.906859674841
1181,-43334.24375,2615.462641949841
1182,-41042.4197265625,2561.779049232744
1183,-32053.65615234375,7256.818602793191
1184,-43738.8712890625,2780.180285224493
1185,-37545.2978515625,4156.723842900244
1186,-35477.896875,4996.85496510928
1187,-40107.3939453125,3900.781753326945
1188,-40859.9916015625,2015.9438948515258
1189,-43937.0876953125,4199.030232668382
1190,-44665.625390625,1513.6510074543955
1191,-40253.4916015625,3102.709453876265
1192,-38115.937890625,4996.889678656688
1193,-33571.16884765625,6307.633597850821
1194,-40655.5484375,3588.059165890213
1195,-43114.6787109375,1855.0961742555894
1196,-39673.0078125,4038.8665742653616
1197,-45554.9033203125,1918.0473267202158
1198,-39857.0029296875,3787.9828997575214
1199,-48193.946875,1456.8534613015472
1200,-42956.7322265625,2385.431550403655
1201,-40021.927734375,3154.282789235795
1202,-32077.43564453125,6934.622500606036
1203,-37929.5849609375,4206.674126033485
1204,-36397.02470703125,5106.842053816307
1205,-32414.578515625,6688.912656904962
1206,-45948.1634765625,4920.927109053373
1207,-37574.5205078125,3863.233310872479
1208,-48353.352734375,1252.6295332972338
1209,-46546.076953125,1935.9061097905096
1210,-38909.216015625,4487.040959996153
1211,-28717.04443359375,7200.019068895331
1212,-47221.101953125,1460.5946031875812
1213,-50057.566796875,2027.20575466043
1214,-40945.2783203125,2669.6754950168865
1215,-47638.279296875,1522.3895454654657
1216,-45659.934765625,3558.5399746794683
1217,-41093.4328125,3018.7120014219627
1218,-30549.32373046875,6804.774987193138
1219,-40315.524609375,2910.230914234646
1220,-33379.23115234375,5598.782712497837
1221,-34639.3640625,5088.807653805402
1222,-33867.50947265625,4914.413903696689
1223,-39168.191015625,5954.8265531287425
1224,-34779.4216796875,5093.365247004123
1225,-45903.765625,1695.4088804337548
1226,-46899.72578125,1338.4495245663961
1227,-44175.60390625,2501.143629279775
1228,-41932.1216796875,2448.863964354454
1229,-40429.3515625,5273.738387456326
1230,-42594.3330078125,2329.163463724021
1231,-45870.438671875,1299.0383889297646
1232,-31257.1626953125,6615.805134575525
1233,-29741.887109375,7336.441255958659
1234,-40788.0396484375,2733.577982149849
1235,-33441.07412109375,5551.649101816639
1236,-38339.198828125,4349.191527121532
1237,-44486.7732421875,2194.018405893948
1238,-46346.190234375,4463.47109594089
1239,-29911.09091796875,7336.586373351472
1240,-30978.3708984375,7192.911257653294
1241,-33290.78974609375,4491.55918364302
1242,-38074.9095703125,3913.3515585078976
1243,-40022.615234375,4217.574231694417
1244,-34711.65390625,4710.354883950495
1245,-33407.0390625,5692.937654475189
1246,-36107.73544921875,4512.865335903645
1247,-39113.631640625,3201.419834438162
1248,-48552.5271484375,1337.4870204616468
1249,-30605.4720703125,6746.027174354944
1250,-47610.5642578125,1468.5312806896577
1251,-34193.70849609375,4296.690742043429
1252,-42614.6435546875,2135.902085622077
1253,-40545.6375,3375.619498018388
1254,-29842.430078125,6972.830949797198
1255,-41452.965625,2896.8584591695985
1256,-45294.7646484375,1665.0356018956315
1257,-51625.1916015625,4462.209800392095
1258,-36942.2720703125,4622.351285148363
1259,-42319.16484375,4986.2313089240415
1260,-47496.123046875,1330.0352887315012
1261,-47724.8728515625,1086.619232680224
1262,-43201.2666015625,2866.286004730852
1263,-38889.5828125,2914.261661560754
1264,-32008.50029296875,5240.954201261179
1265,-39394.826171875,2673.6427789233153
1266,-38278.93994140625,7198.100629687549
1267,-43823.5625,2529.7141940560605
1268,-41116.433203125,3925.568364237165
1269,-30231.4734375,6167.208307293887
1270,-44908.0939453125,1436.857530901194
1271,-47160.2580078125,1168.7943550053672
1272,-46513.519140625,2174.5317377282167
1273,-46058.0546875,2638.9465800421735
1274,-41528.989453125,2800.5863300706333
1275,-47573.932421875,1574.618637420768
1276,-31432.50419921875,6263.023952188978
1277,-33854.89306640625,3998.5983711042104
1278,-45154.9736328125,1479.0185470284114
1279,-34238.27919921875,4512.095204371005
1280,-37896.7779296875,3631.955283857728
1281,-47235.0853515625,1754.9089597155069
1282,-44546.7337890625,2372.541954989401
1283,-43706.591796875,2224.2936137846164
1284,-41256.0470703125,2800.294634833167
1285,-41284.6166015625,1934.8335526102942
1286,-40917.3982421875,2695.8953488341594
1287,-45200.4373046875,1678.684804556569
1288,-46546.57109375,1580.690992431885
1289,-39220.6099609375,6721.490765796822
1290,-42304.7798828125,2360.1984238832815
1291,-31468.93125,5897.580263260936
1292,-44481.390234375,2551.3330027077454
1293,-39731.62890625,3071.730981077707
1294,-40626.234765625,2803.4249716504687
1295,-37146.23515625,4325.489489883532
1296,-37247.2603515625,4793.7350446316905
1297,-48237.8216796875,3669.3327856277706
1298,-43990.4435546875,2543.52776731718
1299,-40020.9888671875,3281.0728573382603
1300,-44624.1474609375,1947.0108767216427
1301,-33531.041796875,4679.31584640593
1302,-45062.6466796875,1947.6870913527032
1303,-36783.9474609375,3403.784971412767
1304,-46003.3716796875,2139.7584718320218
1305,-43529.61015625,2757.321050069179
1306,-39209.9982421875,3753.4613819234814
1307,-40630.1890625,3157.385882728512
1308,-43256.9123046875,3365.898768235257
1309,-47911.1166015625,1773.3755427990552
1310,-37079.45,4335.916424814984
1311,-44532.5951171875,2855.744336363686
1312,-37124.637109375,4244.880266106905
1313,-47680.1376953125,1402.3871663075258
1314,-40312.66484375,3111.279123693502
1315,-43041.0841796875,2251.014933947446
1316,-38242.2234375,3483.6202712878435
1317,-42278.968359375,3715.556084822215
1318,-43215.6490234375,2042.421134841947
1319,-41882.4681640625,2887.346436576481
1320,-40621.752734375,3302.9589484798116
1321,-32969.49423828125,5233.804557856328
1322,-36371.3044921875,4124.955806491647
1323,-40423.4306640625,3166.474541592803
1324,-39301.0654296875,3580.1994780831606
1325,-36286.27109375,3514.7190471432946
1326,-48679.8283203125,2118.6805939316555
1327,-44780.348828125,2830.118765073083
1328,-35327.0029296875,4716.157941312462
1329,-40041.3998046875,3031.8235499575503
1330,-49076.4626953125,3268.7527746702067
1331,-45078.8474609375,2055.7716414607485
1332,-36535.0013671875,4263.874082330265
1333,-32146.09296875,5092.085950131528
1334,-44384.4650390625,1908.8125059756037
1335,-40555.481640625,2750.8993584683535
1336,-45908.171484375,1633.649111168547
1337,-45059.8650390625,1581.1386652861047
1338,-48183.732421875,1807.3182461526897
1339,-44154.498828125,2738.6437186080752
1340,-39943.315234375,4297.522742750757
1341,-31614.74365234375,6238.367471547411
1342,-27337.03818359375,6807.18428868947
1343,-45863.658984375,2320.6141757743185
1344,-35566.871875,4099.106377376725
1345,-46155.9779296875,1887.6048309969553
1346,-45765.2263671875,3402.9081616740464
1347,-37322.9490234375,4530.5875231350965
1348,-46742.7318359375,2216.3676823368
1349,-34028.11689453125,4984.1380958168775
1350,-39392.478125,3421.0173617610476
1351,-39000.9267578125,4681.940952068145
1352,-35697.16318359375,4548.860235182482
1353,-41075.7279296875,2920.3915532714204
1354,-42362.1005859375,2266.6454671452875
1355,-36046.2806640625,3851.888618908947
1356,-37867.55390625,3224.639512751114
1357,-44793.18125,1867.2517576802702
1358,-44003.2029296875,4933.930060826931
1359,-41342.4888671875,3625.6217560752716
1360,-34445.7044921875,4004.347394289546
1361,-45194.194140625,1938.3703362814906
1362,-35929.4212890625,3924.3490064581733
1363,-41742.8548828125,3395.4265872781207
1364,-39585.2431640625,2973.597376675118
1365,-38500.6400390625,3158.801503084048
1366,-40584.9646484375,3425.9368367499333
1367,-45426.8259765625,2113.916766205205
1368,-41591.301171875,2205.439470622202
1369,-35694.0984375,4128.444234180308
1370,-48746.7837890625,2634.2434962104544
1371,-44084.6884765625,2799.5866548908452
1372,-36351.2701171875,3727.717848976608
1373,-32034.537890625,5311.048865065611
1374,-33635.3568359375,4731.692172922325
1375,-39682.6025390625,3113.958208624406
1376,-45073.2740234375,3488.771361456674
1377,-43096.33359375,2879.88783400037
1378,-47806.10625,1770.442995857739
1379,-45820.123046875,3498.3991068811406
1380,-49278.090234375,3891.808978649301
1381,-40304.944140625,3623.0149469693456
1382,-43285.439453125,4190.60503872048
1383,-41217.0,2465.364225210361
1384,-28556.0966796875,6535.808275674607
1385,-39152.9208984375,2845.679441221868
1386,-39096.951953125,2807.638930233772
1387,-41606.353515625,2536.252979960639
1388,-40380.1935546875,2407.5664044429136
1389,-42411.0703125,2488.6106954329885
1390,-47682.7708984375,4003.8493513705366
1391,-47405.3126953125,2365.4164988425687
1392,-46501.370703125,2271.623592844465
1393,-42917.8107421875,2917.8906434256196
1394,-42550.8533203125,1766.689004702832
1395,-44181.6158203125,2253.9037212545645
1396,-42765.1056640625,4056.97377072619
1397,-37997.0701171875,3036.053583804745
1398,-45913.7001953125,2338.4581335541743
1399,-44150.058203125,2920.1507601809735
1400,-41045.4177734375,3498.645088605061
1401,-35580.81904296875,4839.843937284045
1402,-39327.13828125,4196.911853997412
1403,-37784.0869140625,4611.578174814457
1404,-43186.494921875,2645.293621161678
1405,-35322.28828125,4662.427211556467
1406,-35191.71123046875,4625.854121048061
1407,-39468.69765625,3494.163406557712
1408,-38117.72958984375,5995.684957067489
1409,-44302.2421875,2478.8977530662414
1410,-38092.8681640625,3954.244793545682
1411,-42339.82421875,3754.1160481434454
1412,-37668.83828125,3986.4206021877194
1413,-39355.6193359375,3663.639899662898
1414,-29302.66904296875,7001.81474530007
1415,-40551.4642578125,3877.202523285423
1416,-36803.5421875,4588.025849764172
1417,-39434.2408203125,3560.8655705180845
1418,-42503.35,2339.799170083915
1419,-41698.038671875,4450.417413132586
1420,-37984.7150390625,3989.9291373351
1421,-40282.4837890625,3558.153622420201
1422,-43456.6154296875,3737.20069321145
1423,-37096.8671875,4533.13709692344
1424,-42113.64921875,3714.4714148260387
1425,-44668.273046875,3268.3354222900184
1426,-48255.46171875,1843.6847738013932
1427,-40535.67734375,4446.400673662549
1428,-36321.21669921875,4495.728758492122
1429,-31347.7103515625,6596.254791052264
1430,-34575.6126953125,5471.711731509395
1431,-32489.35888671875,5927.859753307846
1432,-45508.15234375,3197.554111760251
1433,-41182.1185546875,4360.596223358959
1434,-43705.746875,3451.4466475538848
1435,-47831.0958984375,2552.604203140418
1436,-41688.0080078125,3521.2096215805072
1437,-38289.990625,6401.169659916348
1438,-48325.3158203125,3592.6163431498635
1439,-41409.484765625,4640.960139511793
1440,-38741.9994140625,4731.225002899979
1441,-45559.0439453125,3257.7822223700923
1442,-49651.6369140625,3232.3934650492156
1443,-29652.465234375,8170.395204038462
1444,-39474.390625,3452.9797670849284
1445,-49019.405859375,1411.443329508843
1446,-39784.4611328125,3804.173787579945
1447,-41555.6615234375,3845.3101700122934
1448,-44319.4224609375,1752.1125180023314
1449,-36446.9244140625,5051.795753845668
1450,-34078.23173828125,5856.034250876323
1451,-35431.92373046875,4841.4031024619835
1452,-29237.5833984375,7481.141067333868
1453,-38419.7224609375,2890.117752633134
1454,-50236.5998046875,2423.675389316237
1455,-46140.546484375,1758.310447664999
1456,-46842.4076171875,1551.9157545546855
1457,-42298.60078125,1426.9414594460113
1458,-43427.794140625,2455.26988349513
1459,-48128.8234375,1667.9847478121678
1460,-45772.6353515625,1948.2727969467585
1461,-35985.04697265625,4645.180854215992
1462,-39353.4708984375,3639.596237333083
1463,-46096.8298828125,1735.8130755141894
1464,-46776.2634765625,2829.3508701676906
1465,-41113.5791015625,2915.231706300093
1466,-38197.06171875,4021.9014257607523
1467,-46036.8181640625,1670.6553530958845
1468,-45119.44765625,2477.094224775316
1469,-43323.5841796875,2940.01218735601
1470,-37066.609765625,4520.229216852955
1471,-44116.6765625,2109.3442187191313
1472,-43815.186328125,1948.2233649752952
1473,-45933.028125,2307.924456347647
1474,-41141.7173828125,3050.6839718201263
1475,-39302.5986328125,2944.628526669139
1476,-28267.812109375,8351.245450323917
1477,-41542.9041015625,3734.4175169521004
1478,-46682.0287109375,2266.7885939682105
1479,-42233.2951171875,1990.8587335855666
1480,-40989.813671875,2444.520320794951
1481,-40244.653125,3030.265433682781
1482,-43277.8216796875,1867.5996803520661
1483,-36269.9658203125,4207.000873882016
1484,-33300.34814453125,5501.30312674143
1485,-42800.799609375,4068.0345551363366
1486,-41905.1826171875,2495.7645446328693
1487,-44750.0072265625,2902.35121425407
1488,-44922.458203125,2060.92811709251
1489,-37617.24306640625,5738.96413148307
1490,-37101.104296875,4346.949797551008
1491,-42184.1115234375,2454.8867943393357
1492,-48064.4375,4634.359696813648
1493,-44860.623046875,2483.8546906834313
1494,-32680.3111328125,5144.50374074784
1495,-37323.400390625,3408.347650631842
1496,-39861.500390625,3339.436683815301
1497,-41536.5861328125,3052.957062058512
1498,-43845.53125,2104.403069376851
1499,-46337.103125,1738.661313837613
1500,-38966.5548828125,3230.881901617359
1501,-38320.9021484375,4331.475795933267
1502,-38797.78203125,3086.30859721591
1503,-32975.3671875,5397.665548445336
1504,-42160.655859375,2593.710241401821
1505,-41026.2921875,2759.290456529241
1506,-40152.0521484375,3401.5830763337694
1507,-31575.22529296875,5764.867845852847
1508,-43813.708984375,2948.6147710260584
1509,-46528.1138671875,1701.3906078538457
1510,-39868.1759765625,3420.1092666335976
1511,-32504.71015625,5601.097895575113
1512,-47993.4376953125,2976.9725608400386
1513,-41904.2654296875,2870.757213420348
1514,-40852.6134765625,2967.469631962145
1515,-45771.527734375,2124.5036409597424
1516,-44498.9736328125,2859.118978067058
1517,-33234.67255859375,5528.8886430865405
1518,-48719.1306640625,2874.5227799707754
1519,-43923.4521484375,2318.7936250291623
1520,-32196.494140625,4979.890489934841
1521,-40099.209765625,2504.8349917280107
1522,-35008.2353515625,6996.770235534549
1523,-39052.351171875,5488.440148161833
1524,-46887.7423828125,3163.0947979939374
1525,-38751.7771484375,5723.983143361977
1526,-40671.0232421875,4029.08972133692
1527,-29139.23935546875,9724.070832625675
1528,-33240.01826171875,6909.363554505467
1529,-47582.146875,1804.012610353518
1530,-38649.2994140625,5100.817967575662
1531,-46387.444921875,2897.5693836281116
1532,-41012.8556640625,4226.421566125643
1533,-36566.2953125,5944.128816842007
1534,-48468.8560546875,2325.7510892385612
1535,-45307.4888671875,3838.54011240999
1536,-43484.2681640625,2760.103192026888
1537,-31004.82265625,7601.29229922217
1538,-40497.6365234375,4425.914896688273
1539,-38564.4505859375,4281.2537271648625
1540,-30528.7205078125,8269.930271050851
1541,-43232.3580078125,3252.3459617538597
1542,-44500.9572265625,3331.2461853247064
1543,-44036.0751953125,2523.0040945895685
1544,-46519.2626953125,2375.1803591425505
1545,-45155.66484375,2617.8973133148706
1546,-48946.09609375,1790.120835330632
1547,-34768.08349609375,5404.010196364053
1548,-46218.2865234375,2826.9334475518385
1549,-34939.439453125,6460.253224842759
1550,-36399.30166015625,4829.4741623721175
1551,-46356.9806640625,2840.1778343763954
1552,-47831.2833984375,2106.628499602393
1553,-34541.85751953125,7262.229471504898
1554,-31793.055859375,7847.720663119986
1555,-36338.44892578125,5173.945408801342
1556,-41320.29609375,3687.465109808207
1557,-36971.90029296875,5506.732276288613
1558,-40996.13515625,3517.2227233085873
1559,-48741.17421875,1835.8913825974778
1560,-42359.48046875,4939.970904043589
1561,-38690.4390625,5048.704697023141
1562,-30466.2138671875,8450.8309769947
1563,-43516.875390625,2944.304755779616
1564,-35536.7884765625,5715.23979904882
1565,-39358.035546875,3875.637581543236
1566,-45452.3779296875,2507.0067725872973
1567,-46930.2671875,1948.765349720087
1568,-36804.680859375,5445.494616672614
1569,-47350.6412109375,2363.7294705970216
1570,-47861.618359375,1730.61626445715
1571,-47825.2578125,1697.5827066732547
1572,-42408.763671875,3230.3862466273977
1573,-42973.59609375,3460.102010986365
1574,-27649.613671875,10091.944321321409
1575,-40994.5515625,3175.5401380778353
1576,-39718.79765625,4140.757863976017
1577,-38468.599609375,4023.1352555101316
1578,-36147.40126953125,5858.447264198064
1579,-39215.7876953125,3584.599610838853
1580,-44095.1662109375,2770.403057180441
1581,-42911.09609375,2879.642206389019
1582,-49156.134765625,1626.2263136336373
1583,-46828.6287109375,1869.2720901628745
1584,-40332.076953125,4631.579268113786
1585,-42132.1359375,4295.319221821783
1586,-41474.4974609375,3394.186210898026
1587,-45775.113671875,3450.641809282289
1588,-44182.20234375,2998.0784959228213
1589,-42936.59140625,4056.7862602966366
1590,-41547.257421875,3005.0150738847797
1591,-33693.196484375,6358.156474564002
1592,-36633.34609375,5892.606189149603
1593,-29515.31455078125,9277.797538301575
1594,-31536.72607421875,7855.89016123336
1595,-40216.70546875,4428.116050086716
1596,-48655.9935546875,1840.2604517181505
1597,-41721.7138671875,4140.8131573559185
1598,-42259.084375,3694.246719830052
1599,-42522.2390625,2993.4752916591247
1600,-38231.0744140625,4638.528641477174
1601,-44608.5833984375,2336.016421410988
1602,-45431.0607421875,2155.6847220573254
1603,-44197.04453125,3604.145662940948
1604,-38861.9181640625,4208.67449259356
1605,-35585.9953125,5513.875512324963
1606,-45900.078515625,2664.3996306736817
1607,-36578.5603515625,5776.599090839466
1608,-44839.4923828125,2523.240338132436
1609,-40514.915625,4720.9828944424835
1610,-41910.2029296875,4669.1608587719165
1611,-41666.38046875,4533.989925117456
1612,-43332.6888671875,3519.9734726539737
1613,-41581.466796875,3451.169154857202
1614,-44745.5015625,2278.336024448676
1615,-28982.21630859375,8857.473737182225
1616,-50076.9900390625,1918.713190872051
1617,-46384.0119140625,2330.3139003637752
1618,-31748.94638671875,7918.881272755887
1619,-45287.7060546875,2939.349775430307
1620,-35606.86142578125,6207.015705470042
1621,-47343.6443359375,1889.8740748912444
1622,-45390.1615234375,2433.9764747032136
1623,-45968.7818359375,2364.94913505109
1624,-46674.7552734375,3065.166484633024
1625,-47084.966796875,2372.734956089343
1626,-41648.057421875,3526.2531971126587
1627,-44375.102734375,2740.5471598038775
1628,-35166.297265625,5537.776739097641
1629,-32513.52666015625,7538.635557231493
1630,-30048.328515625,8261.132683268957
1631,-39046.5123046875,4594.842941312776
1632,-45307.19453125,3535.065174088939
1633,-48723.306640625,1763.95071670538
1634,-47932.4587890625,1997.5598579612363
1635,-39758.5927734375,4251.660636687208
1636,-38026.62734375,2987.5660730905765
1637,-43402.6455078125,3944.4642167566526
1638,-40457.4447265625,4192.042908047118
1639,-35136.5837890625,5271.117682707339
1640,-42848.6326171875,2884.219872588101
1641,-28116.9591796875,9811.17990902207
1642,-32122.972265625,7760.2609189829955
1643,-46223.216015625,1575.8508964573546
1644,-42663.2630859375,2647.9718772847727
1645,-41313.1037109375,3049.9608149974865
1646,-42092.6927734375,3118.433011989747
1647,-37804.867578125,5901.643333797273
1648,-38162.087890625,4995.469477292433
1649,-44091.2595703125,2622.9657411934686
1650,-47668.5765625,2331.679438494431
1651,-46035.6095703125,1789.5867946050043
1652,-42862.7310546875,3731.165779622142
1653,-45593.811328125,2690.7754182489457
1654,-34396.94794921875,6247.912624581736
1655,-30119.6166015625,8602.456133629468
1656,-43351.9095703125,2778.507632634133
1657,-27271.234765625,9590.349634493123
1658,-44762.3001953125,2765.797976320394
1659,-40259.476171875,3518.7958400700645
1660,-46760.0728515625,1951.6158219301758
1661,-47644.35,2109.1903149497284
1662,-33990.268359375,6147.617447064653
1663,-44820.226953125,2113.561186004347
1664,-39867.58671875,3393.0079698968984
1665,-43177.7310546875,2994.7043069201404
1666,-31623.7888671875,7212.027490289433
1667,-45047.8890625,2890.6668858935864
1668,-42032.71484375,2967.03863088712
1669,-41138.11015625,3637.6353194106227
1670,-48399.092578125,1600.539074199597
1671,-50092.391796875,1568.3577981249368
1672,-28348.71845703125,8338.69945699369
1673,-48253.3248046875,1417.7159750182518
1674,-47183.326953125,2371.0402626297305
1675,-29197.85517578125,8104.038785606588
1676,-41488.425,2790.4967946905044
1677,-40780.8056640625,4188.8311585034035
1678,-48532.9447265625,2785.4693787573624
1679,-44942.455859375,2297.9790137515765
1680,-37282.371875,5310.614373964565
1681,-48096.179296875,1725.3415185856575
1682,-50692.2619140625,1587.8852832121456
1683,-35859.9548828125,5723.929204129042
1684,-46479.3517578125,2195.2012782711345
1685,-28404.4390625,7933.242262559716
1686,-35847.6677734375,5574.52858231604
1687,-36177.54765625,5208.081258189196
1688,-36473.4197265625,4333.167593329035
1689,-35402.499609375,5834.614372454513
1690,-45250.7626953125,2218.472461133817
1691,-41771.4248046875,3378.6892537709314
1692,-44787.85859375,3619.5194046087604
1693,-41170.6494140625,4148.6214039938195
1694,-41484.8875,3022.424395764716
1695,-44053.1029296875,2451.6621356582687
1696,-41018.7634765625,3717.3899684298144
1697,-47276.616015625,1982.3809770539247
1698,-47100.8638671875,2040.0237711412587
1699,-42471.598046875,2549.605180076619
1700,-42437.6453125,2288.8291582795578
1701,-46636.4373046875,2378.877513171014
1702,-40074.5521484375,4193.71766648046
1703,-45953.9908203125,2934.217764387861
1704,-40488.251171875,4726.732273583357
1705,-38365.4189453125,4687.143478152586
1706,-36158.84580078125,7187.701874981015
1707,-45862.552734375,3398.4947400258766
1708,-43570.0357421875,3892.0486356715764
1709,-46728.746484375,2201.315535747668
1710,-37813.794921875,4588.322324737182
1711,-34434.16845703125,6284.890694972381
1712,-44912.7765625,2544.172866475386
1713,-44932.7369140625,2003.402914822522
1714,-40414.366015625,3233.3135272961163
1715,-43951.2369140625,4150.872505762636
1716,-43445.3638671875,3014.508900440615
1717,-40865.696484375,3113.4479030354632
1718,-42015.7376953125,4173.579757603113
1719,-33957.083203125,6803.63132115937
1720,-45942.449609375,1888.5722279001884
1721,-32675.09580078125,6594.075022493698
1722,-46536.812890625,2035.062491261856
1723,-33847.34619140625,6904.487543962837
1724,-44940.5068359375,2151.061485909205
1725,-43124.829296875,2520.3624358955735
1726,-38156.4873046875,4350.727757137301
1727,-39118.132421875,4387.764818124693
1728,-29771.00322265625,8282.08743955848
1729,-32557.22548828125,7136.205235693085
1730,-41552.8291015625,4060.975887669222
1731,-36514.9373046875,5584.523586682687
1732,-48027.8509765625,2218.1178443640724
1733,-43885.05859375,3575.2923862041075
1734,-26349.9837890625,9677.092847128955
1735,-39498.9060546875,3779.5393143187775
1736,-45336.6001953125,3303.381557742665
1737,-43403.5546875,3534.7220086854068
1738,-37534.51796875,4927.105091480305
1739,-45356.0755859375,3396.0418844307433
1740,-46837.4095703125,2234.043084384079
1741,-49869.5330078125,1534.6241139223357
1742,-42441.115234375,4997.2075686222115
1743,-37091.651953125,5791.94161399436
1744,-43103.61484375,2909.4057188063734
1745,-37090.548828125,4520.939159785271
1746,-44383.180859375,2125.6112386227996
1747,-29751.970703125,9366.470455142957
1748,-45885.169140625,1853.7045058669853
1749,-31891.61640625,7058.177374152233
1750,-32818.77509765625,6745.341084215689
1751,-30953.5029296875,6978.949715182317
1752,-42205.5583984375,3758.76795817574
1753,-40864.976953125,4196.820430330908
1754,-45706.021484375,2477.7790310306414
1755,-47221.9099609375,1552.9165757352685
1756,-33949.35703125,6484.7122187679615
1757,-35314.70078125,5638.208262791347
1758,-31176.9435546875,8311.166909939451
1759,-39239.04921875,4885.754287160118
1760,-38607.904296875,4064.5179275854075
1761,-45259.432421875,2295.471557261533
1762,-41859.7591796875,3887.764059880706
1763,-31150.090234375,7876.757976898398
1764,-30247.2904296875,7972.05325451724
1765,-35258.588671875,5259.891314112199
1766,-35930.708984375,5644.4195615644385
1767,-41805.602734375,3365.1040618201105
1768,-43388.4583984375,3507.465454593841
1769,-42605.703125,2715.734742695222
1770,-48183.2068359375,1705.9493700403254
1771,-41035.9314453125,4776.700688210577
1772,-41211.1205078125,4713.442988712706
1773,-45699.5236328125,2159.1311923426942
1774,-43369.5341796875,2888.0630192387234
1775,-47771.0837890625,2090.4637511722904
1776,-46630.841015625,4499.619402439754
1777,-35055.23408203125,6251.649543740489
1778,-34142.83193359375,5935.645679005653
1779,-35932.4798828125,5756.825040029614
1780,-30738.46552734375,7163.198324732532
1781,-31504.0208984375,7985.497583217543
1782,-37570.84287109375,5428.925018412787
1783,-41517.821875,3521.4795047201833
1784,-32274.9353515625,7591.967594252776
1785,-47450.8265625,2263.0001179728897
1786,-36814.7880859375,4819.156542192983
1787,-46760.958203125,1638.0054294110073
1788,-46532.6755859375,1977.490635766419
1789,-30216.5177734375,8727.280099617014
1790,-34956.89765625,6338.136192767549
1791,-28029.39150390625,9446.979000064062
1792,-42535.662109375,4079.6042285906437
1793,-41475.6173828125,3013.6622387851944
1794,-41121.45078125,4169.451780128061
1795,-34853.57578125,5721.028565850797
1796,-45493.1767578125,2694.6195752740773
1797,-41409.9212890625,4959.795519133242
1798,-45587.6931640625,3092.535266430395
1799,-43159.0302734375,3987.7973507238144
1800,-45904.880859375,2922.069593930198
1801,-46600.0466796875,2940.7855217888773
1802,-38129.912109375,5162.149262204087
1803,-44752.35234375,1833.8949137594632
1804,-33761.7404296875,6084.338792333608
1805,-47593.1900390625,2559.758020018078
1806,-41983.4955078125,3405.501431796616
1807,-45170.3109375,2250.916103659464
1808,-37188.8021484375,5035.107094023153
1809,-48572.594921875,3167.1607214316077
1810,-45563.8326171875,2163.089774926151
1811,-35421.1615234375,5588.759721585676
1812,-46553.6181640625,2641.333702699727
1813,-34464.22890625,6764.923449498562
1814,-37820.842578125,5336.3123981651415
1815,-33308.083984375,6081.162691076176
1816,-39851.323828125,2818.6560528639297
1817,-44001.5056640625,3208.7250604430783
1818,-40262.7767578125,3614.949134273428
1819,-40252.1451171875,4495.9904945236185
1820,-32692.119140625,7312.401989191408
1821,-44431.618359375,2567.375569665783
1822,-45037.4291015625,4036.3753201148893
1823,-46521.98203125,1831.1880634729594
1824,-45148.1203125,2581.6012791438047
1825,-46958.5875,2251.7475484353845
1826,-38965.408203125,4239.874028383775
1827,-43879.2763671875,2879.1972266089447
1828,-47695.2611328125,2126.7562242639583
1829,-36807.26171875,5305.204819135613
1830,-35192.5294921875,6031.151926605378
1831,-47185.10390625,2805.7652990057554
1832,-48298.89765625,3132.2984773534554
1833,-39520.7140625,4685.7714360310165
1834,-44321.9103515625,3657.4593576823595
1835,-43457.623828125,3598.712408282962
1836,-45756.7578125,2545.9855223541485
1837,-49224.367578125,1658.576849182367
1838,-47306.7025390625,2283.418758104077
1839,-46522.4810546875,2723.1937819500326
1840,-33309.441015625,6458.431916115785
1841,-42805.21796875,3609.935519396875
1842,-40546.9146484375,3842.6151994533298
1843,-44419.63671875,2578.7169544679928
1844,-46200.07109375,4361.8351834512005
1845,-45831.6423828125,2237.212086788941
1846,-41094.1802734375,4099.344164433668
1847,-38224.338671875,4419.91189387494
1848,-42384.5052734375,3211.5783325492253
1849,-48079.7701171875,2515.8055944500106
1850,-47107.3169921875,2980.43951338392
1851,-42157.6744140625,3741.12253733745
1852,-40735.4380859375,3470.8724212045117
1853,-37998.9384765625,4810.9120102642255
1854,-36455.18115234375,5606.349569867682
1855,-42774.1048828125,3596.915116716521
1856,-49664.7130859375,2249.5493794005597
1857,-42955.9294921875,3171.024713798145
1858,-39319.9220703125,4429.18543715119
1859,-47484.4400390625,2934.364020753065
1860,-44361.4548828125,2744.256045679163
1861,-43947.9404296875,3087.1702630281384
1862,-41257.6748046875,5585.075195164183
1863,-49531.1328125,2104.440866377565
1864,-41888.866015625,5063.966099068477
1865,-31412.34013671875,7773.83000137264
1866,-44760.797265625,3379.3657020849623
1867,-45691.58046875,4524.496618764631
1868,-46302.6970703125,2966.2829320002324
1869,-49192.4775390625,4480.888147977324
1870,-36639.41357421875,5723.888862660084
1871,-41379.710546875,3585.3849798433603
1872,-35966.49140625,4838.819592890909
1873,-47931.4890625,3666.345643137539
1874,-42709.1875,3302.898289595143
1875,-43287.5626953125,2961.865436492305
1876,-36600.8927734375,6561.800702536921
1877,-42997.38515625,6465.144260514786
1878,-39370.768359375,5074.882677382796
1879,-42407.171484375,6560.527731842129
1880,-35165.667578125,7253.072115199846
1881,-47782.6595703125,2977.566577553633
1882,-40013.649609375,5241.9616354452955
1883,-43895.70859375,2895.1219389735347
1884,-36956.90537109375,6753.109569673462
1885,-37489.72421875,6492.091298092022
1886,-40543.737890625,4603.54219992013
1887,-46032.675390625,2664.192061226732
1888,-48434.99765625,2761.351265376465
1889,-34771.7892578125,8005.102108846665
1890,-47009.2150390625,3421.7106332731328
1891,-41372.9671875,4720.350668986143
1892,-37890.2517578125,6587.871038588383
1893,-40857.3287109375,4897.325197071436
1894,-33969.49814453125,8383.02898892212
1895,-29371.91064453125,10197.21455671743
1896,-46553.7080078125,2574.879561914732
1897,-32941.6818359375,7670.2391929097475
1898,-42694.0060546875,4319.538695075495
1899,-38951.0884765625,5055.008399024766
1900,-49141.46328125,2394.636047927661
1901,-34119.25888671875,7025.990206751837
1902,-47142.9712890625,2100.9452199881034
1903,-36783.1822265625,7096.285641623506
1904,-32932.74912109375,8362.961845191503
1905,-41616.608984375,3847.268641544536
1906,-47859.028515625,1996.85963891046
1907,-33520.0181640625,7755.954097230673
1908,-48171.5943359375,2465.46173907996
1909,-39599.3623046875,5166.588196254884
1910,-36298.76005859375,6739.512902830075
1911,-38891.285546875,5839.910296188167
1912,-49090.9837890625,1629.6675215558596
1913,-37979.56796875,5534.4417546896775
1914,-45295.4501953125,3642.79618730788
1915,-37280.609765625,6926.852636405081
1916,-41946.7564453125,3945.6231698191373
1917,-34654.7974609375,6913.798705975272
1918,-38286.935546875,5362.395278431914
1919,-44075.2822265625,3052.929918662444
1920,-33546.59208984375,8038.5900739550725
1921,-43729.417578125,5005.048102309603
1922,-35540.43994140625,7526.1820498846055
1923,-40706.1603515625,4717.328707450614
1924,-43581.728125,3003.025222150664
1925,-46701.8265625,1634.8499258447196
1926,-42212.54453125,3845.3270128646263
1927,-46064.06953125,2559.1038476652466
1928,-44255.973828125,2750.9682568223875
1929,-45045.957421875,2899.4322646197606
1930,-40561.64453125,4925.084661437162
1931,-43355.7849609375,5065.432540809075
1932,-45288.611328125,2437.878283970382
1933,-45397.109375,3950.6447961244585
1934,-43812.8111328125,4485.343801477077
1935,-47207.016015625,2117.8864109443234
1936,-34553.61748046875,8172.303805746774
1937,-48727.9306640625,1782.101542554198
1938,-34631.47294921875,7898.933223287645
1939,-50402.5591796875,1662.446415803866
1940,-44575.3830078125,2841.3280216666612
1941,-41161.3556640625,4679.05957208634
1942,-46641.9658203125,2011.9835377730221
1943,-47171.410546875,2372.494529872461
1944,-42064.376953125,6532.344521393639
1945,-36615.951171875,6268.029543396036
1946,-35591.36552734375,7481.659264792973
1947,-49874.15390625,1645.2290207231265
1948,-34560.03193359375,7202.696916975906
1949,-49399.3978515625,1324.1450709621517
1950,-44588.1828125,3727.423204842994
1951,-45340.751171875,3428.1122270176606
1952,-40848.243359375,4497.178614314977
1953,-31299.339453125,8495.414053917857
1954,-46112.97421875,2929.767654343983
1955,-43028.7828125,3717.815997827664
1956,-44907.1638671875,3144.763054377873
1957,-42111.9669921875,5092.384748824817
1958,-44244.606640625,3069.1213157091584
1959,-44158.2056640625,3500.4394643176115
1960,-49486.3423828125,1486.5117762121413
1961,-45224.7890625,3119.769932453471
1962,-40429.75,5000.73948610491
1963,-43181.825390625,3671.3370926083317
1964,-44950.3025390625,2888.75260098269
1965,-46167.968359375,2663.2534497064303
1966,-34739.7130859375,7210.62350983555
1967,-40434.14296875,4572.924835595778
1968,-36555.73564453125,6116.583284685993
1969,-47719.3267578125,1718.5923669845438
1970,-41086.8509765625,5496.373301410018
1971,-46221.4556640625,2859.0039900238585
1972,-42129.5455078125,3962.319280928385
1973,-37093.4462890625,6328.025574778392
1974,-43356.6875,3758.9219476630187
1975,-43771.187890625,4179.321943883854
1976,-43558.9291015625,4181.1424165195995
1977,-42780.1212890625,4155.531910359143
1978,-39769.6359375,4836.939053239404
1979,-42172.992578125,4483.482747812713
1980,-39236.5625,6171.140224898237
1981,-42536.8283203125,3601.621974904525
1982,-34629.779296875,7441.861390486697
1983,-38931.314453125,6184.357527372546
1984,-37035.48291015625,6416.944308481024
1985,-36030.2328125,7868.184148467196
1986,-29445.0791015625,10051.66218603118
1987,-42066.70703125,4692.79180933816
1988,-46880.4857421875,2999.6980216243437
1989,-47701.9990234375,2237.657639976439
1990,-39630.7484375,6488.736702314543
1991,-48437.4126953125,2027.2903493536364
1992,-39803.983203125,5268.063606681568
1993,-45671.0150390625,2618.5037308963433
1994,-41438.31015625,5070.979746101988
1995,-40961.4453125,5098.107446519535
1996,-35441.7443359375,6739.525426041324
1997,-35262.99404296875,7337.942920995396
1998,-37284.2841796875,6300.1759987085725
1999,-37650.8609375,6693.625532902512
2000,-47202.79140625,2481.7023212289046
