iteration,mean,std
1,-112119.498046875,6840.223738236117
2,-79812.4375,6764.2921338919
3,-71346.17109375,4972.413770090142
4,-78660.990625,7263.178642876506
5,-92611.712109375,8025.955630300662
6,-71593.208203125,9237.359124802271
7,-77417.315625,4550.636636976279
8,-69514.8611328125,7628.249467151493
9,-53105.627734375,1210.6177029135063
10,-62777.5271484375,4511.23791586196
11,-56715.11328125,1238.499412449623
12,-70666.0556640625,3759.8797651529753
13,-56456.43515625,6073.318428879989
14,-58178.856640625,5435.48642313097
15,-54713.625390625,9287.270434669897
16,-55287.501953125,5838.890531017727
17,-55885.886328125,2036.574807469673
18,-50081.0052734375,3140.7800204582786
19,-60449.140234375,3930.5096945673577
20,-56070.0169921875,1837.176825334512
21,-55257.5353515625,10402.536585493302
22,-48429.8041015625,4069.6220283579282
23,-52360.8078125,5681.190153229846
24,-58892.3658203125,4759.485835876336
25,-51221.8736328125,2386.7474684404942
26,-64916.6140625,9416.033847896813
27,-53658.139453125,3732.149235805615
28,-52560.3060546875,2543.9105254121273
29,-51756.5314453125,4107.054470550075
30,-61858.41328125,7461.223291622818
31,-54290.2111328125,2778.557054564104
32,-59281.96953125,11845.98344990423
33,-67048.983203125,5626.386909943924
34,-63043.4833984375,7943.826369103712
35,-57775.997265625,7046.156396239678
36,-48698.5939453125,2883.4398372489045
37,-66799.9369140625,6977.427453983206
38,-72235.0962890625,7515.304733255554
39,-54430.984375,5002.302903099858
40,-53685.650390625,9284.365771020062
41,-53977.5365234375,2361.4886767867756
42,-52452.8931640625,3920.451346000513
43,-53473.0728515625,2280.145550813323
44,-54081.8923828125,3757.0283811901922
45,-67504.8556640625,6835.679645384514
46,-52698.8474609375,2432.640794518469
47,-53721.7091796875,4004.2112400709943
48,-55390.9568359375,3775.2408050502886
49,-50065.33046875,4401.822115157608
50,-54406.1212890625,10256.143346906782
51,-56052.295703125,2119.8637798900577
52,-52196.880078125,3379.0221074481206
53,-51449.1287109375,6914.626576161478
54,-53361.196484375,2355.306298627583
55,-53762.601953125,6440.800048781844
56,-56396.631640625,5046.581426457378
57,-49213.0294921875,6517.959508504802
58,-62766.04453125,3988.272786481057
59,-51962.805078125,2440.763677902336
60,-57457.4091796875,4798.218812049507
61,-54641.99658203125,16941.02216339886
62,-47687.383203125,2855.749967545759
63,-49258.587890625,2355.824584464079
64,-51831.786328125,4514.908815852756
65,-75002.84453125,7677.731153626701
66,-52425.9185546875,3360.287583269231
67,-49708.1650390625,3279.399071005174
68,-47632.578125,7389.487126234871
69,-62125.5341796875,5357.541451296228
70,-49088.1369140625,1951.2697619466774
71,-52596.11640625,6460.706103860184
72,-49602.073828125,6996.452929105722
73,-53343.3697265625,13770.300009506745
74,-51372.9115234375,1815.5322330074064
75,-51257.15703125,6659.598006550013
76,-52471.762890625,9203.83544524557
77,-50124.00625,2229.8220173443237
78,-59990.26953125,2907.1917499104484
79,-52473.286328125,2065.2514995562947
80,-50917.80703125,1890.19265053773
81,-50660.3384765625,2880.8072544758893
82,-52743.0712890625,1987.1660629860187
83,-49130.1853515625,7282.523162957127
84,-55362.8119140625,3997.968288586935
85,-47665.030859375,13835.381644636169
86,-49087.6884765625,12351.72687354051
87,-65931.31328125,6982.06116419539
88,-50675.78515625,2594.313855786486
89,-48762.778125,2206.5938950016375
90,-49326.49140625,9819.842977514558
91,-46111.1458984375,5231.026303479627
92,-57239.5142578125,5367.160548961922
93,-57400.8673828125,8632.213595250145
94,-44890.77138671875,8738.579981377976
95,-45880.7271484375,5893.8208694490695
96,-52555.0275390625,2394.614529725166
97,-52426.361328125,2268.3604307519377
98,-55673.6521484375,2543.422160450835
99,-52480.96484375,2372.452592003284
100,-48235.3865234375,7339.700103357893
101,-54980.113671875,2497.71936323342
102,-57731.9732421875,4092.8802830529153
103,-55513.4111328125,4139.787775024161
104,-42010.51337890625,5918.096208583377
105,-52679.9673828125,5475.188401137857
106,-49963.6763671875,3152.2270776509326
107,-59034.1322265625,3527.1011734850167
108,-42299.2869140625,10612.854711183334
109,-54497.340234375,2702.033785383572
110,-42248.494921875,6481.275831869483
111,-59056.4435546875,8323.74524140313
112,-42103.455859375,9448.146474161504
113,-52393.8705078125,2552.3942099165765
114,-45387.8552734375,4040.2101534761937
115,-60250.878125,3646.7778916309626
116,-48740.1392578125,4048.9007688453207
117,-48228.4150390625,6461.082473630444
118,-47826.16640625,7566.07270319854
119,-44703.4978515625,4531.241088536575
120,-50425.7349609375,3472.135570320712
121,-49908.4259765625,2469.0641041750264
122,-48426.84296875,4352.712109186523
123,-41457.9384765625,5172.405155778981
124,-56109.7109375,2427.777525628122
125,-42294.5681640625,5819.1389424785375
126,-47204.7412109375,2281.846668885347
127,-45843.858203125,6927.379395896299
128,-50057.0958984375,2566.8667201857593
129,-53530.9400390625,2422.9649230868636
130,-48375.70390625,2313.0143774007456
131,-47142.0458984375,3247.1497704852472
132,-41063.1572265625,7412.32348629658
133,-45885.8623046875,2284.9284102699385
134,-43413.3580078125,5101.847417870096
135,-55892.7013671875,6102.899320538163
136,-44735.5791015625,2103.08847553428
137,-51847.5591796875,2107.264656793172
138,-49184.103125,2126.7937535237807
139,-50853.7873046875,5871.339492252185
140,-50109.2958984375,2093.7741369202818
141,-49954.0865234375,2175.5246568949724
142,-46207.0892578125,2445.071531707183
143,-51521.2736328125,2302.4792525948133
144,-47967.0744140625,2003.4083972209494
145,-49828.8376953125,2963.2856570588883
146,-50146.58046875,2457.7398836101383
147,-50147.575390625,2447.9028282891586
148,-47392.2005859375,2028.3051432863936
149,-52307.5443359375,2466.324300019367
150,-45374.6068359375,2662.401705226637
151,-49815.0134765625,5311.114954933181
152,-48356.621484375,6771.149866120477
153,-41835.2498046875,5114.3121939942575
154,-50774.730859375,2193.1452652233256
155,-46201.0904296875,7150.919977197507
156,-42549.317578125,6057.478400595942
157,-46468.420703125,2577.0497028098052
158,-44983.384765625,2490.244536060305
159,-37691.3958984375,5614.193390475471
160,-40572.92041015625,8212.900186337443
161,-47468.74375,5641.233348443943
162,-49511.5119140625,2722.863063202961
163,-44296.69375,2728.2945575209746
164,-52491.13203125,5219.4921248351775
165,-48867.73125,2425.3524321283962
166,-47497.9921875,2534.9325388339043
167,-48803.180078125,2798.5970743588355
168,-42878.62763671875,8926.486045379797
169,-42761.68359375,6584.237559266647
170,-52885.77734375,2617.3388202602273
171,-53813.5478515625,2868.2243240016837
172,-55858.6251953125,3103.1635354171776
173,-53637.9736328125,3024.10131566378
174,-49603.5,2575.964340958881
175,-48731.2853515625,4133.712507366712
176,-54069.669921875,2891.8374589836053
177,-53313.9775390625,2835.57170282147
178,-49256.9916015625,3916.0002472929586
179,-48046.7466796875,3190.028596874066
180,-43826.761328125,5043.297698851898
181,-39667.1640625,9485.851874280572
182,-55392.165625,2705.719978659389
183,-45296.3611328125,6973.253147172589
184,-49022.5408203125,4629.200726023733
185,-48220.3263671875,5274.088310651157
186,-43914.8494140625,5931.935292260089
187,-52329.44765625,2368.36051068422
188,-49686.2361328125,1974.048979916421
189,-48056.158203125,2824.854027826946
190,-45562.938671875,2221.7892441387494
191,-49651.4693359375,3110.659639034121
192,-48762.8986328125,5674.52533147389
193,-55602.3833984375,2513.6850476706845
194,-54801.7537109375,2688.7348655056885
195,-43933.3767578125,2064.115715666013
196,-41977.0966796875,5132.578816767901
197,-47061.9291015625,2153.3490950989762
198,-50216.24375,2337.1743104499205
199,-45290.9052734375,6062.070277609061
200,-65223.9859375,6772.8182513431075
201,-53704.339453125,2588.272630365997
202,-53248.08125,2481.93038786115
203,-50957.815234375,2231.627615242641
204,-45136.515234375,4074.180009999765
205,-50711.446875,2098.7274358620944
206,-39163.719921875,3667.835285487869
207,-53017.6845703125,2520.752351878714
208,-46772.8328125,3893.5735008127276
209,-45568.2556640625,2795.801569598099
210,-44851.00703125,2009.2943282641804
211,-42489.1337890625,2218.325334029928
212,-52852.69921875,2689.8320872651652
213,-49486.849609375,2351.8261992234698
214,-41796.397265625,7324.160593930062
215,-39465.70302734375,6451.22775827408
216,-48061.5228515625,2732.8955238129683
217,-45596.6802734375,2406.2317348913853
218,-61471.88671875,4150.397939957525
219,-42085.1771484375,5984.749945226724
220,-52914.968359375,2865.2655917625952
221,-52050.4798828125,2638.457742559403
222,-39929.42783203125,7650.91715767997
223,-52891.7623046875,9882.38241199594
224,-36887.62001953125,6871.126131164746
225,-38621.437890625,3649.9597666973073
226,-56036.3271484375,6961.241619326794
227,-52022.7138671875,2511.80006732671
228,-55051.822265625,2774.169698622439
229,-40116.1837890625,5812.433923227235
230,-40809.9876953125,6208.370731731577
231,-46115.8115234375,2393.002826429763
232,-37640.03271484375,8949.636271896794
233,-50105.525390625,2706.107099589557
234,-44385.391015625,3415.368862180265
235,-47846.7560546875,2513.0800205711953
236,-53014.5044921875,2545.0649891072953
237,-55703.87890625,2834.798950927
238,-48816.56875,2991.60257529362
239,-55958.2833984375,2819.562057393808
240,-49576.4326171875,6829.115286866156
241,-43467.9,4596.503842772197
242,-51171.5056640625,5138.799525696263
243,-46552.184765625,2910.3952030570954
244,-44795.4611328125,5209.274928744993
245,-48002.8419921875,2663.8574013867956
246,-43746.1279296875,3007.284889641728
247,-50332.4802734375,2787.4058692655954
248,-53292.1916015625,2998.679610281077
249,-46340.1505859375,2843.0781945762533
250,-38268.445703125,4390.3488733397335
251,-48987.754296875,3490.1416212886634
252,-38785.92255859375,3361.1090249454965
253,-57174.56484375,3676.3249736759344
254,-53643.4498046875,2879.763097083704
255,-44799.348828125,2861.647347138198
256,-35677.09560546875,4285.730664815936
257,-53914.610546875,2714.9724847195544
258,-49814.2203125,2856.1577421199986
259,-46891.3052734375,2274.5258952739136
260,-32996.7822265625,7646.289989407063
261,-45461.9169921875,2410.3318407002616
262,-38605.64462890625,5269.886300070737
263,-42440.32265625,3224.504308923796
264,-45327.5953125,2309.2975663110637
265,-52565.7287109375,2903.9699403753107
266,-49268.1306640625,2714.271623743958
267,-37370.6673828125,3779.7093622281936
268,-44239.1984375,2870.8699340732032
269,-51424.5365234375,2343.1464561853763
270,-51396.7595703125,2549.874307746361
271,-40964.7302734375,3346.6429129609965
272,-53970.4568359375,2606.6800387397825
273,-48992.0056640625,2812.041618778373
274,-41147.6005859375,4513.061931635503
275,-45465.971875,2360.51579036416
276,-39379.0001953125,3165.922541820761
277,-40086.8177734375,4550.301987962088
278,-51519.3267578125,2923.278499523207
279,-55004.505859375,2983.629813577096
280,-41917.1587890625,3064.5769827638433
281,-52646.50546875,2846.6070117776976
282,-44487.8453125,2547.3555088007984
283,-33496.95927734375,6181.943217994409
284,-38680.3296875,4708.2801999581925
285,-53195.8978515625,2657.1846044154627
286,-46636.6431640625,2435.907325848207
287,-44033.3013671875,2902.5974366037026
288,-49511.5669921875,2570.4638220550564
289,-43459.22578125,3493.6177929217456
290,-43891.585546875,3858.6593422489364
291,-42001.7431640625,2581.118664927229
292,-46797.9298828125,3731.2640001709433
293,-57625.91953125,2446.0969900910627
294,-48787.008203125,2258.3157641522903
295,-52967.6298828125,2659.0007347556034
296,-54334.6044921875,2911.5237650327354
297,-51177.5486328125,2495.4858762691006
298,-39989.346484375,2106.0631605243243
299,-55010.365234375,2195.936954422418
300,-52299.09375,3040.9780716719797
301,-53574.3833984375,2869.853887049977
302,-52715.582421875,2760.180169690777
303,-47268.8060546875,2437.115318496843
304,-43563.3720703125,2971.9677474046684
305,-43472.276171875,3492.6821054050506
306,-54129.3439453125,2938.1843819935384
307,-48510.3009765625,2724.2808113666842
308,-51991.35703125,2740.854856316466
309,-45828.5150390625,2600.152336324474
310,-55012.8845703125,3053.8264394201506
311,-41487.342578125,2776.0579175044168
312,-50484.1880859375,3642.5656248037185
313,-49651.6423828125,2951.2503303828107
314,-45268.2595703125,2435.3224687054353
315,-41217.370703125,3302.8293105067505
316,-49476.955078125,2558.0565024396783
317,-48107.9748046875,2840.831938706625
318,-34173.8541015625,5068.635135505167
319,-46069.2033203125,2754.0164877624397
320,-53393.9677734375,3009.06391350489
321,-45479.4216796875,4471.782010641284
322,-40792.6107421875,3777.524273490605
323,-43588.7197265625,3868.011075258992
324,-48948.37265625,2938.494836818332
325,-51563.6791015625,2867.533453852266
326,-55492.5072265625,3042.011810993406
327,-40859.9638671875,3183.1657669593374
328,-43262.44921875,3668.2663392182403
329,-41280.873828125,3423.9496366373405
330,-44683.86328125,3114.3708771012507
331,-44740.6328125,3140.2970456067696
332,-52910.1869140625,2458.484264282077
333,-48257.2970703125,3106.332015637073
334,-44150.6068359375,4452.355999658989
335,-53968.0181640625,2981.8034182528168
336,-37093.56298828125,3152.930797930426
337,-51520.6169921875,2842.6269934208904
338,-50073.6880859375,2837.4308805763267
339,-53495.3966796875,3137.2683059116903
340,-45830.0724609375,2682.3786762384543
341,-42836.319921875,3158.02689148828
342,-37622.180078125,3993.80209459348
343,-51556.5724609375,2856.4953464614987
344,-50440.5453125,2889.217867815099
345,-36694.84921875,3206.894653304198
346,-47384.2806640625,2708.7289359666843
347,-55740.6607421875,3436.4730573793313
348,-30539.3427734375,2842.810026498427
349,-42961.6662109375,3116.4795232915576
350,-39380.93447265625,2989.3050727124905
351,-43012.4212890625,2623.7204308489627
352,-33236.79599609375,3892.957065014141
353,-45473.00078125,3622.7225850289187
354,-34340.1634765625,3202.200173412039
355,-49086.2259765625,2517.8105030492766
356,-28438.57314453125,4404.286141273838
357,-55784.361328125,3330.225194783811
358,-45712.412890625,2767.7365751583275
359,-35419.7248046875,3013.6413162315
360,-58009.7904296875,2954.5946541047215
361,-47002.2640625,2685.366015844759
362,-33517.66259765625,3668.4741550814633
363,-55349.2966796875,3531.1781214950793
364,-53912.6162109375,3291.95832461908
365,-46373.215625,2974.2945077787244
366,-49707.36796875,2914.3409197759624
367,-33416.84794921875,3051.9250742432864
368,-51439.723828125,3032.1581913442396
369,-46157.3009765625,2854.0842141065623
370,-52078.551953125,2728.7667111280375
371,-50065.680859375,2575.647247178709
372,-40485.4697265625,2518.3274721127113
373,-49239.72421875,2831.00101712434
374,-51838.5103515625,2837.283252825604
375,-45753.5234375,2881.8616098425514
376,-52673.6396484375,3678.0189981400076
377,-46626.3599609375,2625.627798526899
378,-31315.09716796875,5790.424072529611
379,-49116.792578125,2321.0699868112542
380,-53361.40078125,3435.2574449996164
381,-44785.6458984375,3010.349248911675
382,-38180.4830078125,3948.281437638674
383,-31676.35166015625,3654.460931272905
384,-41711.2314453125,2949.4916219087263
385,-51107.248046875,2979.305919514679
386,-42053.4166015625,2962.194516886425
387,-33332.66708984375,4378.626704801913
388,-51595.9361328125,2821.2725212270575
389,-42352.647265625,2537.2745889369908
390,-50675.995703125,2953.166286923045
391,-45640.0966796875,2451.691978269154
392,-50930.6568359375,2774.3226817616846
393,-46871.7896484375,3076.997987038831
394,-53312.539453125,3145.5564182325465
395,-54782.4458984375,3031.0313594192066
396,-46506.2115234375,2589.752856378417
397,-46695.820703125,2731.757777882295
398,-48471.003515625,3505.554642708263
399,-52620.8451171875,2905.793510902022
400,-44179.6404296875,2758.285854461645
401,-52810.9447265625,3797.8734982307733
402,-54390.298046875,2560.3090330154596
403,-46018.6501953125,2476.1420207613487
404,-49116.0009765625,4447.675474152172
405,-50794.66953125,2976.7495410956067
406,-41144.196484375,3228.227207145169
407,-55618.994921875,3253.7091819920165
408,-50546.495703125,3815.8711599492085
409,-48890.2923828125,3068.3780770381754
410,-26739.2875,6281.309632648727
411,-31618.990234375,6162.869768855225
412,-52169.7474609375,3803.8421414135914
413,-47809.380859375,3102.325300277456
414,-41135.1736328125,5187.242842583796
415,-30402.95107421875,5777.859140704588
416,-44925.609765625,3399.1930978815153
417,-52401.0248046875,3251.7200806573505
418,-44616.151171875,2213.3578360816346
419,-33052.0662109375,3099.361214163274
420,-45796.9521484375,2412.027831540412
421,-48024.227734375,3195.127463133563
422,-45798.1412109375,2829.047717263868
423,-42363.70234375,2436.2625815255756
424,-34362.65068359375,2336.5898558489966
425,-44506.4234375,2396.685268444143
426,-41008.6501953125,2540.861347033772
427,-51247.5728515625,3458.0227021720957
428,-43441.977734375,2000.3533906107011
429,-54131.0052734375,3973.582714376697
430,-34469.19091796875,2987.022821224329
431,-47539.674609375,2991.6589075383913
432,-46551.8322265625,1995.9426459286353
433,-50312.4322265625,3269.8882417798745
434,-32614.87939453125,3238.421620783237
435,-44989.1841796875,3451.99996282378
436,-44377.8150390625,2354.6186710703428
437,-47946.0498046875,3194.9004289014865
438,-49321.153515625,3029.280736447859
439,-41444.772265625,2568.676388846802
440,-45407.040625,2562.4498719874236
441,-45726.6578125,2620.2515953436605
442,-36556.247265625,2849.5214393603314
443,-33111.89072265625,3915.1262065128394
444,-53561.3166015625,3420.490891836564
445,-50867.9998046875,3177.6108049601016
446,-39709.7951171875,3238.5600442082014
447,-48933.534765625,2652.8219466392447
448,-49147.30234375,2693.118283257357
449,-36084.845703125,4298.958367244532
450,-52615.8986328125,3255.950472100623
451,-40611.90625,4201.440187190496
452,-48990.785546875,3044.1354844062234
453,-52791.3369140625,3372.072271419409
454,-48293.0353515625,3184.949226500361
455,-37563.601953125,2490.661704603316
456,-50432.2900390625,4844.259850194031
457,-50498.388671875,3055.7583285581736
458,-55579.4314453125,2812.4159563190224
459,-35259.5421875,2617.942719468298
460,-32276.1462890625,3197.819401584621
461,-50201.1470703125,3110.5079244449917
462,-47213.208203125,2960.0976911010325
463,-42246.4072265625,2764.947040434736
464,-40310.516015625,2214.4865974755903
465,-47567.58828125,2327.19580470422
466,-42089.9083984375,1849.3388925446475
467,-45819.0173828125,2859.5415847624017
468,-51989.319140625,3451.772849433749
469,-45685.4849609375,2872.4980929174703
470,-35947.8154296875,2999.157153963547
471,-50398.0912109375,2429.154705035081
472,-49294.80390625,1834.736245763142
473,-51635.330859375,3460.0669368992467
474,-52826.7470703125,3179.941725025367
475,-40005.176171875,2887.1373616155283
476,-50239.2650390625,3077.1296415004026
477,-45052.9,1875.830018000209
478,-41265.262890625,2043.2237382294345
479,-53219.786328125,3150.5359763049023
480,-36373.417578125,3256.801102266357
481,-43822.120703125,1827.005915715162
482,-46631.4015625,2536.215529610653
483,-34949.981640625,4290.829533291163
484,-53205.8521484375,3587.0797423690956
485,-51084.234375,2865.8511309049136
486,-51459.80546875,3347.372776297589
487,-49880.5369140625,3534.842999724576
488,-52175.9236328125,3489.300635674822
489,-48102.902734375,3089.085723445711
490,-44884.0734375,2357.1332688925218
491,-40842.4853515625,2026.3724037842783
492,-46215.9390625,6335.149010420406
493,-52982.9236328125,7027.809228470733
494,-37127.81279296875,2185.4412482209655
495,-42087.194140625,2354.95464964727
496,-45008.959375,4607.5767338378355
497,-44804.73984375,2656.3174225394255
498,-46695.078125,2204.7648247733086
499,-51943.3291015625,2305.522695849155
500,-50406.3783203125,2434.587862319315
501,-37871.609375,1882.295088734553
502,-50522.56484375,2359.9812458807405
503,-49944.7826171875,2795.475435987308
504,-47976.188671875,2174.2647542628024
505,-37648.664453125,1804.6293614002977
506,-28972.13154296875,6353.60688188155
507,-49841.226171875,3534.849279597891
508,-44744.3455078125,2323.1291663616057
509,-49322.80625,3426.94495322065
510,-33378.384765625,6020.3517527526155
511,-43456.2443359375,1742.1258001872575
512,-39277.89921875,5378.03065206881
513,-43927.05078125,2107.63771920927
514,-41183.4083984375,2645.432459079472
515,-50172.8607421875,2565.5058141809473
516,-46785.429296875,1591.6491861575878
517,-38120.8439453125,5764.8376416879855
518,-36717.442578125,4088.136478835786
519,-36700.9931640625,4021.8514497788133
520,-49957.1001953125,2219.6042802222096
521,-37215.384765625,2703.530437799333
522,-31515.5119140625,4083.886926118538
523,-37075.3287109375,2754.4791400379986
524,-41915.5294921875,2023.8748122255556
525,-46531.94140625,2626.5526284258513
526,-32212.4294921875,4273.986966920406
527,-43959.4146484375,3442.6753045609876
528,-52203.9775390625,2769.6174475712755
529,-32913.68544921875,4073.979923653538
530,-48372.265234375,1520.108367537782
531,-40065.6958984375,3387.437346335249
532,-48824.8759765625,2739.740213279778
533,-45491.229296875,1839.9259201180814
534,-39070.626171875,4839.812123983651
535,-38708.9103515625,2599.885397798449
536,-51145.3412109375,2352.705640089989
537,-38738.5267578125,2947.218103047665
538,-41050.9833984375,2095.410908154064
539,-35688.3724609375,3889.3683895525614
540,-46267.562109375,4468.834622714787
541,-30103.75556640625,5457.718926161117
542,-28983.85576171875,5565.021973708071
543,-45729.45234375,1990.935887264702
544,-38205.9404296875,2984.1182466426308
545,-49764.7625,3093.810046910169
546,-47062.0185546875,2055.184367111236
547,-51564.3818359375,4726.798635868399
548,-50347.4640625,2796.0880427838206
549,-52318.8611328125,3885.0391811362783
550,-47372.48828125,2314.6533058020773
551,-47751.826171875,2639.4630271631618
552,-32149.21708984375,4459.296604911155
553,-33495.57255859375,3963.9474853812467
554,-31585.64619140625,4137.849863054218
555,-49320.666796875,2579.869255911765
556,-37969.68984375,2979.7791841640824
557,-48426.156640625,2520.7035774142614
558,-46638.6513671875,2069.6392465340127
559,-37711.008203125,3545.399655112422
560,-39923.951953125,3428.27385319406
561,-34874.30322265625,4419.492814343343
562,-43027.304296875,2162.2250694651825
563,-43529.283203125,2879.7524303189903
564,-49140.0423828125,2206.874150120557
565,-49610.04140625,2961.9852349158386
566,-50871.5203125,3013.2185231820254
567,-45797.5255859375,2795.3164904671994
568,-51131.7666015625,2961.200768896752
569,-50233.194921875,2806.8382616359445
570,-32182.09091796875,6130.998026314562
571,-46007.824609375,3006.2255515543216
572,-28827.82998046875,7692.338122841248
573,-43024.7818359375,3298.495866712791
574,-49550.5740234375,2622.1240582898026
575,-51805.289453125,2933.0458261472622
576,-40463.1279296875,4641.605851286329
577,-51533.796484375,3199.8802782543735
578,-44808.8697265625,3548.428885066987
579,-52595.7205078125,4211.477810431593
580,-42855.423046875,3408.699489392476
581,-42481.582421875,3229.20738243406
582,-36537.889453125,5117.755336770335
583,-49833.7326171875,2715.8605839658676
584,-41401.490234375,3297.752120565323
585,-39317.29921875,3349.901594776475
586,-47823.2009765625,2804.533401924333
587,-48515.964453125,3085.500139433308
588,-46686.6205078125,2575.8084623861923
589,-51417.4458984375,3726.793932954255
590,-41339.515625,2969.5705769800024
591,-44069.457421875,2866.506537647441
592,-46851.9384765625,3211.0044196742924
593,-37745.79775390625,3069.640653532459
594,-44736.7642578125,2635.5868502178623
595,-49461.5896484375,3759.0824737984717
596,-39162.58359375,3336.676882129891
597,-42643.5681640625,3197.2271544902915
598,-41278.6830078125,3294.4512526242934
599,-43615.3470703125,2846.592967439088
600,-46559.2939453125,3006.836562920596
601,-31261.9744140625,3818.4077374307444
602,-36876.78662109375,3804.018328746121
603,-48054.894140625,5701.92381376549
604,-53438.1140625,2996.735120863029
605,-40424.387890625,3470.5836273557884
606,-52858.0740234375,2725.1911906846144
607,-44866.876953125,2846.413832232337
608,-49062.7666015625,3513.9486298253223
609,-31363.74130859375,5424.821746823371
610,-34606.28681640625,3580.43374735811
611,-36904.4240234375,2941.630184522678
612,-36302.17021484375,3718.3918756464386
613,-51946.491015625,2720.3549276301515
614,-45481.73125,2775.7629732908053
615,-47136.92109375,2618.79869510233
616,-30021.1603515625,4722.538348471742
617,-45221.1515625,2786.217257032156
618,-40304.23828125,2509.7185218892723
619,-48542.3955078125,3328.363491419364
620,-28786.39873046875,5967.5848064052025
621,-41522.1220703125,2757.4104291864273
622,-36925.29384765625,3093.7340161143134
623,-38707.41943359375,2754.411760565828
624,-53994.5689453125,2436.053651015705
625,-52765.5287109375,2325.420989327216
626,-47214.3947265625,2431.670549373626
627,-29108.2359375,4631.029493048478
628,-50619.3509765625,2452.1036670483236
629,-38928.0142578125,3074.020008727963
630,-52232.7548828125,2646.680398939234
631,-46616.4341796875,2221.811974365246
632,-34987.1494140625,3380.9963521563413
633,-38919.35966796875,5110.759168185149
634,-43782.510546875,2213.102240025609
635,-49775.379296875,2334.0803082072125
636,-51020.4591796875,2485.5313826320685
637,-44235.98203125,2467.8499238506743
638,-32771.25390625,2953.475729988585
639,-50050.7931640625,2132.6640468737246
640,-40185.0755859375,2037.9637694245635
641,-49223.3876953125,2136.0107673769658
642,-45422.054296875,2224.504199195546
643,-43768.79609375,1952.8852528309983
644,-51497.632421875,2610.9539989645573
645,-46073.7966796875,1968.82798380182
646,-49080.2986328125,2588.2719644378467
647,-43534.2849609375,1919.8057667704443
648,-38274.738671875,2412.397552095726
649,-46862.199609375,2643.199701999129
650,-48790.21875,2452.994689842663
651,-49071.0236328125,2289.7818350679495
652,-49935.80703125,2256.2584522835537
653,-41143.191796875,2098.050512700305
654,-45478.91484375,2577.906837773704
655,-38810.4244140625,2941.1470821881962
656,-38524.7681640625,2628.0580456674684
657,-42779.4892578125,2720.893466104618
658,-40869.610546875,2429.2481858086353
659,-46731.023046875,2465.7379584267082
660,-42706.5501953125,2342.043764383803
661,-36452.18671875,2493.7740033518876
662,-40481.1978515625,2681.1153712328755
663,-52490.717578125,2583.959060586183
664,-34750.10048828125,3555.7897137008204
665,-53624.18125,5272.923400698351
666,-38188.362109375,2833.9614545307677
667,-47761.9314453125,2228.5587027156585
668,-49814.1630859375,2213.110396788195
669,-51931.9087890625,2845.4513289447573
670,-43918.231640625,6002.982680949632
671,-27095.1630859375,5732.159430862528
672,-37607.1111328125,3342.6810612157283
673,-50405.76640625,6037.073873435429
674,-49933.3853515625,2450.34675221274
675,-41481.5369140625,2787.641101388569
676,-37111.78251953125,3387.2056647174672
677,-45843.916796875,2286.5739014265487
678,-39720.0212890625,2555.1499807585947
679,-47985.1474609375,6297.142009191282
680,-37358.1453125,3272.342592191377
681,-39020.9544921875,3289.3041068037855
682,-41392.53671875,2778.749867420929
683,-42903.1166015625,4579.672827050011
684,-44623.0548828125,2442.765473699388
685,-51624.7201171875,2832.259633935401
686,-38500.970703125,1977.7179934877695
687,-34090.03720703125,2984.1517673323046
688,-46289.4224609375,2706.807342466539
689,-50780.1591796875,2940.069966291493
690,-52687.9953125,6715.303121054593
691,-46078.5603515625,5024.525485663281
692,-26795.8150390625,5840.178016063363
693,-41006.2197265625,2139.8790465339334
694,-43042.961328125,2234.686807995189
695,-52851.816796875,6898.443273122197
696,-48605.1583984375,2881.0234328518204
697,-45382.20078125,2124.158274046828
698,-46656.07265625,5429.879873933792
699,-48263.440625,2932.85690706924
700,-42989.01328125,1740.1109053466948
701,-41726.1947265625,3779.2271807665147
702,-45836.595703125,2244.99816817228
703,-35014.381640625,4121.1066524015105
704,-42182.888671875,9165.90184295901
705,-40520.3900390625,1925.8367837518806
706,-39299.5724609375,2791.7773092066027
707,-28865.81162109375,6340.527525019216
708,-38265.543359375,2734.43928213388
709,-44468.9611328125,2109.0083208745573
710,-39939.6443359375,3178.805283768955
711,-45852.7708984375,2895.2925558094116
712,-44526.1919921875,1813.4345940070316
713,-50802.4171875,3686.2668558933256
714,-37128.23095703125,3173.7340601182
715,-36386.44794921875,3488.4656003565324
716,-50464.5919921875,6958.365784559542
717,-45206.0115234375,2481.1083674993197
718,-43046.701171875,1237.14995866498
719,-51768.9564453125,6247.5292716033855
720,-38987.8416015625,2589.93221235297
721,-54343.7625,4663.005685835875
722,-41929.437109375,1612.2449797492673
723,-42652.905078125,2153.326260776613
724,-47386.346875,2142.048844439885
725,-36308.64150390625,4517.0269215516255
726,-29066.885546875,4612.956012268659
727,-54564.6369140625,3476.7826436009104
728,-49794.5978515625,2887.761895997587
729,-45538.431640625,2388.253930181486
730,-48520.102734375,2618.0452400035
731,-41285.88359375,2389.953674756351
732,-51447.716015625,4447.958929398873
733,-39468.3724609375,2370.8871967327245
734,-47364.7298828125,3104.1235104125494
735,-39413.0466796875,2651.3584993750014
736,-46689.9640625,2948.93511500664
737,-45226.0796875,3826.6725312872904
738,-27955.32568359375,6896.545621093353
739,-50556.5583984375,3310.024755096404
740,-43232.215625,2280.010936102355
741,-46124.9337890625,2582.1674729635965
742,-33746.731640625,4261.388029833322
743,-44122.598046875,2579.3560222180004
744,-47423.0220703125,3567.618645311226
745,-38052.813671875,2074.7579424222763
746,-53764.91953125,6301.718868651023
747,-34540.1830078125,4814.637987088578
748,-41168.9208984375,2550.813512077595
749,-46243.0611328125,2867.259527359531
750,-40869.433984375,1969.8165157601777
751,-40799.171484375,2643.2125450713756
752,-43917.4490234375,2326.2756841467562
753,-43184.275390625,2738.764594182209
754,-45924.953125,2918.7746936169456
755,-42082.1359375,3471.5983360243904
756,-53980.7130859375,5803.410372550916
757,-42842.2962890625,2907.339994916709
758,-50430.160546875,5696.398551723426
759,-50635.7994140625,4117.294587857591
760,-34551.05712890625,4378.5072504606205
761,-37302.2900390625,4568.858466147051
762,-48687.9470703125,3281.159379578827
763,-42902.281640625,2551.9415828822757
764,-34388.40947265625,4157.402767628417
765,-40688.0056640625,3618.9126896347466
766,-42752.640625,2749.393292643609
767,-50081.6841796875,3229.701926384782
768,-45475.53515625,2733.392918281651
769,-42395.8666015625,2442.456735144699
770,-32741.96240234375,6014.58043657313
771,-46916.307421875,2100.4612578860574
772,-48316.8158203125,2831.3377037327327
773,-51569.798828125,3961.4430509777985
774,-48280.437890625,3011.548724599834
775,-39930.03505859375,3513.5528158760817
776,-50244.293359375,3376.1065430744293
777,-32205.0376953125,4559.424700468686
778,-43345.3052734375,2327.446981096624
779,-42170.2,2103.5562482463924
780,-48199.6404296875,5415.402972702566
781,-32507.787890625,6065.336763057491
782,-38181.90205078125,3579.6292752952113
783,-47776.1177734375,2742.7073079384822
784,-39413.503125,3044.4930191239673
785,-50674.066796875,3901.63126585924
786,-44595.6615234375,2882.257224341133
787,-28075.975390625,9553.703839316595
788,-40872.069921875,2522.9325594690513
789,-37644.9837890625,2653.362826396806
790,-46331.403515625,2441.2217460167244
791,-52264.9853515625,3862.261137362498
792,-42681.9162109375,2291.2226567106745
793,-43868.6181640625,2529.477150781581
794,-46526.642578125,2307.578554479663
795,-44149.0173828125,2530.0698665023165
796,-38543.2806640625,3303.8050653769187
797,-32341.47626953125,4100.345719300663
798,-52698.1478515625,3411.567617024497
799,-44391.962890625,2900.7360314444904
800,-39540.583203125,2512.9088976093367
801,-48505.47109375,3069.551821652709
802,-41331.0109375,2614.5174292969505
803,-47941.1603515625,2885.298925675671
804,-47857.4869140625,2829.068611164214
805,-42952.840625,1813.0868871677433
806,-44848.610546875,1926.1514182673418
807,-47207.2263671875,3030.516313897458
808,-53545.7609375,3596.4449428395565
809,-32399.451953125,4796.276698560153
810,-36930.7333984375,3568.8671778144076
811,-48488.5646484375,2615.1920976726165
812,-48722.2943359375,2373.058788984777
813,-44024.1375,2205.688643561904
814,-36437.4623046875,3102.3127412699887
815,-29408.2818359375,5807.56713992543
816,-50903.2203125,6645.728295335529
817,-51284.278125,2477.1713651858945
818,-42020.1115234375,4844.1166388514885
819,-42333.7486328125,2443.5787983125765
820,-45684.8681640625,3151.6597945379526
821,-32802.43544921875,3593.6011078798047
822,-45068.483203125,2901.395737476049
823,-44177.46328125,2930.16383499127
824,-39022.4689453125,2111.6591437378756
825,-50421.569140625,2761.0298369945926
826,-44594.3123046875,2229.0602321906736
827,-35033.26640625,3507.5284124672226
828,-45792.7794921875,2891.716440194076
829,-46926.411328125,2434.4574187749263
830,-49005.5552734375,3194.119093949316
831,-35746.5193359375,4694.17004531048
832,-41898.026953125,2337.918353408266
833,-32312.2328125,3371.2874579171694
834,-44341.7193359375,2900.191605245215
835,-50839.56875,3384.049571892654
836,-29675.85703125,5539.875740870903
837,-49641.7556640625,3117.209054765818
838,-43187.86640625,3452.9419167335245
839,-52047.9859375,3859.47108826316
840,-39450.8349609375,2650.8412477566853
841,-53178.544140625,3621.5422188056864
842,-49261.9056640625,3644.606887476542
843,-37750.18427734375,3825.8447544956116
844,-38516.1951171875,2606.239122159868
845,-47477.8798828125,3167.605084680588
846,-45368.9025390625,2379.1664087509052
847,-43186.8537109375,2502.8635232709175
848,-42487.3150390625,2740.8300169704767
849,-49226.14609375,3618.5859962326927
850,-44869.676953125,2937.60944104228
851,-41628.8517578125,2266.476827669537
852,-42348.32900390625,3618.8494883493286
853,-35949.26103515625,3080.1014435669395
854,-44388.1056640625,2639.7709386624215
855,-39547.527734375,1975.1997265953828
856,-47098.4505859375,3450.127920743892
857,-42692.4478515625,2537.112474358575
858,-45792.194921875,3544.9034346804083
859,-42937.7685546875,2506.4658932611133
860,-48477.5359375,3746.3626072852994
861,-49184.7134765625,3441.606765509179
862,-46777.690625,3187.174364884532
863,-39953.5125,1949.7318503775768
864,-27246.92021484375,4275.651389605527
865,-44001.9068359375,1936.5471264744501
866,-49836.8958984375,3273.816320377507
867,-24809.43662109375,5375.303625279567
868,-46193.965234375,3227.553572284636
869,-39074.2986328125,1931.7949151827636
870,-48972.8646484375,3314.0268582075328
871,-44957.0212890625,6255.503097759346
872,-44967.562109375,2452.081970668939
873,-46862.375,2998.958782070524
874,-48289.54609375,3519.8234273810517
875,-32987.905078125,2659.173460431018
876,-43304.3619140625,2410.9411694558876
877,-47925.546875,3534.436592399307
878,-34940.6205078125,2639.545783444086
879,-30708.8025390625,4278.747898460356
880,-40895.8841796875,1900.2434299448362
881,-43418.426171875,2336.4647692808608
882,-29601.19267578125,3694.5131001285663
883,-37331.33876953125,2757.8035818564776
884,-45594.948046875,2812.2238966745367
885,-50582.910546875,4412.988258441784
886,-40991.533984375,2728.824647362824
887,-44704.6392578125,2820.3981446124612
888,-47445.8318359375,3193.934931484009
889,-33759.60244140625,2801.8096389664665
890,-29738.62275390625,4788.310164162391
891,-38757.1728515625,5070.740695666654
892,-32771.12763671875,4372.8199895991265
893,-38112.7306640625,2677.2546632569843
894,-48122.065625,3308.0504924999655
895,-35021.11640625,3319.6491723333743
896,-43559.4669921875,2528.0764873020007
897,-41769.2193359375,2747.757995006941
898,-47185.7384765625,3353.8224576102
899,-47048.2826171875,2717.8668570643213
900,-48590.7892578125,3837.53520092404
901,-38809.03291015625,3097.235021558403
902,-34109.729296875,3830.0254646082913
903,-43196.2755859375,2928.3636694940737
904,-37512.18037109375,3317.224014786782
905,-46978.480859375,3689.0230338033166
906,-48590.9482421875,3043.5846240959554
907,-39290.7861328125,4109.153798842076
908,-42021.9361328125,2329.5386042603222
909,-42054.1572265625,2459.142896305144
910,-32091.68564453125,5199.382331426261
911,-46458.5052734375,2710.271893426567
912,-46919.6880859375,2490.594811382838
913,-40202.0267578125,2417.3755253505346
914,-49706.8583984375,3017.8345706971886
915,-35663.808203125,4648.835537402834
916,-49742.080078125,2834.9160612253713
917,-46194.7958984375,2255.443877137285
918,-47723.50234375,2956.859991168614
919,-49206.546875,3041.569569948344
920,-34082.12646484375,4083.4341929933325
921,-41735.848046875,2503.950059690387
922,-49814.5669921875,5143.537950735371
923,-41563.0583984375,1733.0924686820827
924,-44140.905859375,2270.34825138965
925,-48289.1748046875,2549.748979314687
926,-42099.7591796875,1663.2296867256405
927,-36593.9849609375,2802.120464983283
928,-51928.6650390625,2579.309039328389
929,-39706.21875,1980.2933764175827
930,-46108.2244140625,2710.1172033184785
931,-40906.0041015625,2151.0401495138744
932,-41064.5154296875,2492.720477253379
933,-45114.763671875,1888.6210296871902
934,-47394.0775390625,2416.7956358134584
935,-37133.11376953125,3556.192468593243
936,-36225.15732421875,3363.89715107727
937,-43404.31015625,2733.289399539357
938,-36400.1908203125,3500.556616088361
939,-39229.0783203125,3491.7792804950127
940,-34061.11396484375,4719.302267985535
941,-39871.303125,2941.2096626670345
942,-35988.01865234375,3035.4588430731114
943,-40231.8431640625,2159.60738286467
944,-49270.815625,2863.9953001073286
945,-47161.921484375,2950.391177599314
946,-36290.53720703125,2224.0318976704393
947,-31694.46708984375,5265.350866792661
948,-47598.4724609375,2777.507414456962
949,-43352.0103515625,3560.4963503075523
950,-50241.8267578125,3525.9569600710083
951,-48130.330078125,3617.5076629149416
952,-31465.74853515625,6267.486284568149
953,-49269.974609375,3259.573361581358
954,-49258.6890625,3195.623482602722
955,-35762.2443359375,3649.8044513696623
956,-50248.033203125,3716.427803433602
957,-45431.8498046875,2960.0942600607564
958,-41819.4052734375,2789.282759551865
959,-38024.63466796875,2520.211814647508
960,-33408.11787109375,5055.143818763854
961,-35334.8453125,4236.403826404103
962,-43791.6755859375,2801.1628368899424
963,-42774.3310546875,2548.225319213528
964,-44462.2927734375,3367.674559134292
965,-41072.446484375,3782.3399856421897
966,-46009.801171875,2727.114790232988
967,-46081.9662109375,5285.600280804419
968,-33745.07099609375,3550.4041818428077
969,-34385.351953125,3366.640192484661
970,-44767.4548828125,2653.7753139551614
971,-47157.1216796875,3485.5175629235873
972,-41136.6111328125,2429.7652420099594
973,-34413.39033203125,3469.2782323163833
974,-33640.1203125,4286.425946718187
975,-44839.512109375,3940.2367573096835
976,-39754.951953125,3195.7089694000188
977,-45872.2818359375,3379.069800935267
978,-44713.715234375,3298.278808526436
979,-43604.752734375,3531.511263930272
980,-50198.83046875,4158.766868701458
981,-39844.214453125,3066.7407489622215
982,-44744.90546875,3513.188105982292
983,-34684.4869140625,3635.9049573797793
984,-35499.7400390625,2573.122340528447
985,-40007.8505859375,2506.3487979571587
986,-41894.901953125,2713.484643655163
987,-43071.240234375,2972.9390038345528
988,-43159.3701171875,2550.4452895927416
989,-39617.3478515625,2268.950321949389
990,-38319.676171875,2729.4565403539027
991,-33560.72470703125,5438.974667869103
992,-36432.7015625,3442.9472907753307
993,-27688.7890625,7606.936700183758
994,-47294.3556640625,2859.911291377275
995,-38478.0626953125,2966.618058741404
996,-39718.8728515625,2695.82193619226
997,-41044.380859375,2304.767691809805
998,-34723.09013671875,3534.9846065312486
999,-36814.362890625,2549.2921548232084
1000,-47761.0501953125,3243.1652059042876
1001,-41313.5458984375,1976.5195995691236
1002,-48725.5318359375,3557.329404315192
1003,-37585.1099609375,2080.910572925012
1004,-36469.40888671875,4499.1721912430685
1005,-43859.309375,2264.9786353251343
1006,-39598.9087890625,2261.294037622464
1007,-40394.316015625,2303.1443494634646
1008,-31290.7560546875,4966.014614866896
1009,-47502.8302734375,2934.0165289655674
1010,-42981.1705078125,2262.513946165242
1011,-46738.040234375,3016.2184528505745
1012,-46883.812890625,2647.3297486489696
1013,-41838.3818359375,2499.0338696367453
1014,-51629.7248046875,3499.6508933548366
1015,-36036.37109375,2563.967045278228
1016,-36914.59150390625,3904.875264285855
1017,-47315.730078125,3133.576892435612
1018,-48112.296875,3799.40593965619
1019,-41839.3478515625,3770.344574266965
1020,-49261.1853515625,3885.699577834336
1021,-40744.1390625,2746.154260611269
1022,-38771.8380859375,2317.4339329750783
1023,-32869.858984375,3173.281588860269
1024,-47101.073046875,2711.2553405352023
1025,-39803.3921875,2390.576096866733
1026,-52024.7533203125,3051.0034959854393
1027,-33490.9978515625,4258.69530240282
1028,-45495.2185546875,2316.8037938398033
1029,-41326.3751953125,2105.209357951313
1030,-37197.865625,1683.9931491483208
1031,-39302.203125,4172.126769721815
1032,-43196.686328125,2163.9684810737276
1033,-41480.8693359375,2091.761985537655
1034,-34983.99814453125,2502.5871524016006
1035,-45851.924609375,2478.520090955609
1036,-39136.7515625,1922.9826859234402
1037,-49263.622265625,3145.719225746181
1038,-30095.54130859375,3893.140056334206
1039,-40044.0396484375,2082.832239487087
1040,-46788.0771484375,4432.668799465591
1041,-43297.2423828125,2124.7908483754395
1042,-41265.0970703125,1960.9170944874384
1043,-43288.0626953125,3548.684778122619
1044,-47060.7615234375,2336.3986364627676
1045,-43569.9029296875,2030.3427050068642
1046,-39108.8591796875,2057.6571411746286
1047,-43066.111328125,2355.206533171537
1048,-47900.747265625,2919.655698220316
1049,-41254.3630859375,2381.2655204711623
1050,-42850.5677734375,2353.976591322893
1051,-47448.48515625,3563.4513317677797
1052,-43047.55390625,2224.988143886087
1053,-43520.33828125,2160.364515645992
1054,-26567.9015625,5022.196214049619
1055,-50299.89140625,3938.236305516012
1056,-47207.2189453125,3326.0327486845918
1057,-46132.0646484375,3006.844427798248
1058,-40177.9671875,2505.717273642357
1059,-42309.5798828125,2395.1433291582184
1060,-38444.7322265625,2863.99036538951
1061,-46980.9966796875,3169.062970483885
1062,-37610.32314453125,2943.7371713540665
1063,-36582.318359375,2292.575424184446
1064,-27018.6533203125,4957.947427152081
1065,-30706.759765625,3474.5642633419193
1066,-29571.49111328125,5978.655055845949
1067,-38226.3736328125,2185.6854178543254
1068,-44038.4845703125,2421.9530975898692
1069,-46512.096484375,4997.974107815236
1070,-43308.655078125,2245.489073745792
1071,-46927.3107421875,2892.539671465757
1072,-42823.8998046875,2494.388710691915
1073,-33515.89091796875,4742.26407561303
1074,-50546.1201171875,3889.346376113545
1075,-46357.03125,2350.96286193189
1076,-44561.825390625,2124.7974743316404
1077,-46410.1501953125,2361.9723849606503
1078,-48387.8884765625,2883.088999294701
1079,-44103.2095703125,2981.4760051311982
1080,-37748.4666015625,3379.129239289696
1081,-31145.36513671875,6156.197425717943
1082,-28672.155859375,7787.392720814759
1083,-49268.561328125,3219.6385830711074
1084,-43352.1615234375,2387.3442029194935
1085,-41173.2259765625,1923.8688482707155
1086,-39978.451171875,3143.8561301106415
1087,-41034.3267578125,2543.1333948438178
1088,-34788.13134765625,3283.9480209039975
1089,-47193.7037109375,2710.1287172615034
1090,-38430.8080078125,2452.0635796778943
1091,-49835.7275390625,3646.1552223886974
1092,-36598.81953125,2001.4451407783085
1093,-34427.16337890625,8428.471253420505
1094,-45219.09140625,6786.641564824331
1095,-40536.861328125,2371.657558092099
1096,-33695.7267578125,4093.443200231607
1097,-38713.1927734375,2551.573273329023
1098,-30883.99560546875,4670.96328504923
1099,-36668.1947265625,2761.6216840864818
1100,-37709.979296875,2920.5354216969786
1101,-40043.23984375,2740.075404889765
1102,-40554.7091796875,5590.611933997366
1103,-42612.505859375,2377.0691318518047
1104,-37366.805078125,3017.1675448940427
1105,-40778.9466796875,2700.3089413849398
1106,-50168.0794921875,4031.420474259165
1107,-51891.3904296875,5094.82358278384
1108,-47358.332421875,3198.844742980751
1109,-33933.82060546875,4572.032434861719
1110,-45854.1498046875,3329.0107052336757
1111,-46943.2912109375,3287.2282158052813
1112,-43196.8619140625,2272.074601798298
1113,-43859.9828125,2391.7644457738074
1114,-45179.1283203125,3049.2896642518026
1115,-39719.5806640625,2650.6686237613085
1116,-46364.361328125,3619.28680346159
1117,-34479.05751953125,4435.071279278582
1118,-38634.538671875,3116.6659162027227
1119,-38239.7921875,3046.4914112479246
1120,-38395.847265625,2534.4267016219505
1121,-45067.013671875,5334.75730136404
1122,-46559.22890625,3546.805157349075
1123,-37310.76103515625,2840.1169288956266
1124,-47047.6884765625,3721.8447482342563
1125,-40963.2232421875,2384.484494989858
1126,-43879.38203125,2809.113432504614
1127,-51674.150390625,4125.726477026902
1128,-41509.6056640625,3835.5045494975525
1129,-38825.5740234375,2569.211172564481
1130,-34761.1216796875,2905.6411367959654
1131,-44651.6845703125,2695.0944029126467
1132,-39217.4587890625,2001.876521582991
1133,-43006.489453125,3116.743472248958
1134,-37708.08515625,2175.2292467818875
1135,-44831.6115234375,2690.6800332869466
1136,-45557.9943359375,3187.382717460093
1137,-50180.8193359375,5392.982603420572
1138,-42296.5275390625,2628.0514239093277
1139,-43951.760546875,2834.028470253226
1140,-45344.4578125,3842.8037492108992
1141,-45059.7986328125,2652.2000386627733
1142,-29959.1345703125,6738.269469795039
1143,-40124.9130859375,2430.633749131072
1144,-29419.16103515625,7570.741573293564
1145,-44388.44765625,6308.852121481268
1146,-33630.50615234375,4762.754197862434
1147,-35090.61826171875,3929.352906299097
1148,-47303.8029296875,3660.0350840006345
1149,-43332.553125,4859.845407289892
1150,-28628.5205078125,8119.010517821387
1151,-35333.13017578125,3593.711322888386
1152,-36597.9728515625,2098.0542584807836
1153,-40315.713671875,1539.7474428919516
1154,-34167.25302734375,2376.4424680158613
1155,-49906.96640625,4007.6873007290383
1156,-48849.805859375,3816.4879257421153
1157,-44321.4533203125,2931.1932661945016
1158,-52052.72734375,7027.88283497589
1159,-46087.3419921875,3895.942135026978
1160,-40054.175390625,2714.4401429709005
1161,-46731.751953125,3121.630151517278
1162,-39609.846484375,1883.418860242597
1163,-37119.51455078125,2007.4167499044738
1164,-41737.1953125,5531.455695331996
1165,-33721.92509765625,2703.5697472554025
1166,-40555.4462890625,6977.653572919806
1167,-41920.1865234375,6397.571105456799
1168,-31181.9908203125,5040.689065780482
1169,-43031.716015625,2796.260073874528
1170,-46654.37109375,4141.442591716637
1171,-45613.1416015625,4153.469060697479
1172,-37685.9490234375,3685.094722417444
1173,-48037.087109375,5027.830279869302
1174,-28995.23134765625,5360.25847110827
1175,-32819.90517578125,4262.202359990685
1176,-42043.319921875,3381.0654385260705
1177,-44218.753515625,4108.866922011485
1178,-47794.6396484375,3519.5371245660763
1179,-37307.1017578125,3233.512466482012
1180,-39029.1595703125,3418.086129138575
1181,-45721.668359375,3828.96624858063
1182,-39710.5740234375,2846.28439250942
1183,-47328.8369140625,3655.9552311105053
1184,-40623.292578125,2248.1808994895587
1185,-33129.120703125,4036.4731301356205
1186,-38878.3349609375,2125.9498891660714
1187,-47888.5623046875,3753.829394693523
1188,-42221.990625,2743.372271870493
1189,-45198.6322265625,3775.691799000771
1190,-45997.8138671875,3631.5708185395706
1191,-42196.506640625,2472.5922480236036
1192,-45365.0546875,3511.516085519386
1193,-40811.726953125,4107.017510796095
1194,-49137.4775390625,4248.518204509817
1195,-41516.2193359375,2371.4797841481472
1196,-32482.01728515625,4586.952400004298
1197,-34857.85712890625,5439.10917920491
1198,-43048.6234375,3086.814509681539
1199,-36967.63447265625,2243.6009218394342
1200,-45544.5640625,3732.422670600509
1201,-48254.026171875,4082.550402478868
1202,-47014.947265625,3963.653582254761
1203,-39529.8232421875,2009.3755284443541
1204,-34910.72802734375,5159.408962599651
1205,-31118.129296875,5211.695022912394
1206,-35136.82421875,2420.3760420196672
1207,-43433.9427734375,3080.8257872433323
1208,-46932.0828125,3926.0800621968942
1209,-41311.22109375,3399.5953809246944
1210,-36189.39384765625,2670.598531246651
1211,-45581.4349609375,3148.8377858787944
1212,-39284.4796875,2358.342237729264
1213,-36232.892578125,3071.654665435146
1214,-38348.0404296875,2123.287935787685
1215,-49121.959765625,4494.857151076124
1216,-45607.4265625,4387.015246119653
1217,-39432.90888671875,2664.0319723098173
1218,-46394.618359375,4376.596672678946
1219,-35246.40830078125,2926.8688341772827
1220,-29210.77431640625,5268.468654490863
1221,-34257.61025390625,3293.083538859954
1222,-38717.2076171875,3823.635573497496
1223,-37840.2072265625,2840.9724902711946
1224,-45624.5224609375,3674.453433981612
1225,-40182.10439453125,3011.203515341804
1226,-40090.6767578125,3143.4429367133093
1227,-38002.9171875,3548.7207383913355
1228,-44214.44072265625,6475.6932168625435
1229,-48099.1333984375,6466.390170774298
1230,-42119.926171875,3378.4751659641647
1231,-47269.9455078125,4759.193554406071
1232,-47606.1080078125,4798.353259815164
1233,-43465.794140625,3542.4226503136306
1234,-37826.06552734375,2811.8748599111177
1235,-27504.9806640625,7131.990030260223
1236,-40648.4080078125,3443.3144984527084
1237,-46157.9435546875,4155.722439385857
1238,-49164.3455078125,5043.805589871168
1239,-38714.35029296875,4242.317080381322
1240,-34718.0828125,3036.2053666313946
1241,-43854.6884765625,3618.900117869764
1242,-41612.2970703125,2897.15242575535
1243,-47311.564453125,3918.222635905033
1244,-45219.872265625,3638.331435854396
1245,-47986.353125,5840.4572519728445
1246,-42965.694140625,2821.2503597496525
1247,-33236.86884765625,3607.213696109936
1248,-43499.086328125,3599.7376091486713
1249,-44816.46328125,3807.067093515413
1250,-43857.8634765625,5359.904943955816
1251,-45922.0341796875,7878.71440439405
1252,-42633.4326171875,2866.8784899965926
1253,-43260.365234375,2794.1359007739525
1254,-41337.7466796875,3959.9857373738455
1255,-44313.496875,4003.7725080665473
1256,-35506.428515625,3243.4811192398515
1257,-30798.29755859375,5195.52864905503
1258,-38801.72451171875,2115.1683553327416
1259,-37076.4533203125,4303.944213457517
1260,-43738.9986328125,3891.799959775395
1261,-49303.0677734375,4345.829649174162
1262,-46536.0677734375,3825.329681427461
1263,-50157.346484375,4008.9322495644715
1264,-48246.934375,4593.887655785653
1265,-43662.9201171875,5681.557757149158
1266,-37918.76552734375,2600.8881540683115
1267,-42389.073046875,2819.636357118815
1268,-41995.166015625,6344.807622423128
1269,-39542.3498046875,2118.90420406798
1270,-37019.59853515625,2732.7221335652707
1271,-41978.613671875,3125.5336981709625
1272,-38914.87333984375,2958.7713418145436
1273,-43377.3466796875,3384.697588418347
1274,-33768.766796875,3818.24508347405
1275,-32175.367578125,4854.946213761432
1276,-36996.18935546875,2674.1808193517654
1277,-42076.9078125,2838.1963999310015
1278,-38090.308203125,4794.804753979977
1279,-43496.27578125,3793.167901672107
1280,-50354.71875,5959.6603808619375
1281,-45644.8091796875,3725.114640575482
1282,-46287.07578125,5156.63238412379
1283,-30564.34892578125,5589.514093847283
1284,-35701.76982421875,3145.602693635089
1285,-29709.46982421875,5799.966422451576
1286,-37557.794921875,2722.9626071021175
1287,-46558.8662109375,4989.507971016055
1288,-39613.5486328125,2893.4124980500424
1289,-41309.309375,3567.8064147983073
1290,-44730.462109375,2843.4242139657713
1291,-41431.291796875,3783.521400077191
1292,-45852.5087890625,4129.541299470081
1293,-48479.323828125,5109.566846605519
1294,-26162.8408203125,7008.1629373220285
1295,-45662.5162109375,4646.855275060007
1296,-44375.746875,3398.8833068900126
1297,-32944.95185546875,3047.406707932646
1298,-47393.9103515625,5227.500192100266
1299,-42117.89609375,3994.60358760491
1300,-40911.4455078125,2085.7792825820793
1301,-31284.40419921875,4404.039917175885
1302,-31596.10166015625,4792.344479910145
1303,-44144.006640625,3520.6324621188946
1304,-33896.8505859375,2716.3329981838874
1305,-45601.5056640625,4087.46522806749
1306,-48123.5748046875,5364.231638195387
1307,-30281.8845703125,3604.2731221574636
1308,-34182.382421875,2673.2577317969376
1309,-45621.131640625,4448.251140864017
1310,-30342.15810546875,4215.160759562425
1311,-45040.562109375,3993.281535947612
1312,-36640.1109375,3135.0065714090156
1313,-46762.619140625,4617.979309149096
1314,-43462.7416015625,3386.8193938144323
1315,-39465.9513671875,2722.4841590602578
1316,-39722.62177734375,3563.465571395662
1317,-42704.1595703125,2859.2137884747003
1318,-45783.9994140625,4447.245028513269
1319,-40987.4150390625,3368.40385145751
1320,-41591.587109375,4063.873772782988
1321,-45723.758984375,4422.683123379436
1322,-30581.187890625,4186.975347856042
1323,-42139.775390625,3039.9230651818943
1324,-36780.8359375,2158.345003513123
1325,-48195.0955078125,4361.692104146056
1326,-37239.812890625,2270.42076777096
1327,-39141.0103515625,2134.5955806408274
1328,-38828.986328125,2290.528462687753
1329,-37133.41171875,1300.318154722519
1330,-45665.3501953125,4353.774676302198
1331,-37986.11923828125,2046.3982991514486
1332,-48237.04609375,4734.051152895595
1333,-41111.268359375,3306.0741294892637
1334,-40992.878515625,2165.763648064323
1335,-42943.5158203125,5009.734172322452
1336,-43969.8267578125,3807.3954709809304
1337,-34769.80595703125,2888.7085627994943
1338,-40348.5689453125,2125.713594037649
1339,-47745.6654296875,5011.769681092788
1340,-29542.6765625,6254.0003717992195
1341,-37690.7451171875,3039.8577295706937
1342,-43506.1,3198.493991033227
1343,-47314.4533203125,4756.996845861543
1344,-30725.651171875,4637.879521830537
1345,-45655.142578125,4581.51537780021
1346,-45024.38515625,4141.8620157004325
1347,-43872.58203125,4337.121060984627
1348,-46240.272265625,4274.3547686114935
1349,-41653.562890625,3800.565243097915
1350,-35608.44912109375,3724.6043915608698
1351,-32357.85869140625,4789.79140965044
1352,-37913.9966796875,2616.680596878794
1353,-43656.74375,3619.899994034534
1354,-40686.0619140625,2496.142917647805
1355,-35050.9583984375,3966.550582477292
1356,-44870.743359375,3595.160284894343
1357,-42670.9884765625,2921.8019495008116
1358,-31043.61572265625,5554.872182152329
1359,-48642.1943359375,4807.759464036264
1360,-39300.51171875,2663.393829691924
1361,-34292.434375,3575.466822391161
1362,-38041.70810546875,3122.1444756162464
1363,-48831.640234375,5305.574071983367
1364,-34480.56484375,2451.214868645184
1365,-39678.044921875,3498.112108262383
1366,-41253.415625,5161.511136953808
1367,-48055.7822265625,5022.016619074994
1368,-43764.0904296875,3464.9622678678506
1369,-41677.5318359375,3055.9916108339003
1370,-41995.4814453125,3151.3181008225965
1371,-42169.992578125,3609.1644932786035
1372,-46102.569921875,5098.134657255801
1373,-36078.14658203125,3349.6689455453316
1374,-42259.994921875,5996.212723442677
1375,-45475.0349609375,5083.910235986306
1376,-43748.879296875,4080.32398332912
1377,-44437.159765625,4155.501097079231
1378,-34831.6708984375,2838.1482775477084
1379,-40123.490625,2543.296733403923
1380,-44055.548046875,4199.0389344073255
1381,-31622.57099609375,5235.040460441897
1382,-38370.23046875,2248.513769902706
1383,-34347.49833984375,4565.9921600965945
1384,-33417.8025390625,4221.976032351636
1385,-37786.812109375,2395.5535674349317
1386,-36439.54033203125,2582.102081548156
1387,-37024.20908203125,2956.452337205355
1388,-46229.3560546875,4183.310902190488
1389,-46075.8369140625,4350.199684062252
1390,-46711.741796875,4615.758706330694
1391,-39230.83271484375,2332.288352388227
1392,-43741.56640625,3507.9137803118288
1393,-43997.0830078125,4461.000599451096
1394,-44286.011328125,4311.059718043085
1395,-29724.69775390625,5605.011715043282
1396,-37002.36650390625,2386.690397133281
1397,-47578.7353515625,5039.261602056435
1398,-48710.5779296875,5004.563537969444
1399,-42937.781640625,2682.6079725655973
1400,-39519.60078125,2981.790871623796
1401,-40627.5892578125,2152.7101683119054
1402,-34904.8501953125,3586.9090881110483
1403,-32712.8013671875,4899.002381552421
1404,-48386.9796875,4663.739630671237
1405,-44557.5916015625,6990.224311696496
1406,-49535.90625,4517.783531355248
1407,-34978.4662109375,2376.9776224443203
1408,-44663.7986328125,3419.6547009011742
1409,-42865.4306640625,2989.2285395865565
1410,-38437.19765625,3489.037002688792
1411,-40744.8318359375,2842.868990789182
1412,-47281.43125,3992.5219227504417
1413,-37593.471484375,2120.1419407407107
1414,-46143.5236328125,4392.712064709562
1415,-46227.319921875,3847.2110417141334
1416,-40431.8140625,2420.3425899748936
1417,-24157.5091796875,6726.1050471281105
1418,-42081.9197265625,2783.9127722466264
1419,-42244.165625,5656.846704555358
1420,-44473.7697265625,3823.377810581504
1421,-41595.2357421875,2540.0327273921002
1422,-46202.537109375,3443.465829995818
1423,-31674.7814453125,3945.563059148321
1424,-41690.525390625,3182.0696571576955
1425,-43112.819921875,3114.938165745656
1426,-47031.596484375,3456.7206155993927
1427,-48849.237109375,4496.153077612094
1428,-41657.331640625,1787.389733894244
1429,-27849.62314453125,5446.227856316122
1430,-36484.64169921875,2381.9491962879265
1431,-35853.44111328125,3147.6168921335666
1432,-40568.3814453125,1863.6892228040533
1433,-44607.941015625,3499.1237135248202
1434,-47128.7923828125,6351.944184169429
1435,-48333.664453125,3656.440264172169
1436,-45867.35703125,3742.602368841001
1437,-40232.421484375,3760.502967208404
1438,-37967.7767578125,1608.469192540112
1439,-42036.0451171875,3864.4734310786043
1440,-30597.650390625,2719.893377703263
1441,-35206.70888671875,1895.648931555152
1442,-42054.926953125,4492.078741367393
1443,-48612.5060546875,3983.2669320337177
1444,-40813.809375,2288.61435751438
1445,-42327.21953125,2908.6206228638725
1446,-37582.802734375,3061.124051988592
1447,-41233.6927734375,5171.543251678648
1448,-47178.8041015625,4012.148075292148
1449,-41459.60078125,3370.0916712096378
1450,-46551.7759765625,3849.497740521945
1451,-47159.025,5146.81865449562
1452,-36799.24501953125,2035.5553997237448
1453,-40589.161328125,2811.920202326872
1454,-41393.47421875,2384.6154351461564
1455,-30959.34013671875,3273.4110792889137
1456,-48034.9263671875,3665.499748320987
1457,-42700.397265625,2726.2072338152125
1458,-40513.18955078125,5027.411785300851
1459,-46995.7861328125,3732.428940646495
1460,-34933.2224609375,2096.008757637552
1461,-41548.7390625,3201.7797028801738
1462,-46675.8328125,3664.042126476415
1463,-38506.9609375,2033.7747109082459
1464,-35576.7802734375,2294.6566230992958
1465,-44443.9169921875,3411.5212906397724
1466,-34493.38203125,2460.2705844360607
1467,-41188.7873046875,3814.1722344931914
1468,-46835.7119140625,3830.712819471007
1469,-46927.1599609375,3912.350325167961
1470,-47478.090234375,4117.383724635845
1471,-30925.29462890625,2214.4924507463993
1472,-45052.7625,3929.890666101177
1473,-43224.800390625,3540.537176357472
1474,-46283.011328125,3990.727641425963
1475,-45579.3599609375,4195.358232789513
1476,-27230.68349609375,3658.3996476821844
1477,-30083.01630859375,3598.7007670154526
1478,-43495.033984375,3249.02025954935
1479,-43937.9353515625,5851.391995644716
1480,-44866.7623046875,4538.052210295921
1481,-32368.2810546875,2536.267806476179
1482,-43096.084765625,4070.957783950982
1483,-42047.5525390625,3947.494223986424
1484,-44234.8392578125,4639.786596359952
1485,-43977.280859375,5984.002681620004
1486,-35172.16884765625,2921.6895990339053
1487,-32350.772265625,2764.7501402861626
1488,-41775.95234375,2990.9660072564716
1489,-41798.292578125,3576.629391567326
1490,-41309.1548828125,3433.718193183905
1491,-40109.90810546875,5570.462570009121
1492,-39230.2716796875,2058.0415704224656
1493,-47754.71796875,3580.3151539711807
1494,-39055.96328125,3706.946480426366
1495,-40897.1943359375,2974.9698204609767
1496,-38027.7013671875,4793.6887496662675
1497,-48368.012109375,4799.9861725741375
1498,-46250.11640625,3678.950657860777
1499,-34237.83359375,2714.792135402492
1500,-28735.18203125,4655.786667986401
1501,-41686.9171875,3282.5154263007325
1502,-36823.898046875,1969.651557341888
1503,-36597.23232421875,2384.6194740593696
1504,-42052.4640625,3303.9514910341086
1505,-45289.4294921875,3591.999537916828
1506,-44158.941796875,3193.8840575978707
1507,-40465.517578125,3910.1516847214975
1508,-46990.6802734375,4785.096809588454
1509,-39539.9728515625,2476.622676283793
1510,-38319.3501953125,2436.2319969475116
1511,-40769.1212890625,2736.213800218264
1512,-38258.052734375,2403.5107714805854
1513,-45077.4828125,4772.882476953664
1514,-39927.504296875,2120.827555835825
1515,-45046.6169921875,3027.887497861038
1516,-41088.6212890625,2039.1091857444621
1517,-30901.27373046875,3828.8608301303975
1518,-44404.476171875,2902.9931616213175
1519,-40175.237109375,1523.7491762935924
1520,-47026.9265625,3758.9136992337767
1521,-42258.4751953125,2269.664898152211
1522,-43343.8587890625,5305.636346553447
1523,-40648.1107421875,1927.169246952627
1524,-34806.62265625,1369.5029281731981
1525,-48056.6232421875,3777.0351639214346
1526,-36338.5173828125,3238.875121134614
1527,-41869.1990234375,2238.8378153863523
1528,-45038.4982421875,4861.440954249864
1529,-35694.36044921875,2221.5333925898776
1530,-46520.5068359375,4301.245637361774
1531,-40083.6638671875,2578.022407711202
1532,-34842.8015625,1957.6600412195776
1533,-24553.4181640625,5736.52549900491
1534,-28155.67490234375,4616.512512596725
1535,-42739.9845703125,4861.43749439915
1536,-47906.275,4288.836320286703
1537,-40735.65302734375,3221.0748203077583
1538,-46144.2759765625,4229.949216926548
1539,-46143.4294921875,4388.844494970426
1540,-48040.540234375,4526.616927125198
1541,-43928.6982421875,3688.0217525986477
1542,-39168.3892578125,2284.8127004499074
1543,-39672.75,3304.992539093322
1544,-44777.134375,3458.526662939649
1545,-40709.5685546875,2138.318857872359
1546,-44638.126953125,3136.2363301229434
1547,-45577.3931640625,3540.0955831725582
1548,-39260.94609375,3607.923013971625
1549,-41422.4123046875,3219.828066079086
1550,-37918.47880859375,2728.0931282883757
1551,-36159.2595703125,4087.8295393597664
1552,-42393.8408203125,3050.04273921523
1553,-39109.2810546875,6551.61929933797
1554,-36478.50439453125,7099.275555263607
1555,-46324.2294921875,4138.333538024194
1556,-34960.0837890625,3173.466102524294
1557,-41411.082421875,3864.0966330842552
1558,-40842.476953125,3938.51217465456
1559,-30361.3291015625,3727.5711793339983
1560,-44859.2580078125,3831.018158358753
1561,-37254.71220703125,2747.0801855662285
1562,-40683.5470703125,3171.821857831906
1563,-39940.7740234375,2619.161007030965
1564,-40526.993359375,2834.609701724128
1565,-39987.5859375,2829.1781745017556
1566,-39581.883984375,3136.9664467554167
1567,-34682.60009765625,2257.682808423739
1568,-34518.67001953125,2856.296213969811
1569,-44239.70703125,4227.899857649849
1570,-40493.4291015625,4960.54502961525
1571,-34599.21318359375,2380.9053299875313
1572,-32227.4171875,3843.247819046576
1573,-48516.7984375,4605.655497203178
1574,-32692.125,3475.369839761673
1575,-37175.9541015625,2686.252261185686
1576,-42765.76875,3640.9273135440353
1577,-41148.2603515625,2496.075773327614
1578,-39086.7494140625,2264.0350151206126
1579,-43695.9603515625,2985.1899795958707
1580,-40322.2697265625,3034.0962193020855
1581,-43954.5041015625,3651.0865251796713
1582,-43818.74296875,3593.2979899184693
1583,-31295.94033203125,3177.092973976707
1584,-38644.5755859375,2054.9836024642395
1585,-43085.2158203125,3195.091078895109
1586,-43733.84375,3688.4343384687704
1587,-35903.5216796875,2774.3680099925105
1588,-34568.38935546875,3457.012039149553
1589,-39693.96005859375,3317.0454963088546
1590,-39134.2798828125,2848.0252872218466
1591,-33170.5162109375,3142.687273599783
1592,-43025.205078125,3513.787248392334
1593,-46685.2365234375,4284.455052341129
1594,-34032.56728515625,2861.399738957996
1595,-30142.2240234375,4050.859532101205
1596,-44277.8333984375,5622.864424797374
1597,-41885.486328125,6114.530711974068
1598,-36486.74326171875,3313.646833839881
1599,-36760.074609375,5425.367928125175
1600,-42739.0138671875,3327.630092997685
1601,-38076.6126953125,2864.25279972719
1602,-44883.6923828125,4447.595338390715
1603,-40916.341796875,3990.3993134459956
1604,-45154.519140625,4267.012700097579
1605,-39710.9375,3201.6000758057644
1606,-40342.658984375,4072.0981778381206
1607,-46348.1693359375,4561.420916858362
1608,-41660.2642578125,3202.458737180103
1609,-35529.25927734375,3354.6788529473392
1610,-42576.133984375,3694.0697623181322
1611,-35097.57109375,3155.529261549539
1612,-40982.0076171875,3636.560080952357
1613,-36369.69794921875,3096.82176821589
1614,-36010.48310546875,3362.7625959555808
1615,-39787.6841796875,3074.9315079223816
1616,-41309.53515625,3031.3557654837814
1617,-37748.4212890625,3610.544192500735
1618,-47379.4974609375,5183.236251498898
1619,-35285.73544921875,3223.1316296006953
1620,-42010.4443359375,3681.5928951908318
1621,-37952.7923828125,3209.3271855278517
1622,-37125.96240234375,3527.186464028401
1623,-46137.1171875,5266.707445777886
1624,-30989.9509765625,4785.709161271213
1625,-42683.7064453125,3996.7967494988175
1626,-42740.2251953125,4301.885340360727
1627,-27715.99775390625,6402.309683435201
1628,-34392.88564453125,3557.9482313059116
1629,-44466.962109375,4205.9145407316755
1630,-41094.307421875,3509.630652405705
1631,-36458.4283203125,2363.289061763392
1632,-32327.55205078125,3524.3816497911703
1633,-42998.937109375,3477.704087128001
1634,-32119.02099609375,2655.2516076145757
1635,-35401.278125,2782.802654308135
1636,-38435.32353515625,4449.054972716713
1637,-32794.4302734375,2738.887166872663
1638,-36585.45908203125,4774.484127122179
1639,-29194.33984375,5014.875539108708
1640,-39401.6880859375,2957.2324325653162
1641,-43236.49921875,3751.9043781252635
1642,-41707.65625,3756.972100894633
1643,-35693.64794921875,5002.6128120905805
1644,-37471.3490234375,8292.082475951793
1645,-38728.4537109375,3941.824704708772
1646,-38841.35625,3204.7253362499423
1647,-34155.42744140625,4595.654654519558
1648,-37720.7759765625,3130.457462300051
1649,-48119.0162109375,5007.9611748177995
1650,-46121.8478515625,4394.287814285455
1651,-35099.33486328125,4217.320167909867
1652,-29598.7447265625,6480.1359949901525
1653,-40026.759765625,3318.1069710778847
1654,-28936.5962890625,5238.134682355829
1655,-43752.9767578125,4377.603856476485
1656,-42283.598046875,4285.011100546864
1657,-31715.0345703125,4472.357483056425
1658,-44017.6591796875,4312.341734096424
1659,-44551.8248046875,4593.429277929058
1660,-37840.99150390625,4309.23460817187
1661,-45285.396875,4570.543710962512
1662,-31503.68779296875,4596.609268162729
1663,-35697.94775390625,3347.4770542330334
1664,-43030.9771484375,4635.291006689997
1665,-34038.642578125,4171.651649604182
1666,-37698.60908203125,3505.1841566565026
1667,-28969.8787109375,5941.968583657807
1668,-33339.53193359375,4044.7986695119116
1669,-46974.3619140625,5266.539357986108
1670,-42874.086328125,4453.403800130737
1671,-44421.619140625,6656.179774133298
1672,-44701.8267578125,4602.623761008916
1673,-38128.28212890625,4306.179242788816
1674,-40315.490234375,5291.173046409782
1675,-40726.487109375,3825.2127103931443
1676,-39850.120703125,6200.975834257181
1677,-42774.5900390625,8558.723835811208
1678,-41325.444140625,3768.711455937975
1679,-41809.794140625,3366.4060437569965
1680,-29346.55859375,3970.450461428385
1681,-43149.7470703125,5012.09609067216
1682,-39575.52138671875,3336.152140127955
1683,-40632.0255859375,4316.061937802595
1684,-35361.24169921875,2714.861624061894
1685,-41345.3609375,3619.6566874354166
1686,-47053.643359375,5070.027032276011
1687,-28458.55224609375,4792.004420718472
1688,-47437.458984375,5014.861176532419
1689,-40042.3033203125,3510.2260658593673
1690,-30763.9986328125,3099.055374090423
1691,-37808.89375,2745.5826457919015
1692,-41448.9705078125,4950.176434609872
1693,-47220.2533203125,4584.420274094193
1694,-48465.94296875,4690.9418793994155
1695,-37299.321875,1892.9058105614954
1696,-36621.3681640625,1922.5012983526105
1697,-43867.6990234375,6568.225033619745
1698,-44678.30390625,4355.867850714679
1699,-38287.486328125,2577.362873810252
1700,-43134.715234375,3673.7625378498706
1701,-46182.191015625,5562.221890696353
1702,-31120.44921875,5718.750121870463
1703,-38636.1640625,2355.282933260398
1704,-38067.59521484375,2363.332580760894
1705,-41051.73515625,3119.5157777300983
1706,-34607.44501953125,3240.5873736376857
1707,-33963.2177734375,4020.4440082344668
1708,-46835.4236328125,4987.629047138974
1709,-37774.073828125,3767.715300290174
1710,-42578.940625,3497.7877687064456
1711,-32151.89384765625,6172.856852257663
1712,-39819.815234375,5470.84110107645
1713,-36098.81435546875,3387.4094984890708
1714,-39106.84814453125,2636.1527607533094
1715,-39047.4185546875,4155.226191286974
1716,-37140.05693359375,4065.4766117752442
1717,-42684.207421875,3859.0668494231613
1718,-35081.62236328125,2621.217853507161
1719,-42800.7416015625,4304.114447510414
1720,-47999.4755859375,4993.344380200926
1721,-29879.222265625,3730.780085380816
1722,-35187.23134765625,3137.477184558756
1723,-39049.675390625,3363.7067441569734
1724,-39425.13525390625,3395.6949766405096
1725,-31416.31669921875,4483.810060721982
1726,-41191.9640625,3558.474967995553
1727,-35017.80146484375,3244.804380478742
1728,-45569.1833984375,8394.20023358443
1729,-39406.05859375,3191.3391674114596
1730,-40509.852734375,3740.1266975584554
1731,-23597.69677734375,8609.073084874213
1732,-37499.7,2989.130250129203
1733,-43282.59365234375,9374.989086976366
1734,-45225.159375,4838.765576216433
1735,-48937.2484375,4759.301480463636
1736,-29482.413671875,6540.323463421451
1737,-43107.1439453125,3785.913123262066
1738,-42804.24296875,3478.0662220991867
1739,-41146.086328125,3506.0266273383727
1740,-44873.2021484375,4108.273469220398
1741,-36519.6275390625,3273.2680634104768
1742,-47871.6984375,6878.925084130458
1743,-33538.28515625,4165.481626917873
1744,-43508.8181640625,3840.7546070757758
1745,-29667.21552734375,6144.555541205519
1746,-45426.671484375,4213.7448753721665
1747,-37519.31494140625,3876.964592095067
1748,-43624.4439453125,3704.7820498455812
1749,-41088.33359375,3943.7572784626336
1750,-37904.00146484375,3349.3707405708665
1751,-46572.9533203125,5067.572907037939
1752,-43694.2501953125,4258.320661875153
1753,-42556.2193359375,3571.362603687467
1754,-40351.7552734375,3426.6187647685783
1755,-43973.6708984375,4531.237663157518
1756,-45362.9986328125,4718.894863071441
1757,-33731.14248046875,4946.494484940691
1758,-40575.51953125,4298.2692699266
1759,-32686.09482421875,5563.034403183735
1760,-39205.1068359375,3217.441336998088
1761,-34254.9099609375,4864.801995241454
1762,-34856.902734375,4817.433302639386
1763,-41821.6962890625,4712.998066301453
1764,-37487.85654296875,3119.357137993841
1765,-32971.77998046875,4895.691994926501
1766,-36720.56064453125,4434.05291035784
1767,-37329.55068359375,3594.719264083927
1768,-40996.9357421875,3293.248423911962
1769,-37118.612109375,2683.1497285666783
1770,-40012.8875,2873.4262964598256
1771,-37365.334765625,2971.5758880423014
1772,-40078.22578125,2572.265863192733
1773,-44102.53125,4653.418426136923
1774,-37997.558984375,2564.527428011263
1775,-37640.8412109375,4159.677201675053
1776,-45667.5900390625,5332.427046026555
1777,-35430.49345703125,4215.838202188582
1778,-40161.4439453125,4028.444333253047
1779,-40814.047265625,3042.8692169895216
1780,-39748.3345703125,2926.6154376495597
1781,-43584.2650390625,3568.805850350569
1782,-36831.48837890625,3424.3496398173024
1783,-36208.28994140625,2691.3805417055914
1784,-43383.1205078125,4500.721685663519
1785,-42981.1767578125,6656.680969358959
1786,-37525.96982421875,3151.5626832281673
1787,-46231.880078125,4628.47650656029
1788,-43570.7279296875,4152.456717705229
1789,-44899.48203125,4314.378011239498
1790,-31109.79814453125,4848.493365296726
1791,-33288.98955078125,3740.7859593017515
1792,-28883.49716796875,5377.69674694383
1793,-33699.27373046875,3900.481874221932
1794,-44308.4046875,4140.084558184807
1795,-36804.48984375,3934.1771957991728
1796,-37191.95556640625,4338.578029379252
1797,-44356.105859375,4244.75981167633
1798,-42475.3734375,3224.239882166444
1799,-31817.96220703125,4896.53203058911
1800,-37955.1978515625,2537.2129188895124
1801,-44015.807421875,4305.343580307652
1802,-38550.0953125,3171.1727773481925
1803,-38997.0443359375,2782.9685294236524
1804,-30009.124609375,4722.417453823723
1805,-36778.47109375,4136.223613927224
1806,-33732.21923828125,1799.8202631679528
1807,-44699.34921875,3715.0821724975503
1808,-42901.2734375,3764.494197065887
1809,-31838.80390625,3206.9686743029997
1810,-34613.443359375,3925.866046775233
1811,-31787.72158203125,3661.9113492746264
1812,-39983.7728515625,3825.4205839201677
1813,-42198.255859375,3910.121795038066
1814,-41429.10390625,3929.2378321471247
1815,-43429.173046875,4202.093964211093
1816,-39491.961328125,2982.2003492701665
1817,-30996.3365234375,3505.240060538863
1818,-46229.949609375,4607.271279224336
1819,-31489.450390625,3518.532369014245
1820,-46755.648046875,4823.149553766933
1821,-41683.44765625,4274.774412738356
1822,-36701.6013671875,2570.8096054420985
1823,-30992.5814453125,3725.853546646951
1824,-38893.6998046875,2818.4905724268874
1825,-38695.7982421875,2608.84734665373
1826,-38981.0625,3216.0541175606572
1827,-41151.2806640625,3867.2716176296353
1828,-43580.6837890625,4189.818229335157
1829,-39707.290234375,2782.8828967301147
1830,-38273.7404296875,2843.781516532482
1831,-31511.57109375,4972.350453493555
1832,-40000.4744140625,3800.4887553871313
1833,-44089.02265625,5237.042125375377
1834,-46413.6611328125,6048.277793760924
1835,-40159.745703125,5574.509844110303
1836,-40559.9240234375,3803.225907198162
1837,-43879.019140625,5606.214811395979
1838,-39086.38955078125,4609.135086946584
1839,-35533.2583984375,5165.104778608947
1840,-46339.0505859375,6196.701048293528
1841,-38871.931640625,5158.061589345907
1842,-46449.0109375,5780.941961527396
1843,-37311.68359375,4795.023370047889
1844,-34180.00029296875,4130.069286514852
1845,-43677.5224609375,3894.470561379669
1846,-33743.56015625,4705.214886588213
1847,-38417.5154296875,3623.155397419606
1848,-37693.7826171875,3280.218446983964
1849,-45336.1337890625,4389.224786757837
1850,-36744.10625,2792.9218429967855
1851,-35156.68857421875,3758.4143772465263
1852,-42933.644140625,2509.4045706587476
1853,-46422.9564453125,4701.021638496465
1854,-46709.4419921875,4516.62311712885
1855,-45657.2708984375,4819.095726276448
1856,-35641.27548828125,4225.84519733598
1857,-33080.04443359375,7004.445471535064
1858,-33426.48623046875,6130.36706287662
1859,-36086.17119140625,5027.659182151469
1860,-46995.8197265625,4920.814979354243
1861,-40458.893359375,3921.9785790883316
1862,-33727.7412109375,4625.244889764534
1863,-42465.67734375,3876.980258882811
1864,-30699.05625,4860.592503041525
1865,-48127.745703125,4479.570085294741
1866,-37188.928125,2895.12444497667
1867,-41508.76083984375,7218.149354585528
1868,-44581.7419921875,4279.077073173488
1869,-37310.58896484375,2740.4990688180046
1870,-41855.6470703125,3246.409410531169
1871,-41250.2681640625,3684.94794564411
1872,-34993.344140625,2605.9248765169177
1873,-30568.23466796875,4115.972104119296
1874,-37716.14111328125,2487.946701330926
1875,-39042.7671875,2783.412747933311
1876,-43670.0666015625,3564.89078737379
1877,-44354.501953125,3940.717804602522
1878,-43807.715625,3991.507167078059
1879,-39707.3955078125,3882.3710095257366
1880,-45031.659765625,3948.691930751239
1881,-37587.77939453125,2311.1836939014884
1882,-32254.46142578125,3996.349816223934
1883,-29402.57470703125,5509.343321420625
1884,-40191.45625,3392.969508813847
1885,-42361.009375,3508.8315426855957
1886,-38930.39833984375,3234.0459690468483
1887,-36199.2650390625,2164.8905996251756
1888,-41314.2400390625,4817.123529349548
1889,-34893.60673828125,2877.7599526128774
1890,-34054.4583984375,2713.4004723984717
1891,-41006.1185546875,2752.683714567787
1892,-35285.82177734375,3015.7584324707136
1893,-39992.0388671875,3115.71971771441
1894,-40907.675,3127.964083017697
1895,-34769.09189453125,3338.873381570812
1896,-39498.2212890625,3652.247903626294
1897,-41123.0037109375,3720.9562286708806
1898,-41430.779296875,6146.8285949752
1899,-29733.56787109375,5282.0813038949955
1900,-34927.76484375,3720.815210355864
1901,-35596.04365234375,3489.947206943973
1902,-45191.1142578125,4814.712904737825
1903,-32681.87841796875,5552.884409409089
1904,-36419.419921875,3696.8519177923167
1905,-44789.3517578125,5221.747614650239
1906,-35013.2302734375,3841.1598238860684
1907,-47616.8859375,5288.470043234737
1908,-45358.9078125,4832.492395843886
1909,-33117.82353515625,5464.798586870445
1910,-30144.52802734375,5457.78557764127
1911,-40666.44775390625,4354.819353423132
1912,-41204.443359375,3641.106981483315
1913,-40854.958203125,3250.0617045071767
1914,-41458.727734375,3434.6841731142613
1915,-35913.1138671875,2900.90172759793
1916,-34253.6724609375,2740.0630664687355
1917,-32265.6359375,4248.460749045951
1918,-44004.0625,5011.014884345932
1919,-36428.01767578125,2903.0500049646635
1920,-33453.0626953125,5131.618363039236
1921,-39938.7130859375,3090.5546374034934
1922,-29983.67548828125,4469.02164637522
1923,-44422.1505859375,5054.661530729795
1924,-39902.9947265625,2674.3036786083026
1925,-43617.4267578125,4904.979056154678
1926,-35300.303125,3452.7945878776063
1927,-42776.6525390625,4467.278744933453
1928,-44637.9830078125,4374.747486591367
1929,-36912.9419921875,2041.8143371864378
1930,-29486.46318359375,4060.7100742069083
1931,-40630.5564453125,2574.2680025567543
1932,-47384.2169921875,5339.220947603612
1933,-38374.89609375,2853.4980699457856
1934,-33322.80869140625,4530.186311353901
1935,-40520.4171875,3003.2128904705683
1936,-43548.0068359375,4556.179658916163
1937,-40138.7853515625,3553.847632770353
1938,-37587.59931640625,2978.725802528447
1939,-39761.30625,5472.728871813706
1940,-35963.58603515625,2267.63707911144
1941,-34677.34736328125,2657.4692769542335
1942,-32092.30751953125,2818.924584383861
1943,-38502.28056640625,3058.296122099866
1944,-44871.9943359375,4233.221498187316
1945,-41267.723828125,3426.058225108239
1946,-30994.91552734375,3570.4447346046845
1947,-41335.82919921875,7816.835936308754
1948,-43289.5330078125,4115.796942470546
1949,-42362.2822265625,4025.4873457838735
1950,-30777.92314453125,2962.5506622124476
1951,-42011.8060546875,3593.820571100416
1952,-43383.405078125,4423.785813278804
1953,-38239.6802734375,3458.8351635517324
1954,-41299.916796875,4241.084136605406
1955,-38410.0080078125,3834.103968938656
1956,-30978.4458984375,3969.7235452494724
1957,-35306.82998046875,10332.582159857173
1958,-42241.7619140625,4875.724547751481
1959,-40023.2771484375,3788.999594446912
1960,-36397.776953125,3090.6631126168845
1961,-39622.8623046875,3537.716787561428
1962,-40341.69208984375,4407.1827324419255
1963,-42713.723828125,4293.158318724388
1964,-39737.4525390625,3707.5538315054246
1965,-45666.892578125,5292.348718663752
1966,-47705.2201171875,5926.951374776055
1967,-32261.7453125,4000.56431006578
1968,-47401.39609375,5130.363645929952
1969,-46439.2470703125,3942.149300125477
1970,-44751.3533203125,5159.855498189268
1971,-41783.565625,3773.591225849462
1972,-35522.61103515625,4359.148353838341
1973,-44626.0421875,5428.928503692366
1974,-46807.26484375,4437.747922730773
1975,-40666.69375,3569.807028748364
1976,-35205.20322265625,4634.993743632002
1977,-28213.8298828125,3462.4885890985242
1978,-31954.33076171875,3317.5731210337067
1979,-36242.418359375,3630.8424909590644
1980,-34323.3787109375,3812.0943646370324
1981,-25218.7314453125,4907.375274561242
1982,-42181.08828125,4381.78320448988
1983,-37215.6384765625,3834.6814525240607
1984,-33729.523828125,3116.5065983749764
1985,-39154.5810546875,3862.1616231171674
1986,-44519.08984375,5216.241836777677
1987,-44619.31328125,4928.2820766723635
1988,-42573.5939453125,4334.923515860786
1989,-38960.08359375,5041.13202939605
1990,-41747.67373046875,4696.878391548337
1991,-43254.8939453125,4548.500525309619
1992,-42462.1123046875,4806.165897457979
1993,-41929.09140625,4171.504087140348
1994,-37450.69794921875,3760.372303569145
1995,-44891.959375,4116.622218258272
1996,-38966.72578125,3014.1896499090085
1997,-41466.4416015625,4419.076208293289
1998,-40880.097265625,3070.3517646724226
1999,-35349.5212890625,2866.6253860740117
2000,-45340.813671875,4988.847166235826
