iteration,mean,std
1,-113944.794140625,3278.4482640703673
2,-81659.44765625,9551.00243447745
3,-70562.878125,5098.185382470985
4,-79012.595703125,5750.538085532168
5,-97602.634765625,9882.697411125784
6,-75288.11796875,8745.5995972653
7,-78625.791796875,5389.719064801711
8,-68701.0271484375,7525.036177393585
9,-52978.9982421875,1433.5788878154356
10,-61818.1408203125,6324.599185100232
11,-56018.9634765625,1288.1395285455842
12,-66385.4197265625,6709.148880849255
13,-51329.780078125,7265.883894538569
14,-55927.9974609375,6081.096135032724
15,-53178.7568359375,7698.962479944898
16,-50752.4416015625,5282.635924783477
17,-54596.7421875,1732.6707694838883
18,-49056.7736328125,1434.0443977508414
19,-59522.634765625,2248.160615018613
20,-55315.0111328125,1528.328688127646
21,-53389.6240234375,8381.901600532048
22,-47543.875,2720.0293528675606
23,-51198.8255859375,4207.088570492216
24,-58645.410546875,3373.200897901156
25,-51166.6841796875,1555.7726115741882
26,-64930.87421875,9406.542975601184
27,-53418.730078125,2202.4080944645193
28,-52257.9447265625,2897.5941641128125
29,-51192.102734375,1991.32692655876
30,-60452.9486328125,6320.609297068212
31,-54477.1345703125,2801.586966905576
32,-53256.887109375,9654.334827995943
33,-66558.4142578125,4552.616558747023
34,-57069.0666015625,9339.530670026656
35,-56402.57265625,3711.13210588445
36,-49231.326171875,2382.1815907171267
37,-64724.8548828125,6445.033344836842
38,-70946.3880859375,7692.04021095633
39,-54526.850390625,4087.673818107186
40,-46945.3291015625,6116.274832074455
41,-54962.678515625,2656.468272216205
42,-52969.5740234375,2550.882229085685
43,-54484.3380859375,2556.3770736728375
44,-52043.9107421875,3471.762412417013
45,-65918.2193359375,6508.94089713109
46,-52170.6642578125,2332.918869897532
47,-52253.2017578125,2500.198822052233
48,-55019.918359375,2558.6794997698066
49,-48046.758984375,2413.895045433268
50,-48866.8892578125,8268.973362589224
51,-56684.2927734375,2963.2075208337483
52,-50889.685546875,2919.645944658757
53,-50343.96171875,4964.01925268299
54,-54183.3294921875,2850.867866374859
55,-52087.1890625,3968.005075107759
56,-55635.61796875,3703.743161841701
57,-48261.989453125,4842.571020931858
58,-62603.1693359375,2350.3982395362477
59,-51792.45390625,2993.0651597879364
60,-57477.0197265625,4132.593609655271
61,-48060.33681640625,10368.381402211346
62,-48797.50078125,4537.204754805813
63,-51120.6345703125,3675.447082346058
64,-51082.8640625,2531.0758403662403
65,-74785.3767578125,5657.549351795351
66,-51832.7587890625,2423.6194604426596
67,-50388.3099609375,5611.20835759518
68,-45938.89921875,4163.597113838775
69,-61984.6986328125,4833.949606873273
70,-49551.1078125,2623.4610716922116
71,-51372.841796875,4513.172074405553
72,-46403.4267578125,3466.154459464634
73,-48680.949609375,9152.851657647745
74,-52148.771484375,2453.1817170703503
75,-48438.837109375,4210.362481544562
76,-47393.58203125,5519.6958669660025
77,-51086.9943359375,2703.9410487098617
78,-60221.973046875,2349.1288465533116
79,-52960.428125,2159.4368902939805
80,-51622.8703125,2635.6816019037797
81,-50188.7677734375,2557.6900238383278
82,-53352.180859375,2234.4229534326782
83,-46167.0734375,4297.877451665876
84,-54558.3271484375,2021.5767889043193
85,-41081.1568359375,8605.71307674637
86,-42930.19296875,6833.646202258866
87,-65507.975,3816.062288221067
88,-50982.9138671875,2186.0175918700065
89,-49707.9759765625,2221.6144638754445
90,-44246.963671875,6899.565696055
91,-44262.534375,2620.611374026384
92,-56380.0986328125,3054.656071367122
93,-55272.4919921875,4611.395093927244
94,-40655.2486328125,4755.291875380161
95,-43573.689453125,3785.287772966027
96,-54277.30546875,2463.300521074676
97,-53611.2330078125,2675.944176363123
98,-56914.4724609375,2934.3269808590944
99,-53247.1443359375,2254.914936031289
100,-44947.9845703125,4394.144849265383
101,-56219.8283203125,2493.452847651815
102,-58034.7892578125,2787.467800495505
103,-56108.6875,3095.0805432992997
104,-38916.14931640625,3859.393851228853
105,-52097.218359375,4185.563506419999
106,-49455.15234375,2355.938968047982
107,-59173.3673828125,2721.264227702798
108,-35364.45126953125,6728.5769547389045
109,-55676.061328125,2318.5933255059326
110,-39744.5541015625,4169.528768652077
111,-58998.40625,7013.5231074982075
112,-36147.544921875,6839.963253541335
113,-53525.865234375,2175.8593757365156
114,-43595.9125,3424.3800658051405
115,-60607.1494140625,2813.845521019574
116,-46893.2234375,3502.7135767717555
117,-44907.25234375,4745.6059662021935
118,-44568.7931640625,5559.560320489258
119,-42758.146484375,3725.0864237676165
120,-48943.9541015625,3589.795495053396
121,-49505.2236328125,2751.3860671503085
122,-46811.91328125,3502.0853118299156
123,-40192.3162109375,3539.109436015479
124,-56673.7087890625,2681.0047512530195
125,-40794.2671875,4242.987729288159
126,-47543.756640625,2370.2346124322703
127,-43353.3255859375,5188.3579875310115
128,-50737.300390625,2499.566238979437
129,-53651.1529296875,3480.4188314712246
130,-49063.1494140625,2433.878996752434
131,-45737.1966796875,3170.6765376791695
132,-37504.37509765625,5728.275389048465
133,-46312.6533203125,2393.28602040037
134,-41308.697265625,3944.8059773520527
135,-56162.59921875,4385.647773952519
136,-45339.971484375,2034.2507748054566
137,-51796.511328125,2577.945435226028
138,-49045.4267578125,2394.3435474198554
139,-50248.53203125,4554.755976386719
140,-50183.534765625,2383.7060465464297
141,-50302.6005859375,2423.6177078173964
142,-45847.59765625,2654.857026703843
143,-51838.972265625,2662.3530907666445
144,-47988.83359375,2332.1100990764076
145,-50311.283203125,3240.4312502662633
146,-50693.51640625,2474.406529736837
147,-50699.1794921875,2659.4494923564216
148,-47392.02578125,2295.796562659426
149,-52650.2888671875,2753.386979552035
150,-44677.5763671875,2759.7417522572155
151,-50448.184765625,5295.00898571172
152,-45094.23046875,5770.699969165199
153,-39978.5205078125,3930.8661247863106
154,-51063.894140625,2570.258455761047
155,-43247.00859375,5768.162795973804
156,-40483.2904296875,4625.509285573825
157,-46195.1748046875,2633.388249746456
158,-44609.07890625,2448.1735055432687
159,-35502.2755859375,4212.450820581347
160,-37210.0341796875,6138.779988912038
161,-45321.7865234375,4981.206156111003
162,-50086.9056640625,2953.060437860542
163,-43353.86875,2704.6833502652444
164,-52855.8560546875,5154.742574874637
165,-48490.68671875,2943.740557850228
166,-47676.2220703125,2480.5207756051414
167,-49053.9265625,2956.2394633775757
168,-38214.678515625,6117.75352468524
169,-39502.577734375,4753.934198086677
170,-53145.8099609375,3143.445795936099
171,-54344.2943359375,3219.073778149268
172,-56146.7080078125,3647.9907369531334
173,-54107.60234375,3278.1000518929623
174,-49252.845703125,2953.6309751935555
175,-48860.7046875,3641.8552208752035
176,-54391.0064453125,3114.0749594335884
177,-53464.954296875,3052.6119520345915
178,-47859.1119140625,3338.632007242038
179,-47922.75546875,2759.1342314150374
180,-42144.208203125,3557.4545839082293
181,-35301.20576171875,5614.8050671447745
182,-55586.6943359375,3007.267389689723
183,-42131.311328125,4957.013424840528
184,-46656.443359375,3670.6546619641485
185,-45703.816015625,4136.066716233417
186,-41602.799609375,4501.149293158911
187,-52340.44765625,2550.487794191536
188,-49573.683984375,2256.348748447684
189,-47919.8580078125,2755.73779764417
190,-45503.875390625,2605.051800872262
191,-48143.8734375,3076.27748534544
192,-49559.3943359375,4885.016998722402
193,-55472.3955078125,2743.621886247532
194,-54958.7306640625,2551.4549092230964
195,-43360.032421875,2273.8873642899393
196,-40322.683203125,3816.394729502367
197,-46759.75703125,2375.5907800216432
198,-50372.458203125,2547.6053316763705
199,-43414.6421875,4425.168182567582
200,-67249.645703125,4761.169013794738
201,-53993.717578125,2578.7313072162738
202,-53487.691796875,2564.138125944043
203,-50783.940234375,2404.5576613111148
204,-43957.0142578125,2970.2449498644455
205,-50809.3880859375,2394.8645467257247
206,-38907.31181640625,2692.2733043162048
207,-53361.28515625,2719.7050191993485
208,-45628.30390625,3142.883822263361
209,-44922.9515625,2473.9804958340706
210,-44792.269921875,2679.5231551749657
211,-42788.5095703125,2083.0727441405884
212,-53333.305078125,2802.0882403693054
213,-49834.796484375,2515.646102003188
214,-39252.0591796875,4634.784878644406
215,-37776.9205078125,3863.0134311910156
216,-47349.896875,2650.6699166586477
217,-45632.71640625,2322.6532060899426
218,-62091.326171875,3463.6633621666906
219,-39762.1736328125,4223.199475067576
220,-53403.7701171875,2857.278248392941
221,-52373.034765625,2813.0899072370917
222,-37626.80107421875,5219.79878507398
223,-55250.948828125,9702.328917520512
224,-35706.29580078125,5313.99560988318
225,-38409.7986328125,2894.5253709157873
226,-57324.2482421875,5878.870848014187
227,-52315.1193359375,2850.03587843185
228,-55403.125390625,2902.8672144398283
229,-38541.5587890625,4282.617900032305
230,-39413.205078125,4519.615385664085
231,-46448.5462890625,2673.4875718353223
232,-35200.710546875,6083.180716799236
233,-50726.207421875,2169.8928619199496
234,-43701.353125,2839.103448182133
235,-47904.5603515625,2493.978303278811
236,-53567.3876953125,2535.9985242056764
237,-56352.60390625,2611.6500222809345
238,-49017.9255859375,2340.2345858910257
239,-56466.6396484375,2739.4618365906226
240,-49039.721484375,4065.969475898703
241,-42059.646875,2623.916479609895
242,-52362.0341796875,5102.2264543332185
243,-46774.440234375,2486.3661395372137
244,-43439.98671875,2884.235428221017
245,-48964.6306640625,2412.126270146257
246,-43929.104296875,2322.985341784949
247,-51247.551953125,2072.0650778010345
248,-54342.1103515625,2380.1392471382715
249,-46884.621484375,2246.629083110673
250,-37796.364453125,3021.867973135629
251,-48845.9466796875,2570.4673428144497
252,-38548.0080078125,2711.155555955668
253,-57609.5158203125,3771.3253776299653
254,-54528.0740234375,2565.8046318384895
255,-44698.1669921875,2454.736839728583
256,-34912.87978515625,3598.2274453882355
257,-54868.7123046875,2759.388474350937
258,-50868.6439453125,2687.759073184906
259,-47397.05078125,2403.3744893515186
260,-30768.90390625,4184.599643854758
261,-45710.6443359375,2437.2039419780835
262,-37645.8255859375,3231.851993485018
263,-42484.4896484375,2241.10175618771
264,-45653.058203125,2247.644738241893
265,-53264.835546875,2159.6518445722336
266,-48846.4908203125,3866.748331072723
267,-37139.94453125,2138.3347514845364
268,-44286.389453125,2248.9805219795157
269,-51865.2673828125,2585.384610078441
270,-51889.8373046875,2771.471747937253
271,-41231.9947265625,2778.660098301594
272,-54380.51171875,2829.434525666061
273,-49170.2099609375,3286.120820021736
274,-41106.6728515625,3005.726328009772
275,-46162.173046875,2675.67287694545
276,-39529.3361328125,2826.803654901913
277,-39445.175,3471.063278912691
278,-52272.512109375,3049.776142208236
279,-55592.84453125,3089.606020707023
280,-41825.0326171875,2784.640267113352
281,-53232.77578125,2967.683949324456
282,-44858.9576171875,2650.773163307389
283,-32484.73896484375,4674.645869208396
284,-37546.1248046875,3685.863997284915
285,-53644.612890625,2567.8183067143104
286,-47107.181640625,2811.888496375422
287,-43940.7140625,2660.0483771325107
288,-49941.6091796875,3066.4251375195768
289,-43893.93828125,3742.635284425721
290,-43490.034375,2764.987508257222
291,-41586.4138671875,2901.243007220669
292,-45764.4529296875,2390.6843392775527
293,-58015.48046875,2562.9700141242124
294,-49064.8884765625,3089.0758423120305
295,-53586.97890625,3278.5666073078455
296,-55075.6234375,3284.0850943129562
297,-51697.98203125,3386.6106964221303
298,-40776.5982421875,2117.7119316948697
299,-54940.00390625,2009.4800043994865
300,-52818.176953125,3334.3571157666993
301,-54122.2646484375,3112.2056913648694
302,-53150.6927734375,3128.0291131602053
303,-48077.4365234375,2731.137314064856
304,-43610.32578125,2273.3717357264172
305,-43755.763671875,2040.464098197483
306,-54646.224609375,3087.2427309266227
307,-49178.0177734375,2341.5204319619766
308,-52268.5443359375,2612.5867050262696
309,-46559.24375,2225.512835028787
310,-55363.79921875,3525.2598138361686
311,-42291.1693359375,2945.389649147924
312,-51047.27421875,4008.422664761588
313,-50942.50234375,2130.1113634651233
314,-45939.334375,2136.4080811890344
315,-40760.4541015625,2182.969185697001
316,-49982.0259765625,2269.383303984153
317,-48217.663671875,2292.960569079083
318,-32641.33623046875,2317.3601583125032
319,-46301.4435546875,2178.464036555454
320,-53619.1529296875,2770.990303026514
321,-44772.7103515625,2839.9560949435618
322,-40495.4017578125,2380.819575987044
323,-44013.060546875,4183.364709776875
324,-49357.0185546875,2225.0789953751305
325,-51864.02890625,2347.6373649362617
326,-56049.2888671875,3001.498356647661
327,-40892.2703125,2312.837378671566
328,-42963.7474609375,2440.579692593185
329,-41166.749609375,2453.5597753378984
330,-44800.8810546875,2507.865818758323
331,-44844.9134765625,2284.4457556727803
332,-53397.4345703125,2304.4814851807523
333,-48398.417578125,2317.735673883688
334,-43822.8501953125,3295.2324084578845
335,-54363.89765625,2521.07850675009
336,-36723.65712890625,2034.753870357369
337,-51739.6796875,2587.292255460467
338,-50213.2001953125,2318.956746826831
339,-53834.8837890625,2345.798469857551
340,-45641.1271484375,2172.8212275008445
341,-43015.059375,1973.6386273071967
342,-37097.1646484375,2483.154255132169
343,-51914.056640625,2203.960738728759
344,-50738.5720703125,2247.202284281414
345,-36961.0134765625,2296.6459639033624
346,-47776.2181640625,2054.649204064482
347,-56204.4353515625,2296.937627629414
348,-32574.65810546875,3995.1926849136557
349,-43248.999609375,1856.9928557780386
350,-40289.2828125,2568.451258881424
351,-43538.460546875,3248.0832780010787
352,-34003.86640625,3489.0864695257333
353,-44815.7619140625,3049.5559835512386
354,-34957.7123046875,2261.0281138037662
355,-49423.1439453125,2129.217981657684
356,-29023.6494140625,4608.7584812003915
357,-56154.19453125,2511.168939354005
358,-45655.7640625,2231.0268316283737
359,-36606.40361328125,4306.115639517956
360,-58708.58125,2521.6767665120856
361,-47354.3125,2254.377843193459
362,-33733.68876953125,2875.7325815994836
363,-55835.0427734375,2600.4643029473477
364,-54432.27421875,2401.179111589711
365,-46858.0796875,2183.6420036555405
366,-50923.0986328125,3543.4184946630453
367,-34019.72294921875,3502.299314099255
368,-51685.9359375,2384.0227308247017
369,-45891.25859375,2004.6112441462237
370,-52507.251953125,2138.1332165795875
371,-50160.7193359375,2159.55099609154
372,-40776.6279296875,1989.7814248852746
373,-49359.5359375,2190.0996175719065
374,-52296.251171875,2214.003375892547
375,-46106.986328125,2266.387994653008
376,-52946.3083984375,2700.4796229283857
377,-46713.864453125,1978.3904508049804
378,-31312.26875,4231.435250565338
379,-49193.675,2363.219445814916
380,-53482.953125,2518.160169746928
381,-44678.0791015625,2289.750319982357
382,-37257.5201171875,3492.568597747951
383,-31266.8154296875,3925.423410203275
384,-41420.891796875,2759.9034907592704
385,-50708.6826171875,2808.0741055651274
386,-42809.5080078125,2332.3624771265195
387,-34415.93798828125,4361.1608004213285
388,-51637.2482421875,2923.6767228187905
389,-42985.547265625,2396.841205772174
390,-50386.2802734375,2340.386493277959
391,-46612.0400390625,3276.3287293981884
392,-50529.119921875,2703.6672710771827
393,-46567.40390625,2318.7310424040907
394,-53356.0310546875,2859.0574758901284
395,-54776.930859375,2878.520541670092
396,-47456.433203125,2685.371585595472
397,-47310.937890625,2560.956158242077
398,-49979.4359375,3633.369761857442
399,-52605.5103515625,2882.6499221989598
400,-44777.5353515625,2463.3015007265267
401,-53266.8208984375,2948.5918339823747
402,-54935.6154296875,2074.6872190306653
403,-46398.9091796875,1886.3044395506872
404,-50756.509765625,5233.715722903847
405,-50904.5142578125,2712.808236048228
406,-40826.3421875,2486.374388075582
407,-55483.71484375,3204.3949408187327
408,-51334.7986328125,3546.005265011668
409,-49018.035546875,2908.8215118278176
410,-26521.86015625,3486.906815296203
411,-31795.1578125,4288.700196136293
412,-51577.493359375,3036.6697884560235
413,-47468.2419921875,2433.9336856172717
414,-40148.257421875,2634.7053503419647
415,-29394.4412109375,3706.01784188442
416,-44150.1728515625,2842.912372517633
417,-52844.7044921875,3286.120656259154
418,-45042.9796875,4249.6278821775195
419,-34263.688671875,9537.421236631197
420,-46946.1482421875,4053.924548352178
421,-48729.8818359375,2680.4114121242587
422,-46851.4455078125,3503.828621007983
423,-44333.8947265625,6060.066107576631
424,-37515.78173828125,8689.252121466187
425,-45718.833984375,4348.668910384068
426,-42624.04453125,5832.238001659466
427,-51266.607421875,3471.673768645293
428,-44113.3609375,4210.511189539345
429,-55310.83203125,3395.771096821825
430,-36303.12900390625,7555.410089698088
431,-48229.6955078125,2854.3148415592304
432,-46920.216015625,2595.493223280183
433,-51053.4751953125,2543.8390510944355
434,-34265.45205078125,7335.675561369066
435,-46237.816796875,2888.7608666829797
436,-45550.06796875,2741.706721201723
437,-48888.454296875,2113.8426736750134
438,-49438.4345703125,2906.6486668110733
439,-42923.98984375,3838.323763291013
440,-46128.0771484375,2444.5597234837996
441,-46201.9287109375,2232.734380299139
442,-36342.9197265625,1961.6919837146058
443,-33927.74482421875,5069.530420760076
444,-53534.0900390625,3689.7883813486583
445,-51337.223828125,2967.010682173278
446,-39219.4046875,2993.828364278929
447,-48910.12109375,2547.433053548074
448,-49658.3478515625,2408.755298433432
449,-35945.25439453125,3372.0766269676815
450,-52964.9103515625,3023.853437087622
451,-40174.3146484375,3046.6206205463354
452,-49469.27421875,2438.0759574613116
453,-53045.004296875,3238.860984504953
454,-49033.36875,2097.1592617810375
455,-37922.7326171875,2172.251055064481
456,-51104.61484375,4474.9452216919435
457,-50743.8990234375,3010.657994082401
458,-56288.5275390625,2376.587620091804
459,-35725.7478515625,2595.7044746444344
460,-32708.5330078125,2923.175680110283
461,-50518.625,2650.9969238289304
462,-47543.6830078125,2509.1066326159585
463,-42520.499609375,3134.3705101184946
464,-40258.65625,1895.6553240946123
465,-48242.1123046875,2268.0789659480943
466,-41926.291015625,1727.317897756202
467,-46111.6525390625,2274.8396232082314
468,-52421.891796875,2741.163590926696
469,-45828.3541015625,2098.6361660335856
470,-36698.9607421875,2477.8860992955806
471,-50514.1294921875,2639.3362136455253
472,-49335.0052734375,2259.2901900246256
473,-52086.4865234375,2408.6562145052576
474,-52970.875,3087.720735589552
475,-38442.444140625,2360.4412627110664
476,-50498.99921875,2483.8372791081183
477,-44603.1625,2098.217101581037
478,-40669.33359375,1972.572844880277
479,-53457.0396484375,3049.8430163018047
480,-35144.171875,2164.8891793521525
481,-43865.7498046875,1790.7933744120412
482,-46398.423828125,2685.258731623632
483,-33873.58330078125,3060.941343613445
484,-53384.810546875,3359.534434915648
485,-51493.9744140625,1957.0003287693637
486,-51684.6732421875,3124.603703634145
487,-50654.6638671875,2351.4138248066965
488,-52271.22265625,2465.2839611688696
489,-47792.3462890625,2111.9889542616916
490,-44411.95625,2781.1009840770503
491,-40401.12890625,2515.842585811914
492,-46127.7609375,3658.4218406701407
493,-51843.1365234375,2391.6806030280777
494,-36427.363671875,2120.6105251108625
495,-41435.048046875,2490.3155905914105
496,-44037.4728515625,1986.5544504723703
497,-43609.394140625,2054.781104081443
498,-46280.9017578125,2414.5669052514827
499,-51543.1974609375,3059.6120940810056
500,-50199.533984375,2424.3223877343444
501,-38081.7482421875,3597.8358300977966
502,-50365.77578125,2817.12283271825
503,-49843.14375,2553.7217384596515
504,-47787.5236328125,2457.208042981699
505,-38171.477734375,4143.505082923623
506,-29353.19443359375,8060.0196061040815
507,-49779.81953125,2160.3187686140354
508,-44145.4623046875,1833.2590481383943
509,-50296.2609375,2689.3726899465983
510,-33524.55146484375,7832.70139030865
511,-43214.7900390625,2954.4646524114046
512,-38372.821875,4931.894505704657
513,-43516.2873046875,1977.7924196794013
514,-40899.7439453125,1816.6972289570565
515,-50036.009375,2755.3941511554644
516,-46045.0349609375,1958.911935076585
517,-37138.32734375,3933.0852691971595
518,-37499.8673828125,4514.140423406451
519,-35769.45693359375,2752.046456878045
520,-49794.66328125,3207.0137867103613
521,-37332.42080078125,3692.6298184925595
522,-31617.00458984375,4568.272950687239
523,-36765.066015625,2794.6991791080677
524,-41458.3564453125,2206.562775993638
525,-45394.595703125,2701.998326288068
526,-31837.04853515625,5424.267678929987
527,-44207.763671875,2867.182246166503
528,-52084.391796875,3088.4548914116153
529,-33164.3978515625,4114.927646323755
530,-47833.8658203125,2252.5850764283377
531,-39953.396875,2701.3728485491147
532,-48743.96328125,2358.927539886065
533,-45255.515625,2454.6773315592045
534,-37691.828125,2097.2673859620795
535,-38909.7830078125,3251.6807164373477
536,-50832.622265625,3313.334677402648
537,-39003.8203125,2947.325988710967
538,-41822.8404296875,3069.1020537643253
539,-35876.9783203125,3410.532419073274
540,-45754.9796875,1837.3767710682216
541,-30544.6330078125,5518.921160754512
542,-30253.989453125,5443.981836049457
543,-45069.805859375,2361.955592136784
544,-38486.3189453125,3178.9307014016645
545,-49290.6099609375,3623.9306896226503
546,-46881.357421875,2564.6353631704296
547,-51619.321484375,2227.287809131948
548,-50332.714453125,2821.431351000689
549,-52617.5544921875,3700.0381135026005
550,-47420.4234375,1869.891215759874
551,-48105.3779296875,3050.1606714006166
552,-32751.1087890625,3939.33073079353
553,-33721.86611328125,3603.251030733037
554,-32697.39140625,5553.645179403648
555,-49029.57890625,2897.3782541016817
556,-38660.6431640625,2984.01826120426
557,-48543.9041015625,2480.4730869793148
558,-46384.2150390625,2319.3082121291786
559,-37898.3404296875,2259.6957027134886
560,-40043.1353515625,2219.008895115355
561,-35197.1873046875,3467.3046632321475
562,-43331.0904296875,2602.6510909261447
563,-43232.5123046875,2204.1948568530297
564,-48626.431640625,2707.390320778584
565,-49694.4828125,2412.9214028982237
566,-50452.371484375,2732.4387631684417
567,-45786.055859375,2586.4040158650046
568,-50596.3779296875,3116.7277394776124
569,-49450.782421875,3125.5820189761876
570,-31331.1650390625,3919.337979837056
571,-45364.55859375,2924.9028938708752
572,-30068.96337890625,8264.85357266254
573,-42096.56328125,2552.5518011707845
574,-48606.3951171875,2506.384555556559
575,-50665.7388671875,3242.604490290542
576,-42164.5158203125,4558.040991772054
577,-50970.062109375,3104.668647499266
578,-43947.9025390625,2192.857153692149
579,-52473.635546875,3515.754484062338
580,-42081.5912109375,2655.1307128009403
581,-41817.275390625,2206.417185911166
582,-35699.3740234375,3965.8293678377663
583,-49167.572265625,2804.3270357165156
584,-40643.6724609375,2560.8336086065897
585,-38966.0599609375,3898.203717579316
586,-47129.348046875,3104.9792231573565
587,-47511.0837890625,3350.3436650176
588,-46017.056640625,2646.5084844884573
589,-51041.761328125,3203.9301512703914
590,-40726.6888671875,3087.7686200797825
591,-44153.42421875,2709.045838196656
592,-48099.4267578125,3555.419543487194
593,-37127.91142578125,2955.377709658448
594,-43952.359375,2364.704816195854
595,-48587.4736328125,3865.9654991208695
596,-38719.045703125,2939.0058224418467
597,-43056.412890625,2764.2329132866034
598,-41971.941796875,3184.304415519626
599,-43158.27109375,2420.5686559538103
600,-45902.4875,2344.6391488539603
601,-32655.90244140625,5293.403308084202
602,-36072.58232421875,3612.289083620046
603,-50657.982421875,5972.796088904358
604,-52588.2650390625,2627.495159325544
605,-39746.0171875,3002.060627691047
606,-52110.2173828125,2531.140009149468
607,-43707.7740234375,2077.3075731300105
608,-49965.23515625,3465.865922841877
609,-30166.16416015625,4852.839463087133
610,-34087.484375,3964.6800648055137
611,-36270.205859375,3014.3157396372258
612,-35661.8287109375,3421.590274637736
613,-51094.6240234375,2661.300131177958
614,-44868.06171875,2133.9134772691145
615,-46635.5015625,2129.5518290565847
616,-29499.245703125,5781.601811991579
617,-44968.846875,1745.6067405150961
618,-41405.5642578125,1614.736613037009
619,-49903.48203125,3526.278768588354
620,-29423.7244140625,7114.550169780562
621,-41227.3275390625,2365.1528870017974
622,-36966.0765625,2959.7084942131496
623,-38826.274609375,2649.913278767544
624,-52784.0525390625,3112.459668453463
625,-51676.520703125,2832.9996635816797
626,-46374.2982421875,2032.347163128598
627,-29597.1150390625,5897.795439879557
628,-49642.425390625,2810.1761111349265
629,-38789.0060546875,3405.930962398237
630,-51230.2158203125,3056.2450404576352
631,-46506.5693359375,2250.585437599228
632,-34630.92939453125,3388.241378083016
633,-42188.7796875,5423.839512920645
634,-44122.85859375,1704.8610090364411
635,-48832.8763671875,2859.7853153839833
636,-50108.8001953125,2895.092623229058
637,-44142.16484375,3112.686986127301
638,-33285.5748046875,5349.9488640762165
639,-49321.133984375,2874.2641708411165
640,-40126.9416015625,3386.9150155641523
641,-48623.6716796875,3062.697960653737
642,-45022.055078125,2565.4858183330784
643,-43825.5796875,2290.1357325672957
644,-51083.56875,3532.447832549136
645,-45935.208203125,2935.6721491740814
646,-49504.663671875,2435.6324304768427
647,-43844.3271484375,3223.045161942717
648,-39317.749609375,3318.6174672347065
649,-47112.8181640625,3016.9304626645708
650,-48884.02734375,2963.8326412298866
651,-49003.6451171875,3277.261623042913
652,-49888.649609375,2981.800135169006
653,-41674.8412109375,3121.8559123907853
654,-46077.45859375,4388.112507097868
655,-39427.4037109375,3859.42998816376
656,-39485.4478515625,3728.399571218891
657,-43183.7947265625,2697.8604136066715
658,-40872.4736328125,2802.0111598860285
659,-46838.07109375,2767.383137918974
660,-43490.667578125,3005.3721340749876
661,-38137.18525390625,5775.106898397318
662,-41362.448828125,4004.0167101715997
663,-52329.0892578125,3391.200943331549
664,-36288.69306640625,6466.299428623998
665,-53593.4091796875,3889.973980101004
666,-38400.4044921875,1908.117798922923
667,-47820.437890625,2535.0173451858104
668,-50265.6384765625,2703.319138266905
669,-52215.3638671875,2356.170567255639
670,-43912.348828125,2689.085674273321
671,-28041.1630859375,9598.08947108225
672,-37753.75224609375,3245.6226477514315
673,-50442.909765625,3293.4619925963143
674,-50761.8927734375,2437.1607519457975
675,-42345.121484375,3385.1455698529876
676,-38330.88203125,5175.576202790302
677,-46710.11796875,2070.5845741638423
678,-41158.2982421875,3203.5918935515
679,-48335.383203125,4713.476135057673
680,-38649.721484375,3554.3047992954125
681,-40015.33828125,2944.1754702073076
682,-42169.3033203125,3045.367622952661
683,-43352.05390625,2664.6595048165523
684,-45994.2123046875,2151.84045391016
685,-51904.636328125,2821.334131952746
686,-39914.78984375,2081.5832063612515
687,-35501.68427734375,5311.78950478463
688,-46912.7765625,2322.472238201721
689,-52032.7314453125,2593.2203941232524
690,-52479.125,4673.358044434506
691,-46030.592578125,3583.5181221694643
692,-28080.6466796875,8823.325980844305
693,-42282.969921875,1839.3641155279818
694,-43873.4470703125,2027.4332909964578
695,-53065.0515625,5632.627555836815
696,-49609.853125,2633.0922099274903
697,-46081.3478515625,1884.4320297863644
698,-47282.369921875,3909.5762609812737
699,-49380.2607421875,2610.438367675495
700,-43600.4765625,1957.753149810194
701,-42217.7126953125,2535.5083549960577
702,-46471.216015625,2123.3272953629858
703,-36095.7302734375,5880.45440996173
704,-42076.66689453125,7245.913039653364
705,-40643.5689453125,1796.7031394801024
706,-39611.4755859375,2751.1776158794846
707,-29954.23369140625,8304.301100769188
708,-38761.63193359375,3721.073145439719
709,-44923.9216796875,2349.231288065299
710,-40223.196484375,3085.1567401047787
711,-46270.1880859375,2000.0488914305574
712,-44184.84140625,2287.050818061228
713,-51100.540625,3663.039147482258
714,-37982.1220703125,5236.787143639087
715,-36052.7837890625,2780.491910292003
716,-49906.430859375,3939.4108356657985
717,-45667.755859375,2448.8145003520062
718,-42978.65703125,2299.0635143576474
719,-51622.5107421875,3907.448235499366
720,-39290.0412109375,4055.3223046573
721,-54141.05703125,4013.6716478424128
722,-41825.6931640625,2012.0307081368437
723,-42605.88359375,1772.554187907983
724,-47127.7578125,2596.3439663983913
725,-35388.2947265625,2483.0554203525353
726,-28996.02685546875,5217.103418724978
727,-54049.8673828125,2846.5642434324814
728,-50132.769140625,2204.3179861044723
729,-45151.6150390625,2515.30324006163
730,-48406.2228515625,2571.060186119634
731,-40796.383984375,2363.996208710091
732,-51112.2453125,3322.587347700856
733,-39647.6447265625,3146.757749332497
734,-47527.3298828125,2580.4595059523517
735,-38843.57392578125,2676.6948269195304
736,-46498.2939453125,2912.500303013307
737,-45070.52734375,2955.899427550772
738,-28884.0263671875,8432.63742064767
739,-49996.6859375,2537.8974669468003
740,-43197.05234375,2580.3689103930155
741,-45606.4453125,2672.4331174814843
742,-34012.14228515625,4997.573724852837
743,-43856.2328125,2404.8363173873795
744,-47245.4806640625,3165.7810304660998
745,-37883.809375,1678.9161712224854
746,-54016.5099609375,6629.941609128492
747,-34792.705078125,5337.62215772812
748,-41366.87734375,2279.1059660668398
749,-46087.4521484375,2980.3189867770598
750,-40863.3560546875,2049.563652293573
751,-41045.555859375,2868.997704172289
752,-44120.9912109375,2598.3138375212116
753,-42811.585546875,1734.1892655694694
754,-46047.7626953125,2493.434339641782
755,-41906.4453125,3702.811389045017
756,-54608.2283203125,5332.227135567702
757,-42466.1408203125,3330.5054397551125
758,-50905.10234375,6221.675964878149
759,-50477.4705078125,4005.0346157896324
760,-35597.430078125,6276.809111367419
761,-36312.09072265625,4136.537399335237
762,-48330.99609375,3876.6866417674973
763,-42313.355859375,3468.079950928548
764,-34339.1296875,4661.916754284675
765,-41205.635546875,5172.290955824001
766,-42342.602734375,3314.4176394100464
767,-49522.023828125,3723.490096245692
768,-45068.5685546875,2807.8303822717517
769,-41911.0892578125,1694.108418873714
770,-31720.6388671875,4874.501244852512
771,-45623.697265625,2606.892931705354
772,-47843.2103515625,3817.4381780543245
773,-50645.6875,4121.402501583446
774,-47437.9248046875,3252.5858002568266
775,-39876.9619140625,3813.6938421731015
776,-49222.830859375,3658.635796160044
777,-31524.321875,4144.000934299921
778,-42768.76875,2249.1505429951185
779,-41695.3271484375,1909.5244810078318
780,-48528.99765625,6271.671200811879
781,-30012.78330078125,4609.2637940644345
782,-35990.2171875,2703.556976901637
783,-47297.9068359375,3277.8546274103555
784,-37449.4248046875,2557.6049898960628
785,-50036.4083984375,3568.21107325531
786,-43877.5185546875,2595.525541221796
787,-24698.382421875,5557.314105729369
788,-40542.4798828125,2633.0069454457266
789,-36517.1583984375,2088.5103829593027
790,-45308.7064453125,2877.683910120795
791,-51078.954296875,3931.7026513843134
792,-40955.2916015625,2334.3327700873574
793,-42650.609765625,2752.055639293327
794,-45967.41796875,2498.289599022215
795,-43278.36640625,2982.459226775405
796,-39391.5087890625,5481.420437655243
797,-31882.09306640625,4264.692882773094
798,-52759.284375,2683.346017860251
799,-43949.7423828125,1808.9784583667358
800,-39482.909765625,2350.0082308575247
801,-47927.8234375,2481.9277509573053
802,-41565.323828125,3447.090581231511
803,-47427.505078125,2521.9307966431998
804,-47225.8376953125,2457.433587708559
805,-43428.05546875,2929.644842903408
806,-44775.816796875,2242.2897367265246
807,-46777.2189453125,2725.105745762853
808,-51983.3751953125,4213.048459108862
809,-31534.0783203125,4704.754984127437
810,-35269.5421875,2977.738835295121
811,-47359.6904296875,2637.859933543873
812,-47980.9232421875,2423.823361009708
813,-43545.3529296875,3219.574979319686
814,-35857.1771484375,2965.4234435338676
815,-28763.56689453125,5615.791370986836
816,-52606.965625,6810.076849792539
817,-49764.153125,3537.711994381026
818,-43730.298828125,6509.800173884644
819,-41140.871875,1685.8344860905497
820,-44428.146484375,2152.5887184173866
821,-33062.75654296875,3693.519616580834
822,-44448.9740234375,2671.8374210539996
823,-44030.6271484375,3416.2900393032096
824,-39565.6703125,2412.168496567776
825,-49019.7439453125,3478.96922489873
826,-44073.20078125,1796.6073084766138
827,-35485.1427734375,3294.225921854993
828,-44730.333203125,2321.630655576513
829,-45673.8861328125,2536.188904131671
830,-47575.84609375,3895.23263361829
831,-39809.0064453125,9195.986930719368
832,-41111.6078125,2374.226678348528
833,-32399.0095703125,4644.515470722229
834,-43769.5611328125,1978.319547918913
835,-49228.173828125,4446.890800272877
836,-30199.27900390625,6255.786379055468
837,-48343.7458984375,3600.263205732543
838,-42606.9255859375,2562.504485820279
839,-52183.28671875,3247.5366569928456
840,-38400.755859375,2106.7734806885737
841,-51620.237890625,4890.798349623925
842,-49171.998046875,3179.999974752822
843,-39660.6470703125,6599.444306829995
844,-37275.58203125,1857.4711078681523
845,-46614.0873046875,2924.057901368914
846,-44846.5123046875,2540.3942718443914
847,-42867.9265625,2082.8843246758
848,-42259.042578125,2399.766313441937
849,-48538.19375,3439.4134479691693
850,-43647.5212890625,2932.370720678552
851,-41109.296875,2545.428880975812
852,-43678.5978515625,4330.032842771881
853,-36926.2548828125,4744.889232485479
854,-44170.249609375,2798.2823350771746
855,-38779.55048828125,2122.812186126374
856,-46483.1314453125,3485.9368746756504
857,-41621.7853515625,2850.2494939390845
858,-46005.9671875,3061.091019349235
859,-42476.15390625,2720.173623683159
860,-47666.913671875,3977.178626487
861,-48470.8998046875,3802.615759560102
862,-46639.2013671875,3430.5063049650944
863,-39875.0935546875,1744.8730084843176
864,-29110.66650390625,5573.025610929189
865,-43204.5208984375,2021.4678242545117
866,-48795.00546875,3789.514638820368
867,-25661.47197265625,5475.924811755995
868,-45366.9080078125,3527.6267363844468
869,-38088.275,2483.603071467681
870,-48057.5990234375,3598.8705000952878
871,-48538.6939453125,7013.51197641242
872,-44064.759765625,2887.260930412756
873,-45854.01953125,3500.714239472949
874,-47257.1779296875,4035.855261234464
875,-33294.794921875,3399.2732069051663
876,-42869.875390625,2081.4345866868994
877,-47251.6984375,3906.3321171123757
878,-34253.226953125,2301.695887046481
879,-31019.413671875,3687.7524668524948
880,-39964.61015625,2539.8877627250777
881,-43124.8353515625,2087.9440688652526
882,-30320.78271484375,3596.4407013279406
883,-36828.5681640625,1923.7198770087286
884,-45344.5162109375,2968.5101153803002
885,-49814.853515625,4608.974527274217
886,-41925.19140625,2076.757974858262
887,-44670.68671875,2449.7905098952947
888,-48899.3990234375,3806.319674077246
889,-35539.41572265625,2902.3986576605625
890,-29841.1869140625,3901.826821500789
891,-40112.24423828125,7417.070477974938
892,-32163.83984375,3658.9556232470954
893,-37582.47216796875,2659.0996009003393
894,-47653.422265625,3163.853682450588
895,-34404.17158203125,2780.943537197024
896,-42902.621875,2347.1386455803677
897,-42299.24375,3144.83129112622
898,-47528.796875,3026.779927644886
899,-46901.7697265625,2528.966821079104
900,-49182.65546875,4756.8917545059085
901,-39054.2140625,2089.0872440516405
902,-35067.34140625,3981.6028258124616
903,-43664.3443359375,2819.2830119240166
904,-39791.791796875,5774.68427000173
905,-47240.1478515625,3485.3166306433395
906,-48201.01171875,2934.270860954415
907,-42029.9181640625,6631.811582207923
908,-42194.5177734375,4144.181022234949
909,-42187.9064453125,3850.2292454701255
910,-32085.406640625,5907.044274148963
911,-46322.2271484375,3570.7091536213597
912,-46778.8892578125,2752.869678782174
913,-40621.8810546875,3197.9387546966886
914,-48753.435546875,3437.33818352654
915,-35908.165625,4609.551301043219
916,-48823.7634765625,3406.7447849941673
917,-46787.3380859375,3573.16417694772
918,-47195.5203125,2727.889140901089
919,-48492.6517578125,3131.380756514415
920,-33302.60283203125,5406.149850614037
921,-42970.5337890625,4520.744124999091
922,-51183.375,6455.294111723984
923,-42407.564453125,4663.216357646141
924,-45026.784765625,5530.114967425889
925,-48160.7677734375,3911.4936012504354
926,-41863.7515625,3565.51042520144
927,-36295.56455078125,4739.473244129049
928,-50415.262890625,4230.529603981664
929,-40255.3021484375,4645.625276721102
930,-46468.5095703125,3355.4344447577614
931,-40739.0615234375,3246.0434258480373
932,-42021.4228515625,3572.855640200909
933,-44332.86640625,2645.3465533318563
934,-46666.95390625,2990.584276940107
935,-36397.90888671875,4304.981208499841
936,-36426.40185546875,4566.562379229993
937,-44521.6666015625,4065.229669797591
938,-37110.677734375,5066.5011583752885
939,-38930.128125,2586.4453943377443
940,-34715.55654296875,5023.247442903543
941,-40914.7787109375,4550.006113287418
942,-38005.7873046875,6634.894255545105
943,-41525.11796875,5361.072586909976
944,-48499.7841796875,3497.7753622152136
945,-46426.26953125,3339.781486976283
946,-38631.1294921875,6565.585751096215
947,-33757.2515625,7891.895759578334
948,-47355.8787109375,2364.4186426562856
949,-44112.5228515625,3182.81084461881
950,-50044.247265625,3309.03244567442
951,-48749.0275390625,2758.0594753462506
952,-32874.53935546875,8151.852655247724
953,-48878.6236328125,3064.18353604851
954,-48798.9099609375,3259.0539990787115
955,-37594.76591796875,6484.712704275
956,-50112.790625,3197.259656787868
957,-44972.256640625,2917.586266427709
958,-43614.291796875,4411.577140084566
959,-40214.9314453125,6355.792211722448
960,-34926.53203125,8676.697400165353
961,-36581.3099609375,7990.9631071736385
962,-44114.083984375,2597.074898499696
963,-43311.4388671875,3343.284628722045
964,-46220.7341796875,4554.310582026784
965,-41247.455078125,3319.880549393741
966,-47085.91328125,2813.6005651874207
967,-47017.369921875,5444.148788996133
968,-36252.80029296875,8364.026368483266
969,-36656.3767578125,8609.872396641687
970,-45127.7576171875,1827.0156324474592
971,-48242.7529296875,3441.452708022307
972,-42207.832421875,3530.1911957972948
973,-36859.0591796875,7736.480673803672
974,-35608.9771484375,8209.242096682588
975,-44495.0099609375,2713.184653021221
976,-42073.2568359375,5824.185623899219
977,-46252.724609375,2276.654387779784
978,-46564.899609375,3931.078610801105
979,-45447.7919921875,4166.756365967404
980,-50775.350390625,3152.682891748828
981,-41630.42109375,4637.737576127703
982,-46469.030859375,3796.0370741861484
983,-36753.0787109375,7215.715136792734
984,-38107.632421875,6864.36354104549
985,-40655.7673828125,2325.9550894236677
986,-43872.335546875,4323.251211157658
987,-44854.4865234375,4045.7132594022614
988,-44203.19140625,2766.10745068974
989,-41283.89453125,5637.097958720537
990,-39816.683984375,4115.672280170906
991,-34692.7048828125,8495.43653221322
992,-36525.3005859375,5006.547212296298
993,-27429.8318359375,10064.048482892149
994,-46751.3162109375,2482.335663632713
995,-39879.98896484375,3432.024629347757
996,-40213.4189453125,4303.7185844362575
997,-42230.1767578125,5451.089002098531
998,-35588.15048828125,7438.971131876893
999,-37135.08935546875,7484.477395141568
1000,-47653.2603515625,3030.099256405916
1001,-41591.2595703125,2208.291586734909
1002,-48989.880859375,3407.2916630029276
1003,-38869.3701171875,2448.293772203447
1004,-38001.456640625,5301.851714320838
1005,-44519.2474609375,2685.0299611608343
1006,-40257.6056640625,5455.867533524173
1007,-41355.155078125,5240.717844483125
1008,-30912.26630859375,6851.8014393678
1009,-46957.026953125,2923.649007415851
1010,-43165.344921875,2335.943721312818
1011,-46826.3072265625,2841.869588248025
1012,-46866.159375,2825.7203771553927
1013,-41943.837109375,3172.425261208665
1014,-51298.271875,3880.423610249137
1015,-36797.8833984375,5766.316505513153
1016,-36263.32783203125,4788.2662407492535
1017,-47279.555859375,3240.048058030752
1018,-48124.5240234375,3324.406428319493
1019,-44282.196875,5832.108562869188
1020,-49310.94609375,3512.8124894291736
1021,-41605.8037109375,4546.190732616013
1022,-39574.7146484375,4658.159938868285
1023,-33872.58681640625,7850.9153893272805
1024,-46941.411328125,3754.144228956948
1025,-40252.7130859375,4671.479982320589
1026,-51421.9880859375,3650.681254693788
1027,-33441.34755859375,4520.665849501495
1028,-45659.6435546875,2989.2168209739643
1029,-41915.43046875,4660.544029792448
1030,-38168.2419921875,5532.581365603532
1031,-39671.48486328125,5171.630069279693
1032,-43261.9716796875,3273.0536064270564
1033,-42082.7513671875,2693.6811508329483
1034,-35854.1958984375,5415.867330279712
1035,-45468.454296875,3034.608297245215
1036,-40034.6083984375,4960.587609036707
1037,-48477.2171875,3447.468229947035
1038,-33058.3248046875,7826.851367424662
1039,-40932.748046875,5030.062087489283
1040,-47919.5763671875,4663.872287934159
1041,-43564.3892578125,3161.0740151583764
1042,-41910.9201171875,3130.6454824164484
1043,-43768.87734375,3825.3034147752983
1044,-46757.0759765625,3115.247523806615
1045,-43558.0619140625,3608.735805723519
1046,-40578.6669921875,4088.3163530640745
1047,-43365.7822265625,3430.2809827853134
1048,-47478.1759765625,3036.799691530076
1049,-42349.0478515625,2877.7333470995504
1050,-43534.6806640625,3061.62053678154
1051,-48178.04375,4320.877597013882
1052,-43217.5841796875,3149.521105102055
1053,-43399.805078125,3480.9768978729576
1054,-30638.00478515625,9467.219983022022
1055,-50261.46953125,3694.2812757396255
1056,-46874.823046875,3710.9330844459955
1057,-45964.314453125,3118.285689683401
1058,-41257.5330078125,3435.411012765261
1059,-42291.8095703125,2839.4748428868966
1060,-38786.91875,4453.479721064042
1061,-46779.9623046875,3852.7615431001495
1062,-38441.2423828125,4129.932138256119
1063,-38145.29052734375,4370.983118220704
1064,-30216.74541015625,7964.652208970318
1065,-32955.5548828125,6265.873668782333
1066,-30877.871484375,7275.1621964717115
1067,-39374.4228515625,3777.054276894187
1068,-44540.756640625,3522.847564566634
1069,-45997.77890625,5575.857031377361
1070,-42862.50546875,3253.658382983746
1071,-46382.8126953125,3335.291364085866
1072,-42982.9765625,2855.2582710957954
1073,-34666.06728515625,6058.6390991825565
1074,-50086.7744140625,3952.330633524822
1075,-46058.6427734375,3241.528474100082
1076,-43437.58046875,3349.206507849217
1077,-45852.590625,3077.8830266179057
1078,-47846.4625,3650.322869207034
1079,-44203.3599609375,3271.1993435895347
1080,-38181.47890625,4441.392609959816
1081,-31435.94482421875,6407.9738035417795
1082,-28541.62041015625,8087.224933230737
1083,-48523.57421875,3966.457295668647
1084,-42622.23203125,3198.860064230565
1085,-41023.984375,3054.409846974032
1086,-39784.196484375,3695.3001591021175
1087,-40979.088671875,3692.2084377665187
1088,-34800.17470703125,5618.528690077611
1089,-46877.3970703125,3385.7012532352237
1090,-38879.0169921875,3686.4387814585143
1091,-49964.3220703125,3728.7246420866236
1092,-37650.6759765625,4243.007772208937
1093,-34686.8169921875,7698.770621251113
1094,-46045.2349609375,5661.774378643511
1095,-41409.3689453125,3466.8685927202196
1096,-34987.4033203125,6168.781949676532
1097,-39492.84765625,4038.7456806428245
1098,-33563.92099609375,7746.376444447408
1099,-37750.71201171875,4820.917134298178
1100,-39401.098828125,4696.62695049724
1101,-41301.9484375,3880.4673063211794
1102,-42279.352734375,9005.978103684956
1103,-43098.14296875,3342.387829926879
1104,-39171.29189453125,5546.210529293706
1105,-41692.3423828125,4202.513690291831
1106,-49937.0787109375,4367.322074085907
1107,-52272.872265625,5713.875764134989
1108,-47386.2193359375,3769.834686442048
1109,-34601.94462890625,6014.281353882093
1110,-46214.1728515625,4073.152659348585
1111,-47523.323828125,4621.481122088713
1112,-43198.4548828125,2876.8887491618666
1113,-43607.7140625,2793.7345660587425
1114,-44705.05859375,3413.935390238044
1115,-39307.4041015625,3420.4840534354234
1116,-46878.9876953125,3754.369286887646
1117,-34986.1564453125,5835.4437041639485
1118,-38371.756640625,4104.680278956534
1119,-39141.446484375,4359.182834549882
1120,-39604.668359375,4640.796515914798
1121,-45871.2794921875,5869.325256385461
1122,-45890.819140625,3813.8080367324164
1123,-38140.24501953125,4277.47071443484
1124,-47112.4958984375,3544.7545824050962
1125,-42525.307421875,5043.921081741487
1126,-43867.759765625,2783.0157117195195
1127,-50829.3310546875,4661.35833599736
1128,-42421.367578125,7083.698526342987
1129,-41277.434375,8850.391547952553
1130,-36562.469140625,6255.503066944399
1131,-44792.192578125,2878.445207898866
1132,-40809.8716796875,7686.991690822548
1133,-44297.33359375,3738.5578632470865
1134,-39237.92509765625,4188.859528700087
1135,-45347.5234375,3740.272075883751
1136,-45395.94453125,3198.5116978382607
1137,-50819.5701171875,6217.909014813708
1138,-43485.2005859375,3148.5197800615215
1139,-44332.794140625,3101.038471861876
1140,-45530.225,3622.997767712892
1141,-45116.7169921875,3287.018443026206
1142,-30534.7859375,8546.951343019698
1143,-40877.6126953125,3534.546381335423
1144,-29450.69384765625,8931.564330085635
1145,-44944.2115234375,6630.240047815878
1146,-35078.673828125,6849.3145032103885
1147,-35634.1166015625,5982.822770888579
1148,-46969.88515625,3948.7366064406438
1149,-43967.6244140625,6044.24148391687
1150,-28226.74873046875,8878.179650828823
1151,-36283.1234375,5850.569534872207
1152,-37675.32265625,5499.89825062998
1153,-40793.1517578125,3784.0191086918253
1154,-35525.65517578125,5992.943070646927
1155,-49243.343359375,4521.34518577099
1156,-48381.1228515625,4313.024083644859
1157,-44587.968359375,3904.8826658373173
1158,-52540.8318359375,7236.438984886888
1159,-46269.3556640625,3658.9295394686487
1160,-40668.94755859375,4270.039766617436
1161,-46599.4939453125,3628.558693689453
1162,-40497.054296875,4398.923886447676
1163,-37985.4033203125,5100.764808884927
1164,-41794.45380859375,6605.912119366952
1165,-35364.6779296875,5481.5842601750455
1166,-40768.86962890625,8079.730549184604
1167,-42193.9677734375,6700.16605964533
1168,-33434.1427734375,7319.706191618257
1169,-43685.57421875,3256.678706921277
1170,-46226.545703125,4095.208893698376
1171,-45766.7025390625,4060.4093370708647
1172,-38549.83349609375,4828.172381076883
1173,-47333.080078125,4364.725325926215
1174,-30985.06728515625,7340.9640409371605
1175,-34804.1494140625,6333.062525978943
1176,-42953.3234375,3252.5697446229306
1177,-43507.4326171875,3993.4206107177897
1178,-47552.7685546875,3661.1987696066526
1179,-36814.38662109375,4904.426190510404
1180,-39536.77763671875,4654.335792976283
1181,-45121.24609375,3651.697883499292
1182,-38301.8423828125,4025.660371652328
1183,-46175.2779296875,3864.727663780534
1184,-40167.101171875,3745.4337839812138
1185,-32558.280078125,6724.16140282543
1186,-38629.19375,4146.502335606121
1187,-48198.32421875,3720.03403586681
1188,-42590.341015625,3190.9837501944403
1189,-45891.6248046875,3360.820998959787
1190,-45747.728515625,3594.1784967977615
1191,-41880.070703125,3327.19484282993
1192,-45906.10625,3183.616601320308
1193,-39121.100390625,4217.0558116618295
1194,-49559.9623046875,3697.741609205643
1195,-41916.2837890625,3470.0861825466172
1196,-32773.8208984375,6388.0654404497445
1197,-32925.4232421875,5717.743090067144
1198,-42959.71953125,3493.1314345870574
1199,-38113.5263671875,4225.796430631176
1200,-46411.926171875,3250.957543534996
1201,-48637.2021484375,4297.454532813883
1202,-48358.7884765625,3209.5835186628988
1203,-40366.9306640625,3637.1498019676396
1204,-35383.9333984375,5857.038118308528
1205,-32335.5095703125,6589.041183327515
1206,-36178.22265625,4599.602096089649
1207,-44658.4880859375,2397.4323033264814
1208,-47458.76484375,3649.211225790093
1209,-41983.68359375,3342.489544707946
1210,-37852.25517578125,4998.631268591358
1211,-46471.63828125,3316.1167335388295
1212,-40882.2255859375,3830.2480355127936
1213,-37685.4697265625,4733.449771652709
1214,-38995.08203125,3835.049215503202
1215,-50195.143359375,4224.025367322361
1216,-46591.903125,4305.551289778354
1217,-40953.209765625,3453.4969920882127
1218,-47532.170703125,3929.677903029817
1219,-37067.249609375,4416.114717608134
1220,-31479.7783203125,7444.754101233574
1221,-36532.034765625,5281.316014186617
1222,-39724.280859375,3832.144219513356
1223,-39587.5169921875,3120.1340994793704
1224,-46649.284375,3515.7520345287653
1225,-41692.9517578125,3541.2232989945855
1226,-41648.423046875,3295.8682844947325
1227,-37315.70341796875,3817.764362471022
1228,-44814.2642578125,5496.216908320534
1229,-48599.7685546875,4847.090134969912
1230,-43558.856640625,2970.3632694672638
1231,-48426.500390625,4214.315585573158
1232,-48683.9271484375,4315.387106615259
1233,-43914.058984375,3489.639697114188
1234,-39048.5919921875,2671.6531986246696
1235,-28108.35107421875,6840.906832482087
1236,-41251.184765625,2711.919877227826
1237,-47026.893359375,3769.79249891761
1238,-50474.139453125,4731.717191880795
1239,-38047.0283203125,3610.707116613787
1240,-36056.59638671875,3033.1364447762826
1241,-45124.0615234375,3183.3777534867204
1242,-41907.56796875,2526.54139561456
1243,-48913.716015625,2979.877269217604
1244,-46204.3552734375,2384.190223468644
1245,-47073.445703125,5180.215777291028
1246,-43522.212890625,2446.5036600994185
1247,-31894.85966796875,4554.29062428401
1248,-44836.1810546875,2962.435602700919
1249,-46102.3322265625,2967.0755942232304
1250,-43533.571875,4678.934985400848
1251,-44401.13818359375,6688.793147709574
1252,-43145.5626953125,2389.8136881583473
1253,-43391.417578125,2210.0904503055867
1254,-42126.6513671875,3276.0001835360436
1255,-45841.937890625,2923.8362964838893
1256,-34011.847265625,2772.6588044129876
1257,-29589.18583984375,6011.972479493853
1258,-38336.44765625,2027.5138519929262
1259,-35252.3828125,2858.898966577028
1260,-45229.773046875,2793.889212623251
1261,-49111.987109375,4233.840349460486
1262,-47654.735546875,2789.7550012965958
1263,-50504.3060546875,3637.84529268741
1264,-49667.98984375,3474.72722726646
1265,-43146.5978515625,5381.306001076542
1266,-38341.6673828125,3259.551788268187
1267,-43091.4861328125,2375.604259468545
1268,-39827.43212890625,6820.432477480903
1269,-39719.720703125,2896.0282850287063
1270,-36072.9853515625,3017.0334409696643
1271,-42144.25703125,2679.0405570159764
1272,-38270.478515625,2796.3555183318954
1273,-43799.20859375,2535.752312748285
1274,-31799.60322265625,2937.6558461326235
1275,-29812.4228515625,4213.395161163476
1276,-35705.476953125,3000.2130029614877
1277,-42418.9634765625,2472.3673566848574
1278,-36721.61728515625,6242.988201726473
1279,-44788.4732421875,2901.9539686032485
1280,-49440.19765625,6239.597309430859
1281,-46774.7353515625,3024.8592879681114
1282,-48808.609765625,3368.568632969784
1283,-28440.27685546875,5169.034425353863
1284,-35055.076171875,2572.138826968412
1285,-28390.652734375,4569.951926301135
1286,-38005.7486328125,2756.7735347486705
1287,-48664.8404296875,3382.2015337251537
1288,-40590.3748046875,2574.135561532084
1289,-40629.8787109375,3781.264868969844
1290,-45061.4474609375,2935.0874660672
1291,-39833.322265625,3910.3239241407623
1292,-47076.6869140625,3128.240599894607
1293,-50140.072265625,3581.8679517930564
1294,-24234.45146484375,5587.397306254157
1295,-47186.0513671875,3147.895212245954
1296,-44977.4458984375,2968.874468359425
1297,-32038.60791015625,2533.7594725538465
1298,-49096.6619140625,3544.147795660626
1299,-40787.4939453125,3722.4658093744097
1300,-40374.3732421875,2801.5275561142807
1301,-29415.31142578125,3760.4013962159197
1302,-29347.93173828125,4173.655192197158
1303,-44590.0546875,2949.2124280147473
1304,-32704.7923828125,2776.4606454335094
1305,-46610.2380859375,3205.2320073846663
1306,-49399.20703125,3926.374040258338
1307,-29543.74345703125,3829.1459671127022
1308,-33684.8,2108.4129148875313
1309,-46483.8716796875,3222.804359916179
1310,-29255.98642578125,3191.535363059497
1311,-45750.360546875,2996.7661664656002
1312,-36886.83369140625,3517.4785494940397
1313,-47395.80546875,3918.51006344343
1314,-44093.2701171875,2853.1790237371442
1315,-39813.61640625,3351.7119198610594
1316,-39224.472265625,3746.7668302597
1317,-42966.631640625,2405.100360641367
1318,-46686.8076171875,3602.417906653653
1319,-40613.2931640625,3035.740427124159
1320,-41110.14375,4242.225732910269
1321,-46579.319140625,3674.964356535722
1322,-29968.08935546875,3698.1438660645763
1323,-41987.989453125,3256.405408040771
1324,-36596.5689453125,1966.3108635293406
1325,-48750.752734375,3766.863290406639
1326,-36061.28515625,2353.03576370958
1327,-38189.9404296875,2245.421892113772
1328,-37464.4306640625,1829.1983135908295
1329,-36333.081640625,2077.113566916711
1330,-46442.3001953125,3432.996613795524
1331,-36651.065234375,2090.6489559459365
1332,-49371.7013671875,3787.453062595811
1333,-41522.0111328125,3087.0407757374187
1334,-40715.967578125,2395.9436726969107
1335,-42160.890625,4865.511728132149
1336,-44521.19375,3332.477943251583
1337,-33279.56875,2445.487740624226
1338,-39407.0068359375,2096.351151264446
1339,-48998.6216796875,3964.72561242683
1340,-26487.71005859375,3681.429502428543
1341,-36716.17724609375,2599.0943532609376
1342,-43819.479296875,2818.1168086045045
1343,-48386.3927734375,3928.6737557550823
1344,-28722.06328125,3194.3480617119462
1345,-46508.884765625,4057.223939819716
1346,-46025.2392578125,3586.5776603070804
1347,-42396.701171875,5269.170547977997
1348,-46841.866015625,3688.593466293443
1349,-40223.05087890625,3783.903493142758
1350,-32530.186328125,1753.6247047918844
1351,-29836.8490234375,3070.7829646947407
1352,-38129.6302734375,2284.657028801507
1353,-44777.7556640625,2980.720597879905
1354,-41052.98046875,2119.041089320679
1355,-33474.89208984375,1987.212771132556
1356,-45847.908203125,3583.744448750417
1357,-43183.6541015625,2897.87671700231
1358,-28640.9837890625,1805.9856314174242
1359,-50297.26171875,4262.587120249793
1360,-38537.6701171875,2079.1114763089568
1361,-32583.79873046875,1783.8514066759399
1362,-37284.76318359375,1888.5446783884452
1363,-50053.31015625,4435.623799363648
1364,-34410.0923828125,1700.8619869721038
1365,-39736.8912109375,2090.1205729276526
1366,-40643.765625,3661.3817314811995
1367,-48507.3619140625,4402.817743807096
1368,-44261.4994140625,3043.5788826715266
1369,-42073.466015625,2492.712691426072
1370,-42223.454296875,2694.9303856589927
1371,-42375.56328125,3576.0738382952886
1372,-46743.38671875,4048.3106973049207
1373,-36112.1958984375,2755.0087116975424
1374,-40640.887109375,4872.48434339125
1375,-46175.0357421875,4140.995441793762
1376,-44103.5548828125,3320.2519409074002
1377,-45100.5017578125,3355.188381502138
1378,-34794.40380859375,3176.826645663767
1379,-40221.1203125,2863.8186557688814
1380,-44828.532421875,3887.8655421823937
1381,-30016.83291015625,3104.3577394933445
1382,-38060.550390625,1669.4057742307234
1383,-33037.33642578125,2989.3007167989413
1384,-32328.6400390625,2919.909254916818
1385,-37245.4322265625,1947.8497349370982
1386,-35818.4568359375,1838.2846372985266
1387,-35945.1021484375,2167.1756031634145
1388,-46435.4423828125,4195.789212547671
1389,-46461.5986328125,4074.8569439206562
1390,-46888.4013671875,4471.499338616138
1391,-39754.4884765625,2319.7924124919386
1392,-43440.9064453125,3121.485849282604
1393,-44371.8572265625,4449.258800503328
1394,-44385.759765625,4409.406534913628
1395,-31137.79853515625,5812.697128361665
1396,-37530.2720703125,2913.892768880903
1397,-47708.3611328125,4789.7735310849985
1398,-49088.753515625,4688.573492238359
1399,-43233.183203125,2981.0288195135818
1400,-38299.89970703125,2790.0290204620724
1401,-40839.3416015625,2524.3609971034884
1402,-35648.72197265625,4160.578173605109
1403,-33841.03251953125,4195.72139494358
1404,-48456.5615234375,4511.2539571900215
1405,-41502.52607421875,6356.93860388022
1406,-49693.5005859375,4344.920540773852
1407,-35635.447265625,2469.0227641661904
1408,-44514.7638671875,2851.876803054049
1409,-43377.3845703125,2894.8713912014273
1410,-37369.8056640625,2525.4497504123337
1411,-41091.8578125,2897.43511811476
1412,-47229.7490234375,4131.689486179524
1413,-37738.4888671875,2096.832102146569
1414,-45627.9583984375,4553.475946232762
1415,-45710.1650390625,3857.4658052814707
1416,-39604.9015625,3282.3666717058945
1417,-26634.58720703125,7194.245613684907
1418,-41516.21328125,3131.9417592560026
1419,-40666.3724609375,3663.798921411291
1420,-43267.7869140625,3623.2785946084464
1421,-41172.74453125,3084.755229089066
1422,-45238.1587890625,3962.1047213676616
1423,-31432.8787109375,3707.5825569143108
1424,-40442.8759765625,3069.7332813557005
1425,-41924.63203125,3540.7469403684377
1426,-46296.348046875,3821.018703589209
1427,-48027.463671875,4597.669888232829
1428,-41689.28828125,2312.97781309168
1429,-29203.858203125,5651.649814053239
1430,-36111.71025390625,2439.1706499106217
1431,-36453.8185546875,4440.564229700155
1432,-40036.6939453125,2596.61067271612
1433,-43713.8171875,4098.472216848201
1434,-46511.08125,5577.037312474379
1435,-47485.0185546875,4552.944734327493
1436,-44871.805859375,4339.338727357977
1437,-39027.3328125,2787.9809127804438
1438,-38540.3025390625,1795.0325920680154
1439,-40852.989453125,2687.6664084140593
1440,-32736.1376953125,4368.109265122941
1441,-36099.03056640625,2454.3270998447324
1442,-41198.26328125,3302.8389872905536
1443,-47564.4423828125,4414.906895798085
1444,-41166.446484375,2055.2275163425907
1445,-42215.76171875,2789.5124134515722
1446,-36958.9328125,2442.895073663222
1447,-41514.578125,5548.8669703527985
1448,-46418.6931640625,4077.4927230336816
1449,-40423.104296875,2663.582817920096
1450,-46145.0080078125,3873.941899665279
1451,-46668.9546875,4991.935177130512
1452,-37669.54365234375,3687.4134348204243
1453,-40688.3076171875,2937.756289548701
1454,-41869.18984375,2798.7749304076756
1455,-33018.49375,7193.9631701563485
1456,-47303.9744140625,4278.716113214726
1457,-42548.216796875,3482.068413722523
1458,-39317.741796875,6146.03871483902
1459,-46804.3208984375,3903.248229882781
1460,-35198.03271484375,3373.894403950841
1461,-42219.5162109375,2669.492253168508
1462,-46706.2146484375,3331.1526557805787
1463,-38528.9798828125,2374.489612344812
1464,-36263.2044921875,3562.1125012231646
1465,-44251.577734375,3560.9321077250092
1466,-35513.88681640625,2798.421454279764
1467,-40917.08203125,3355.36244265125
1468,-46736.5623046875,4087.635994405285
1469,-46867.818359375,4028.791683729264
1470,-47416.934765625,4221.692762704945
1471,-31906.6515625,3681.537867021359
1472,-45419.8486328125,4234.521831151932
1473,-43201.7310546875,3593.2463328963972
1474,-46732.978515625,3803.936918388558
1475,-46110.2685546875,4065.905554544681
1476,-28507.76162109375,4737.851639399857
1477,-30847.6677734375,4416.2340985663295
1478,-43912.6125,3245.8913885116995
1479,-41324.46435546875,6796.878446914532
1480,-45861.43671875,4273.454598765817
1481,-33591.83466796875,3984.4836650711377
1482,-44501.3740234375,3877.66077598774
1483,-42218.4509765625,4045.858014831987
1484,-45819.195703125,4461.263462823368
1485,-41744.35751953125,6782.393476939879
1486,-36560.90576171875,3038.514701747927
1487,-33998.84453125,4351.579660130673
1488,-42471.691796875,3479.915960336074
1489,-43178.4294921875,3320.4775878194623
1490,-42260.2130859375,3191.6456854395665
1491,-38865.82119140625,5550.0978688238165
1492,-39456.5419921875,2121.035331336794
1493,-47436.2701171875,3657.4440838225073
1494,-37827.59033203125,3178.9368391845283
1495,-40632.2802734375,2729.6389690553046
1496,-36035.29892578125,4863.0237359001085
1497,-48896.9228515625,3937.982959566281
1498,-45423.9666015625,3609.759227930312
1499,-33593.9837890625,3299.042933045471
1500,-28063.38955078125,4845.923844426218
1501,-40901.569140625,3034.434110228929
1502,-36357.93515625,1963.6872907711079
1503,-35707.5111328125,2302.772832432565
1504,-41614.0615234375,3006.573478230424
1505,-45325.0279296875,3345.9581928289226
1506,-44332.9181640625,3107.420538649116
1507,-39307.3837890625,3184.3762868433814
1508,-47817.636328125,3863.441984113407
1509,-39974.6833984375,2599.8967145201364
1510,-38445.34921875,2658.4925072164306
1511,-40843.7494140625,2597.9450172324623
1512,-38680.6396484375,2304.8865787474906
1513,-45227.793359375,4194.555053069339
1514,-40671.009765625,2877.0592875120074
1515,-45388.0951171875,3198.358774655356
1516,-41628.5189453125,2758.497647934043
1517,-31422.3541015625,4698.200720478115
1518,-44835.9224609375,3323.718356676292
1519,-40528.4125,2733.0476342848174
1520,-47308.81640625,3962.6402852198944
1521,-42398.268359375,2915.001085720246
1522,-43185.98505859375,5739.446642863494
1523,-41843.11484375,2587.9062775695265
1524,-35749.14873046875,2943.5120860627967
1525,-47952.7341796875,4650.446690079419
1526,-36280.0625,2676.4364813758125
1527,-41556.2771484375,3223.5180159175184
1528,-44599.515234375,4470.681888987984
1529,-35629.3720703125,2211.6918951232724
1530,-46991.7994140625,4489.4725801407
1531,-40787.712109375,2980.3976902709464
1532,-36383.4130859375,2921.9267744452322
1533,-28766.26572265625,8892.436296527709
1534,-31064.25732421875,6186.948160031519
1535,-43084.15546875,4964.580189410029
1536,-48104.4046875,4707.644666755295
1537,-40939.2798828125,3618.989869571467
1538,-46027.251953125,4488.104278481855
1539,-46240.3619140625,4657.451605898754
1540,-48358.0021484375,4773.655725231555
1541,-44177.7880859375,3872.586529648575
1542,-40050.3412109375,2755.62858988407
1543,-40004.14365234375,3534.618982988956
1544,-45253.15390625,3903.02563410018
1545,-41822.82109375,2624.807123160878
1546,-45103.0541015625,3459.5177536239457
1547,-46113.1068359375,3472.620813236277
1548,-38961.06201171875,3715.891685291047
1549,-41730.2345703125,3305.5562795672663
1550,-39048.89375,2982.55165008245
1551,-36233.68671875,3384.8192256189554
1552,-42762.3931640625,3551.336405995281
1553,-38814.7814453125,3003.6852141538457
1554,-36620.55810546875,3652.832012319119
1555,-46464.6015625,4830.3302356203985
1556,-36063.175,3555.4203442822204
1557,-42128.1677734375,4223.028964538296
1558,-41386.471875,3630.6836554991814
1559,-32674.1935546875,5628.894767818717
1560,-45507.694140625,4138.1993232538625
1561,-37841.941796875,3128.2744977151483
1562,-41156.4224609375,3040.372108546559
1563,-40501.5853515625,3423.6425980249514
1564,-41432.198828125,3016.2447652488586
1565,-40930.989453125,3491.534337520889
1566,-39835.33193359375,4061.8787675320536
1567,-37125.47958984375,3460.9196415986107
1568,-36647.403515625,3407.290444426824
1569,-44420.496875,3651.3410315747537
1570,-41546.2046875,4187.794111856233
1571,-37123.94658203125,4377.109485596276
1572,-34530.6203125,5548.807677172098
1573,-48551.8552734375,5078.315660189045
1574,-35006.5537109375,4567.826723847529
1575,-37416.88076171875,3072.6513932938265
1576,-43744.458203125,3726.866634644361
1577,-41963.607421875,2543.331615414204
1578,-40739.93125,2100.1832420755827
1579,-43917.2099609375,3589.9378941942527
1580,-42049.397265625,2813.2926471696696
1581,-44903.4966796875,3411.407703262114
1582,-43928.9337890625,3711.289231600439
1583,-33621.940234375,4459.549506166016
1584,-39476.115234375,1884.6921453064433
1585,-42673.247265625,3656.3708531475886
1586,-44166.7873046875,3911.798863779621
1587,-36822.18203125,3081.3431135925753
1588,-34816.296875,4242.3267237008395
1589,-40001.0896484375,2807.333914918258
1590,-40802.150390625,2648.3912735466997
1591,-35883.33935546875,5006.803263214325
1592,-43663.6466796875,4070.964214663266
1593,-47143.4474609375,4866.2380564241075
1594,-36065.491796875,3167.0322401235744
1595,-34018.69599609375,5353.975741144435
1596,-43917.3484375,4477.731076954364
1597,-41879.50380859375,5124.9662595496275
1598,-37386.17158203125,3096.096447863883
1599,-37243.5607421875,4626.856699709595
1600,-43340.9671875,2824.2401096511935
1601,-40542.33828125,2203.8221691001463
1602,-45342.180078125,4085.90621662855
1603,-42652.801953125,3768.1678272193144
1604,-45688.260546875,4125.337418360597
1605,-40301.3216796875,3083.1517742751585
1606,-42416.4400390625,3641.2730620078046
1607,-46687.753515625,4601.396975582643
1608,-42953.9888671875,2371.913645836709
1609,-38872.13203125,3516.151693681131
1610,-43113.3302734375,4152.7830378188155
1611,-38159.8083984375,3490.8231849988606
1612,-42815.4146484375,2816.5663981034872
1613,-39317.630078125,2377.9844611765006
1614,-39165.9,2814.3612596416488
1615,-41454.4076171875,1936.0963309145236
1616,-41984.4224609375,2485.293750292515
1617,-39639.24375,3640.594320895623
1618,-47866.33671875,4555.688921441689
1619,-37455.73994140625,3295.0516080253356
1620,-42701.908203125,3013.7384962939364
1621,-39267.5072265625,2581.087415387435
1622,-38840.5271484375,2608.4601780484577
1623,-46658.7087890625,4472.205803251644
1624,-32886.36904296875,5702.68005110907
1625,-43445.80703125,3096.592683773986
1626,-43684.964453125,4220.038434032751
1627,-29443.6984375,7668.664142244827
1628,-34970.9134765625,4494.434082686895
1629,-44576.1552734375,4081.881639510645
1630,-42013.4544921875,3095.9969052314755
1631,-36974.89296875,2197.5772145287456
1632,-33311.18193359375,3858.3566375562064
1633,-42775.7033203125,3299.05908189754
1634,-31930.288671875,3311.643639581948
1635,-36087.2353515625,2865.42612543894
1636,-37340.6201171875,3508.6968935131054
1637,-33702.17333984375,3196.592181093157
1638,-35301.56796875,4048.7012027556752
1639,-31646.8966796875,4692.9213786116825
1640,-40582.873828125,2372.3984015092947
1641,-44095.9255859375,3381.68177809043
1642,-42939.6873046875,3313.759109526101
1643,-32870.12783203125,5416.412904650546
1644,-34224.247265625,8153.168821858388
1645,-38329.63544921875,5053.6726052675285
1646,-40286.1990234375,3279.3217681470487
1647,-35380.723828125,4111.191269360211
1648,-39061.68564453125,2628.0332872217155
1649,-48285.7388671875,4674.669773837772
1650,-46646.1052734375,3480.8552394986423
1651,-36123.97548828125,3047.6260000196953
1652,-30687.15830078125,6895.7733201966785
1653,-41970.4263671875,3126.9917205464944
1654,-31244.41513671875,6069.455829138171
1655,-45182.946484375,3356.0488313959986
1656,-44093.64765625,3576.700999957407
1657,-33469.88720703125,4948.625400983141
1658,-45419.4041015625,3945.8216684500217
1659,-46115.121484375,4079.0816330035764
1660,-38030.33447265625,3365.6506774264494
1661,-46811.2716796875,3917.8055447404536
1662,-33304.8484375,4989.994670504833
1663,-37701.18134765625,3183.222813569143
1664,-44345.1671875,3657.7744256616415
1665,-34601.56767578125,4340.1424904693995
1666,-38925.040234375,3306.000070943237
1667,-29811.39287109375,7070.954310646833
1668,-34424.09619140625,4477.279923925497
1669,-48413.3498046875,4195.38287483228
1670,-44752.596484375,3683.7808763555545
1671,-42099.5353515625,5072.662911306286
1672,-46307.036328125,3642.7132542146214
1673,-37381.09443359375,4338.614977958762
1674,-39675.8537109375,4080.927086654986
1675,-42235.1576171875,3184.060087315906
1676,-37313.64150390625,4352.582672570838
1677,-39989.66552734375,6834.78673020769
1678,-42572.0240234375,3180.259684343505
1679,-42771.0119140625,3192.395593180117
1680,-30847.92783203125,6140.593158157886
1681,-44576.801953125,3948.5361316532667
1682,-41068.8013671875,3096.5857341708215
1683,-42017.1064453125,3512.7699303851177
1684,-36771.24677734375,3507.9087390730274
1685,-42220.4638671875,3438.6107511728887
1686,-48126.48828125,4069.753946195951
1687,-29398.02939453125,6483.897993000498
1688,-47829.6298828125,4454.000950516748
1689,-41010.466796875,3326.43172546038
1690,-32276.59609375,5992.149519236947
1691,-38241.93125,3245.1144162549294
1692,-41414.9125,4082.7700362828054
1693,-47350.07265625,3708.0448673758783
1694,-49065.5115234375,4160.445657694874
1695,-37993.03583984375,3168.671072899755
1696,-36823.3861328125,3737.028897582053
1697,-43924.3392578125,5389.981886716324
1698,-45782.5185546875,3461.7640224233946
1699,-38991.64609375,3154.129246465079
1700,-44452.50390625,3516.518612545054
1701,-46113.8287109375,4673.2671881482365
1702,-30501.33515625,6184.688432094394
1703,-39261.07939453125,3117.3582773917337
1704,-39026.06171875,3142.0854918293967
1705,-42174.7259765625,3179.010645115877
1706,-34616.25810546875,3582.0430524653734
1707,-32915.9375,3284.312178285045
1708,-48594.8599609375,4105.938316712701
1709,-37655.3703125,3825.10578211012
1710,-43766.670703125,3241.5980430544164
1711,-30687.19921875,5770.997120402471
1712,-38422.24833984375,4728.911965971872
1713,-36765.13955078125,3621.3261064307335
1714,-39728.585546875,3064.797376344121
1715,-38716.0708984375,4087.1418591916386
1716,-37186.67119140625,3392.73438790843
1717,-43766.400390625,3126.0780989395325
1718,-35650.959375,2945.9562674222634
1719,-43759.7017578125,3681.0233007853253
1720,-49009.1076171875,4438.846180857687
1721,-31549.97626953125,5105.006939789252
1722,-36421.0400390625,3566.05935214883
1723,-40284.2154296875,2960.9770257970745
1724,-40634.3466796875,2968.257197494314
1725,-33060.54775390625,4934.184788703552
1726,-42242.0759765625,3227.1792479026285
1727,-37082.1595703125,2642.8476280572204
1728,-45352.1779296875,6107.492229214256
1729,-40029.50400390625,3606.875322733209
1730,-41633.3201171875,3156.0024547198636
1731,-28966.531298828126,21305.354971567904
1732,-42218.24140625,16725.418040345714
1733,-40561.202734375,6545.353311748442
1734,-47117.36640625,3900.215784004259
1735,-49890.8119140625,4601.327879915135
1736,-30381.17353515625,6530.460071207804
1737,-44707.4263671875,3191.1549361085736
1738,-43768.498046875,3186.936639986631
1739,-42329.985546875,3298.8640978847584
1740,-46215.219921875,3663.6753406409575
1741,-37669.11201171875,3652.385197015845
1742,-47270.3896484375,6361.102251408642
1743,-34776.178515625,5205.207651129092
1744,-44464.8755859375,3332.7344016322745
1745,-31199.89453125,6551.444435071429
1746,-46094.36328125,3808.3467867293734
1747,-38337.2283203125,4212.801253160432
1748,-44487.6390625,3438.7325294300763
1749,-41892.532421875,3476.8279022574216
1750,-37926.82998046875,3761.794794477722
1751,-47162.126953125,4358.359873091397
1752,-44174.596875,3836.352661330005
1753,-42975.2,3398.0006647428386
1754,-41140.69296875,3320.7230460844958
1755,-44196.064453125,4224.149548784076
1756,-45903.33984375,4089.4371018508778
1757,-34149.3115234375,3858.447744477729
1758,-40730.27578125,3940.367314839843
1759,-33415.42265625,5550.113287292096
1760,-39973.880078125,2825.0830412078694
1761,-35125.838671875,5198.700576564005
1762,-35032.6529296875,4796.694812955549
1763,-43115.7888671875,3847.094589915781
1764,-37473.7529296875,3114.2139137621343
1765,-33848.44150390625,4903.961090870931
1766,-36281.68740234375,3733.7071737912283
1767,-37156.7349609375,4030.207925430251
1768,-41358.38203125,3541.3404294652487
1769,-37017.7458984375,3434.2261904301304
1770,-40131.6763671875,3111.5041960494764
1771,-36938.65263671875,3251.9530892195867
1772,-40081.471875,3572.6814890161027
1773,-44887.6845703125,3766.864748421127
1774,-37446.459765625,3242.0365274566243
1775,-36000.40830078125,3843.9021207889423
1776,-46702.0154296875,4514.765022544677
1777,-33994.97568359375,3620.9644184467898
1778,-39194.7423828125,3768.9756510035295
1779,-40350.363671875,3512.3247732731743
1780,-38670.68095703125,4296.152835765438
1781,-43830.8630859375,3957.820238165441
1782,-35082.58974609375,4415.579726752534
1783,-35459.93408203125,4756.514259507875
1784,-42693.6390625,4389.94939843881
1785,-41029.75859375,6597.330318414279
1786,-36778.95029296875,4247.968468806038
1787,-46779.4958984375,4129.511627662635
1788,-43519.967578125,4347.578349475315
1789,-44966.362109375,4335.444001885113
1790,-31454.8751953125,6771.711189055146
1791,-33706.3236328125,5876.3946733914245
1792,-30130.048828125,7626.777491963991
1793,-34189.8287109375,5546.174562458023
1794,-44863.8724609375,3981.892351790614
1795,-36715.58505859375,5357.686309196319
1796,-37139.35966796875,4477.841507729816
1797,-44733.2646484375,3878.220783308633
1798,-42842.08359375,3676.8790301854497
1799,-32230.67705078125,6089.596505680359
1800,-37888.33095703125,3765.37220798935
1801,-44518.7984375,3958.058296283259
1802,-38906.50546875,3795.3942852758187
1803,-39753.176171875,3530.359428792971
1804,-30089.80830078125,6937.137910490854
1805,-37472.1087890625,4297.787254398506
1806,-34733.61572265625,4784.5403992291385
1807,-44763.8052734375,4032.7155705777277
1808,-43526.2265625,3812.080868397208
1809,-32153.921484375,5922.400556046469
1810,-34726.27060546875,5260.485301439898
1811,-31994.13271484375,5563.442055705411
1812,-40478.525,3988.928382512438
1813,-42164.74765625,4027.22892796702
1814,-42063.29609375,3773.997509591069
1815,-43542.558203125,4177.0663389874435
1816,-40256.205078125,4094.115073895181
1817,-32336.20205078125,6206.299151768107
1818,-45802.913671875,4868.524956455601
1819,-32448.1298828125,6555.102029661246
1820,-46301.641015625,5038.677244931627
1821,-42163.4927734375,4054.414004459912
1822,-37380.54765625,3476.2496772503364
1823,-32553.0365234375,5887.15906560611
1824,-39306.396484375,3411.3028337379815
1825,-38586.17421875,3309.702667441288
1826,-39570.87734375,3528.730973314026
1827,-41428.7255859375,4121.874108476984
1828,-43379.8517578125,4238.957751556581
1829,-40220.3705078125,3224.712157960334
1830,-38253.84833984375,4005.788898019762
1831,-32011.0326171875,6953.325693679221
1832,-39088.52978515625,4823.088564378335
1833,-42876.9708984375,3698.978883543991
1834,-44955.441015625,4803.64751375846
1835,-39007.175,4314.987942953157
1836,-39247.99990234375,3532.2036322044837
1837,-42239.7037109375,3848.9672828069292
1838,-37329.72080078125,4480.426637958505
1839,-34449.6583984375,4492.0466292203855
1840,-44507.66640625,4560.518323920499
1841,-37431.4552734375,4200.575817409303
1842,-44459.02578125,4285.853227943177
1843,-35788.82021484375,4369.413237155078
1844,-33188.72255859375,5437.456810595059
1845,-42328.2451171875,3950.2786610190255
1846,-32628.60498046875,5864.341946696563
1847,-36496.41796875,4965.072792484965
1848,-37337.38466796875,4476.648257863813
1849,-44121.04140625,4401.503478097613
1850,-36873.31806640625,4304.2568780908805
1851,-34211.8244140625,5855.4628286685265
1852,-40944.5333984375,4273.4387111720025
1853,-44775.0255859375,4872.322751996925
1854,-45414.575,4898.200649149597
1855,-45202.8705078125,4881.031985703216
1856,-34293.41416015625,4910.113445665035
1857,-31666.8408203125,7449.294118520471
1858,-31964.208203125,6633.242365032315
1859,-37199.024609375,8514.767580902915
1860,-45990.6744140625,4909.0690093540725
1861,-40948.5267578125,3591.9698570988107
1862,-34587.449609375,5104.099486233929
1863,-41539.7294921875,3863.2788600591134
1864,-31583.00693359375,7266.603400366152
1865,-46223.7462890625,5150.209624221275
1866,-37382.66767578125,4510.712859386734
1867,-39783.0869140625,9041.834423046323
1868,-44101.0646484375,4328.999455308688
1869,-38134.94736328125,4540.017637115513
1870,-41367.8275390625,4170.7983940201675
1871,-41239.20078125,3970.0926691787386
1872,-35247.46484375,5097.958623415446
1873,-30888.99326171875,7541.535757212312
1874,-37754.05947265625,4410.12600073263
1875,-38490.351171875,4800.030168810275
1876,-42791.68515625,4232.172337925766
1877,-44020.5544921875,4144.923859865148
1878,-43237.7875,4140.933193104611
1879,-39099.1880859375,4394.073119983728
1880,-44078.4376953125,4252.39265078181
1881,-37345.3671875,4874.178485633233
1882,-32293.24365234375,6457.814565355307
1883,-29350.70107421875,8366.043257027583
1884,-40490.88828125,3765.923080899128
1885,-42277.871484375,3951.723252633605
1886,-39953.844921875,4138.6212757025705
1887,-36911.59794921875,5107.26624413422
1888,-41119.6326171875,4276.697166902882
1889,-35261.35205078125,6032.981305072098
1890,-35475.0435546875,5546.44849691514
1891,-40899.008984375,3673.943746746452
1892,-35020.9546875,3523.008289734353
1893,-40672.7205078125,4032.1266383807406
1894,-39658.9841796875,4186.868830557574
1895,-34065.2748046875,4888.948496648815
1896,-39505.8236328125,3986.3902208603085
1897,-41043.169140625,3572.3994126257357
1898,-38486.90390625,8094.676820953023
1899,-31774.1927734375,7744.715665499374
1900,-36274.44228515625,5541.7096541935525
1901,-37028.97109375,5128.804154998703
1902,-44223.264453125,4240.432725066653
1903,-33553.01376953125,7376.968650273956
1904,-36875.48173828125,5168.17988638438
1905,-44020.346875,4342.290067628998
1906,-35512.0953125,5058.734689228278
1907,-46471.5439453125,4766.931214108083
1908,-44888.3791015625,4515.414471338466
1909,-33328.7646484375,7060.686774692305
1910,-31330.30888671875,7629.789464688998
1911,-41342.318359375,4478.837978135056
1912,-41023.909375,4064.108299528336
1913,-40414.2720703125,4151.084920445129
1914,-40805.0666015625,4031.971178880589
1915,-35414.14931640625,4908.454550461693
1916,-34224.85986328125,5891.570399142673
1917,-31003.65947265625,6783.238100034716
1918,-44196.137890625,4572.813220068817
1919,-36219.99755859375,4776.487375935251
1920,-31392.909375,4735.253086907423
1921,-40001.798828125,3788.324817259671
1922,-30369.14345703125,7642.038257775051
1923,-44132.9447265625,4442.429236832414
1924,-39792.937109375,4081.5466682856672
1925,-43182.60859375,4244.610498138323
1926,-34718.1255859375,6135.458064777957
1927,-42260.6611328125,3982.7516840768544
1928,-44463.1396484375,4765.476513300349
1929,-37192.9900390625,4540.579843427748
1930,-30135.0521484375,7883.123827029641
1931,-40481.800390625,3814.3180861221285
1932,-45930.754296875,5315.101620738641
1933,-38427.94462890625,4767.375765438364
1934,-32815.4806640625,6416.015758715927
1935,-40164.0462890625,3999.3547436814097
1936,-43460.7669921875,4348.086049799426
1937,-41249.9689453125,4175.110729227969
1938,-38854.6435546875,4543.808234183819
1939,-38506.9365234375,4607.382467843797
1940,-36430.739453125,4407.669583855442
1941,-35380.97587890625,4775.9842737915915
1942,-32911.36767578125,6533.7032962835965
1943,-38185.16171875,3471.6318220250755
1944,-43433.370703125,3655.731807456166
1945,-40598.9880859375,3644.114858293729
1946,-32232.24013671875,6941.9937663352675
1947,-38813.6708984375,5320.971791232035
1948,-42738.2865234375,4265.229937282019
1949,-42502.567578125,4108.517940818293
1950,-33988.27734375,7423.860780697193
1951,-41166.83515625,3857.831835327512
1952,-43050.83359375,4227.639101497655
1953,-38265.4505859375,3073.5455172739635
1954,-40251.88984375,4216.794243096136
1955,-39127.90009765625,4131.892362034099
1956,-33264.25185546875,6214.109972708204
1957,-32939.16650390625,5884.429590469099
1958,-43627.9669921875,4512.700013070932
1959,-40080.9583984375,3583.596608874247
1960,-38992.2076171875,4723.306261444751
1961,-39091.0865234375,3630.526992452324
1962,-42702.0662109375,5107.011955556247
1963,-42236.59921875,4083.0558881939282
1964,-41709.7806640625,3742.894807447822
1965,-45013.862890625,4731.70542416191
1966,-47092.2125,5373.258479547165
1967,-36296.50146484375,6858.549803234615
1968,-46329.6216796875,4062.739450651321
1969,-45559.4599609375,3272.46103114972
1970,-45248.4263671875,4609.993446888646
1971,-42710.87109375,4261.734817819411
1972,-34798.18125,5117.766642224686
1973,-44659.180078125,4890.082801600526
1974,-45558.225390625,4245.40478856762
1975,-40151.6478515625,3523.820781250418
1976,-35722.780859375,3998.8617386667756
1977,-33749.97060546875,8069.048451467531
1978,-35788.059765625,7146.077723171626
1979,-39253.223046875,3849.860362687408
1980,-37812.66337890625,5717.747606385706
1981,-32045.89052734375,9566.139842082039
1982,-42162.3830078125,3827.679555652405
1983,-39655.9548828125,4291.111896397339
1984,-36882.4220703125,5057.761329509175
1985,-39779.00234375,4025.2104005975484
1986,-44921.235546875,4959.486519227219
1987,-45301.85625,4567.366637995969
1988,-44039.0802734375,3938.364786856586
1989,-39112.1771484375,4205.156161341613
1990,-42979.07890625,3988.158703125875
1991,-44486.369921875,3931.019327740274
1992,-41990.8900390625,3936.339664763742
1993,-42698.25546875,3860.558153021413
1994,-39572.2615234375,4049.448085867382
1995,-44714.5431640625,4031.117975894106
1996,-37633.58515625,3816.993934775958
1997,-41898.2505859375,4089.4746122715155
1998,-40409.6130859375,3674.482365517491
1999,-36736.45625,5504.167915544754
2000,-44796.8697265625,4942.683988129615
